Author,WE1,WE2,WE3,WE4,WE5,WE6,WE7,WE8,WE9,WE10,WE11,WE12,WE13,WE14,WE15,WE16,WE17,WE18,WE19,WE20,WE21,WE22,WE23,WE24,WE25,WE26,WE27,WE28,WE29,WE30,WE31,WE32,WE33,WE34,WE35,WE36,WE37,WE38,WE39,WE40,WE41,WE42,WE43,WE44,WE45,WE46,WE47,WE48,WE49,WE50,WE51,WE52,WE53,WE54,WE55,WE56,WE57,WE58,WE59,WE60,WE61,WE62,WE63,WE64,WE65,WE66,WE67,WE68,WE69,WE70,WE71,WE72,WE73,WE74,WE75,WE76,WE77,WE78,WE79,WE80,WE81,WE82,WE83,WE84,WE85,WE86,WE87,WE88,WE89,WE90,WE91,WE92,WE93,WE94,WE95,WE96,WE97,WE98,WE99,WE100,WE101,WE102,WE103,WE104,WE105,WE106,WE107,WE108,WE109,WE110,WE111,WE112,WE113,WE114,WE115,WE116,WE117,WE118,WE119,WE120,WE121,WE122,WE123,WE124,WE125,WE126,WE127,WE128,WE129,WE130,WE131,WE132,WE133,WE134,WE135,WE136,WE137,WE138,WE139,WE140,WE141,WE142,WE143,WE144,WE145,WE146,WE147,WE148,WE149,WE150,WE151,WE152,WE153,WE154,WE155,WE156,WE157,WE158,WE159,WE160,WE161,WE162,WE163,WE164,WE165,WE166,WE167,WE168,WE169,WE170,WE171,WE172,WE173,WE174,WE175,WE176,WE177,WE178,WE179,WE180,WE181,WE182,WE183,WE184,WE185,WE186,WE187,WE188,WE189,WE190,WE191,WE192,WE193,WE194,WE195,WE196,WE197,WE198,WE199,WE200,WE201,WE202,WE203,WE204,WE205,WE206,WE207,WE208,WE209,WE210,WE211,WE212,WE213,WE214,WE215,WE216,WE217,WE218,WE219,WE220,WE221,WE222,WE223,WE224,WE225,WE226,WE227,WE228,WE229,WE230,WE231,WE232,WE233,WE234,WE235,WE236,WE237,WE238,WE239,WE240,WE241,WE242,WE243,WE244,WE245,WE246,WE247,WE248,WE249,WE250,WE251,WE252,WE253,WE254,WE255,WE256,WE257,WE258,WE259,WE260,WE261,WE262,WE263,WE264,WE265,WE266,WE267,WE268,WE269,WE270,WE271,WE272,WE273,WE274,WE275,WE276,WE277,WE278,WE279,WE280,WE281,WE282,WE283,WE284,WE285,WE286,WE287,WE288,WE289,WE290,WE291,WE292,WE293,WE294,WE295,WE296,WE297,WE298,WE299,WE300
Sc1_A,-0.7531889,0.6224656,-1.8313016,0.25413814,4.2545195,0.7446103,0.49835014,4.3446684,-1.4485672,-1.6943507,6.277422,1.9705074,-4.5043216,2.3630145,0.28973955,2.0631807,1.8964324,-0.5694395,-2.7625005,-3.0078166,1.9054414,-0.10485478,-1.7881352,-1.0325096,-1.275696,-1.9971757,-1.9016858,-0.956203,-0.33613983,1.9440621,1.226599,-0.80567175,-0.8712465,-1.9838499,-1.9869702,-1.1655763,0.27553716,1.3376247,1.5020883,0.96616715,1.3367708,0.9023664,-0.5983902,0.15403631,-2.6870813,2.3219512,1.2721874,-2.1543024,-0.15689586,0.9786752,-0.8607005,1.7296265,0.06994684,-5.347325,-0.6624929,0.77939075,-1.2036979,1.8101661,1.4191201,-1.173533,1.3690629,-0.105605036,-0.12771444,-1.4391856,3.3102977,2.503143,-2.7721357,-4.1766324,0.8249843,1.9601872,-0.57028776,-0.80352306,-1.9943078,-0.015788244,-0.77535975,1.5445427,-3.6855438,1.7216986,-3.0580418,-0.400426,-4.709146,-0.8300955,1.0354233,1.7753165,2.2967021,-0.5282278,-2.3432028,-3.174504,1.0752598,-0.5222806,-1.4748254,0.8148506,1.4936247,-3.952953,-0.3729505,-1.4653538,0.8664725,-1.3921386,1.0241834,2.4367232,3.6584134,1.5209477,2.0934715,2.3967888,-0.68656063,4.7107635,0.6244531,-3.0837507,0.00951362,-3.0488868,2.3820832,0.73905337,-2.4516497,0.4280673,1.2868655,1.4762832,-1.1767167,-0.935028,0.11423134,-2.0494425,-3.0607688,-2.5016918,0.38867953,0.48497614,-0.5395657,-3.4546804,0.50513124,-3.5347447,2.9183207,-1.404755,-2.5171177,0.043545045,3.5523636,0.18849356,-0.20528956,-0.037720483,-2.9688814,-1.1613672,2.593404,-1.3183643,-1.1333835,-1.3190022,-0.3536659,0.7145227,1.463339,0.17376344,-3.3456244,-0.1864303,1.1509916,2.5000317,-0.14155498,2.0627158,0.37755036,1.0224168,-1.5573121,1.1537324,3.1590896,0.024366861,-2.3703191,-1.826727,-0.9298094,-1.477367,-0.26429045,2.6900039,-2.792075,-1.7990377,-3.6842923,0.97118026,-0.10642397,-0.8113364,-0.034950197,-0.17270243,2.2605367,0.5610277,1.9888206,0.78556126,-0.003800775,0.11802098,-2.7304008,-2.1649752,-1.6520702,0.38408503,1.802531,-1.7546407,-1.6176648,0.58419,-1.8790845,-0.7271409,0.80499226,2.1194324,-0.6697238,-1.650726,-0.053567734,-2.216786,-0.06641357,1.7728256,-3.11055,-0.09516466,0.10153975,-0.5331122,-1.1930321,-1.9035558,-0.23922731,-1.5304184,3.681822,1.0516344,-4.7564254,1.5458268,0.49184963,-0.600992,1.7089331,0.7159371,-1.1359938,1.7969356,0.45140603,3.3068159,0.9089114,-4.0107055,-0.79915655,0.24633394,-2.0446997,2.564672,-0.69378585,0.19470923,-1.206636,-1.7079879,0.5089153,2.1993065,2.0800965,-0.027712226,2.5347047,-2.215252,-0.8822535,2.0005,3.4055026,1.8776842,-1.3077145,-0.21334785,0.47518128,-0.15778609,-2.3333447,-0.7034572,0.5033407,-0.019092262,-1.1964403,2.0031505,-2.9907312,1.2697232,-0.18745446,2.1018121,0.29909748,-1.4896269,-4.5428686,-0.9535541,0.7524244,-2.89225,2.0870683,-1.0939006,-0.117255226,1.494928,-1.236827,5.075729,3.5349512,2.616826,2.1690876,-0.342146,-0.36924484,1.7430737,-1.6373485,-0.13120863,0.75657874,-0.66557074,1.1106207,-1.5559435,1.0397482,-1.3706089,2.2060049,-2.0906718,-1.5403986,1.437995,2.2964826,0.942671,1.5568918,0.48669466,1.7970692,-0.4636279,-0.37843037,2.1945941,-1.1230513,0.14572428,0.32455292,-0.85517067,-0.81491363,-0.52444637,-0.44149688,0.5034651,0.26556098,-1.9729542,-2.304044,2.0390444
Sc1_A,-0.5973566,0.4805815,-1.9758,0.34815234,4.250093,0.5250976,0.45114937,4.181466,-1.5613537,-1.6858944,6.326359,1.923787,-4.5007353,2.3164742,0.24488752,2.0446942,1.9733428,-0.5620475,-2.7471583,-2.8890905,1.6013482,-0.14845194,-1.788151,-1.1850102,-1.307674,-1.8796552,-1.6678272,-0.9321723,-0.15648614,1.8006561,1.2101948,-0.6418131,-0.9222446,-1.7543352,-1.592977,-1.0527062,0.4048239,1.343927,1.5862522,1.1147525,1.285998,0.65728045,-0.61005574,0.13931508,-2.6193259,2.576572,1.4454129,-2.3441029,-0.13702567,0.9802193,-0.7435105,1.804626,0.1810158,-5.286216,-0.47739044,0.9074196,-1.2044883,1.7252071,1.3203243,-1.2779374,1.5494958,-0.09470284,-0.06689835,-1.6614721,3.328869,2.519237,-2.7833955,-4.3256626,0.78378576,1.9628886,-0.3785223,-0.68322253,-2.0127232,0.006476721,-0.8335469,1.6564568,-3.7215357,1.4466609,-2.8685503,-0.39060062,-4.744337,-0.7830365,0.8703203,1.730748,1.9405973,-0.41629463,-2.5178082,-3.19948,1.2671436,-0.5281121,-1.4091221,0.7965264,1.379389,-3.9710147,-0.45375615,-1.6360605,0.7414246,-1.6305832,0.8382328,2.2127666,3.7898567,1.601729,1.9103135,2.6135292,-0.54369867,4.7411256,0.49503478,-3.1317432,0.2513023,-3.0987422,2.5141945,0.6321753,-2.3259985,0.33305216,1.3957528,1.3680607,-1.29527,-0.88669294,0.08263353,-2.005287,-3.2410083,-2.3635113,0.4908688,0.48041922,-0.569271,-3.6821663,0.7086473,-3.5349596,3.050437,-1.4501992,-2.5698466,0.16519822,3.6023314,0.18547772,-0.09265974,0.02938463,-3.0334494,-1.2612274,2.7208228,-1.4405153,-1.1077025,-1.3952087,-0.3270634,0.83141726,1.3799467,-0.014550038,-3.342925,-0.2157406,1.2112323,2.5649488,-0.12111726,1.9208342,0.38678285,1.1632826,-1.4480078,1.1680015,3.170965,0.06245499,-2.167625,-2.067512,-0.8533878,-1.4872576,-0.13274781,2.885811,-2.743585,-1.8823639,-3.6980455,0.9329321,-0.12812096,-0.937218,0.028899916,-0.3023184,2.5459962,0.42710647,2.3088644,0.6976087,0.119136736,0.15789138,-2.6234417,-2.191565,-1.6746176,0.2762125,1.9214754,-1.8435841,-1.647598,0.63211334,-1.7409203,-0.88674474,0.7517732,2.1092813,-0.70675004,-1.6111658,-0.1257236,-2.072215,-0.026093736,1.4657604,-3.182736,-0.09404137,0.368228,-0.7472156,-1.1850784,-1.7643608,-0.18445499,-1.4154061,3.6903045,0.9646474,-4.8435855,1.4245827,0.25300893,-0.8505435,1.8399547,0.6509735,-1.089671,1.7544551,0.26013595,3.253831,0.9023902,-4.0409493,-0.74630326,0.42335472,-2.0015728,2.4190812,-0.6933292,0.1587525,-0.84174925,-1.5005459,0.47170696,1.7866975,1.9978122,-0.083333135,2.3134966,-2.477565,-0.9107244,2.1034334,3.3067443,1.7838063,-1.2765247,-0.08136956,0.54039913,-0.06256543,-2.2177296,-0.7907574,0.5938506,-0.18290514,-1.0404885,1.8769255,-3.1843958,1.4390881,-0.16366553,2.049607,0.37353498,-1.4636701,-4.27676,-1.1205604,0.9720195,-3.1043675,2.1795561,-1.0156316,0.052638303,1.4309138,-1.460885,5.001965,3.4143693,2.398847,2.2608228,-0.36024982,-0.49011505,1.6712669,-1.668673,-0.26028383,0.76561147,-0.575342,0.9998222,-1.5141757,0.9439542,-1.4959524,2.2548707,-2.1525586,-1.5066761,1.371388,2.3394182,0.7959513,1.5366685,0.4188143,1.7432909,-0.5514364,-0.4277555,2.1834357,-1.3091543,-0.09145613,0.15961754,-0.79541874,-0.48191193,-0.7817758,-0.49414814,0.44841963,0.20824228,-2.0482929,-2.1908715,2.196331
Sc1_A,-0.8884143,0.49491116,-1.5472091,0.2827342,4.5147653,0.62620085,0.6432812,4.114325,-1.388369,-1.7862704,6.4121904,1.939374,-4.454015,2.3431063,0.22935218,1.9491162,2.094066,-0.4054039,-2.7251,-2.7810812,1.6882502,-0.18100242,-1.5816938,-0.9378104,-1.102636,-2.0514467,-1.6538538,-0.92766726,-0.2876912,1.977218,1.068782,-0.9577069,-0.64833635,-1.8770059,-1.9480245,-1.1559683,0.33822748,1.3089199,1.4919418,0.9247636,1.1147528,0.67562145,-0.898434,0.034002796,-2.6430726,2.249312,1.2744644,-2.0149605,-0.08803142,0.8204329,-0.983119,1.7809957,0.2257797,-5.213903,-0.6245007,0.77563924,-1.0739186,1.8893775,1.2079818,-1.3455147,1.6504917,-0.062630646,0.027691007,-1.520982,3.0945067,2.524273,-2.817349,-4.431223,0.9103119,2.021961,-0.5454442,-0.601232,-2.0762594,-0.15676022,-0.91256183,1.4395684,-3.681434,1.8782572,-3.232086,-0.40029624,-4.697134,-0.75470287,0.9550693,1.9268103,2.0921996,-0.35134047,-2.4143555,-3.3726656,1.147093,-0.4567626,-1.5042841,0.76103324,1.6133653,-3.9438272,-0.39602032,-1.6037425,1.0001317,-1.3511481,0.9366711,2.330913,3.7121718,1.607597,2.1791139,2.6425376,-0.6480089,4.6548953,1.0236857,-3.1312299,0.13335434,-2.8312135,2.4382608,0.88675475,-2.650492,0.6274612,1.3364486,1.2378671,-1.0076932,-0.7608681,0.0662413,-2.0075662,-3.1265697,-2.4748304,0.81497246,0.6304757,-0.4824172,-3.5319495,0.58874714,-3.5294054,2.8744302,-1.5042208,-2.5895627,0.0366321,3.5146885,0.2482773,-0.28916523,0.053297527,-2.7548435,-1.2696655,2.4586523,-1.4550401,-1.1294526,-1.2017342,-0.4347522,0.8223549,1.5230657,0.21564361,-3.440089,-0.07220722,1.070805,2.5162742,-0.31662524,2.2315803,0.21032912,1.052605,-1.5145248,1.2212151,3.1061995,0.047599476,-2.2506905,-1.7662504,-0.7884689,-1.3814377,-0.13217594,2.8302522,-2.686992,-1.8356718,-3.5843582,0.87334466,0.18781428,-0.87752,-0.16341366,-0.35551867,2.4158685,0.37858084,2.2583845,0.7174711,0.1432776,0.14285272,-2.6989813,-2.0694191,-1.7129761,0.3512202,1.7675096,-1.8527501,-1.5441225,0.38666177,-2.0406308,-0.65227175,0.7195421,2.0986228,-0.7339446,-1.7212261,0.15221538,-2.2035406,0.06046938,1.6622156,-3.1680763,-0.17551655,0.17709707,-0.62323093,-1.1496615,-1.8617055,-0.4525336,-1.6053884,3.6270437,1.1290376,-4.8504004,1.6562221,0.5370253,-0.7273234,1.7512652,0.8481108,-1.4352286,1.6148093,0.5654739,3.2194757,0.75917315,-3.9078867,-0.803306,0.23642214,-2.0605757,2.6937497,-0.736738,0.17624854,-1.1235074,-1.4522277,0.6095004,2.2316215,1.9510704,-0.257709,2.4740558,-2.3950944,-1.091385,2.060833,3.2469413,1.8938203,-1.3611981,-0.10729929,0.47901097,-0.038741346,-2.0099483,-0.7019379,0.4753162,-0.060688876,-1.14448,1.9433777,-3.199737,0.978617,-0.25660643,2.0570903,0.62357044,-1.5617796,-4.484675,-1.1854963,0.8530159,-2.9353971,2.3352003,-0.9925955,-0.11496932,1.210399,-1.2782812,5.1926413,3.5678582,2.4242609,2.135806,-0.29555482,-0.4626271,1.608647,-1.6882889,-0.15977204,0.6358782,-0.66047204,1.0515414,-1.5743378,1.0160104,-1.4547585,2.4558296,-1.9633582,-1.5169449,1.6400896,2.0977302,0.7881801,1.4948195,0.72263926,1.7817432,-0.7325733,-0.35907075,2.181723,-0.9811191,-0.022973713,0.22011772,-0.5566243,-0.6121553,-0.36798027,-0.4781331,0.49328172,0.085403204,-1.9058375,-2.188771,1.8679178
Sc1_A,-1.0258508,0.33056587,-1.8472707,0.2962154,4.259567,0.5680773,0.43618724,3.8928413,-1.5462161,-1.6402379,6.1057243,1.9030123,-4.452305,2.3757987,0.15729411,1.8871299,1.7811415,-0.2508057,-2.6949654,-3.089016,1.5118544,-0.24255809,-1.8405753,-0.9597845,-1.1493653,-1.9549987,-1.5631256,-0.88841367,-0.20301715,1.6056029,1.0055624,-0.9081373,-0.65031385,-1.696676,-1.8019621,-0.9230868,0.43997142,1.3584826,1.2854238,0.80607444,1.3899429,0.62307674,-0.86249727,0.19682035,-2.5457227,2.1735737,1.2300225,-2.1940494,0.05247563,0.7659041,-0.81241226,1.6925892,0.24627475,-5.037542,-0.6530704,0.9190738,-1.2102422,1.5485895,1.1483643,-1.1661559,1.6596752,-0.08710296,-0.14617112,-1.2055793,3.3390183,2.275111,-2.5999658,-4.093869,0.69487983,1.8752863,-0.5541337,-0.79784495,-1.8754069,-0.06694034,-0.7802136,1.5579132,-3.3627326,1.6020126,-2.8378947,-0.29932564,-4.4693956,-0.76922184,0.72613525,1.6303073,1.7307456,-0.5660205,-2.314647,-3.043077,1.1046284,-0.4820287,-1.3926682,0.72427833,1.2895769,-3.818536,-0.41337436,-1.5397884,0.76476103,-1.6196651,0.77021855,2.3058586,3.6477427,1.3298588,1.8794338,2.5729191,-0.34288308,4.563902,0.54181355,-3.0441887,0.27020538,-3.0103452,2.455858,0.75710696,-2.1744657,0.3177379,1.1173351,1.2148741,-1.1002139,-0.9657799,0.26238447,-2.3191502,-2.9627564,-2.394602,0.6449947,0.45651898,-0.38707766,-3.3954892,0.4844685,-3.5645983,2.8843265,-1.3451539,-2.6291068,0.15548524,3.4089534,0.061497636,-0.2510384,-0.33513844,-2.7948196,-1.1600704,2.4677773,-1.1595205,-0.94004345,-1.1751338,-0.5101286,0.4915677,1.3708339,0.10785981,-3.1656163,-0.24760462,1.1303767,2.3474617,-0.18261713,2.0058427,0.3051202,0.97246444,-1.4185388,1.1771754,2.9977133,0.12412549,-2.0536964,-1.6997126,-0.83916736,-1.3130397,0.10938574,2.7352426,-2.6337247,-1.7473418,-3.6535037,0.9623948,0.011250823,-0.82006127,-0.21764387,-0.37718773,2.1456869,0.57339853,2.0763273,0.90250975,0.116801545,0.076283045,-2.7533875,-2.0287066,-1.6414338,0.34241813,1.7383811,-1.9357533,-1.6227651,0.6530388,-1.8269705,-0.6707558,0.52109915,1.8748454,-0.8467174,-1.7808151,0.004824077,-2.028867,0.014815843,1.60146,-3.3133218,-0.33383122,0.3221437,-0.9268153,-1.2039917,-1.738941,-0.07264409,-1.1436656,3.4105704,0.80129236,-4.7752557,1.6727778,0.41308194,-0.5682763,1.6720139,0.54799837,-1.1263394,1.6883429,0.61074996,3.170108,0.69807005,-4.0777264,-0.71226084,0.31816515,-1.9110312,2.4138486,-0.7251058,0.15713462,-1.0092534,-1.5237423,0.543977,2.0057523,1.866609,-0.2545769,2.2580068,-2.3058515,-0.93219155,1.8041453,3.2901049,1.7227824,-1.1770833,-0.11034439,0.60324013,0.087123126,-2.0380442,-0.87809217,0.3466873,-0.18598235,-0.99325085,1.7169713,-2.9427629,1.1280941,-0.2145818,2.0903482,0.3258376,-1.525903,-4.0723886,-0.85454637,0.88439745,-2.7738802,2.1452336,-1.1476805,0.06317599,1.2937897,-1.3827987,4.9408,3.1592462,2.23773,2.143332,-0.18068238,-0.34245512,1.5028615,-1.5978895,-0.41250378,0.9093491,-0.6627641,0.9849984,-1.2708113,0.8172535,-1.3713661,2.0812469,-1.8205951,-1.3628007,1.3425132,2.2945943,0.87200046,1.3024191,0.67458963,1.5396005,-0.5574025,-0.673397,2.3111274,-1.2657441,0.15190011,0.15345435,-0.8408763,-0.7094497,-0.50619924,-0.41659704,0.41581407,0.048090562,-2.0735788,-2.1656134,2.040994
Sc1_A,-0.93928814,0.20097674,-1.8235296,0.2316431,4.263372,0.40751112,0.56406176,4.0677724,-1.609422,-1.6584517,6.2917657,2.099403,-4.5090013,2.441316,0.39554867,2.0775917,2.1341069,-0.17131081,-2.8078086,-3.00091,1.7971327,-0.16067083,-1.6753694,-1.1714435,-1.4543325,-2.0371048,-1.6549815,-1.2280674,-0.18148547,1.6493812,1.1497577,-0.9917485,-0.60339695,-1.5594867,-1.7582707,-1.1057088,0.64322525,1.3842087,1.4817852,0.9037815,1.2395552,0.4893306,-1.035137,0.048603002,-2.523053,2.430377,1.2804718,-2.348743,-0.26723412,0.77238685,-0.8345478,1.7902714,0.26283735,-5.279164,-0.50475764,0.8047917,-1.1990702,1.851274,1.0873117,-1.2736568,1.7359601,0.056140866,-0.06266191,-1.3206986,3.4056766,2.4545329,-2.75789,-4.26444,0.90806204,1.9274164,-0.5618663,-0.62773556,-2.0268607,0.084238686,-0.759684,1.393295,-3.7268753,1.5618658,-2.821016,-0.4195987,-4.647905,-0.9178787,0.7531505,1.7640027,2.109098,-0.4855133,-2.206504,-3.1130755,1.0285801,-0.49923685,-1.4545728,0.6342599,1.4410857,-4.0331745,-0.48592216,-1.6415666,0.9664412,-1.4455404,0.9615689,2.2681482,3.6478436,1.3447287,1.9743197,2.6067429,-0.5190452,4.6368732,0.5246451,-3.1699488,0.22494018,-2.8395915,2.447959,0.67736816,-2.2925575,0.3974144,1.4394069,1.2947656,-1.2826332,-0.8993764,-0.043735214,-2.2043412,-3.3750641,-2.4804852,0.62805855,0.5133683,-0.5895368,-3.5409567,0.42439866,-3.650763,2.9471219,-1.5857303,-2.7649536,0.3944701,3.6090736,0.11781728,-0.40397447,-0.05959837,-2.7700186,-1.5739418,2.5318015,-1.2976367,-1.0120257,-1.1872579,-0.51195955,0.5550593,1.5689316,-0.003946129,-3.217973,-0.2922418,1.3701546,2.6101325,0.09976006,1.9527909,0.26597902,1.0418042,-1.5195571,1.3014005,3.092129,0.014293594,-2.2724562,-1.8159707,-0.79982936,-1.4281012,0.06704443,2.699403,-2.646495,-1.8098882,-3.6724784,1.0322347,-0.109818146,-0.70760083,-0.083315544,-0.4017362,2.3092616,0.4531605,2.224522,0.8622828,0.24648125,0.06893084,-2.7918718,-2.0271108,-1.7331405,0.3216206,1.7485069,-1.806427,-1.6428663,0.59319013,-1.7963388,-0.6927531,0.7479414,1.9079623,-0.871946,-1.6048385,0.09761479,-1.8614317,0.18622969,1.6471723,-3.3100328,-0.18514822,0.5010385,-0.8189187,-1.2533047,-1.8493699,-0.028242406,-1.3155268,3.5242767,1.0929524,-5.1203427,1.6470993,0.32346967,-0.65414894,1.6267188,0.7401345,-1.195044,1.7371378,0.3971274,3.120183,0.95497155,-4.156592,-0.7650521,0.38432074,-1.8831836,2.3591259,-0.8912533,0.24504401,-0.8860074,-1.5614022,0.7813289,2.185964,1.964256,-0.3305757,2.4916546,-2.619739,-1.0753506,1.9246073,3.388131,1.4022312,-1.3490121,-0.19352184,0.60950625,0.08107605,-2.1959124,-0.69603914,0.53142047,-0.15044843,-0.90937674,1.6199341,-3.0436754,1.2708608,-0.25716883,2.0958385,0.44335628,-1.558422,-4.3763533,-1.2472523,0.7981039,-2.9679048,1.985761,-1.0584676,-0.1080525,1.2720138,-1.3829637,4.912972,3.5499473,2.3345118,2.1004663,-0.2702126,-0.46322557,1.6667747,-1.7173399,-0.2729305,0.9783287,-0.8131663,1.0663627,-1.367939,0.97083634,-1.4598826,2.1600192,-1.8593284,-1.4422083,1.3857206,2.2962646,0.76379114,1.6681416,0.592365,1.7891867,-0.64892215,-0.47163314,2.3147447,-1.2955967,0.2430272,0.2764225,-0.8343003,-0.4972325,-0.6458733,-0.6516184,0.34731996,0.14408699,-2.1817803,-2.0787823,1.9752117
Sc1_A,-0.91306,0.2417449,-1.7776631,0.34708515,4.37599,0.5998669,0.34380278,4.1767693,-1.5345814,-1.6375133,6.3083344,2.0663564,-4.497931,2.3534896,0.5139502,1.9964168,1.9345272,-0.38949242,-2.8829374,-2.8361568,1.766436,-0.14206403,-1.8532351,-1.0932282,-1.4272804,-1.911467,-1.6787248,-1.0557889,-0.12138062,1.7973812,1.1350105,-0.9879637,-0.92750436,-1.8381358,-1.8068677,-1.1635902,0.32904917,1.2319924,1.5177436,0.9652002,1.4451236,0.5395547,-0.8356647,0.16548163,-2.4767947,2.4203565,1.2215015,-2.2097795,-0.16976325,0.83189523,-0.8646391,1.8367616,0.34340703,-5.26464,-0.49188808,0.8936455,-1.2963942,1.9031646,1.2687949,-1.3572154,1.5627682,0.099289544,-0.04654161,-1.4269742,3.3700354,2.4471648,-2.757077,-4.334283,0.8429558,1.9586406,-0.55299807,-0.79220223,-1.9444762,0.0822764,-0.70652884,1.4149212,-3.6965075,1.6148511,-2.8069787,-0.45502278,-4.616166,-0.832221,0.8248459,1.8715138,2.2195117,-0.4717969,-2.3632383,-3.2831445,1.0699495,-0.4271517,-1.4642962,0.8933918,1.4876462,-3.781228,-0.5249422,-1.5387425,0.7476129,-1.5336833,1.0127324,2.3692443,3.6118357,1.5753895,1.9078518,2.5107071,-0.5905188,4.7858577,0.601431,-3.119986,0.1853508,-2.9683738,2.5920055,0.72297025,-2.4245722,0.35152057,1.3402622,1.3473784,-1.2081699,-0.7304211,-0.06515273,-2.2189572,-3.318666,-2.3550284,0.5187172,0.5267877,-0.709367,-3.6431205,0.47922608,-3.552948,3.0342283,-1.5260333,-2.7000754,0.17306264,3.6448045,0.14953445,-0.17053996,0.005179791,-3.0496237,-1.1953412,2.530677,-1.3849304,-1.0033531,-1.185972,-0.5468615,0.8199912,1.3578898,-0.1045959,-3.3196516,-0.26103848,1.3466153,2.6176915,0.09025956,1.9857349,0.17835845,0.9850287,-1.4987655,1.2512298,2.9336822,0.101383686,-2.2877786,-1.8953164,-0.8863277,-1.4794339,-0.22756572,2.7438102,-2.651375,-1.8175892,-3.576721,1.022415,-0.08984514,-0.72523195,-0.11675865,-0.36520207,2.5058556,0.38804263,2.3987913,0.8264755,0.22209445,0.14623791,-2.7411125,-2.157635,-1.6451625,0.2470673,1.7462684,-1.8854333,-1.6280705,0.6293061,-1.7796109,-0.87973046,0.6102095,2.0431309,-0.7602812,-1.6210628,0.08358802,-1.9330928,0.11670602,1.7015471,-3.2799978,-0.1457032,0.42598706,-0.5844339,-1.2113432,-1.8961087,-0.11347049,-1.4720811,3.6771407,1.0420245,-4.9216805,1.4522926,0.28918108,-0.68261963,1.6675487,0.6492736,-1.068994,1.7861081,0.32599437,3.1164522,0.8640547,-4.139174,-0.7502784,0.50502163,-1.8332734,2.594228,-0.75705284,0.3266531,-0.9795324,-1.5088893,0.6404481,2.0632782,2.1706302,-0.21730614,2.2787983,-2.4305718,-0.92472154,1.9467423,3.3823988,1.6722214,-1.2280201,0.034516685,0.53040665,-0.052291695,-2.295317,-0.77588725,0.36694205,-0.081916176,-1.086401,1.9976826,-3.1453485,1.365968,-0.23441139,2.2119124,0.44102737,-1.4018016,-4.3352513,-1.0126948,0.79517156,-2.9545023,2.2089698,-1.1047866,-0.06421005,1.4638817,-1.2558341,4.9257283,3.4843721,2.3496168,2.1973917,-0.28753585,-0.39306757,1.7393569,-1.7100769,-0.23719367,0.8385368,-0.6908181,1.1341667,-1.4246563,0.9167891,-1.5201932,2.2662182,-2.0304909,-1.4351975,1.4621018,2.4853349,0.9164432,1.7402183,0.5658356,1.5290978,-0.64983135,-0.38035357,2.1871984,-1.1804053,0.12053549,0.21622802,-0.81629014,-0.52491444,-0.729562,-0.4366397,0.3815398,0.021230884,-2.1528242,-2.046885,1.9565308
Sc1_A,-0.9596024,0.33886507,-2.0769625,0.31356904,4.0921144,0.5514153,0.48358673,4.132088,-1.5604931,-1.590912,6.240305,2.1001785,-4.6541853,2.3687618,0.32633832,2.0756269,1.9906391,-0.51675767,-2.7382584,-2.9681256,1.8783752,-0.08412658,-1.4681671,-1.3608003,-1.2217093,-1.9799982,-1.7608091,-1.2121632,-0.20228852,1.8300378,1.0945162,-0.91124034,-0.7058827,-2.1164412,-1.637525,-1.342072,0.48816982,1.3150907,1.4235071,1.0696363,1.4162042,0.4765787,-0.57029694,0.043863185,-2.6602058,2.3843133,1.3909978,-2.1195989,-0.099502556,1.0481143,-0.71823394,1.933834,-0.11054944,-5.2517014,-0.68419063,0.7830333,-1.2187583,1.715594,1.3020682,-1.2796974,1.6317158,0.06483603,-0.11208896,-1.5543697,3.1709921,2.461011,-2.8454907,-4.2024302,0.9207331,1.8865137,-0.40716523,-0.75661594,-1.9730082,0.046739157,-0.8946835,1.478645,-3.6768234,1.498792,-2.8600523,-0.367089,-4.50495,-1.0851822,0.84058934,1.8018281,2.0856645,-0.44791025,-2.2789335,-3.3039286,1.1067051,-0.46005106,-1.4002177,0.71097124,1.3095803,-3.8139255,-0.25436264,-1.4738623,1.0356617,-1.2965498,1.0185542,2.272462,3.5917013,1.2605622,2.0270724,2.5518043,-0.62397176,4.669407,0.6019691,-3.132424,0.017490633,-3.0413725,2.3258939,0.7574631,-2.271054,0.26030862,1.2873445,1.5700043,-1.07512,-1.1864475,0.09999037,-2.0447857,-3.2826493,-2.4026859,0.6863566,0.6130435,-0.65362793,-3.4802423,0.45232448,-3.4876325,3.1199248,-1.4757811,-2.758494,0.122025646,3.769553,0.18498752,-0.22904176,0.016874328,-3.021673,-1.3083508,2.5333052,-1.1579597,-1.0211948,-1.3610382,-0.5844212,0.69336176,1.5598903,0.06767459,-3.5037994,-0.073616266,1.2694417,2.4703174,-0.32596144,2.0880656,0.445705,0.93981063,-1.4919174,1.1875303,3.0809367,-0.0803472,-2.134675,-1.8054216,-0.83596236,-1.4980271,-0.19456472,2.6383634,-2.6581655,-1.7964431,-3.7245095,1.1408322,0.07176819,-0.80227,-0.21229379,-0.34634852,2.3126516,0.34356436,1.9525579,0.816998,0.06620136,0.07947681,-2.6501899,-2.190897,-1.7406152,0.45274258,1.8788043,-1.6798807,-1.5624297,0.76580894,-1.7272424,-0.8173642,0.7512955,1.9943327,-0.55564076,-1.5612857,-0.08602167,-2.0476928,0.003507475,1.6291692,-3.121667,-0.16478117,0.26831675,-0.6689296,-0.9827068,-1.9439973,-0.049331628,-1.3995521,3.5548735,0.9211495,-4.9874053,1.6075937,0.3691184,-0.72810864,1.7069626,0.7759151,-1.2181015,1.5833794,0.39443457,3.0011945,0.85918456,-4.2784395,-0.8824059,0.4024073,-2.0577102,2.4758024,-0.7728409,0.01788593,-0.9599482,-1.6562744,0.589047,2.2625856,2.054124,-0.15658113,2.4922707,-2.3589149,-0.9572024,2.004216,3.419761,1.6052891,-1.4750112,-0.06390368,0.6733933,-0.15202881,-2.0592568,-0.8464892,0.45402548,-0.2918829,-1.2188146,1.8212396,-3.1932147,1.3447422,-0.10116508,2.2233315,0.34837568,-1.380648,-4.392676,-1.0867401,0.8850333,-3.0369728,1.9674008,-0.82207286,0.032191094,1.470104,-1.0790597,5.099713,3.4668365,2.481897,2.2079048,-0.27588925,-0.47158158,1.6954215,-1.6556395,-0.23252727,0.88939697,-0.7838276,1.0507176,-1.3346407,1.0461195,-1.3849463,2.1960335,-2.0804713,-1.3892983,1.3683759,2.4341207,0.91795343,1.6524588,0.5449712,1.694706,-0.6385767,-0.5107135,2.197223,-1.1562433,-0.037985146,0.12944792,-0.8543046,-0.6048769,-0.5010113,-0.5619202,0.40048257,0.20548095,-1.8428122,-2.2377684,1.9493922
Sc1_A,-0.8485571,0.27378666,-1.8285446,0.38617784,4.3254123,0.5872074,0.34314725,4.1704974,-1.6758262,-1.7438296,6.4075513,2.087166,-4.546515,2.3778162,0.39650038,1.9363285,2.008792,-0.45500106,-2.9253335,-2.9337118,1.833099,-0.31275406,-1.7311559,-1.2312053,-1.4422399,-2.0794766,-1.7554219,-1.1139433,-0.19500452,1.6043468,0.9177857,-0.93727106,-0.94792306,-1.7194302,-1.7614765,-1.0614649,0.21481128,1.2056515,1.4827361,0.9460418,1.4428122,0.45095924,-0.9981458,0.12442346,-2.5281384,2.3285487,1.5285589,-2.2418249,-0.3034741,0.9999166,-0.8214628,1.7941734,0.30262887,-5.41,-0.5939257,0.7609964,-1.3259214,1.9044304,1.2900616,-1.4793271,1.7091873,0.007043333,-0.15105174,-1.6338954,3.3535464,2.3576846,-2.754864,-4.361515,0.79347897,1.9337643,-0.4005456,-0.8642273,-2.0384448,-0.016904982,-0.7869854,1.4449608,-3.8461144,1.5213009,-2.8896205,-0.4846018,-4.70054,-0.9111872,0.8253204,1.8640003,2.1270895,-0.6420179,-2.318967,-3.3386793,1.159161,-0.4137278,-1.392022,0.8598886,1.4762858,-3.9410772,-0.46378514,-1.6597819,0.8897619,-1.4060762,0.88175243,2.3078015,3.519037,1.541364,1.8488278,2.4611912,-0.5166213,4.8071074,0.64099973,-3.2789156,0.1938904,-2.945685,2.5293622,0.6558244,-2.3412588,0.4972825,1.3945302,1.2918055,-1.1070628,-0.8445915,0.041333184,-2.3262932,-3.3093984,-2.4268773,0.60898876,0.4514017,-0.6412827,-3.7369583,0.6426146,-3.5575776,3.116667,-1.2835237,-2.6091604,0.21504602,3.5241587,0.0803636,-0.18155283,-0.03571486,-3.0308182,-1.2873336,2.699005,-1.4681891,-1.2591153,-1.1047611,-0.4873083,0.7841173,1.4346496,-0.16277657,-3.1986732,-0.019819709,1.2572111,2.5530055,-0.16164032,1.8817624,0.24639823,1.0802623,-1.4067479,1.2410151,3.081062,0.1494439,-2.2985168,-1.7632396,-0.82800573,-1.5656475,-0.25793764,2.7910933,-2.6253355,-1.834435,-3.8420954,1.2469033,-0.09851512,-0.83264565,-0.09653165,-0.3645449,2.4940908,0.3909674,2.4993978,0.8397402,0.2550841,0.18022329,-2.6676307,-2.1576684,-1.589521,0.41991225,1.7885569,-1.8926234,-1.5796776,0.6605922,-1.9063102,-0.8650636,0.64779955,2.0341742,-0.6450018,-1.7976336,0.08335985,-1.9683331,0.053208206,1.7844975,-3.3301895,-0.30152383,0.5894422,-0.81985277,-1.2128965,-1.9317036,-0.09798476,-1.372704,3.664357,0.99102616,-5.0001454,1.4679309,0.3670288,-0.7601437,1.5380642,0.61670583,-1.2821078,1.8417712,0.343444,3.1422014,0.8488219,-4.299393,-0.68685895,0.4453014,-1.9740132,2.567378,-0.670237,0.19680877,-0.82935274,-1.5621456,0.6571714,1.992485,1.9017956,-0.25520077,2.262084,-2.404396,-1.0508418,2.0148242,3.3652315,1.655682,-1.2536705,-0.010381266,0.5446418,-0.004962891,-2.1115923,-0.62208897,0.56494063,-0.15949152,-0.9376503,1.8280911,-3.2187288,1.3893237,-0.23435551,2.2009194,0.2993615,-1.5395128,-4.319328,-1.1601479,0.89425755,-3.1092882,2.076669,-1.0799829,-0.02426188,1.4004658,-1.4871124,5.018111,3.4359438,2.2631512,2.1916926,-0.21247296,-0.30134398,1.7190808,-1.8334626,-0.21147762,0.9073937,-0.63747954,0.98087674,-1.3655047,1.0254388,-1.5681756,2.1722035,-1.928809,-1.3668903,1.522935,2.3282337,0.7828987,1.6374497,0.6739222,1.7478776,-0.7380236,-0.4673501,2.2351751,-1.2404685,0.23520826,0.14641938,-0.84036064,-0.55970424,-0.49716666,-0.47814828,0.59699035,0.14144854,-2.0588396,-2.0483332,2.0605414
Sc1_A,-0.8484942,0.4127835,-2.0953846,0.3018816,4.2386026,0.5888666,0.23433365,3.9855733,-1.5122623,-1.6058015,6.175475,1.9803591,-4.4983597,2.37876,0.2670165,1.9092305,1.9023604,-0.49830928,-2.8572845,-3.075469,1.7513767,-0.35729527,-1.6857941,-1.1724414,-1.0220946,-1.8824794,-1.8199939,-0.9674122,-0.20082317,1.6101406,1.1597487,-0.95200175,-0.70572823,-1.7068876,-1.8595864,-1.058356,0.2973163,1.3489071,1.3355595,1.0803369,1.3668604,0.6839917,-0.8143976,0.15596071,-2.5869484,2.208233,1.2335938,-2.3406084,-0.29716712,1.014609,-0.92576283,1.6638312,0.33740336,-5.576986,-0.57095397,0.79084265,-1.2818866,1.7212735,1.2923237,-1.1784413,1.4074397,-0.005035312,-0.058703113,-1.4953667,3.5180798,2.4928112,-2.7632086,-4.167409,0.85638314,1.8859972,-0.46010563,-0.7270398,-1.9740653,0.14919072,-0.78920794,1.5146273,-3.615053,1.6413944,-2.9512572,-0.55107707,-4.795403,-0.93707705,0.81431085,1.9098723,2.1357296,-0.34817633,-2.457388,-3.2819977,1.267911,-0.46664393,-1.277603,0.6297759,1.3629526,-3.8698232,-0.44812763,-1.4959024,0.87801635,-1.3679687,1.0205853,2.3996692,3.8395526,1.5400738,1.9434637,2.5056558,-0.5315641,4.5905795,0.5853692,-3.1836896,0.124609485,-3.0869553,2.5007863,0.701277,-2.282967,0.33790803,1.264684,1.4389108,-1.1600264,-0.8944465,0.17059153,-2.2010458,-3.3145509,-2.387545,0.52020144,0.48818603,-0.5160517,-3.6157966,0.67539173,-3.3523674,2.855395,-1.401841,-2.6998549,0.17297126,3.6220992,0.12009807,-0.18031281,0.078316726,-3.000062,-1.2120123,2.599576,-1.3304023,-1.2503114,-1.381354,-0.5458235,0.6191847,1.5929382,0.15592845,-3.28244,-0.26139975,1.2538342,2.5463085,-0.055117536,2.1070688,0.33302832,0.9640188,-1.5231595,1.339807,3.1356962,-0.18072475,-2.3832018,-1.8978486,-0.973572,-1.4168841,-0.11287911,2.7840123,-2.5370882,-1.9069904,-3.8598428,0.9309836,-0.17384143,-0.9318416,-0.10487263,-0.23500724,2.3808928,0.43403605,2.2747238,0.6587635,0.11655368,0.0484255,-2.6436715,-2.218389,-1.6995658,0.26199085,1.6999447,-1.6693883,-1.4334083,0.5515944,-1.8968878,-0.8178513,0.7549819,1.9778528,-0.7589181,-1.6669813,-0.14390464,-2.183419,-0.12501332,1.5692449,-3.1794696,-0.07228538,0.274528,-0.592345,-1.3462325,-1.7385577,-0.18274517,-1.2454478,3.6472447,0.8952473,-4.894552,1.5942667,0.11558006,-0.48465717,1.5757598,0.904009,-1.1511972,1.6221495,0.26016113,3.1232939,0.8962757,-4.082189,-0.85803396,0.32413667,-1.8414952,2.471736,-0.7087439,0.2743913,-0.98293006,-1.5552839,0.44470298,2.0121257,1.8072174,-0.10132198,2.4648492,-2.37736,-1.0188928,1.985106,3.399222,1.693454,-1.4794375,-0.13209343,0.32576546,-0.16996743,-2.17806,-0.7432223,0.57781166,-0.33773077,-1.2678825,2.009887,-3.0902138,1.2703061,-0.12155943,2.1808693,0.4657282,-1.5902303,-4.286527,-1.0544653,0.8334972,-3.0197232,2.0771046,-1.147534,-0.12556712,1.4457455,-1.1311659,5.1296825,3.5312688,2.313885,2.428961,-0.3167901,-0.36675817,1.8007357,-1.639168,-0.16526614,0.7906732,-0.6136173,1.0408942,-1.4161514,0.8877967,-1.511076,2.2303977,-2.0825365,-1.5893962,1.470375,2.1828268,0.8825442,1.4866099,0.7161204,1.548836,-0.66973805,-0.52785486,2.1942098,-1.3100569,0.0934843,0.26743832,-0.818936,-0.7333766,-0.5334007,-0.5488165,0.361075,0.017821325,-2.0747404,-2.1921546,2.1110451
Sc1_A,-0.98402596,0.29858103,-1.4266293,0.26254153,3.9276671,0.49494883,0.6705425,3.912382,-1.6563221,-1.7980635,6.062422,1.9920236,-4.3587985,2.480709,0.3024871,1.971209,2.023845,-0.21041098,-2.8783054,-3.0366714,1.4797051,-0.27028984,-1.8559877,-0.98468286,-1.1087903,-1.9789046,-1.6943941,-0.9603174,-0.20935395,1.6840483,1.0463688,-0.9420749,-0.6623103,-1.6692415,-1.7824312,-1.0072684,0.43326932,1.2166322,1.3228691,0.7242396,1.5231133,0.44462556,-0.9938906,0.110386536,-2.6266465,2.3488793,1.0549803,-2.1426358,-0.054914758,0.65157557,-0.6808204,1.8028499,0.247058,-4.931929,-0.5055462,0.7703644,-1.3375502,1.7476647,1.0255226,-1.3417369,1.5528466,0.09064601,-0.1844097,-1.4044983,3.4612026,2.5218549,-2.810838,-4.3623114,0.8440295,2.0127933,-0.44839075,-0.8553549,-1.9309912,-0.11328431,-0.8120684,1.5367808,-3.7714632,1.5531679,-2.6930933,-0.45001632,-4.613781,-0.9074906,0.7638749,1.782246,1.7226994,-0.6042106,-2.164794,-3.2415638,0.8693814,-0.43296918,-1.4735539,0.88716793,1.2250336,-3.8277774,-0.59103966,-1.4297966,0.6360808,-1.615138,0.94236344,2.4103234,3.5302842,1.4355067,1.8761903,2.6620333,-0.4635094,4.6706243,0.57323176,-3.057919,0.21698888,-2.909132,2.6463497,0.5824967,-2.2632785,0.3341648,1.1941383,1.222301,-1.0272865,-0.757809,0.1409273,-2.3743057,-3.2110472,-2.5223906,0.63637954,0.3543321,-0.56502056,-3.422638,0.5423556,-3.7248569,3.0035384,-1.4582033,-2.8171508,0.24370173,3.5308437,0.22662221,-0.14758985,-0.03036887,-2.8100364,-1.1396217,2.5142083,-1.1837691,-0.8616691,-1.1590388,-0.64659506,0.6694797,1.2645829,-0.028099757,-3.2340755,-0.25603783,1.2932918,2.3524172,-0.15852007,1.9144721,0.29106256,1.0808947,-1.448513,1.1609352,2.9681852,0.28716797,-1.9701304,-1.6330911,-0.7857236,-1.1198472,-0.04168875,2.8780055,-2.5118673,-1.8664397,-3.507878,0.8688859,-0.06010333,-0.98344594,-0.07996858,-0.4369509,2.2862632,0.37009975,2.112708,1.026056,0.10709714,0.005373357,-2.7714055,-2.0031781,-1.8047293,0.19925322,1.687621,-1.9014606,-1.65839,0.81998694,-1.7929269,-0.5262975,0.6091139,1.9175475,-0.7001858,-1.8209791,0.12502508,-1.8685111,0.16997708,1.6039218,-3.3082328,-0.3399436,0.40214038,-0.9126107,-1.1280959,-1.7345748,-0.020039698,-1.2728685,3.4252093,0.99907154,-4.9033966,1.6317263,0.32885453,-0.6816751,1.5810151,0.4688614,-1.2341533,1.5648652,0.41462132,3.1615233,0.7912846,-4.045822,-0.42023936,0.4838084,-1.9175888,2.4668138,-0.8559625,0.33410305,-0.76812553,-1.5115688,0.5147684,1.8294806,1.9363481,-0.16388267,2.1965666,-2.3440514,-0.8891741,1.7504882,3.3724773,1.5451019,-1.1751817,0.014263748,0.6149818,0.089721255,-1.9406117,-0.8633675,0.31365278,-0.15430929,-0.9122085,1.6589689,-2.8636687,1.0167605,-0.3450855,2.0790772,0.5008641,-1.3717479,-4.122729,-1.0022873,0.651801,-2.816747,2.0498276,-1.2994782,0.16138136,1.1912998,-1.6803627,4.621005,3.4575973,2.341991,2.0390074,-0.18130538,-0.36806047,1.5736592,-1.6717495,-0.43619558,0.74324197,-0.50267917,1.020147,-1.2638658,0.95928407,-1.4846466,2.340875,-2.0964718,-1.3462591,1.3428755,2.4798589,0.73022306,1.7818542,0.42412707,1.5965645,-0.3858944,-0.5674791,2.383699,-1.061834,0.31569904,-0.052562676,-0.9213754,-0.69132304,-0.5442576,-0.49585575,0.236587,0.21555279,-2.0408285,-2.267643,2.021329
Sc1_A,-0.6340315,0.3526358,-1.8359896,0.35758862,4.3966975,0.6762665,0.36354914,4.184904,-1.3926756,-1.7990949,6.1046705,2.073414,-4.3952227,2.221391,0.17700092,1.9846095,2.0309272,-0.4037234,-2.735485,-2.7063847,1.7217907,-0.069944,-1.9885994,-1.1244452,-1.4188646,-1.9417909,-1.5720265,-0.95334524,-0.1553794,1.7757258,1.035307,-0.7954931,-0.7278339,-1.7042565,-1.7513596,-1.269306,0.24633774,1.1857864,1.38455,0.90979785,1.4376901,0.7217976,-0.6914058,-0.020291068,-2.5475562,2.2214472,1.2054335,-2.2323492,0.073620714,0.9476956,-0.84744436,1.7827101,0.1488394,-5.2208223,-0.58241606,0.97359014,-1.420204,1.7164916,1.3068727,-1.4776052,1.4893893,0.0673239,0.03091822,-1.2206929,3.278429,2.5175574,-2.7921531,-4.2212725,0.95125204,1.9819735,-0.4271365,-0.762332,-1.9388359,-0.078169145,-0.82606924,1.4763532,-3.4472685,1.6209489,-2.7438478,-0.40133435,-4.5765586,-0.7380553,0.8513436,1.9343919,2.0960617,-0.48858905,-2.4304976,-3.3663802,1.1987886,-0.5262315,-1.4112123,0.8261245,1.4425557,-3.77103,-0.41414645,-1.4804972,0.7799923,-1.4667602,1.0658659,2.2855368,3.7854056,1.5307411,1.933746,2.6550016,-0.48707768,4.708822,0.6508303,-3.036856,0.10485392,-3.0983176,2.3247957,0.79757845,-2.3808694,0.39892188,1.4459877,1.3880869,-1.1287422,-0.8717947,0.10628881,-2.1075928,-3.0120573,-2.3546593,0.6922225,0.31874996,-0.5536885,-3.3705528,0.61892545,-3.4582071,2.9448414,-1.6160682,-2.623602,0.1529438,3.552278,0.061372094,-0.07902409,-0.060564112,-2.9348717,-1.238599,2.376554,-1.3127766,-1.1303768,-1.2397628,-0.4499093,0.8838626,1.3114151,0.16516331,-3.33,-0.107528865,1.1906426,2.6106217,-0.17778897,2.1195464,0.27271792,1.1585251,-1.482065,1.096391,2.966533,0.13145436,-2.168926,-2.0677004,-0.7299095,-1.5062859,-0.12687373,2.7521808,-2.7348125,-2.0108366,-3.4749484,0.8156736,-0.16310725,-0.89850086,-0.09655547,-0.26650986,2.4814322,0.43980533,2.2315567,0.8360659,0.11106095,0.08394896,-2.7682018,-2.2116072,-1.7296154,0.38981563,1.8121976,-1.9525331,-1.6365418,0.6773837,-1.7958943,-0.73887223,0.5630764,1.8395096,-0.74712604,-1.6893259,-0.027792156,-2.1872377,0.03856487,1.6535125,-3.2420833,-0.10620502,0.21576937,-0.6775902,-1.1244859,-1.8961437,-0.031573646,-1.4627616,3.7796988,0.88283265,-4.8657484,1.4709133,0.41258135,-0.69857293,1.8749303,0.73384374,-1.191486,1.646621,0.51224434,3.1769607,0.805844,-4.057915,-0.6165212,0.42437932,-1.9367751,2.503115,-0.89364463,0.24468912,-0.9223633,-1.5091401,0.6667661,2.1958597,2.003075,-0.109225415,2.6058846,-2.2722933,-0.9520478,1.9499124,3.4080849,1.7566544,-1.3150613,-0.17535447,0.6936417,-0.04973446,-2.186621,-0.7242723,0.4863964,-0.085003465,-1.2553501,1.9265282,-3.1033044,1.2261543,-0.43896797,2.129601,0.44654807,-1.4199975,-4.245281,-0.88494873,0.8586034,-2.9954875,2.2922463,-1.1057043,-0.048340004,1.5530607,-1.3364197,5.021704,3.4245663,2.349971,2.266478,-0.20182355,-0.4589815,1.796413,-1.6928324,-0.39839798,0.75152475,-0.5917954,1.2038039,-1.3787894,1.0515147,-1.5933208,2.2509305,-2.0904,-1.5042877,1.4965508,2.3357074,0.8382342,1.5591959,0.43411967,1.5412446,-0.6366914,-0.531605,2.0815516,-1.2585368,-0.15311646,0.1175277,-0.8868272,-0.59186333,-0.5933355,-0.50541204,0.5043389,0.226701,-2.1725607,-1.9507743,1.9857701
Sc1_A,-0.7712715,0.2754541,-1.9004965,0.13098183,4.1729226,0.63272417,0.50778633,3.933514,-1.5919133,-1.6889992,6.4592767,2.0328321,-4.38115,2.2777092,0.40621015,2.0413432,1.999103,-0.26182625,-2.9198701,-2.8552878,1.7976735,-0.29295492,-1.7708927,-1.1839772,-1.3630819,-1.96183,-1.5481348,-1.0711769,-0.1954925,1.7573023,1.0706922,-0.7900926,-0.78013474,-1.6964666,-1.6991717,-0.98112243,0.5013009,1.3207685,1.4153717,0.9583444,1.3325765,0.62115824,-1.0074697,0.130885,-2.700684,2.3805277,1.3904009,-2.3665845,0.030900953,1.0130343,-0.875659,1.8341776,0.33214685,-5.0457363,-0.61379313,0.8735453,-1.158295,1.8055174,1.2206527,-1.3037941,1.7700124,0.12114654,-0.10740468,-1.4161466,3.3101792,2.4805615,-2.7739089,-4.264328,0.88880163,1.9206359,-0.561142,-0.6912859,-2.042295,-0.023946444,-0.9177442,1.3091036,-3.844639,1.6051273,-2.9565303,-0.37773687,-4.7669687,-0.745204,0.8787328,1.8103422,2.0161583,-0.25903997,-2.3839738,-3.3169727,1.2970335,-0.5193515,-1.2807546,0.4907542,1.4261636,-3.973683,-0.55103785,-1.4784967,0.8653131,-1.3555864,0.87335974,2.2387424,3.6717591,1.5989817,1.9845766,2.5847023,-0.5203333,4.7855477,0.73644733,-3.1229506,0.29416463,-2.806495,2.586839,0.7084576,-2.4713545,0.35974327,1.3238481,1.318244,-1.2126814,-0.8896957,0.12802525,-2.241564,-3.202128,-2.4529803,0.6190804,0.4001644,-0.70325303,-3.7425897,0.6492945,-3.6001904,2.9891458,-1.5879807,-2.6914208,0.2975096,3.6260066,0.027785283,-0.414766,-0.10864025,-2.833367,-1.200248,2.6489892,-1.3902029,-1.0003166,-1.0797037,-0.4938246,0.79669976,1.4548945,-0.13874929,-3.3506927,-0.23868425,1.1030251,2.5285604,-0.08485931,2.1059542,0.39088205,0.8937968,-1.4992623,1.2533734,3.1462755,0.17881846,-2.2090855,-2.0308447,-0.9428229,-1.3880663,-0.11717215,2.7363052,-2.6246552,-1.9537377,-3.6460102,1.1493149,-0.052515347,-0.81635654,-0.12488386,-0.56962186,2.4015002,0.51551074,2.1995866,0.7527019,0.26166102,0.14141172,-2.8432128,-2.2186139,-1.637925,0.29037982,1.8053522,-1.8485436,-1.5289658,0.6208573,-1.6942459,-0.8290368,0.56836694,1.999971,-0.95468783,-1.7801732,0.07901765,-1.9529965,0.20461185,1.5049393,-3.3435934,-0.2521784,0.5276098,-0.7912152,-1.1468524,-1.7459441,-0.27218452,-1.4041511,3.6700945,0.86578846,-4.8050504,1.5435946,0.2628925,-0.757653,1.8490638,0.6723541,-1.3108808,1.7752007,0.26998994,3.151939,0.7345947,-4.128566,-0.52720314,0.42618737,-1.875084,2.574357,-0.611606,0.24763754,-0.9001548,-1.3970082,0.63793415,2.0562406,2.0334144,-0.12486156,2.4408126,-2.5182154,-1.0317612,1.883864,3.2102268,1.590311,-1.1289502,0.004348207,0.570757,-0.04444919,-2.1531785,-0.7159397,0.49161217,-0.09000904,-1.039024,1.8802502,-3.3081875,1.1241139,-0.19210155,2.2219164,0.34570715,-1.525011,-4.30177,-0.9465471,0.73555046,-2.937341,2.0698674,-0.97949165,0.044583317,1.327897,-1.2978936,4.9758496,3.514992,2.4297392,2.2038999,-0.25570396,-0.39538643,1.7639081,-1.8857563,-0.33140525,0.913668,-0.7198398,1.0535413,-1.472632,0.95074326,-1.2978855,2.3665056,-1.8584515,-1.4978708,1.4692676,2.3742454,0.74943924,1.6757866,0.5624573,1.6289071,-0.6804686,-0.4216498,2.3549318,-1.1982865,0.0840997,0.21327798,-0.8247829,-0.5473846,-0.66479176,-0.38167354,0.22871983,0.0804817,-2.1061664,-2.2011218,2.027243
Sc1_A,-0.9392318,0.52235794,-1.7235856,0.39746052,4.2956586,0.7578449,0.3854483,4.197239,-1.7784783,-1.7901189,6.2895536,2.0732448,-4.592409,2.2917166,0.1867716,2.04586,2.0281699,-0.54376173,-2.9363503,-2.894885,1.8082453,-0.29991856,-1.8230034,-1.2373722,-1.357811,-2.0015666,-1.6429243,-0.9026472,-0.32593518,1.664361,1.0628718,-0.84349316,-0.67275476,-1.7982126,-1.8845729,-1.1544051,0.47615892,1.1562536,1.4148583,0.99307287,1.4797441,0.63617045,-0.830599,0.0915827,-2.679438,2.1626337,1.3432351,-2.2831566,-0.22049192,0.95816016,-0.89450634,1.704532,0.30500874,-5.4091144,-0.6351825,0.83387685,-1.331834,1.7806114,1.4046423,-1.2972041,1.6202627,-0.029433973,0.03150247,-1.293692,3.4062407,2.51824,-2.7632403,-4.433853,0.8618805,2.0407186,-0.4212715,-0.7990294,-1.9264071,-0.070881955,-0.930487,1.4437921,-3.754943,1.7215933,-2.890671,-0.55044377,-4.6915574,-0.9841174,0.8393484,1.987001,2.0405483,-0.50273067,-2.4467273,-3.3790505,1.1796407,-0.45471585,-1.4699144,0.74503875,1.3958822,-3.893034,-0.42386764,-1.459203,0.7767067,-1.5343895,1.0839465,2.3005216,3.853865,1.6953063,1.9750187,2.6011026,-0.63891494,4.726964,0.54330885,-3.1622007,0.10184358,-3.0642092,2.5351667,0.70994365,-2.306982,0.5658548,1.4253677,1.3558761,-1.0793567,-0.95493406,0.09968967,-2.3046725,-3.251074,-2.4629478,0.63365674,0.30869418,-0.4756317,-3.536509,0.64754146,-3.6280804,3.042818,-1.4649434,-2.7511196,-0.09895467,3.6093872,0.22308761,-0.36004487,0.013612768,-3.0904381,-1.1986364,2.5347912,-1.2988445,-1.1274735,-1.3724208,-0.47317228,0.81554615,1.4969748,0.15018274,-3.268867,-0.16327545,1.0963345,2.5463047,-0.089320995,2.1559343,0.20481198,1.0232791,-1.6216971,1.2661252,3.132058,0.03753755,-2.391195,-1.982336,-0.8438464,-1.5333475,-0.32545426,2.7469437,-2.741444,-2.0569334,-3.7688053,1.0165858,-0.1083603,-0.97276115,-0.17868115,-0.268975,2.5118,0.3710926,2.3569086,0.9241752,0.06505961,-0.020278623,-2.8528543,-2.1521256,-1.7167553,0.41708606,1.8201761,-1.8050784,-1.7483351,0.68302816,-1.946962,-0.95857567,0.68278843,1.9648395,-0.73673743,-1.683564,-0.042423807,-2.0283,-0.19095773,1.7865883,-3.2286205,-0.12636304,0.35902727,-0.6804622,-1.2913986,-1.8492779,-0.048323367,-1.3738863,3.566429,0.8477944,-4.921644,1.3942363,0.5150506,-0.6845207,1.603988,0.63740903,-1.1671083,1.8212072,0.3377297,3.1631181,0.7514131,-4.0239525,-0.69475526,0.45025033,-2.1313622,2.6076972,-0.7179297,0.2736363,-0.9243512,-1.5951,0.64217293,2.1468294,1.895578,-0.1929016,2.4055064,-2.3280492,-0.95462745,1.8619,3.5679677,1.6670579,-1.3117908,-0.1452782,0.62486863,-0.10722399,-2.1283898,-0.77133995,0.4504749,-0.15538852,-1.1441367,1.958368,-3.0523672,1.3073258,-0.24047886,2.200757,0.36839494,-1.4509134,-4.237526,-1.0032101,0.8451897,-3.1296077,2.2357655,-1.1609514,0.021240013,1.4741408,-1.4172225,4.9937477,3.476013,2.5422828,2.239302,-0.1847176,-0.34275478,1.8149078,-1.6560755,-0.2659941,0.68840605,-0.6583531,1.1132605,-1.5083781,1.1448402,-1.6484329,2.288543,-2.0401745,-1.6026775,1.479829,2.2765002,0.89122415,1.5627047,0.65362954,1.585056,-0.5696491,-0.29772305,2.2602203,-1.1219966,-0.041414645,0.16974965,-0.861364,-0.76903677,-0.6422531,-0.51406527,0.33464217,0.11585549,-2.0050774,-2.1765335,2.2407286
Sc1_A,-0.8561315,0.4322957,-1.9582704,0.46187526,4.400747,0.6594681,0.469238,4.228757,-1.6811945,-1.6458311,6.0453587,2.0749962,-4.6362057,2.2762861,0.11580254,1.852409,2.0361438,-0.39288542,-2.9632273,-2.8034878,1.5353502,-0.15718512,-1.8605286,-1.2028617,-1.241894,-2.0120075,-1.6324579,-0.9415405,-0.21683462,1.6018368,1.0583012,-0.8113745,-0.688683,-1.7882514,-1.6273599,-1.30782,0.27426887,1.2732049,1.4827387,0.9694127,1.2790259,0.4995875,-0.8277831,0.15440129,-2.6253214,2.0145802,1.2767918,-2.190988,-0.15220924,1.0497382,-0.7675558,1.6828806,0.26240364,-5.2107396,-0.6702344,0.8913791,-1.3158708,1.664513,1.2970829,-1.2704958,1.5599507,0.01873097,-0.18165979,-1.409011,3.2291105,2.2257295,-2.7301383,-4.141778,0.78977966,1.9991479,-0.35127944,-0.6800781,-1.8481468,-0.01632702,-0.9192501,1.3709087,-3.3820405,1.5735877,-2.8750737,-0.46648243,-4.6635466,-0.9494275,0.8546527,1.8954258,2.011555,-0.47995162,-2.302798,-3.4266388,1.2635407,-0.533888,-1.4707645,0.7897312,1.3671156,-3.7259157,-0.37538448,-1.3780348,0.79836184,-1.4522933,0.9401896,2.2761235,3.6496134,1.4577106,1.8874493,2.4851847,-0.54796517,4.746268,0.5411613,-3.0422657,0.08819383,-3.0391457,2.4763567,0.7039474,-2.355173,0.3713689,1.3451465,1.4938817,-1.1836492,-0.9786937,0.1871753,-2.1465654,-3.214309,-2.437902,0.54911494,0.35977417,-0.496176,-3.4895053,0.680027,-3.4366202,2.9240818,-1.4251461,-2.578192,0.1083663,3.6469874,0.06120479,-0.23158708,-0.09742754,-3.0450487,-1.1119258,2.5632973,-1.3268757,-1.0410043,-1.1615279,-0.3188335,0.9262497,1.483312,0.14378227,-3.1620226,-0.034367558,1.1200924,2.5043473,-0.26722255,1.9414923,0.32042024,1.0847688,-1.5265009,1.2071575,3.1146085,0.17178613,-2.2097692,-1.9610634,-0.914303,-1.5350231,-0.086081825,2.88048,-2.5811641,-1.9427623,-3.542918,0.9740925,0.10087182,-0.86665154,-0.21724102,-0.0853308,2.4252622,0.29177183,2.35193,0.84897256,0.13202405,0.08906638,-2.6319525,-1.9735844,-1.7086271,0.45807144,1.8602268,-1.8393734,-1.6326694,0.54777545,-1.6395708,-0.6975803,0.6013226,1.9566033,-0.6637872,-1.6242677,-0.037836682,-1.9609101,-0.045453556,1.6218119,-3.2843757,-0.30820322,0.29107994,-0.70578015,-1.3761908,-1.9573175,-0.17623898,-1.3760471,3.4946034,1.0000367,-4.734796,1.5747797,0.4325686,-0.7281564,1.5512885,0.6744931,-1.2705369,1.6046132,0.4738986,3.2619512,0.87681216,-4.0307837,-0.8341418,0.45013937,-1.9117367,2.553411,-0.5850171,0.14974897,-0.91103375,-1.529965,0.55842894,2.0859432,1.9442325,-0.19839047,2.240389,-2.375879,-1.08172,1.9242113,3.2891126,1.5120155,-1.3982908,-0.04177998,0.57709074,-0.009624871,-2.1650214,-0.81750214,0.611467,-0.035349842,-1.1749239,1.891872,-3.279639,1.1591711,-0.23873714,2.0973625,0.40387407,-1.6601535,-4.344659,-1.0696509,0.8969852,-3.0263557,2.1409392,-1.0932703,0.001320237,1.4210023,-1.4559543,4.8184347,3.332019,2.336308,2.2244008,-0.4106566,-0.32235137,1.623082,-1.6548331,-0.28114006,0.64197046,-0.53098464,0.9196349,-1.3779359,0.884789,-1.5995448,2.1939807,-1.9990493,-1.5365388,1.4665589,2.2639449,0.91920704,1.3969462,0.44322863,1.5185794,-0.62542605,-0.42858407,2.2772746,-1.2195251,-0.004779514,0.057387423,-0.70311224,-0.76163626,-0.58159035,-0.53722996,0.53706884,0.038491536,-1.953071,-2.0206351,2.0482419
Sc1_A,-0.84044945,0.3519955,-1.7604696,0.42290953,4.3414297,0.51275176,0.43641877,4.1585393,-1.5396008,-1.8242005,6.080642,1.8741349,-4.5175343,2.3486784,0.18349293,1.8706864,2.0232332,-0.36837757,-2.682665,-2.8748925,1.6279154,-0.13165098,-1.7545767,-1.2141515,-1.3600469,-1.8894671,-1.7880837,-1.1578428,-0.2948905,1.867365,1.1962347,-0.7074703,-0.9434889,-1.8872559,-1.7071297,-1.2244083,0.44446927,1.3353988,1.4566209,1.0762619,1.3656075,0.62558955,-0.83973235,0.1526762,-2.5957904,2.405904,1.45072,-1.9625083,-0.18890184,0.7725915,-0.85858977,1.7229123,0.074191,-5.151996,-0.46285248,0.6661543,-1.248815,1.810235,1.3068988,-1.3827909,1.6510108,0.16374753,-0.1423594,-1.6784512,3.3905435,2.3581483,-2.7651975,-4.0555997,0.9262436,1.9868912,-0.5121895,-0.5082021,-1.935047,0.010812022,-0.9618847,1.5165693,-3.5060654,1.5726933,-2.943708,-0.46792603,-4.579085,-0.8249558,0.76936173,1.9258091,2.0572705,-0.637417,-2.3093994,-3.2611914,1.1249578,-0.44603848,-1.4947714,0.8344234,1.1784786,-3.6280096,-0.5376264,-1.3504821,0.90321267,-1.3343138,0.90332156,2.364826,3.7028098,1.4242046,1.8606491,2.5892625,-0.6751045,4.751034,0.41973764,-3.1375077,0.085459545,-2.8191803,2.4441967,0.8073614,-2.323559,0.28121218,1.1193405,1.1478109,-1.2214916,-0.9402066,0.11306034,-2.080467,-3.1862457,-2.3885818,0.6629334,0.5310435,-0.8641428,-3.6844804,0.4385306,-3.3634799,2.9622407,-1.4300274,-2.68646,0.24666853,3.6480634,0.30763036,-0.10909187,-0.0655894,-2.9006586,-1.1764506,2.5312126,-1.3372685,-1.1113727,-1.2507565,-0.33419767,0.6456337,1.3405063,0.04869235,-3.3020968,-0.05444851,1.2346473,2.5689843,-0.27754697,1.8055989,0.31877357,0.96867454,-1.452551,1.1322609,2.9101517,0.15956204,-2.045479,-1.7425706,-0.85359484,-1.2360504,0.110574424,2.7717438,-2.6513357,-1.7309529,-3.4990804,1.0500993,0.17719974,-0.6677793,-0.2711482,-0.3958358,2.3495781,0.28663394,2.0141697,0.88324565,0.07578834,0.108893506,-2.5641057,-2.0170798,-1.5853695,0.5806821,1.6904808,-1.7573539,-1.6005316,0.6467268,-1.9314643,-0.6095553,0.76276654,2.041836,-0.51712924,-1.6743557,0.07870378,-2.1173751,0.2923164,1.6324445,-3.1995103,-0.21285209,0.23764129,-0.9131283,-1.219385,-1.9045409,-0.29688194,-1.4026608,3.6396317,1.026909,-4.8538465,1.6749144,0.3519297,-0.6058173,1.5297823,0.7085219,-1.2342577,1.6033125,0.5563676,3.0234272,1.0694017,-4.3614416,-0.9703636,0.42713073,-1.8802015,2.5242493,-0.64845437,-0.068676755,-0.89369863,-1.5275459,0.5471048,2.1700017,1.8254094,-0.1171068,2.3764489,-2.490463,-0.9523451,2.0183086,3.1748044,1.6701211,-1.1916238,-0.049061142,0.6776586,0.120005175,-2.1151469,-0.95526165,0.37766415,-0.047170747,-0.9335206,1.6889179,-3.1553593,1.3463031,-0.06252845,1.9356678,0.58769417,-1.5760107,-4.427782,-1.0755025,0.83871055,-3.053149,2.150876,-0.9455473,0.11494203,1.3340102,-1.4711078,5.120459,3.359114,2.4487607,2.1838214,-0.33402276,-0.35260907,1.735158,-1.5507139,-0.1864527,0.7255978,-0.6003319,0.98253095,-1.4222769,0.9391321,-1.6081254,2.1459558,-2.023866,-1.3050476,1.392682,2.5612044,0.8182312,1.4648968,0.54758584,1.6493226,-0.78284836,-0.2737022,2.1619027,-1.0998232,0.02962645,0.17568976,-0.7141615,-0.46246102,-0.5173682,-0.42648602,0.5186446,0.2031002,-2.0255358,-1.8756257,2.1856158
Sc1_A,-0.9297967,0.42739475,-1.8495255,0.31249595,4.3337793,0.5769003,0.5115496,4.0529275,-1.6942707,-1.7850028,6.2112036,1.9954528,-4.4841657,2.229338,0.06881661,1.8975838,1.9635577,-0.18906805,-2.8176136,-2.8162076,1.7309293,-0.15367192,-1.7995442,-1.1686285,-1.4125212,-1.9894278,-1.5068023,-1.0993339,-0.13595796,1.6128074,1.0179709,-0.7920323,-0.75425464,-1.5488,-1.7067845,-1.1224601,0.35249335,1.3392818,1.3927233,0.9866325,1.338176,0.64172536,-0.915707,0.118523054,-2.5288033,2.055717,1.4551461,-2.2438276,-0.21360451,0.8581011,-0.90780836,1.5580838,0.351246,-5.1699586,-0.55767566,0.68155414,-1.1416016,1.7025455,1.158436,-1.2153347,1.8357652,0.013644985,-0.000979939,-1.4639813,3.2140682,2.2719145,-2.616781,-4.1769395,0.85528564,1.9284096,-0.56379545,-0.63682073,-1.9341768,-0.052239165,-0.9394143,1.4292287,-3.4642992,1.6361833,-2.860424,-0.40241775,-4.5877376,-0.87886524,0.85827076,1.8483378,2.0207548,-0.4456207,-2.3713834,-3.3327715,1.2178143,-0.51117283,-1.2987496,0.6529009,1.4750277,-3.8258023,-0.38197434,-1.5098104,0.7746221,-1.3101515,0.88993424,2.2087843,3.754026,1.3964766,1.9424673,2.455825,-0.43131873,4.697694,0.6402682,-3.1769006,0.0959197,-2.909629,2.430222,0.8709697,-2.4555295,0.4868247,1.3170897,1.3029526,-1.157297,-0.96689576,0.09845529,-2.2246094,-3.087511,-2.5919845,0.62866956,0.57453233,-0.5788672,-3.4783509,0.6283615,-3.4158857,3.0289538,-1.4273306,-2.6178777,0.16586123,3.461431,0.094532005,-0.31799608,-0.13364044,-2.7786648,-1.3489513,2.451942,-1.3537976,-1.2139175,-1.209145,-0.40062684,0.6459745,1.5796716,0.22373761,-3.1248677,-0.040693488,1.0302523,2.646757,-0.19841538,1.9718995,0.32852012,0.9458937,-1.5689775,1.2658263,2.9747884,0.015474895,-2.2407367,-1.7761664,-0.7866126,-1.4691967,-0.19133353,2.7482307,-2.6699648,-1.9061255,-3.6838696,1.138426,0.110755585,-0.8071,-0.25318894,-0.36157238,2.219213,0.4005283,2.1895785,0.78664315,0.08839789,0.10314021,-2.6874893,-2.129032,-1.5757399,0.4823401,1.8814144,-1.7647669,-1.5194451,0.41798297,-1.8703537,-0.8113516,0.70859706,1.876942,-0.6861718,-1.6910436,0.014587828,-2.0784435,0.08993389,1.7692223,-3.198043,-0.230868,0.44756344,-0.77493984,-1.2549797,-1.8589597,-0.22055247,-1.2193075,3.4584837,0.91934705,-4.812541,1.5894436,0.38177338,-0.7681383,1.5347542,0.7175316,-1.3685027,1.7316455,0.46512333,3.0840812,0.8114159,-4.0323844,-0.6392563,0.41673687,-1.954379,2.6068087,-0.64049304,-0.014502712,-0.9385032,-1.5704724,0.66312164,2.1719282,1.9277232,-0.33825156,2.3593042,-2.5224628,-1.0796064,1.8695197,3.3723555,1.504305,-1.3363042,-0.15318133,0.518191,0.09030917,-2.0745194,-0.8456502,0.5237798,-0.22393031,-1.0973927,1.7478712,-3.0367014,1.2043253,-0.08573659,2.1419463,0.2506111,-1.5468107,-4.1778197,-1.1526005,0.9510038,-2.9834242,2.0687034,-0.99716324,0.045909144,1.2455043,-1.4019793,4.948795,3.3673813,2.3586123,2.054405,-0.22482106,-0.30584803,1.6515318,-1.551584,-0.32009113,0.6206031,-0.7795249,0.9594294,-1.4408504,1.0093284,-1.4690641,2.1907282,-1.8494416,-1.425375,1.4586414,2.2363913,0.854462,1.3756179,0.66772205,1.8047969,-0.7134712,-0.3384682,2.248636,-1.1089869,0.06505911,0.2380785,-0.65213096,-0.6794302,-0.45281634,-0.4532149,0.49141762,0.059945676,-1.8871912,-1.9823015,2.15941
Sc1_A,-1.0276092,0.11201973,-1.67328,0.46111533,4.261867,0.61229736,0.44466797,4.0785336,-1.298356,-1.9844697,6.0760174,2.0991771,-4.376906,2.3361685,0.37276468,1.9253943,1.9119301,-0.30175123,-2.8960178,-2.9618833,1.5522946,-0.1523698,-1.7224078,-0.94749147,-1.0782512,-1.8611351,-1.5736377,-1.1581564,-0.14835395,1.7330439,0.91196954,-0.9670848,-0.84541684,-1.9087485,-1.7523572,-1.1925105,0.50591475,1.3303821,1.2994308,1.0032357,1.4517611,0.38411,-0.79778886,0.371778,-2.6859088,2.371793,1.1101885,-1.9161354,-0.13251862,0.7262837,-0.81382304,1.8548312,0.09894419,-5.1377196,-0.43296632,0.98127145,-1.3488278,1.8020059,1.2076492,-1.6162875,1.4687226,0.04190145,-0.0616627,-1.6712929,3.2311041,2.534105,-2.9442751,-4.035608,0.7597341,1.8436967,-0.5583615,-0.7384235,-1.8520455,-0.030269515,-0.7745781,1.3088639,-3.8312337,1.5867049,-2.7541184,-0.24532221,-4.34773,-0.75505406,0.78489065,1.8711329,1.9307265,-0.57278407,-2.461391,-3.2396755,1.1382393,-0.41261163,-1.4227713,0.73286116,1.4333199,-3.687909,-0.76497465,-1.7857872,0.7760977,-1.2750492,0.9176436,2.28425,3.58093,1.3102126,1.7868098,2.7349088,-0.5416113,4.76144,0.71726644,-3.1707978,0.2365647,-2.6407282,2.654753,0.8090966,-2.3665311,0.2856668,1.2604403,1.360746,-0.8656057,-0.80600387,-0.14514259,-2.3208787,-3.120166,-2.355632,0.8193278,0.61874783,-0.6464839,-3.5921288,0.3382418,-3.5831804,3.2406943,-1.420672,-2.828,0.32432804,3.568884,0.31911772,0.030062951,0.00579771,-3.1637619,-1.5326302,2.3633423,-1.2998173,-0.87603194,-1.3014499,-0.76655424,0.7371986,1.4393908,-0.19531778,-3.3952935,-0.22340414,1.1587154,2.5049214,-0.061780028,1.772138,0.34868,1.1756917,-1.5748549,1.150516,2.9204643,0.16257435,-1.9849463,-1.7662301,-0.71444166,-1.2655845,-0.006000371,2.8664482,-2.4948597,-1.80334,-3.5064583,0.9555373,-0.11157246,-0.857322,-0.33260077,-0.5718526,2.48477,0.27057037,2.0109057,0.71548784,0.33809644,0.2713567,-2.5010984,-1.8637661,-1.6364661,0.23743564,1.5563936,-1.8460495,-1.498652,0.76545733,-1.9434162,-0.4736354,0.6229646,1.9085748,-0.7221345,-1.8562254,0.075070985,-2.1067877,0.10979373,1.6528711,-3.3292882,-0.2832904,0.5117069,-0.9023231,-0.9317505,-1.7153139,0.001289273,-1.3830699,3.607247,0.86375356,-4.9875436,1.4673445,0.45851073,-0.92628,1.6864043,0.7678148,-1.3650726,1.4815052,0.33902085,3.0477107,0.7537831,-4.316795,-0.821612,0.6062163,-1.7688731,2.6617186,-0.86625326,0.18374173,-0.93867564,-1.5675802,0.6098136,1.9857628,1.9863089,-0.31730786,2.400814,-2.3540692,-0.73782647,2.0222352,3.2886992,1.8616923,-1.2042608,0.020038372,0.6119236,0.059618738,-1.7789752,-0.72939825,0.34642372,-0.18702556,-0.9912601,1.7397199,-3.3055363,1.077582,-0.23584187,2.0343692,0.45014167,-1.4993184,-4.3802176,-0.8839848,0.99096096,-3.132884,1.95261,-0.87972486,0.06714759,1.3381988,-1.2922724,4.909787,3.2467263,2.0704687,2.2163336,-0.15900874,-0.51974684,1.6843014,-1.3741877,-0.37288246,0.81066406,-0.72555715,1.0453339,-1.0701224,1.0986414,-1.2359873,2.3037205,-2.2393074,-1.1736563,1.3612969,2.5985312,0.91369087,1.6969548,0.42136928,1.482414,-0.67481494,-0.48226663,2.158369,-0.95880765,-0.10446299,0.13893574,-0.67832637,-0.58144945,-0.77281743,-0.53787833,0.3434537,-0.00512538,-2.157766,-1.9886104,2.016949
Sc1_A,-0.82805187,0.2397664,-1.9079231,0.3009695,4.3423824,0.6124015,0.3606896,4.065454,-1.2849717,-1.6766133,6.0227385,1.9911163,-4.3493843,2.384207,0.26546597,1.9982536,1.809987,-0.3108416,-2.8417363,-2.8475552,1.8638725,-0.061597772,-1.8119901,-0.9560322,-1.2426232,-1.8749217,-1.8177345,-0.98353887,-0.2196123,1.827479,1.0862234,-0.9715787,-0.85025066,-1.7079961,-1.947439,-1.3424985,0.28447032,1.2424778,1.1873503,0.953177,1.3683892,0.6003152,-0.7045594,0.09328211,-2.504696,2.3874366,1.1546419,-2.3029838,-0.12272269,0.7819447,-0.9079312,1.76653,0.20335746,-5.184286,-0.52740484,0.91344,-1.2316803,1.735819,1.1835603,-1.2181276,1.391585,-0.12016568,-0.12617268,-1.5389878,3.3136942,2.3922014,-2.8035848,-4.1615863,0.8796414,1.8186172,-0.53187966,-0.8110435,-1.9895246,0.00753288,-0.60769135,1.3760849,-3.6914413,1.7559172,-2.8509605,-0.43761915,-4.6381416,-0.8415179,0.90893626,1.841436,2.2456317,-0.64239466,-2.4998922,-3.2396507,0.9818357,-0.520248,-1.5135306,0.6823585,1.4023405,-3.9234245,-0.38883486,-1.5127308,0.7530671,-1.439579,0.939358,2.4695466,3.8078315,1.4960731,1.9303328,2.6518538,-0.57755697,4.684212,0.62252676,-3.1171758,0.24287462,-3.0494692,2.4138424,0.7852418,-2.3805192,0.44863644,1.4538927,1.4185548,-1.1291591,-0.76885945,0.091366604,-2.1323056,-3.0957727,-2.4344351,0.53263235,0.5068135,-0.6382439,-3.5825298,0.3873411,-3.520834,2.9586291,-1.6382585,-2.6200557,0.23584193,3.7036843,0.19866313,-0.27183688,-0.08364496,-2.860434,-1.3320484,2.5389469,-1.3695879,-0.96168244,-1.3706487,-0.4921173,0.8130068,1.4822457,0.016450712,-3.3917205,-0.32135397,1.4031945,2.415003,-0.009834222,2.0047398,0.36226252,1.1005344,-1.6438884,1.3615154,2.9560893,-0.001292088,-2.2889004,-2.059644,-0.82705003,-1.6012825,-0.17470099,2.8446152,-2.6788747,-1.9151357,-3.5188465,0.9731037,-0.13175723,-0.6967819,-0.09338145,-0.27360842,2.3883123,0.38987172,2.2037785,0.80315846,0.20626128,0.13796915,-2.710634,-1.9177735,-1.8226985,0.49913052,1.6682966,-1.693022,-1.7213011,0.66572076,-1.6886907,-0.6403635,0.54367906,1.8335673,-0.6574775,-1.5936944,0.053820048,-2.1423385,-0.023923354,1.6658303,-3.1590378,-0.15818577,0.43226066,-0.69165426,-1.0800475,-1.8164465,0.040788025,-1.3744043,3.6339579,0.92737955,-4.9283404,1.383018,0.2883471,-0.6945759,1.6889241,0.7609246,-1.1568456,1.7856876,0.30407718,3.0690126,0.80829775,-4.097568,-0.627833,0.27618918,-1.8635916,2.503598,-0.92553294,0.2608784,-1.1528668,-1.5956084,0.5724897,2.2682974,1.9419252,-0.20752642,2.6685991,-2.2978055,-0.93746895,1.9361912,3.42974,1.6457543,-1.3601185,-0.160612,0.5494518,-0.086389914,-2.1711843,-0.75798756,0.4225874,-0.09473432,-1.2048901,1.7230843,-3.07496,1.3220003,-0.23581308,2.3496153,0.59882057,-1.4266156,-4.4159923,-0.99769497,0.7154173,-2.927062,2.0200496,-1.0268073,0.034855243,1.3878847,-1.1953362,4.980844,3.4599912,2.360801,2.0932631,-0.3169493,-0.40863174,1.7126796,-1.5456133,-0.1785829,0.90818477,-0.5279355,1.0480672,-1.3102617,1.0692708,-1.4641243,2.3435566,-2.1341734,-1.4080567,1.393748,2.3768103,0.90777516,1.7220252,0.4344507,1.7356462,-0.6805799,-0.5530657,2.2103696,-1.2421935,0.11579291,0.25522345,-0.7779294,-0.59735805,-0.768264,-0.6781969,0.602695,0.100435235,-2.1771421,-2.1036465,1.7843385
Sc1_A,-0.8429055,0.16006961,-1.5048612,0.28339952,4.2048507,0.6077768,0.5400852,3.8576658,-1.6679374,-1.6801673,6.1024165,1.9856589,-4.3130326,2.3036191,0.27529448,1.8528662,2.0410666,-0.105183415,-2.8436253,-2.7443197,1.3914632,-0.14742772,-1.9707824,-0.8708075,-1.2863654,-2.0097737,-1.5929639,-1.0493988,-0.24884906,1.642776,0.7935452,-0.9194128,-0.86154586,-1.5933671,-1.7171457,-1.1066525,0.379204,1.185976,1.4119971,1.0408368,1.3389105,0.58820045,-0.88080525,0.26691803,-2.408484,2.2622488,1.2751027,-2.1058583,-0.05481284,0.55320734,-0.8431108,1.8378303,0.3537161,-4.9155912,-0.56564754,0.9555568,-1.3840545,1.6405493,1.0676639,-1.3751425,1.5771554,0.21911803,-0.28534716,-1.3745103,3.219007,2.4938176,-2.6884153,-4.267798,0.8591073,1.9261242,-0.49935082,-0.7010912,-1.9779731,-0.007389288,-0.8322034,1.1560884,-3.8491294,1.6031531,-2.784424,-0.21085896,-4.4217567,-0.89267564,0.6753836,1.8390752,1.7969679,-0.44841003,-2.2447653,-3.2136443,1.0421473,-0.50590473,-1.3933771,0.7956085,1.4718627,-3.7910182,-0.6348026,-1.419346,0.5414396,-1.4352776,0.9437997,2.129494,3.7686028,1.6087627,1.8386437,2.6017654,-0.49314985,4.6497307,0.58853084,-3.044846,0.1887281,-2.5842946,2.5549343,0.5298745,-2.3031185,0.47472432,1.2518886,1.2802801,-1.1226596,-0.8619498,-0.13688377,-2.352212,-3.0584016,-2.3013704,0.66089344,0.3994002,-0.5174868,-3.5943317,0.4839457,-3.711262,3.1414533,-1.3915447,-2.5326297,0.22899245,3.5919294,0.07463472,-0.22133897,-0.100675434,-2.8526409,-1.2632849,2.4806178,-1.2981242,-0.92543817,-1.1821331,-0.47754413,0.88149023,1.4670763,-0.06985617,-3.1962843,-0.088028364,1.1756786,2.4699824,-0.1888069,1.8803626,0.3973274,0.924273,-1.4245939,1.1641423,3.0341213,0.28966296,-2.0415945,-1.9112242,-0.7579237,-1.2496225,-0.10162776,2.7719884,-2.546899,-2.0090382,-3.454527,1.0146741,-0.07138739,-0.7665005,-0.15873742,-0.35983786,2.3248549,0.4267474,2.3065333,0.95882493,0.23133433,0.22183715,-2.6377492,-1.9769142,-1.580963,0.27333945,1.782094,-1.9024116,-1.5603,0.82460594,-1.8199335,-0.8676807,0.5129198,1.9294282,-0.844988,-1.7925088,0.023654237,-1.8815113,0.23682287,1.5882933,-3.3540635,-0.30897915,0.6719902,-0.8269939,-1.0487942,-1.7532246,-0.25472438,-1.1940433,3.527898,0.8762191,-4.8037825,1.304143,0.3092327,-0.74051225,1.5392777,0.49066064,-1.1221071,1.7418063,0.36611706,3.0445502,0.7671842,-4.0412903,-0.45430854,0.55395794,-1.8915992,2.5056238,-0.67505693,0.22784293,-0.7418529,-1.3975806,0.7193715,1.9318552,1.9903023,-0.38617724,2.1778016,-2.4568365,-0.8498342,1.782717,3.1709561,1.5913993,-1.0301553,0.08840209,0.6832892,0.043021314,-1.9982142,-0.8348728,0.45588544,-0.08585301,-0.98448163,1.6571883,-3.083531,1.0868405,-0.21904409,2.1666226,0.38443086,-1.4210835,-4.182394,-1.0173252,0.7524058,-2.8504746,2.1108177,-1.0359188,0.15378235,1.2217026,-1.3412031,4.7893105,3.268937,2.265911,1.9896162,-0.2606478,-0.38078728,1.6272671,-1.579356,-0.43296114,0.89879197,-0.59655696,0.9404728,-1.3171064,0.98988765,-1.3986288,2.2046502,-2.068827,-1.4654341,1.360538,2.4737804,0.77624285,1.6165355,0.54849297,1.6224765,-0.63160706,-0.4165395,2.1972084,-1.2236663,0.12583868,0.13644534,-0.78878886,-0.64795095,-0.73807025,-0.41131398,0.38666955,0.1967346,-2.0263927,-2.15173,1.9944144
Sc1_A,-0.79020375,0.36348277,-1.8345158,0.4594649,4.452106,0.46598893,0.59376687,4.096534,-1.5546753,-1.7183183,6.3052864,2.180723,-4.5772552,2.347754,0.10622454,1.9964334,2.1982076,-0.31259814,-2.7625399,-2.9249632,1.5245677,-0.15264748,-1.7081517,-1.2677631,-1.2159152,-2.0358756,-1.7070161,-1.0275081,-0.18500052,1.803445,1.0200436,-0.70081663,-0.71343356,-1.8128409,-1.6091206,-1.3670073,0.357751,1.2894123,1.5783567,1.1117071,1.338447,0.48342106,-0.7340654,0.04855261,-2.6088855,2.0837429,1.3687822,-2.172822,-0.17234299,0.9378613,-0.8001281,1.7398539,0.029989399,-5.1175685,-0.7016765,0.8927353,-1.3196981,1.76565,1.3165048,-1.3347844,1.6209872,0.14957657,-0.1992966,-1.3049237,3.21886,2.3901422,-2.6406248,-4.2599854,0.764999,1.9377311,-0.534198,-0.6065163,-2.0912545,-0.10348803,-0.79582506,1.450848,-3.4498186,1.496198,-2.8933132,-0.46290323,-4.6087174,-1.0404825,0.81535876,1.8637003,2.0633435,-0.4366923,-2.2067752,-3.2564843,1.363431,-0.6564278,-1.5971233,0.66761804,1.4111506,-3.8076391,-0.5589183,-1.643264,1.0450512,-1.3114944,0.8912799,2.3038356,3.6397343,1.4789171,1.9294413,2.6224205,-0.46554318,4.6033473,0.5288128,-3.0753613,0.1957962,-2.9697094,2.5178804,0.8580196,-2.382995,0.40164667,1.4646939,1.3499957,-1.2468655,-1.0332395,0.044500872,-2.2660663,-3.2177997,-2.5673606,0.62720245,0.36472937,-0.5176518,-3.506388,0.77264464,-3.547364,2.9351466,-1.5393971,-2.7786791,0.2453836,3.5858014,0.10862712,-0.27544817,-0.00578011,-2.953023,-1.224605,2.7588942,-1.3339723,-1.2207761,-1.211592,-0.39483115,0.7377067,1.5848181,0.25499833,-3.1862428,0.012264598,1.1621063,2.696205,-0.28945985,2.1687584,0.2932646,1.0150518,-1.438793,1.268557,2.907329,0.08631345,-2.2916358,-1.9381357,-0.7990699,-1.5342126,-0.106612116,2.8505814,-2.7191193,-1.8255663,-3.7181587,1.1441252,-0.00807009,-0.78170246,-0.28272888,-0.3779743,2.3859837,0.484008,2.2281814,0.8834561,0.023760194,-0.05729056,-2.6193483,-2.1436803,-1.5795562,0.4554777,1.926639,-1.8249421,-1.5751568,0.60075414,-1.8975699,-0.7930217,0.7868089,1.9026332,-0.6706568,-1.6046956,0.001923498,-2.1195107,0.04741749,1.6339155,-3.3375022,-0.3996994,0.31358618,-0.6877668,-1.3688744,-1.9132206,-0.15954298,-1.5102029,3.6823976,1.0643823,-4.9125385,1.5441803,0.29607275,-0.67503065,1.4927578,0.6780794,-1.3016177,1.6772953,0.41030753,3.1215749,0.9274575,-4.0454106,-0.82223654,0.3906906,-1.9540856,2.5068862,-0.6893117,0.17877069,-0.92625153,-1.6087023,0.7063608,2.0511239,1.9165097,-0.19444509,2.4176152,-2.5702307,-1.0902104,1.9282604,3.3484917,1.5678145,-1.3299459,0.00884318,0.44801185,-0.043647975,-2.1885667,-0.8749657,0.5473909,-0.2563201,-1.1570377,1.8385894,-3.1484184,1.213472,-0.28751206,2.0570922,0.51737195,-1.7111824,-4.5024586,-1.0292732,0.81212157,-2.9700513,2.3030267,-0.9440774,0.11627584,1.3332287,-1.2476847,5.166108,3.4893677,2.3380153,2.1796741,-0.36186925,-0.41231865,1.7741271,-1.6737579,-0.25595877,0.6349696,-0.78456616,1.0252522,-1.3365302,0.9515377,-1.5470423,2.375896,-1.8245893,-1.4728143,1.4167254,2.328284,0.8704737,1.481567,0.69725597,1.619162,-0.70009375,-0.49787202,2.2343054,-1.286619,0.12839198,0.065668926,-0.73663014,-0.5125354,-0.42881277,-0.5426095,0.52411854,0.14024568,-2.1132774,-2.0718005,2.0432327
Sc1_B,-1.6938114,-0.4979087,-2.5120316,0.4549276,4.4088035,0.6526075,0.8460872,3.763006,-1.0149294,-1.5585612,5.2013173,2.025909,-4.520284,1.9313829,-0.26655084,1.9630731,1.5772139,-0.18540673,-2.803524,-2.9909601,1.4667351,0.22762212,-1.4239824,-0.57893413,-0.15415676,-1.3799204,-2.0475192,-1.325724,-0.6020354,0.77227473,0.34294048,-0.6351716,-0.24206349,-1.9844006,-1.7630571,-1.6407067,0.2477239,1.1166232,0.14415982,0.75235224,1.1443561,-0.6999192,-0.28761265,0.29169106,-2.48315,2.369972,1.5817134,-1.9934415,-0.4003028,0.99902415,-0.5124596,2.2892377,-0.24311323,-4.960508,-0.2746523,0.9229179,-1.2860024,0.9170423,1.463947,-1.6002238,0.7798113,-0.93380636,-0.17137402,-1.2976352,2.7459853,1.8985543,-2.626478,-2.9978573,1.476053,1.8482524,0.027177775,-1.4560415,-1.8226637,0.3849152,-0.89311665,1.1006788,-3.1446764,0.9560048,-2.3403134,0.3533953,-4.2417407,-1.1373159,-0.11491679,1.2917551,1.5508908,-0.23417194,-2.1652596,-3.608384,1.2746775,-0.24925546,-0.6767036,0.1543808,1.1041491,-3.7749968,0.61300904,-0.66940814,1.0662732,-0.79123336,0.7623961,1.957432,3.0826535,0.5793906,2.2044895,3.185206,-0.3073947,4.870467,0.6781806,-2.8480382,-0.4916749,-3.6374788,1.6152083,0.8142198,-2.1146076,0.055345025,1.1101646,1.9563102,-0.38278818,-1.4140836,0.4952178,-2.3340907,-2.3211522,-2.963689,0.7566676,0.06514985,-1.5921502,-3.795184,0.9308032,-2.7675831,2.7785513,-1.8075038,-3.114428,0.009502549,4.6146398,0.045553286,0.45698076,-0.2153402,-2.7245328,-1.0344888,1.7210042,-1.043935,-0.9226866,-0.9869915,-0.51503277,1.1115638,2.2218132,-0.051726613,-3.5993042,-0.15288192,1.462303,2.0977979,0.1253955,2.403337,0.6497465,1.1705418,-1.4147272,0.7675532,3.2979372,-0.14874703,-1.6292787,-2.0695133,-0.94225377,-1.641654,0.50895876,2.8350852,-1.7694191,-2.6034265,-3.9309115,1.3018401,0.4841109,-0.7847292,0.3518888,0.23592465,2.168494,-0.37527037,1.302,0.4999397,1.1055862,-0.1939083,-3.2890613,-2.0394163,-2.551929,0.17422387,0.9252389,-1.7669466,-1.5108522,0.7900389,-1.1516342,0.51925373,0.31713763,1.8512387,0.015689932,-2.1358924,-0.4673321,-2.1722128,0.02432263,0.9592142,-2.9555345,-0.6115317,-0.3212472,-0.6352507,-0.768587,-1.749645,0.2235061,-1.0242498,3.8048277,-0.23053282,-4.744045,2.2462115,0.13501677,-1.2210782,1.6000824,0.8955567,-1.4190599,0.6438336,-0.027180523,2.4663415,1.0957627,-4.1654954,-0.6482471,0.49154663,-1.6305006,1.7683457,-0.5744235,-0.23548819,-1.6432731,-1.8629758,0.5268066,2.05467,1.8411195,0.24399717,3.1992686,-1.7386358,-0.6421667,2.0673518,3.523295,1.1839225,-2.4157443,-0.11079475,0.18931113,-0.9791527,-1.4892788,-0.7086969,0.8481905,0.013241604,-2.1516669,1.2784219,-3.2424889,1.0542978,-0.18239675,2.1770701,0.4434512,-2.2815773,-3.2314167,-0.85628754,1.2222304,-3.695635,1.5350055,-0.43560404,-0.06914861,1.6203288,-1.2336137,4.57014,3.683845,2.4865084,2.7057161,-0.6699332,-0.4017614,1.5056676,-1.459728,-0.00366922,1.0234452,-0.30418795,1.79062,-1.1391113,0.9472593,-0.6463887,1.8561119,-2.07981,-1.0662537,1.3663583,2.3557065,1.0941767,0.833074,0.2202502,1.3667653,-0.5586688,-0.47786105,1.619805,-1.4432049,-0.5380676,-0.024956698,-0.8076182,-0.78371876,-0.6046617,-1.034681,0.30313835,0.41886985,-2.0379343,-2.1086621,1.5568099
Sc1_B,-1.5714828,-0.63811135,-2.5719361,0.81442994,4.39986,0.64383835,0.75876755,3.9051185,-0.9474419,-1.6534312,5.261617,2.1007295,-4.537271,1.9068371,-0.31921527,2.1107202,1.6116409,-0.15661117,-2.7637088,-2.7767236,1.432977,0.36063343,-1.4925522,-0.4545304,-0.34276992,-1.4406607,-2.067564,-1.3074213,-0.5774897,0.8319911,0.42099506,-0.6908685,-0.27612314,-1.951868,-1.8756243,-1.5927751,0.35850686,1.2039683,-0.03795036,0.61726105,1.1470487,-0.6022681,-0.24291436,0.09128841,-2.4568882,2.41041,1.5332505,-1.9595871,-0.40947732,0.9363164,-0.69981945,2.3837562,-0.32625768,-4.986842,-0.21304443,1.0316081,-1.1945431,1.0217248,1.3363723,-1.659483,0.8141182,-0.87208974,-0.0895028,-1.38648,2.8965397,2.042463,-2.6004283,-3.139954,1.3895464,1.7888817,-0.049182214,-1.3854768,-1.9348018,0.42777157,-0.7875201,1.1587983,-3.2277882,1.2133362,-2.299919,0.35180202,-4.3192673,-1.12403,-0.06394376,1.1016457,1.6121786,-0.213834,-2.1050966,-3.6080425,1.3673381,-0.13245302,-0.8217974,0.11076301,1.3186991,-3.8071218,0.5081201,-0.88807106,1.1065844,-0.82046986,0.8530329,2.0181522,3.0321217,0.5010432,2.257194,3.2987552,-0.14808556,5.122876,0.8655001,-2.7866814,-0.5699915,-3.5615964,1.52544,0.8780819,-2.113391,0.038041085,1.4043623,2.031161,-0.5177313,-1.5510845,0.255602,-2.2948046,-2.2865927,-3.0229936,0.71094155,0.19515994,-1.5509841,-3.8433547,0.8541263,-2.8417,2.840077,-1.8753427,-3.2060285,0.2517329,4.486362,-0.079276204,0.3661321,-0.11625242,-2.7954347,-1.225569,1.80625,-1.0678575,-0.8417689,-0.99220264,-0.4767333,1.131801,2.2116566,0.0479426,-3.666308,-0.45820123,1.7643595,2.13802,0.004123124,2.1957214,0.709569,1.4406368,-1.6187092,0.8284599,2.9762778,-0.16608545,-1.6099819,-2.045948,-0.9358922,-1.6627207,0.53383744,2.7943156,-1.7073873,-2.5372617,-3.8118892,1.2555712,0.37095934,-0.5724095,0.1895928,0.19336113,2.0418074,-0.2402761,1.4230293,0.446658,1.0264003,-0.08818384,-3.2808642,-1.9932436,-2.4368625,0.19467595,0.97933894,-1.7368425,-1.5850366,0.6755369,-1.197251,0.65496373,0.2978264,1.8575913,-0.066735946,-2.1974716,-0.4071185,-2.026063,0.25950137,0.6360174,-3.0900974,-0.66535664,-0.104327165,-0.75717264,-0.72260654,-1.619476,0.30356944,-1.1348681,3.911646,-0.033685647,-4.9566984,2.312584,0.12877,-1.1582029,1.5590482,0.81973046,-1.350564,0.6469648,0.21439035,2.436489,0.8645032,-4.1613026,-0.5504705,0.8390275,-1.7315251,1.815552,-0.7151538,-0.308875,-1.50707,-1.8343966,0.5820428,2.2210038,1.8590333,0.26344225,3.1665726,-1.9563153,-0.7958594,2.1077142,3.5948822,1.2665831,-2.2439394,0.03829873,0.2008698,-0.88599765,-1.3549478,-0.5300495,0.8720376,-0.15348554,-2.3870754,1.1891865,-3.4473915,1.1674471,-0.20595941,2.1072395,0.35481846,-2.0781116,-3.660534,-0.7329962,1.0755208,-3.4468865,1.4054829,-0.4068674,0.046043295,1.545167,-1.1905975,4.554293,3.3638985,2.422987,2.7798195,-0.6043935,-0.4561531,1.6576264,-1.4423363,0.07969208,0.9316188,-0.4621683,1.8328373,-1.0823961,1.1276793,-0.59497833,1.9028556,-2.0848494,-1.0490819,1.4195626,2.4293694,0.96350306,0.9524123,0.17878744,1.196841,-0.6336319,-0.6062887,1.7557857,-1.2704204,-0.4136139,0.011675239,-0.8161987,-0.7001623,-0.80807894,-1.0737011,0.28094143,0.53238946,-1.9744532,-1.988424,1.4243119
Sc1_B,-1.7871535,-0.286159,-2.5757236,0.8183345,4.296055,0.6833346,0.79409105,3.7005181,-1.2305181,-1.6312304,5.279049,2.0819042,-4.7482047,2.1230006,-0.5129481,2.4128118,1.6469612,-0.002899202,-2.9383786,-2.6946332,1.6437963,0.57396424,-1.4709425,-0.68477607,-0.19327258,-1.5564036,-1.89383,-1.3309253,-0.5620413,0.9265611,0.47711515,-0.47731993,-0.4427316,-1.8875655,-1.7785503,-1.5746065,0.47850206,1.2170358,-0.000587603,0.6746791,1.1517214,-0.8394431,-0.12175773,0.189101,-2.6904075,2.2575724,1.5556335,-1.8014604,-0.26559526,0.79098433,-0.5772058,2.2158544,-0.56230533,-4.8614254,-0.2912995,0.95136386,-1.2626543,0.9053422,1.3762697,-1.53127,0.836299,-0.78946245,-0.3816512,-1.4554669,3.0617986,1.9250528,-2.7202644,-3.1769311,1.5132471,1.846882,-0.17132688,-1.2400776,-1.9198908,0.54225755,-0.89626,1.2022026,-2.945742,1.2206099,-2.2928166,0.3109788,-4.2192993,-1.2515616,0.0635376,1.1801809,1.4968246,-0.36813462,-2.1077952,-3.7248738,1.5143701,-0.12050505,-1.2249303,0.20792365,1.2264844,-3.511194,0.6597414,-0.56202316,0.9960692,-0.6352082,0.86646694,2.0657027,3.1211884,0.5182264,2.1489415,3.237167,-0.24820976,5.0295315,0.80604404,-2.862455,-0.5936042,-3.5558558,1.558092,0.69495726,-2.1679494,-0.17924884,1.191312,2.1130776,-0.5419721,-1.6503524,0.39666423,-2.3438978,-2.4309776,-3.0663366,0.7260483,0.20986338,-1.257356,-3.730855,0.59788924,-2.7145221,2.86816,-1.7331033,-3.089142,0.11045235,4.4754286,0.098175116,0.3937426,-0.0358849,-2.9296222,-1.1846046,1.6812627,-0.8169633,-0.7581575,-1.1263614,-0.5198045,0.86877424,2.253242,0.12217191,-3.5149713,-0.37278864,1.7059826,2.296871,-0.24220257,2.1397197,0.88785946,1.2657769,-1.5083585,0.83636844,3.0320454,-0.11521662,-1.7175514,-2.0468388,-0.91502655,-1.4850876,0.476896,2.8376007,-1.820428,-2.4542398,-3.9663754,1.234118,0.6152988,-0.559948,-0.028801806,0.11377134,1.8835696,-0.3458472,1.3429384,0.5951404,0.8539594,-0.14066689,-3.1749606,-1.7674521,-2.5409243,0.2524688,1.025751,-1.8488766,-1.573052,0.81829023,-1.3946859,0.5814301,0.2073949,1.9037837,-0.007129702,-2.0404994,-0.63223076,-1.9197576,0.12929057,1.0028111,-2.936424,-0.65844023,-0.30739588,-0.8212336,-0.8603454,-1.8387994,0.4371526,-0.8925726,3.5860686,-0.008870509,-4.76687,2.4150763,0.15986198,-1.2031728,1.4365433,0.8759334,-1.2348094,0.46081057,0.23175663,2.2566025,1.0313275,-4.425335,-0.9502127,0.82170576,-2.0193133,1.9044461,-0.57804,-0.62863666,-1.4587561,-1.941699,0.48258477,2.231243,1.7719284,-0.11886533,3.2539659,-1.7079494,-0.81329846,2.2160645,3.8161697,1.2140763,-2.0893838,-0.11019691,0.1312499,-0.8349655,-1.4490545,-0.68634313,0.8870345,-0.005627195,-2.2804358,1.1568977,-3.5421011,1.2216109,-0.15484892,2.3046484,0.47114873,-2.073971,-3.664662,-0.6009157,1.1672293,-3.6048038,1.5971202,-0.5156516,0.16852212,1.5401484,-1.3364861,4.753297,3.13786,2.5995228,2.6567116,-0.5683025,-0.33313078,1.6288042,-1.2771695,-0.2463038,0.9192669,-0.42081922,1.633256,-0.9772304,0.9665995,-0.5991352,1.8642569,-2.0913386,-1.0618482,1.3462433,2.4720461,0.9311859,1.078,0.24995074,1.1465379,-0.6083992,-0.50630915,1.8575462,-1.2998754,-0.53,-0.17207195,-0.7269315,-1.0191554,-0.61924946,-0.83964634,0.36429256,0.29729334,-1.7558568,-1.9084277,1.5126959
Sc1_B,-1.8626534,-0.7071706,-2.546046,0.6149937,4.4092283,0.77240896,0.72659457,3.7800364,-0.9721144,-1.6793518,5.2285585,2.0372877,-4.4413123,1.8918226,-0.18222082,2.1072774,1.5516524,-0.08241781,-2.844346,-2.9693646,1.5922315,0.2998505,-1.5261724,-0.5657921,-0.2532838,-1.4603964,-2.0198011,-1.3267156,-0.54549026,0.8396099,0.30386764,-0.6056568,-0.3500834,-1.897651,-1.9633917,-1.6377178,0.133361,1.2683399,-0.16646785,0.557686,1.1276617,-0.7561928,-0.38849136,0.008410847,-2.5268602,2.2118402,1.4662774,-2.0883257,-0.4159441,0.93930244,-0.7639558,2.4324846,-0.1873443,-4.997756,-0.15770385,0.9937011,-1.3379567,1.0088326,1.3376952,-1.7528473,0.66535676,-0.99356365,-0.26346523,-1.4699042,2.8534794,1.8814375,-2.7079244,-3.0117326,1.4469486,1.8013599,0.041430615,-1.6244571,-2.019542,0.3262932,-0.84638196,1.1599363,-3.271382,1.1161382,-2.3515534,0.42133817,-4.3015685,-1.2089365,-0.14692011,1.1914163,1.467988,-0.26354694,-2.150978,-3.631858,1.3190249,-0.0429029,-0.69812727,0.111028515,1.286001,-3.6555042,0.49003965,-0.770555,1.0244709,-0.73324156,0.8122985,2.1050315,3.039133,0.47792006,2.2493281,3.3307252,-0.058436323,4.8982863,0.86880416,-2.9811978,-0.41263884,-3.6321235,1.4753468,0.8216628,-2.1961236,0.15332745,1.3379302,1.8374218,-0.49847412,-1.306609,0.30787054,-2.2003574,-2.2503386,-3.1379933,0.8423487,0.15002564,-1.4551604,-3.838121,0.78820044,-2.731297,2.804564,-1.7889287,-3.1253703,0.2927294,4.4971476,0.19630274,0.3733053,-0.15086597,-2.7882857,-1.0810654,1.7204583,-1.1720681,-0.8495575,-0.8115674,-0.5227852,1.1120876,2.0878253,-0.19560784,-3.7238774,-0.40060538,1.7279794,2.2833693,0.09302576,2.1773906,0.56394494,1.385088,-1.429734,0.8756955,3.0211844,-0.15811983,-1.7587206,-2.0134797,-0.9201269,-1.6752357,0.4450922,2.7701304,-1.7265409,-2.6639624,-3.9149697,1.2115426,0.32873192,-0.46101946,0.41610748,0.11764958,2.2431695,-0.45157772,1.343106,0.41830802,0.85425407,-0.19158505,-3.197823,-1.8588989,-2.4204192,0.065089464,0.8501794,-1.5236804,-1.5011914,0.85101306,-1.1764654,0.6779803,0.2366945,1.8731537,-0.07691038,-2.2524226,-0.53640103,-2.10056,0.21063872,0.70337355,-2.8594165,-0.74767053,-0.11905807,-0.63323444,-0.7302765,-1.7489456,0.38805157,-1.1243075,3.7450554,-0.12037514,-4.8930845,2.2961414,0.08381499,-1.1008407,1.4622993,0.87761897,-1.4913422,0.70567214,0.008030532,2.4400225,0.82389796,-4.3817005,-0.6930537,0.68722,-1.7738125,1.902077,-0.5249418,-0.2832025,-1.5225022,-1.96068,0.5704688,2.1719954,1.7770061,0.26172268,3.2527282,-1.7832744,-0.7259489,2.2143006,3.7504058,1.3070476,-2.3279529,-0.016536955,0.096296825,-0.97000206,-1.2779081,-0.41188937,1.0033423,-0.05462553,-2.230905,1.1632216,-3.6193976,1.1963692,-0.3219767,2.239801,0.44777712,-2.1952865,-3.571628,-0.6884502,1.2573508,-3.6090539,1.5506895,-0.5457547,0.013453996,1.5395508,-1.2702014,4.485009,3.7000167,2.27301,2.8035736,-0.6474928,-0.24156404,1.5681391,-1.5610778,-0.07380332,1.2578604,-0.29824242,1.7333078,-1.197148,1.0891454,-0.69239974,1.8957456,-2.130755,-0.9724191,1.3592566,2.3381872,1.0232046,1.084379,0.27873522,1.3188604,-0.7071696,-0.80611145,1.5790187,-1.1956484,-0.43080005,-0.113364935,-0.88166,-0.699196,-0.58605087,-1.01466,0.48193756,0.4381922,-2.093903,-2.0101426,1.4664015
Sc1_B,-1.864603,-0.5296468,-2.4237392,0.9040462,4.603328,0.8399353,0.7658298,3.7366521,-1.113462,-1.9632293,5.2395177,2.073052,-4.7604275,1.9214734,-0.53515625,2.2968972,1.5956178,-0.055473745,-2.8002136,-2.5990422,1.29764,0.39731944,-1.8883765,-0.40007865,-0.445538,-1.4341378,-1.8495847,-1.2564303,-0.50145686,0.6819359,0.6814053,-0.57831925,-0.26609558,-1.9612132,-1.8196447,-1.4464852,0.40712303,1.2272662,-0.23191108,0.60085315,1.1934727,-0.5912075,-0.23881325,0.15620108,-2.4046638,2.0515103,1.3049322,-2.0772762,-0.24454252,0.75273466,-0.7878333,2.1875312,-0.2750784,-4.99921,-0.28748682,1.1934046,-1.2686397,0.84378976,1.0584767,-1.4609363,0.9275017,-0.95220846,-0.10576782,-1.2488691,2.8170075,1.7324668,-2.6584582,-3.2004013,1.4285384,1.7987034,-0.19733077,-1.3193113,-1.8901932,0.2401765,-0.6355109,1.0782602,-2.797884,1.1915826,-2.032672,0.39473635,-4.2922406,-1.0581458,-0.1050952,1.251058,1.4697634,-0.17144698,-2.1344104,-3.8019574,1.2757466,-0.12054957,-0.8672815,-0.03357347,1.2526629,-3.7531068,0.42415938,-0.76645684,0.9426473,-0.89634365,0.84343493,1.9624746,3.2813325,0.5255795,2.1360426,3.52333,-0.08068154,5.204431,0.75049764,-2.8415518,-0.7769942,-3.6003675,1.5312438,0.6729658,-2.2172313,-0.10540743,1.4561089,2.0349295,-0.6024167,-1.4935402,0.31256872,-2.3728454,-2.2149448,-2.9785273,0.86371034,0.094937295,-1.1878333,-3.7574608,0.63575476,-2.8820932,2.782264,-1.9193715,-3.0948045,0.16325276,4.4532065,-0.10285646,0.40570587,-0.062171362,-2.8283093,-1.3836862,1.5210394,-0.91381264,-0.8259018,-1.092781,-0.34105647,1.0022099,2.1827545,0.3262018,-3.3006003,-0.47907218,1.6306493,2.3633811,0.015331668,2.1980557,0.6957591,1.5015765,-1.6909091,0.8178903,3.1326969,-0.16211307,-1.7381339,-2.285624,-0.94715506,-1.5624293,0.56375253,2.9351754,-1.9289826,-2.561096,-3.7769868,1.0768353,0.54262596,-0.5952742,0.10765369,0.1603299,1.9069828,-0.18746117,1.4481997,0.8040053,1.0798092,-0.21832214,-3.2236307,-1.8104823,-2.5649612,0.3767206,1.0276295,-1.8748162,-1.7616196,0.7037023,-1.3457992,0.5868869,0.2191266,1.8550189,-0.24756257,-2.0356398,-0.40600824,-1.9657408,0.27060258,0.7320803,-3.0592952,-0.6993538,-0.13728276,-0.85938895,-0.7461374,-1.7135291,0.37220353,-0.8197791,3.729836,-0.057152674,-4.815375,2.471368,0.13907714,-1.2394484,1.5303262,0.8276828,-1.2350296,0.47070763,0.27140018,2.4794912,0.7042204,-4.154018,-0.72221196,0.9270461,-1.8695087,1.9595186,-0.73351777,-0.4722465,-1.5946234,-1.8304269,0.6551619,2.3254564,1.7805395,0.12929864,3.3107278,-1.7921143,-0.56887174,2.084275,3.8623288,1.3299358,-2.268152,-0.08898733,0.13769192,-0.7625071,-1.4935231,-0.6661808,0.7929852,-0.11971252,-2.469209,1.0128496,-3.5807421,1.1993988,-0.34991944,2.3758461,0.5660033,-2.0745811,-3.5549862,-0.58715636,1.220036,-3.5823004,1.53494,-0.46226475,0.11663162,1.6016206,-1.3166603,4.530079,3.0246978,2.46108,2.7847853,-0.41415718,-0.46563604,1.3993611,-1.3409122,-0.064349845,0.9313772,-0.34801847,1.7296957,-1.1719587,1.0186855,-0.738527,1.7636908,-2.0263517,-0.9832656,1.3567079,2.5264783,1.0121357,0.7304242,0.21335915,1.1942015,-0.5937388,-0.53814924,1.641172,-1.1690476,-0.4738799,-0.1879641,-0.7938897,-1.0277947,-0.87517035,-1.1269296,0.34229,0.2630662,-1.8469491,-1.9116584,1.3825463
Sc1_B,-1.7343891,-0.41872302,-2.5233269,0.83714515,4.4821734,0.6608479,0.70869875,3.876262,-0.9302634,-1.6321374,5.526031,1.9229238,-4.5806737,2.1154993,-0.4189611,2.2324378,1.3375214,-0.07817521,-2.6282434,-2.9974627,1.4537477,0.389358,-1.8432575,-0.27662802,-0.37832466,-1.3110042,-2.089008,-1.1884905,-0.49317428,0.9127804,0.5473402,-0.6566394,-0.36704698,-2.0090847,-2.0806224,-1.3975303,0.25283983,1.2831216,-0.0649865,0.5178456,1.1718225,-0.42318898,-0.08666358,0.110483855,-2.5262716,2.3846998,1.6379734,-2.036052,-0.4244487,0.8577401,-0.9145548,2.0336812,-0.18858449,-5.006184,-0.3745095,1.1986699,-1.3642815,0.8339926,1.2562629,-1.5412643,0.5642389,-1.1075506,0.16301064,-1.263881,2.9832485,1.9099858,-2.5701594,-3.1204586,1.3942105,1.7359078,-0.10455736,-1.2899171,-1.994667,0.3320185,-0.6540863,1.4027971,-3.1170135,1.2143037,-2.4086232,0.33214226,-4.284575,-1.0336318,-0.2196816,1.1234137,1.7728357,-0.47306818,-2.2130897,-3.5569704,1.3831252,-0.2276348,-0.8572069,0.003245639,1.2355567,-3.7390268,0.38092467,-0.8519437,0.9503169,-1.1102482,0.5926918,1.93892,3.2151484,0.44272307,2.2612956,3.46193,-0.2324698,5.1955266,0.8473106,-2.7881756,-0.47007933,-3.6733248,1.4390982,0.88736856,-2.1157594,0.22590014,1.4087077,1.7554137,-0.47223198,-1.3117743,0.31562617,-2.2433531,-2.1751614,-2.983121,0.77605003,0.20069616,-1.4552689,-3.8814263,0.5505553,-2.7460902,2.860683,-1.766592,-3.0772583,0.09399613,4.459029,-0.07820755,0.45143914,-0.08200848,-2.8661208,-1.1624819,1.6804175,-1.1836064,-0.7719798,-1.005095,-0.35363603,0.95515215,2.159826,0.20257491,-3.6187284,-0.53692204,1.6901989,2.1532893,0.23179571,2.214435,0.68751967,1.4002415,-1.6334629,0.8387518,2.968769,-0.17532285,-1.7966954,-2.1536355,-0.93854886,-1.6867862,0.42309526,2.917426,-1.9207798,-2.639773,-3.84267,1.2327582,0.28834584,-0.33767384,0.4407682,0.34926158,2.0466657,-0.22282383,1.3112528,0.47948107,0.9215961,-0.07109704,-3.331145,-1.8297797,-2.5914013,0.38827857,1.0771085,-1.7556875,-1.8778588,0.80933565,-1.3183285,0.69569385,0.26783815,1.8524094,-0.017307747,-2.089618,-0.55158556,-1.9075615,0.30804652,0.75682443,-3.0667856,-0.57125056,-0.071639314,-0.6436629,-0.6892099,-1.6004955,0.3871152,-1.2809391,4.0527005,0.052025925,-4.943382,2.3982542,0.20248315,-1.2409018,1.6937859,0.8770131,-1.3626239,0.74645245,0.3544484,2.593786,0.6428241,-4.0899916,-0.49790812,0.81459785,-1.8292031,1.8786459,-0.5906858,-0.36407706,-1.783175,-1.8674554,0.44069314,2.2902234,1.8526977,0.24230413,3.3541381,-1.6063967,-0.5799228,2.0822015,3.5534456,1.3463495,-2.1047757,-0.22884245,0.008802502,-1.0671333,-1.598567,-0.5280461,0.8660361,-0.10354693,-2.3404233,0.99937546,-3.4872875,1.2577024,-0.26387215,2.3434124,0.43603763,-2.1023798,-3.6491494,-0.7026641,1.2736106,-3.5354223,1.687618,-0.5178607,0.07128396,1.7341977,-1.2918634,4.6704206,3.2745402,2.61817,2.7399023,-0.6554393,-0.49157774,1.6264305,-1.465376,-0.13241778,0.90842956,-0.37844378,2.0153673,-1.1367042,1.1454092,-0.69090044,1.9477334,-2.0413685,-1.1293194,1.3976619,2.3979332,0.9346608,0.79922366,0.012190037,1.1034346,-0.4314852,-0.546967,1.6682049,-1.2440127,-0.42480323,0.104198515,-1.0772452,-0.95364666,-0.8496355,-1.0971314,0.25050914,0.41316643,-1.8674002,-2.014857,1.5600922
Sc1_B,-1.7399782,-0.5442793,-2.5864289,0.6466506,4.4110565,0.6895684,0.8044044,3.7690141,-0.9522586,-1.6727005,5.146181,2.1552484,-4.55485,1.8842978,-0.43287188,2.354727,1.5131897,-0.07123622,-2.8135633,-2.7415922,1.4336567,0.14708102,-1.5485402,-0.5810388,-0.25317627,-1.4179031,-1.9937738,-1.2789326,-0.5276327,0.70305514,0.48288515,-0.4705752,-0.3446069,-1.9218785,-1.8846775,-1.5593851,0.21956481,1.2077681,-0.08916263,0.58217555,1.1704456,-0.60444194,-0.4324325,0.11224418,-2.5937243,2.1587057,1.4485189,-2.0950925,-0.30026802,0.96586484,-0.77426314,2.2756686,-0.27846107,-5.002858,-0.1839477,1.1014154,-1.1857178,1.107045,1.3328526,-1.6397654,0.87276644,-0.8904153,-0.032055266,-1.2941761,2.9170032,2.1116893,-2.532416,-3.0406199,1.5148835,1.8160045,-0.022125198,-1.3098302,-1.9368808,0.27320415,-0.8726148,1.0732586,-3.0988271,1.1753198,-2.3412406,0.42394903,-4.2535057,-1.0511758,-0.16336489,1.1762788,1.5962945,-0.02066641,-2.3725781,-3.9071164,1.4573195,-0.28424254,-0.7725064,-0.17201516,1.1002722,-3.7314215,0.43459398,-0.6806423,0.869153,-0.77664125,0.8456654,2.1081443,3.2556562,0.57345384,2.154777,3.3575451,-0.16480774,5.0110955,0.89221317,-2.8506715,-0.43646815,-3.6411617,1.5733896,0.8811093,-2.1965585,-0.15647726,1.4484465,2.0394807,-0.53769195,-1.5092834,0.28855175,-2.411164,-2.1776028,-3.1114492,0.93494016,-0.027934773,-1.5031914,-3.7346833,0.81939524,-2.5713737,2.7206712,-1.966184,-3.090462,0.17307037,4.4926243,-0.02482536,0.42007965,-0.1414942,-2.7550957,-1.1934016,1.7429378,-0.9933031,-0.9542598,-0.93099123,-0.44875392,1.0723814,2.0603235,0.14108248,-3.4861386,-0.48721534,1.5866039,2.223624,0.1154326,2.1992784,0.71241117,1.3591533,-1.4987239,0.8797807,2.912157,-0.15029936,-1.6931559,-2.1762788,-0.87630737,-1.6339455,0.66070324,2.8419597,-1.8519772,-2.6304164,-3.912163,1.2786036,0.4309186,-0.6097436,0.2797579,0.10414792,2.0581648,-0.20155184,1.373655,0.5488226,0.9614296,-0.17454588,-3.286533,-1.9716315,-2.5626435,0.11839468,0.9885114,-1.6742185,-1.486689,0.7917172,-1.0704108,0.6239829,0.30837482,1.9727515,-0.13012077,-2.241557,-0.46665356,-2.0028994,0.20456672,0.7903092,-3.132371,-0.6346066,-0.130571,-0.5716582,-0.87095326,-1.6491357,0.2708913,-1.0079781,3.9175498,-0.055783663,-4.8974376,2.42867,-0.09461743,-1.0317631,1.6113728,0.88825136,-1.3955,0.4855231,0.052697193,2.4424841,0.82851136,-4.144628,-0.6158196,0.7810696,-1.6540493,1.9942155,-0.5746596,-0.42861056,-1.6349096,-1.6370473,0.6159809,2.1072462,1.7106022,0.22951798,3.4575963,-1.9886994,-0.8624212,2.0894144,3.6914108,1.2538333,-2.2517223,0.19585478,0.031381324,-0.8578444,-1.4101909,-0.5546646,0.7874169,-0.23818828,-2.3959186,1.2474792,-3.5228302,0.97812897,-0.19901918,2.2113483,0.4218444,-2.3229628,-3.468844,-0.58588463,1.1110858,-3.5714653,1.5446371,-0.6206107,0.12847611,1.5387155,-1.1151903,4.546725,3.4367657,2.387701,2.824359,-0.57797897,-0.4458241,1.7096375,-1.3753598,-0.03944413,0.8516078,-0.31905565,1.9569604,-1.1977473,1.085035,-0.579924,1.8262225,-2.104359,-1.1253045,1.3943698,2.4101787,1.0544103,0.9337381,0.22289588,1.0891194,-0.6644758,-0.46642178,1.7268978,-1.3404455,-0.54140294,-0.08142888,-0.8482973,-0.88566875,-0.7267652,-0.99464464,0.348645,0.39663008,-2.04275,-1.964363,1.6107081
Sc1_B,-1.472633,-0.4387532,-2.3151011,0.93667686,4.4474382,0.70012766,0.75433505,3.7514913,-0.9208961,-1.8150731,5.1230516,2.1247842,-4.599626,1.864237,-0.38842928,2.192012,1.4635072,-0.052227516,-2.857308,-2.6352603,1.3920481,0.25397223,-1.7180669,-0.38277367,-0.3515191,-1.4501595,-1.9375249,-1.2443452,-0.54878247,0.87923396,0.3824875,-0.3191971,-0.48258218,-1.8430696,-1.8030701,-1.5382886,0.23383287,1.1525546,0.08153683,0.6646498,1.2417755,-0.6214431,-0.25070447,0.24068949,-2.5279832,2.1743183,1.324464,-2.0502393,-0.17191851,0.85087204,-0.74296814,2.2174444,-0.3829108,-4.888213,-0.053976078,1.2239622,-1.4022903,0.9923334,1.3132484,-1.7287581,0.8676142,-0.7728722,-0.2711414,-1.3290915,2.961638,1.9929326,-2.6448276,-3.2232335,1.3921862,1.8249578,-0.13441412,-1.2256491,-1.9316794,0.3416419,-0.7397871,1.3157618,-2.947277,0.98849237,-2.2848337,0.3631925,-4.182151,-1.0784876,-0.021278597,1.2042902,1.5403255,-0.29612574,-2.2006485,-3.6996014,1.4872601,-0.21076816,-1.1126075,0.22833546,1.2139643,-3.5206234,0.5269217,-0.82818574,0.9381268,-0.8813989,0.88322365,2.0948434,3.047451,0.6358063,2.065052,3.2686489,-0.08864064,4.9877396,0.8163077,-2.7253613,-0.44630218,-3.6640851,1.6736351,0.7309603,-2.181119,-0.028220369,1.3999445,2.009147,-0.72283816,-1.4525731,0.2793781,-2.3236802,-2.2542336,-3.006107,0.8337221,-0.014149186,-1.3990184,-3.7538028,0.776632,-2.734362,2.81267,-1.9065884,-3.0959816,0.2877957,4.369926,0.0539909,0.47273394,-0.043091338,-2.9672601,-1.1256698,1.7383213,-0.9489978,-0.9248607,-1.1172507,-0.423432,1.0610212,2.062673,0.2146968,-3.4709272,-0.43354863,1.6246098,2.3787732,0.07450735,2.0975134,0.6208368,1.3263255,-1.4611791,0.74309933,3.1055584,0.0231275,-1.754797,-2.1239798,-0.8861923,-1.6400293,0.5498889,2.929666,-1.9264643,-2.4768384,-3.6806908,1.0829356,0.47138208,-0.60626864,0.028701907,-0.037446138,2.1208982,-0.16574778,1.4428587,0.5961005,0.9336966,-0.29049912,-3.0560496,-1.8457966,-2.45184,0.16263825,0.8710508,-1.9427755,-1.5421102,0.99541754,-1.3432567,0.6913642,0.17949356,1.7500218,-0.112003125,-2.0601497,-0.5634004,-2.1390877,0.24912068,0.77506053,-3.0803962,-0.6312885,-0.25173828,-0.56812865,-0.7446517,-1.7993314,0.3441969,-1.121201,4.0073705,-0.04182635,-4.742563,2.1879702,0.04040719,-1.2489824,1.724868,0.67654216,-1.2175736,0.5584879,0.04336546,2.379407,0.9672715,-4.300875,-0.74200976,0.8439958,-1.8274832,1.9094222,-0.8181199,-0.36400077,-1.4842111,-1.7919737,0.7169187,2.094166,1.6511921,0.22362497,3.27903,-1.7323734,-0.7704657,2.1988273,3.658544,1.2462367,-2.152864,0.005754512,0.06399466,-0.74380183,-1.5439951,-0.59258217,0.732893,-0.07664766,-2.3058062,1.0857996,-3.5067499,1.1679283,-0.4711031,2.273485,0.55937207,-2.0963402,-3.6273851,-0.6076486,1.1234096,-3.5011837,1.6111665,-0.56705195,0.13878345,1.6621257,-1.3012714,4.5338483,3.1427472,2.4810534,2.7066956,-0.5135613,-0.33718142,1.6932243,-1.2822195,-0.28598008,0.810414,-0.28618148,1.6835971,-1.0422717,1.0091844,-0.5853841,1.8134623,-2.0930233,-0.92363274,1.328048,2.5034292,0.9568349,1.035992,0.053834025,1.0967011,-0.5677466,-0.5630204,1.6681856,-1.2774584,-0.69426304,-0.10908177,-0.80643046,-0.7757203,-0.7806143,-0.9861279,0.40875578,0.5624573,-2.0709467,-1.8164802,1.4696115
Sc1_B,-1.7124981,-0.61060476,-2.4549723,0.7425467,4.4164433,0.7508857,0.74263054,3.697005,-0.7884303,-1.6495832,5.105821,1.994498,-4.4901614,2.024487,-0.24276665,2.009999,1.3501225,-0.16042289,-2.638101,-2.8669455,1.4436375,0.25038832,-1.5573443,-0.4280981,-0.27529484,-1.3310797,-1.9842726,-1.2897869,-0.52761215,0.9245658,0.48188925,-0.61470824,-0.43122426,-1.9180653,-1.990098,-1.6014664,0.09998801,1.2558376,-0.09772177,0.5438452,1.1016078,-0.6393207,-0.25915068,0.17736717,-2.4776053,2.307674,1.4413885,-1.879791,-0.4082156,0.9230278,-0.7037984,2.1838653,-0.25814587,-4.876649,-0.2948008,1.171832,-1.3080562,0.96705914,1.4025443,-1.530924,0.5701056,-1.0198791,0.015353116,-1.183314,2.863225,1.9202588,-2.5722814,-2.8689504,1.4192011,1.7788734,-0.06874348,-1.5158074,-1.8657153,0.37500826,-0.72711295,1.1126927,-3.0095487,1.1503073,-2.2829773,0.40296373,-4.175254,-1.0185599,-0.003824054,1.1223475,1.6115421,-0.32390088,-2.0542274,-3.6214404,1.3532907,-0.20779133,-0.8015186,0.10119729,1.122295,-3.6364083,0.54036087,-0.64376414,0.99019086,-0.8115858,0.6875062,1.9655796,3.0476618,0.56883085,2.2641683,3.244976,-0.19525369,4.8093944,0.80275774,-2.7204995,-0.5690667,-3.6016967,1.3868973,0.8984631,-2.0906816,-0.10984131,1.3372477,1.9741211,-0.396177,-1.3795254,0.39395514,-2.1938267,-2.1109517,-2.984908,0.6984658,0.08047112,-1.4472376,-3.6923957,0.7549728,-2.5987842,2.686096,-1.8171091,-3.0146067,0.25237426,4.371103,-0.03703059,0.41547632,-0.09512821,-2.8180914,-1.1016186,1.58835,-1.0934359,-0.92077273,-0.93043005,-0.4688336,1.0395153,1.9491093,0.0779921,-3.5922856,-0.37121934,1.7723825,2.005146,-0.040947735,2.1625931,0.6962446,1.360212,-1.5622947,0.7909173,2.9709983,-0.103738144,-1.5897195,-1.9643198,-0.8730033,-1.6790955,0.49306226,2.755196,-1.7452557,-2.542813,-3.8115966,1.2148318,0.45293498,-0.41301537,0.25631097,0.22185858,1.9603901,-0.28978977,1.1442008,0.3975513,0.97820586,-0.11591723,-3.0706258,-1.8598664,-2.4811215,0.05142328,0.82887614,-1.5743512,-1.4943097,0.7515771,-1.031324,0.8107293,0.35115132,1.7462416,0.021930542,-2.0682611,-0.45423084,-2.1392832,0.045404475,0.7651154,-2.9894922,-0.5422004,-0.279616,-0.46050245,-0.75927037,-1.6930497,0.24034545,-1.065697,3.7948403,-0.07288918,-4.642415,2.4112687,0.07691035,-1.1117948,1.5792073,0.843747,-1.3328272,0.45547977,0.16774204,2.3672657,0.78556263,-3.9527168,-0.60575163,0.6256947,-1.7201144,1.7443234,-0.6046038,-0.2800763,-1.61205,-1.6642351,0.44108254,2.2398396,1.7580011,0.30404148,3.2703865,-1.7458458,-0.6768849,2.0843122,3.5115242,1.3299525,-2.342823,0.0844051,0.09620875,-0.935017,-1.5279195,-0.56007975,0.8739399,-0.07405116,-2.4192474,1.1960022,-3.3537247,1.0934517,-0.28868514,2.1481419,0.39823318,-2.157909,-3.4152482,-0.6177601,1.1958505,-3.4502468,1.5651524,-0.512726,0.025122676,1.6514393,-1.1737859,4.4366546,3.2384007,2.3697739,2.7586925,-0.5684319,-0.36266738,1.5219215,-1.4985366,-0.045564614,0.9784687,-0.32953808,1.8869921,-1.1328951,1.0763482,-0.55435514,1.90006,-2.109768,-1.0102091,1.3340404,2.2777739,0.94492036,0.9429326,0.10585705,1.0748556,-0.5447234,-0.55045134,1.5925655,-1.2003114,-0.45943898,-0.02960456,-0.9127658,-0.741364,-0.68182564,-0.9222665,0.50806004,0.40738335,-1.9522035,-1.8584732,1.4379205
Sc1_B,-1.6867445,-0.42223695,-2.5729346,0.7263863,4.313829,0.91995496,0.7469429,3.783944,-1.1109023,-1.7501526,5.1277785,2.1353931,-4.7224536,2.1096752,-0.19643457,2.098293,1.5060102,-0.23138113,-2.7667398,-2.658148,1.3105493,0.2607924,-1.5012623,-0.48839933,-0.30797276,-1.5514717,-1.9636395,-1.2344435,-0.6870637,0.7933498,0.42388996,-0.67521346,-0.112496704,-2.0747247,-1.7974365,-1.450981,0.45360455,1.236436,-0.06957948,0.53062457,1.0830443,-0.67929626,-0.26768783,0.07928182,-2.573392,2.2086065,1.3792288,-1.9398013,-0.3227844,0.92058825,-0.6518736,2.2048886,-0.47898224,-4.9398894,-0.34816697,1.0289688,-1.1853282,1.0261996,1.2593966,-1.3837302,1.0377933,-1.0093685,-0.17237885,-1.2805886,2.8395057,1.852946,-2.5152829,-3.2170546,1.3841604,1.7419413,-0.27743998,-1.4729053,-1.6560277,0.2586436,-0.6304316,1.2266889,-3.0068936,1.1946553,-2.2419868,0.3257146,-4.490517,-0.9378874,-0.01179212,1.0579025,1.6153263,-0.46315476,-1.759285,-3.545567,1.3565431,-0.18949558,-0.986519,0.19584627,1.2073886,-3.802093,0.5400542,-0.65991384,1.1363393,-0.95028716,0.74806756,2.1277027,2.9159539,0.49863514,2.1768754,3.177497,-0.15067504,4.8937306,0.6110864,-2.839352,-0.6245863,-3.6945992,1.5486128,0.7825878,-2.1435049,-0.033012167,1.3521006,1.988755,-0.5737419,-1.67572,0.4279092,-2.351567,-2.3825605,-2.9881976,0.81575495,0.21983202,-1.1187809,-3.669859,0.62480956,-2.6970165,2.804527,-1.7528439,-3.2143023,0.08805057,4.288344,0.033339046,0.23889615,-0.27715042,-2.8031306,-1.214228,1.8395649,-1.0185391,-0.937013,-0.94186115,-0.33076787,0.988938,2.0591066,0.25048742,-3.6048357,-0.42727572,1.7044086,2.2360806,-0.18921006,2.162202,0.645251,1.3445101,-1.5789059,0.68841386,3.2408876,-0.05290093,-1.7232368,-2.0445974,-0.9255116,-1.5259107,0.6320746,2.7699244,-1.9130577,-2.284554,-4.035464,0.9859422,0.54742396,-0.61600906,0.3187395,0.09966579,2.0178468,-0.016988797,1.3236997,0.5648618,0.85624677,-0.213296,-3.1656013,-2.03509,-2.3688684,0.20989299,1.1481446,-1.758427,-1.7641101,0.71892965,-1.2188134,0.50263506,0.26630756,1.8841957,-0.2502589,-2.0157783,-0.5999108,-2.0858479,0.26620865,0.7476786,-2.9625833,-0.6542423,-0.35320666,-0.6905253,-0.89055854,-1.7155803,0.31442714,-1.0360225,3.4252822,-0.005240218,-4.688623,2.4541159,0.30399784,-1.0830643,1.557199,0.7285086,-1.0565813,0.52829874,0.27050376,2.3473823,0.65669525,-4.1045547,-0.6629277,0.70200807,-1.871899,1.8161402,-0.7125121,-0.32221255,-1.546275,-1.9066654,0.6063023,2.3107018,1.8515188,0.20576003,3.259204,-1.8742939,-0.738738,1.834702,3.7917192,1.3012766,-2.3465118,-0.09493945,0.20747356,-0.70955855,-1.4987628,-0.6329434,0.74442995,-0.123777896,-2.2859612,1.1090701,-3.4443135,1.0788935,-0.36361423,2.0586708,0.19302821,-1.9760398,-3.4857209,-0.65307707,1.0836699,-3.374136,1.6409398,-0.398736,-0.024617588,1.479772,-1.2500384,4.5939713,3.0151775,2.4123476,2.8787322,-0.67257816,-0.58194,1.4636563,-1.3337834,-0.18888839,0.90323627,-0.5681763,1.6418923,-1.2118442,1.0718849,-0.5548563,1.499484,-1.9272323,-1.081454,1.2738366,2.109174,0.98211366,0.75864077,0.35358286,1.1349432,-0.49599102,-0.62017083,1.7779834,-1.2584554,-0.46353665,-0.023431614,-0.6258005,-0.8662119,-0.81374395,-1.0402347,0.33954024,0.37503982,-1.7766107,-2.0087204,1.3903441
