Author,WE1,WE2,WE3,WE4,WE5,WE6,WE7,WE8,WE9,WE10,WE11,WE12,WE13,WE14,WE15,WE16,WE17,WE18,WE19,WE20,WE21,WE22,WE23,WE24,WE25,WE26,WE27,WE28,WE29,WE30,WE31,WE32,WE33,WE34,WE35,WE36,WE37,WE38,WE39,WE40,WE41,WE42,WE43,WE44,WE45,WE46,WE47,WE48,WE49,WE50,WE51,WE52,WE53,WE54,WE55,WE56,WE57,WE58,WE59,WE60,WE61,WE62,WE63,WE64,WE65,WE66,WE67,WE68,WE69,WE70,WE71,WE72,WE73,WE74,WE75,WE76,WE77,WE78,WE79,WE80,WE81,WE82,WE83,WE84,WE85,WE86,WE87,WE88,WE89,WE90,WE91,WE92,WE93,WE94,WE95,WE96,WE97,WE98,WE99,WE100,WE101,WE102,WE103,WE104,WE105,WE106,WE107,WE108,WE109,WE110,WE111,WE112,WE113,WE114,WE115,WE116,WE117,WE118,WE119,WE120,WE121,WE122,WE123,WE124,WE125,WE126,WE127,WE128,WE129,WE130,WE131,WE132,WE133,WE134,WE135,WE136,WE137,WE138,WE139,WE140,WE141,WE142,WE143,WE144,WE145,WE146,WE147,WE148,WE149,WE150,WE151,WE152,WE153,WE154,WE155,WE156,WE157,WE158,WE159,WE160,WE161,WE162,WE163,WE164,WE165,WE166,WE167,WE168,WE169,WE170,WE171,WE172,WE173,WE174,WE175,WE176,WE177,WE178,WE179,WE180,WE181,WE182,WE183,WE184,WE185,WE186,WE187,WE188,WE189,WE190,WE191,WE192,WE193,WE194,WE195,WE196,WE197,WE198,WE199,WE200,WE201,WE202,WE203,WE204,WE205,WE206,WE207,WE208,WE209,WE210,WE211,WE212,WE213,WE214,WE215,WE216,WE217,WE218,WE219,WE220,WE221,WE222,WE223,WE224,WE225,WE226,WE227,WE228,WE229,WE230,WE231,WE232,WE233,WE234,WE235,WE236,WE237,WE238,WE239,WE240,WE241,WE242,WE243,WE244,WE245,WE246,WE247,WE248,WE249,WE250,WE251,WE252,WE253,WE254,WE255,WE256,WE257,WE258,WE259,WE260,WE261,WE262,WE263,WE264,WE265,WE266,WE267,WE268,WE269,WE270,WE271,WE272,WE273,WE274,WE275,WE276,WE277,WE278,WE279,WE280,WE281,WE282,WE283,WE284,WE285,WE286,WE287,WE288,WE289,WE290,WE291,WE292,WE293,WE294,WE295,WE296,WE297,WE298,WE299,WE300,WE301,WE302,WE303,WE304,WE305,WE306,WE307,WE308,WE309,WE310,WE311,WE312,WE313,WE314,WE315,WE316,WE317,WE318,WE319,WE320,WE321,WE322,WE323,WE324,WE325,WE326,WE327,WE328,WE329,WE330,WE331,WE332,WE333,WE334,WE335,WE336,WE337,WE338,WE339,WE340,WE341,WE342,WE343,WE344,WE345,WE346,WE347,WE348,WE349,WE350,WE351,WE352,WE353,WE354,WE355,WE356,WE357,WE358,WE359,WE360,WE361,WE362,WE363,WE364,WE365,WE366,WE367,WE368,WE369,WE370,WE371,WE372,WE373,WE374,WE375,WE376,WE377,WE378,WE379,WE380,WE381,WE382,WE383,WE384,WE385,WE386,WE387,WE388,WE389,WE390,WE391,WE392,WE393,WE394,WE395,WE396,WE397,WE398,WE399,WE400,WE401,WE402,WE403,WE404,WE405,WE406,WE407,WE408,WE409,WE410,WE411,WE412,WE413,WE414,WE415,WE416,WE417,WE418,WE419,WE420,WE421,WE422,WE423,WE424,WE425,WE426,WE427,WE428,WE429,WE430,WE431,WE432,WE433,WE434,WE435,WE436,WE437,WE438,WE439,WE440,WE441,WE442,WE443,WE444,WE445,WE446,WE447,WE448,WE449,WE450,WE451,WE452,WE453,WE454,WE455,WE456,WE457,WE458,WE459,WE460,WE461,WE462,WE463,WE464,WE465,WE466,WE467,WE468,WE469,WE470,WE471,WE472,WE473,WE474,WE475,WE476,WE477,WE478,WE479,WE480,WE481,WE482,WE483,WE484,WE485,WE486,WE487,WE488,WE489,WE490,WE491,WE492,WE493,WE494,WE495,WE496,WE497,WE498,WE499,WE500,WE501,WE502,WE503,WE504,WE505,WE506,WE507,WE508,WE509,WE510,WE511,WE512,WE513,WE514,WE515,WE516,WE517,WE518,WE519,WE520,WE521,WE522,WE523,WE524,WE525,WE526,WE527,WE528,WE529,WE530,WE531,WE532,WE533,WE534,WE535,WE536,WE537,WE538,WE539,WE540,WE541,WE542,WE543,WE544,WE545,WE546,WE547,WE548,WE549,WE550,WE551,WE552,WE553,WE554,WE555,WE556,WE557,WE558,WE559,WE560,WE561,WE562,WE563,WE564,WE565,WE566,WE567,WE568,WE569,WE570,WE571,WE572,WE573,WE574,WE575,WE576,WE577,WE578,WE579,WE580,WE581,WE582,WE583,WE584,WE585,WE586,WE587,WE588,WE589,WE590,WE591,WE592,WE593,WE594,WE595,WE596,WE597,WE598,WE599,WE600,WE601,WE602,WE603,WE604,WE605,WE606,WE607,WE608,WE609,WE610,WE611,WE612,WE613,WE614,WE615,WE616,WE617,WE618,WE619,WE620,WE621,WE622,WE623,WE624,WE625,WE626,WE627,WE628,WE629,WE630,WE631,WE632,WE633,WE634,WE635,WE636,WE637,WE638,WE639,WE640,WE641,WE642,WE643,WE644,WE645,WE646,WE647,WE648,WE649,WE650,WE651,WE652,WE653,WE654,WE655,WE656,WE657,WE658,WE659,WE660,WE661,WE662,WE663,WE664,WE665,WE666,WE667,WE668,WE669,WE670,WE671,WE672,WE673,WE674,WE675,WE676,WE677,WE678,WE679,WE680,WE681,WE682,WE683,WE684,WE685,WE686,WE687,WE688,WE689,WE690,WE691,WE692,WE693,WE694,WE695,WE696,WE697,WE698,WE699,WE700,WE701,WE702,WE703,WE704,WE705,WE706,WE707,WE708,WE709,WE710,WE711,WE712,WE713,WE714,WE715,WE716,WE717,WE718,WE719,WE720,WE721,WE722,WE723,WE724,WE725,WE726,WE727,WE728,WE729,WE730,WE731,WE732,WE733,WE734,WE735,WE736,WE737,WE738,WE739,WE740,WE741,WE742,WE743,WE744,WE745,WE746,WE747,WE748,WE749,WE750,WE751,WE752,WE753,WE754,WE755,WE756,WE757,WE758,WE759,WE760,WE761,WE762,WE763,WE764,WE765,WE766,WE767,WE768,WE769,WE770,WE771,WE772,WE773,WE774,WE775,WE776,WE777,WE778,WE779,WE780,WE781,WE782,WE783,WE784,WE785,WE786,WE787,WE788,WE789,WE790,WE791,WE792,WE793,WE794,WE795,WE796,WE797,WE798,WE799,WE800,WE801,WE802,WE803,WE804,WE805,WE806,WE807,WE808,WE809,WE810,WE811,WE812,WE813,WE814,WE815,WE816,WE817,WE818,WE819,WE820,WE821,WE822,WE823,WE824,WE825,WE826,WE827,WE828,WE829,WE830,WE831,WE832,WE833,WE834,WE835,WE836,WE837,WE838,WE839,WE840,WE841,WE842,WE843,WE844,WE845,WE846,WE847,WE848,WE849,WE850,WE851,WE852,WE853,WE854,WE855,WE856,WE857,WE858,WE859,WE860,WE861,WE862,WE863,WE864,WE865,WE866,WE867,WE868,WE869,WE870,WE871,WE872,WE873,WE874,WE875,WE876,WE877,WE878,WE879,WE880,WE881,WE882,WE883,WE884,WE885,WE886,WE887,WE888,WE889,WE890,WE891,WE892,WE893,WE894,WE895,WE896,WE897,WE898,WE899,WE900,WE901,WE902,WE903,WE904,WE905,WE906,WE907,WE908,WE909,WE910,WE911,WE912,WE913,WE914,WE915,WE916,WE917,WE918,WE919,WE920,WE921,WE922,WE923,WE924,WE925,WE926,WE927,WE928,WE929,WE930,WE931,WE932,WE933,WE934,WE935,WE936,WE937,WE938,WE939,WE940,WE941,WE942,WE943,WE944,WE945,WE946,WE947,WE948,WE949,WE950,WE951,WE952,WE953,WE954,WE955,WE956,WE957,WE958,WE959,WE960,WE961,WE962,WE963,WE964,WE965,WE966,WE967,WE968,WE969,WE970,WE971,WE972,WE973,WE974,WE975,WE976,WE977,WE978,WE979,WE980,WE981,WE982,WE983,WE984,WE985,WE986,WE987,WE988,WE989,WE990,WE991,WE992,WE993,WE994,WE995,WE996,WE997,WE998,WE999,WE1000,WE1001,WE1002,WE1003,WE1004,WE1005,WE1006,WE1007,WE1008,WE1009,WE1010,WE1011,WE1012,WE1013,WE1014,WE1015,WE1016,WE1017,WE1018,WE1019,WE1020,WE1021,WE1022,WE1023,WE1024,WE1025,WE1026,WE1027,WE1028,WE1029,WE1030,WE1031,WE1032,WE1033,WE1034,WE1035,WE1036,WE1037,WE1038,WE1039,WE1040,WE1041,WE1042,WE1043,WE1044,WE1045,WE1046,WE1047,WE1048,WE1049,WE1050,WE1051,WE1052,WE1053,WE1054,WE1055,WE1056,WE1057,WE1058,WE1059,WE1060,WE1061,WE1062,WE1063,WE1064,WE1065,WE1066,WE1067,WE1068,WE1069,WE1070,WE1071,WE1072,WE1073,WE1074,WE1075,WE1076,WE1077,WE1078,WE1079,WE1080,WE1081,WE1082,WE1083,WE1084,WE1085,WE1086,WE1087,WE1088,WE1089,WE1090,WE1091,WE1092,WE1093,WE1094,WE1095,WE1096,WE1097,WE1098,WE1099,WE1100,WE1101,WE1102,WE1103,WE1104,WE1105,WE1106,WE1107,WE1108,WE1109,WE1110,WE1111,WE1112,WE1113,WE1114,WE1115,WE1116,WE1117,WE1118,WE1119,WE1120,WE1121,WE1122,WE1123,WE1124,WE1125,WE1126,WE1127,WE1128,WE1129,WE1130,WE1131,WE1132,WE1133,WE1134,WE1135,WE1136,WE1137,WE1138,WE1139,WE1140,WE1141,WE1142,WE1143,WE1144,WE1145,WE1146,WE1147,WE1148,WE1149,WE1150,WE1151,WE1152,WE1153,WE1154,WE1155,WE1156,WE1157,WE1158,WE1159,WE1160,WE1161,WE1162,WE1163,WE1164,WE1165,WE1166,WE1167,WE1168,WE1169,WE1170,WE1171,WE1172,WE1173,WE1174,WE1175,WE1176,WE1177,WE1178,WE1179,WE1180,WE1181,WE1182,WE1183,WE1184,WE1185,WE1186,WE1187,WE1188,WE1189,WE1190,WE1191,WE1192,WE1193,WE1194,WE1195,WE1196,WE1197,WE1198,WE1199,WE1200,WE1201,WE1202,WE1203,WE1204,WE1205,WE1206,WE1207,WE1208,WE1209,WE1210,WE1211,WE1212,WE1213,WE1214,WE1215,WE1216,WE1217,WE1218,WE1219,WE1220,WE1221,WE1222,WE1223,WE1224,WE1225,WE1226,WE1227,WE1228,WE1229,WE1230,WE1231,WE1232,WE1233,WE1234,WE1235,WE1236,WE1237,WE1238,WE1239,WE1240,WE1241,WE1242,WE1243,WE1244,WE1245,WE1246,WE1247,WE1248,WE1249,WE1250,WE1251,WE1252,WE1253,WE1254,WE1255,WE1256,WE1257,WE1258,WE1259,WE1260,WE1261,WE1262,WE1263,WE1264,WE1265,WE1266,WE1267,WE1268,WE1269,WE1270,WE1271,WE1272,WE1273,WE1274,WE1275,WE1276,WE1277,WE1278,WE1279,WE1280,WE1281,WE1282,WE1283,WE1284,WE1285,WE1286,WE1287,WE1288,WE1289,WE1290,WE1291,WE1292,WE1293,WE1294,WE1295,WE1296,WE1297,WE1298,WE1299,WE1300,WE1301,WE1302,WE1303,WE1304,WE1305,WE1306,WE1307,WE1308,WE1309,WE1310,WE1311,WE1312,WE1313,WE1314,WE1315,WE1316,WE1317,WE1318,WE1319,WE1320,WE1321,WE1322,WE1323,WE1324,WE1325,WE1326,WE1327,WE1328,WE1329,WE1330,WE1331,WE1332,WE1333,WE1334,WE1335,WE1336,WE1337,WE1338,WE1339,WE1340,WE1341,WE1342,WE1343,WE1344,WE1345,WE1346,WE1347,WE1348,WE1349,WE1350,WE1351,WE1352,WE1353,WE1354,WE1355,WE1356,WE1357,WE1358,WE1359,WE1360,WE1361,WE1362,WE1363,WE1364,WE1365,WE1366,WE1367,WE1368,WE1369,WE1370,WE1371,WE1372,WE1373,WE1374,WE1375,WE1376,WE1377,WE1378,WE1379,WE1380,WE1381,WE1382,WE1383,WE1384,WE1385,WE1386,WE1387,WE1388,WE1389,WE1390,WE1391,WE1392,WE1393,WE1394,WE1395,WE1396,WE1397,WE1398,WE1399,WE1400,WE1401,WE1402,WE1403,WE1404,WE1405,WE1406,WE1407,WE1408,WE1409,WE1410,WE1411,WE1412,WE1413,WE1414,WE1415,WE1416,WE1417,WE1418,WE1419,WE1420,WE1421,WE1422,WE1423,WE1424,WE1425,WE1426,WE1427,WE1428,WE1429,WE1430,WE1431,WE1432,WE1433,WE1434,WE1435,WE1436,WE1437,WE1438,WE1439,WE1440,WE1441,WE1442,WE1443,WE1444,WE1445,WE1446,WE1447,WE1448,WE1449,WE1450,WE1451,WE1452,WE1453,WE1454,WE1455,WE1456,WE1457,WE1458,WE1459,WE1460,WE1461,WE1462,WE1463,WE1464,WE1465,WE1466,WE1467,WE1468,WE1469,WE1470,WE1471,WE1472,WE1473,WE1474,WE1475,WE1476,WE1477,WE1478,WE1479,WE1480,WE1481,WE1482,WE1483,WE1484,WE1485,WE1486,WE1487,WE1488,WE1489,WE1490,WE1491,WE1492,WE1493,WE1494,WE1495,WE1496,WE1497,WE1498,WE1499,WE1500,WE1501,WE1502,WE1503,WE1504,WE1505,WE1506,WE1507,WE1508,WE1509,WE1510,WE1511,WE1512,WE1513,WE1514,WE1515,WE1516,WE1517,WE1518,WE1519,WE1520,WE1521,WE1522,WE1523,WE1524,WE1525,WE1526,WE1527,WE1528,WE1529,WE1530,WE1531,WE1532,WE1533,WE1534,WE1535,WE1536
Sc1_A,0.023636753,-0.011233917,0.017016985,0.060488429,0.058667377,-0.044418883,0.015023672,0.080667645,-0.001881035,0.038488161,0.048873074,-0.034132406,-0.056108061,-0.019108733,-0.022246355,-0.026995853,-0.058125984,-0.00399893,0.065853149,-0.005810753,-0.016807809,0.011098568,0.032680485,-0.022910792,-0.022935402,-0.003900495,-0.016106458,0.029186036,-0.005241674,-0.018419687,0.016758593,-0.015343586,-0.017336899,-0.025014844,0.011510766,0.03140083,-0.024067406,-0.025962284,0.002633142,0.017386116,-0.001478835,-0.065262534,0.02830012,0.049832817,-0.041022867,-0.064081311,-0.039620169,-0.076828673,0.00165648,0.068953857,-0.023722883,-0.028595425,-0.022381702,-0.022947706,-0.001607262,0.022295572,0.014334626,0.023845926,-0.00620757,0.04323766,0.031893004,-0.037380766,0.009492844,-0.00499251,-0.057486154,0.036568675,-0.018579643,0.010015781,-0.020203825,-0.028989166,0.030391866,0.020289956,-0.01127083,0.042647049,0.013251838,-0.030810216,-0.006650528,0.057486154,0.027684899,-0.001394242,0.008514645,-0.026897417,-0.002054835,-0.004823325,-0.026159154,0.029259862,-0.032655876,-0.034304667,-0.091101773,-0.006047613,-0.019699344,0.031228567,-0.006564397,0.033664837,0.005050956,-0.00259469,0.054483883,0.041638087,0.043680619,0.034821451,-0.018395077,-0.029702822,0.009831215,0.032040656,0.043803662,-0.026306806,0.025224019,-0.032729704,-0.002920757,-0.000442958,-0.080126248,0.005235522,-0.050054297,0.004152735,-0.037872944,-0.040235385,-0.027635682,-0.007641032,0.01915795,0.007764076,-0.02581463,0.015737327,0.027069679,0.026946636,0.02388284,-0.059700947,0.022664703,-0.038808078,-0.024867192,-0.013079577,0.031548481,0.053056572,0.021434264,-0.026823591,-0.017509161,-0.046978198,0.015331282,0.012384378,-0.004420355,-0.007548749,0.021249698,-0.023636753,-0.022061789,0.008717667,-0.016918549,-0.004838705,0.015761936,0.003248361,-0.013054968,0.063047744,-0.024202755,-0.003174535,-0.038537379,0.05162926,0.025420889,-0.010108064,0.032680485,0.072497524,-0.02399358,-0.073629528,-0.051333956,0.019527081,-0.065705493,-0.019428646,-0.005918416,-0.006392136,-0.029973518,-0.015442021,-0.054877624,-0.078206763,-0.030391866,-0.081061386,-0.019600909,0.024805671,0.022652401,0.008163969,0.00461415,-0.027930988,0.018038251,-0.037183896,-0.029481342,-0.021532699,-0.000364518,-0.015614283,-0.039595559,-0.003531363,-0.034132406,0.033640228,-0.032434396,0.000431038,-0.034304667,0.046264544,0.02830012,0.033074226,0.044615753,-0.009911194,0.014666844,0.004466497,0.030047344,-0.056747891,0.040875215,-0.01280888,-0.019846996,-0.008188578,0.012581249,-0.039054163,0.029309081,-0.015368195,-0.054631535,-0.00869921,0.0019241,-0.011412331,0.04732272,0.045107931,-0.033910926,-0.011098568,-0.01937943,-0.004368062,0.010538719,0.033074226,-0.023427578,0.042720877,0.020289956,-0.00136425,-0.009259061,-0.006632071,0.002213254,7.13E-06,0.062161826,-0.014728366,0.023526013,-0.034058578,-0.016524808,-0.037183896,0.006724354,0.00191641,0.014408452,-0.030564129,-0.001318878,0.01795212,0.024768757,0.014371539,-0.011966028,0.001106627,-0.011978333,0.037922159,0.01157844,-0.010526414,0.011264678,0.001178146,-0.001571887,-0.047027417,0.05635415,0.016672462,0.020991307,-0.052515179,-0.008877625,-0.016512504,0.035535105,0.021471178,-0.049463686,-0.016500199,-0.039817039,-0.013744014,0.00877919,0.013940885,0.00312378,-0.008440819,-0.013362578,-0.053647183,0.052121438,0.002817708,-0.022517052,-0.033738665,-0.077665374,-0.01076635,-0.024313495,0.008040925,0.014186973,0.055911191,-0.020646783,0.025543934,0.047814898,-0.021692656,-0.024215059,0.024141232,0.004847934,-0.001817975,-0.019317908,-0.035092149,0.044812623,-0.012445901,-0.007591815,-0.030834826,-0.008705363,-0.022935402,0.039521731,0.045969237,-0.009603584,-0.0134241,0.027069679,-0.041121304,-0.044394273,-0.031007087,-0.018764209,0.045329407,-0.044197403,-0.015860371,-0.004528019,-0.018050555,-0.031253174,0.015306673,0.061128259,-0.020597566,-0.071562387,0.000134964,0.017213855,-0.039546341,-0.002056373,-0.042277917,-0.016561722,-0.008520797,-0.005155543,0.005183228,0.013190316,-0.028324729,0.006730507,-0.018641166,-0.007911729,-0.068904638,-0.018493513,0.014113147,-0.010661762,-0.018272033,-0.038808078,-0.016561722,-0.009652802,-0.019723952,-0.043286879,-0.027561855,-0.002207102,-0.013608666,-0.013977798,0.002557777,0.001587268,0.015934197,-0.01926869,-0.027734118,0.01445767,0.031646915,-0.009308279,-0.030982478,0.003056105,-0.002030226,-0.042081047,0.053253442,-0.016660158,-0.022135615,-0.026011501,-0.053302661,-0.009234452,-0.012784272,0.009658954,0.045796975,0.015540456,0.041662697,-0.068117157,-0.001634947,-0.001684165,-0.031548481,-0.013301056,-0.029186036,0.054828405,-0.024485756,-0.029678212,-0.050644908,-0.040875215,0.02172957,0.044763405,0.028792296,0.01291962,0.031056305,-0.001528053,-0.040136952,-0.005087869,0.054582316,-0.002606995,-0.035412062,-0.053942487,-0.024510365,0.038242076,-0.016229503,-0.014851411,0.024473451,-0.025642369,-0.010101913,0.005253979,0.01526976,0.061423562,0.001596496,0.033000398,-0.017927511,0.004995586,0.002851545,0.009419018,-0.014912932,0.002016383,0.008354687,0.025420889,0.029432124,0.039201818,-0.031031696,0.026085326,0.014174668,-0.005949177,-0.010489501,-0.051186305,0.000947439,0.014740671,0.010341848,0.051137086,-0.000515631,-0.042081047,-0.033123445,0.03590424,0.061669651,0.003094557,-0.025187107,0.02603611,-0.041022867,-0.023735188,0.005500067,0.009486692,-0.011529222,-0.010760197,0.037060853,0.01557737,-0.002782332,0.004749498,-0.00749338,0.010704827,-0.034772232,0.00701966,0.00136425,-0.007210378,-0.035928845,-0.056452587,0.040309213,0.00423579,-0.039964691,-0.00226401,0.004894075,0.041096695,0.001003578,-0.056403369,-0.031769961,0.028103249,-0.054877624,0.011178548,0.055222146,-0.032286745,-0.040038515,-0.019551691,0.040678345,0.028472381,0.030416476,0.00611221,0.003405243,-0.05699398,-0.001702621,-0.014617627,-0.031622306,0.002567005,-0.021569613,0.005829209,-0.001747225,0.015392804,0.02030226,0.011842985,0.007536445,-0.042179484,0.006687441,-0.027930988,0.018358164,-0.002780794,-0.011947572,-0.012931924,0.021606525,-0.023132272,0.022418616,-0.009763541,-0.050275777,0.082882434,-0.011541527,0.00257931,-0.00555236,-0.043163832,-0.01015113,-0.011892202,0.010649458,0.049463686,-0.006336766,-0.053204224,0.005472382,-0.007105791,0.015515848,0.057092413,0.00953591,-0.001777986,0.046215326,0.001336565,-0.02030226,0.017324595,0.044025142,-0.007481075,0.038340509,0.053844053,0.035239801,-0.011627657,-0.012427444,0.022406312,-0.015491239,0.011812224,-0.004383442,0.009498997,-0.036519457,-0.039029557,-0.012661227,-0.036199544,-0.022074092,0.015257455,0.003531363,0.010311087,0.006576702,-0.016795505,-0.022012571,-0.000864384,-0.001688779,-0.024227362,0.011498461,0.032680485,0.022996923,0.041539654,0.018407382,-0.01303036,0.023267619,-0.021151263,-0.03548589,-0.00732727,0.012784272,0.075598232,0.032508224,-0.003183763,-0.016155677,0.027143506,0.002293233,0.011959877,-0.026577502,0.002636218,-0.006336766,0.013276448,-0.021778787,-0.011492309,0.008625384,-0.003469841,0.02172957,-0.010261869,-0.008686906,-0.006275244,0.008994516,-0.025666978,-0.023292229,0.045526277,-0.029358298,0.023193793,0.008766885,0.009775845,-0.037528418,0.018764209,0.018136686,-0.027168114,-0.014420756,-0.019871606,0.041244347,0.004583389,0.013276448,0.019416343,0.032483615,0.006244483,0.022775443,0.03137622,-0.010163434,-0.00493714,-0.007874816,0.005927645,0.013399491,0.025125584,0.016352547,-0.014716062,0.024682626,-0.006496723,-0.013608666,0.014088538,-0.032237526,-0.037946768,-0.015786545,0.028546207,-0.00253163,0.030908652,-0.025199411,-0.00763488,-0.017767552,0.012359769,0.004644911,-0.027586464,-0.007653337,0.029727429,0.020548347,0.047618028,0.009345192,-0.038414337,-0.01814899,0.010717132,-0.01300575,0.011160091,-0.008508492,-0.005589274,-0.024817973,0.002770028,-0.018062858,0.012365921,0.024842583,-0.020449912,-0.011615354,0.031253174,0.001905644,0.025174802,0.020794436,0.01557737,-0.070676468,-0.00989889,0.016303329,0.008957603,0.007665641,0.005896884,0.014937541,-0.032188311,-0.018973384,-0.014014712,0.005983014,-0.026011501,-0.031228567,0.01709081,-0.004026615,0.021643439,0.02100361,-0.005081717,-0.006453658,0.019404039,0.016881637,-0.033369534,-0.035338234,-0.034796841,-0.018493513,-0.02120048,0.01935482,0.041145913,0.028152466,0.025137888,0.028964557,-0.049734384,0.021668049,0.033295706,0.041392002,-0.006029156,-0.002570082,0.018308947,-0.04712585,0.040013909,0.027906379,0.008736123,0.020228432,-0.03976782,-0.037134677,0.022000266,0.00358058,0.018185902,0.018038251,0.031351611,-0.051727697,-0.024251971,0.016586332,0.002447037,0.001010499,-0.028669251,-0.023181489,0.011295439,0.026700547,-0.037577637,-0.061423562,0.000642136,0.038561989,-0.018247426,-0.059257988,-0.01384245,-0.002688511,-0.004066604,-0.011535374,0.039472513,0.009738932,-0.009511301,0.009769693,0.006699746,-0.001905644,-0.008828407,-0.030268824,-0.010280326,0.008397752,-0.007991708,-0.06664063,-0.015663501,-0.006478266,-0.021225089,0.014912932,-0.003918951,-0.033197269,0.002122509,0.049094554,-0.014531496,0.023402968,0.009468236,-0.02665133,-0.003168383,-0.004832553,0.023513708,-0.008096295,-0.030490302,-0.030441085,-0.007548749,0.016475592,-0.013854754,-0.037626855,0.021901831,0.010723284,0.020991307,0.00609683,-0.015638892,0.038266685,0.008096295,-0.007339574,-0.017546074,0.009652802,-0.029062992,-0.032237526,0.034526147,-0.015368195,-0.011707637,0.018407382,-0.01291962,-0.031843785,-0.014506888,0.029481342,0.001398087,0.025088672,0.011953725,-0.000212059,0.024338102,0.023895144,-0.016032632,0.01085248,-0.000740956,-0.008391601,-0.013707101,-0.011922963,0.016561722,0.007616424,0.016857028,0.029136818,0.020216128,0.005297044,0.00485101,-0.006693593,-0.035362843,-0.012993446,-0.02131122,-0.027266549,0.004115822,-0.007647184,0.010224956,-0.009000668,-0.00743801,-0.007536445,-0.036642503,-0.007499532,-0.03137622,0.006582854,0.001885649,-0.052121438,0.028890731,0.019933127,-0.009166778,-0.002665441,0.023747491,-0.019539386,0.034747623,0.043311488,-0.049119163,0.020991307,-0.060931388,-0.003349873,0.037257724,0.006730507,-0.009222148,-0.022627791,-0.052318309,-0.011590744,-0.020117693,-0.017373811,-0.024276581,0.007788685,0.022849271,0.009234452,-0.014716062,-0.00202715,-0.002625451,-0.031130131,-0.001036646,-0.002677745,-0.012095225,-0.03464919,0.032139093,0.025470108,-0.012255182,0.013953189,0.017927511,-0.015872676,-0.02891534,-0.022123311,0.02150809,0.055960409,-0.006841246,-0.030736391,-0.044812623,0.040899824,0.01087709,0.004155811,0.00616758,0.005432392,0.003232981,-0.023119967,-0.047790289,-0.008717667,0.028324729,-0.026528286,-0.001614952,0.049832817,0.01720155,-0.019207168,0.031179348,2.54E-05,0.013547144,0.017927511,0.031130131,-0.005260131,0.030785607,-0.020019257,-0.016106458,0.054090142,0.02019152,-0.006884312,0.048503943,0.020006955,-0.012039855,0.043508358,0.041219737,0.004041995,-0.045895413,0.041859567,-0.01168918,-0.032114483,0.033369534,-0.01496215,-0.013707101,-0.011664571,-0.015491239,0.024251971,-0.016623244,0.032582052,0.023267619,0.016943159,-0.018099772,0.020019257,0.018985689,-8.80E-05,0.023735188,0.007671793,-0.017484551,0.033123445,-0.012710445,-0.012944229,0.007431857,-0.029702822,0.000564464,-0.029407516,0.00234245,0.027463419,-0.010606392,-0.00240551,-0.01300575,0.032754313,0.009277517,0.011824528,0.030170389,-0.025347063,-0.003909723,0.002796175,-0.022996923,0.023649056,0.010440283,-0.041711915,0.019637821,-0.009948107,0.00059907,-0.002373211,0.029062992,0.012593553,-0.023230707,0.02561776,0.004721813,-0.033295706,0.044123579,-0.019490169,-0.015245151,0.012771967,-0.002124047,0.012544336,0.004060452,-7.21E-05,-0.015171325,-0.054090142,-0.039841644,0.015503543,-0.006016851,-0.039423298,0.010538719,-0.010255717,-0.006847398,0.009265213,-0.028743077,0.024854887,0.044664972,-0.030613346,0.010827872,0.028029423,-0.00246857,0.003525211,0.041884176,0.019010298,0.028177075,0.001748763,0.024042796,-0.007364183,-0.016327938,-0.025125584,0.002556239,0.014482278,0.006982747,0.018185902,-0.011363113,0.018961079,0.023193793,0.001594958,0.036347196,0.012648923,0.015761936,-0.013953189,0.006001471,-0.00701966,0.020769827,0.000805938,0.033517186,0.029161427,0.010987828,-0.02019152,0.005743078,-0.010920155,0.009056038,0.033172663,0.031450044,0.034132406,0.034107797,-0.013768624,-0.038955729,-0.026257589,0.01814899,-0.026208371,-0.026503677,-0.08386679,0.024313495,-0.011763006,0.011375418,-0.008859168,0.012390531,-0.011436939,-0.011430787,-0.018185902,0.027438812,-0.014912932,0.042081047,-0.00738264,-0.006465962,0.006521332,0.017656814,0.012550488,0.018419687,-0.031203957,-0.017816771,-0.040949043,-0.008040925,-0.020720609,0.013633274,-0.035633542,0.021545004,0.02581463,-0.00548161,-0.01177531,0.007099639,0.036962416,-0.004177344,0.028177075,0.019293299,-0.015417413,-0.006379831,-0.012895011,0.007124247,0.020154607,0.016857028,-0.017140029,0.007893273,0.013670188,-0.020462217,-0.002774642,-0.022787748,0.073629528,-0.015035977,0.0035652,-0.024251971,-0.026479067,0.025224019,0.014728366,0.019600909,0.036396414,-0.032434396,0.015085194,-0.013301056,-0.015848067,-0.01711542,0.004601846,0.030785607,-0.023587534,0.002631604,0.022024876,-0.022738531,-0.002756186,0.007733315,0.022996923,-0.009320583,-0.008440819,0.035116758,-0.009948107,-0.000975893,-0.005512371,0.033221878,-0.03934947,0.003223753,0.003065333,-0.059011903,-0.008182426,0.010274174,-0.007136552,0.029161427,0.004183496,-0.010969372,-0.015146716,0.023255315,-0.009658954,0.006681289,0.004288083,0.033418749,0.00875458,0.020031562,-0.014322321,0.005770763,0.003111475,-0.007210378,0.023033837,-0.013436404,-0.005567741,0.027832553,0.017066203,0.007837903,0.040555302,-0.033344924,-0.045107931,-0.021754179,0.002168651,0.030637955,-0.028423164,0.029456733,0.007924033,-0.012981142,0.003552896,-0.008422362,0.017632205,-0.001658018,0.011596897,-0.015429717,0.017066203,0.004275779,0.026946636,0.009252909,-0.020093085,-0.031671524,-0.005472382,0.001941019,-0.009892737,0.019453255,0.039201818,-0.000710579,-0.008656145,0.018370468,-0.003952788,0.025137888,0.005090945,-0.026085326,-0.009966563,0.004208105,-0.025113279,-0.016143372,0.041711915,0.000472181,0.003965093,-0.019170254,-0.014703758,-0.046584457,0.001494216,0.002417814,0.045378625,-0.026479067,-0.016832419,0.005192457,0.002651598,-0.017718336,-0.002024074,-0.001215059,-0.032754313,-0.009345192,-0.034526147,0.025150193,0.012482814,0.013128795,-0.010348001,0.000765564,-0.000557543,0.00763488,-0.001343487,-0.005533904,-0.022689313,0.018542731,-0.012771967,-0.012944229,0.023046141,0.007764076,0.032139093,0.003205296,0.009148321,0.008582319,0.01127083,0.02172957,0.020216128,0.025273237,0.027143506,0.035338234,-0.021987962,-0.012710445,-0.012544336,0.008379296,0.003137622,0.013977798,-0.003196068,-0.020745218,-0.006835094,-0.006632071,-0.013264143,-0.00283924,-0.019059515,-0.006047613,-0.005724622,-0.017324595,-0.000935134,-0.003515982,-0.012968837,0.008163969,0.006216798,0.045969237,0.000551006,0.00041835,-0.044345055,0.038561989,-0.036224153,0.022024876,-0.014273103,-0.022369398,-0.058175202,-0.008090143,-0.013670188,0.008348535,0.002120971,-0.008348535,0.03378788,0.008490036,0.02827551,0.042720877,-0.029013775,0.017287681,-0.010304934,-0.017213855,-0.012858097,0.02561776,0.001994851,0.015601979,-0.015429717,-0.008317774,0.009941955,0.017213855,-0.001076635,-0.001435001,-0.023513708,0.032680485,0.028250901,0.027955595,-0.013165708,-0.000175145,-0.040309213,0.007794837,0.000119007,0.008828407,-0.009271366,0.018395077,-0.009880433,0.012445901,0.007284204,0.00830547,-0.024854887,-0.016610939,0.014310017,0.019810084,-0.021372743,0.013141098,0.013817841,-0.014703758,0.029875083,0.010587936,-0.00128581,0.005998395,0.001639561,-0.031277783,0.014174668,-0.028964557,0.012267486,0.00234245,-0.023427578,-0.015725022,0.013251838,-0.013018055,0.00472489,-0.015958806,0.003875886,0.021188177,0.036494851,0.026405241,-0.016278721,-0.002865387,-0.000248203,-0.018456599,0.040481474,-0.012273639,-0.011646114,-0.011209308,0.009068343,-0.021163568,0.005380099,-0.02603611,0.007142704,-0.012132138,-0.016783202,-0.023083054,-0.013264143,0.013817841,0.017706031,0.023144577,-0.006102982,0.005589274,0.002276314,-0.031425435,-0.002922295,-0.011947572,-0.005487762,-0.004223485,-0.033689447,-0.003589809,0.01775525,-0.005044804,0.005478534,0.006632071,-0.007025812,-0.010194195,0.029407516,-0.027635682,0.003079176,0.012858097,0.042302527,-0.070381165,-0.045157146,-0.005420088,-0.022024876,0.00542624,-0.004035843,-0.009222148,0.02019152,0.006392136,-0.004066604,0.023292229,0.015860371,0.009123713,-0.019010298,0.005521599,0.000958974,0.004777183,-0.025297847,0.005804601,-0.017816771,0.006847398,-0.012495118,-0.034550752,-0.014199277,0.035805803,0.013854754,-0.003731309,-0.03893112,0.002467032,-0.025322454,0.027168114,0.008994516,0.000708657,0.010557175,0.037725288,-0.037134677,-0.001453457,-0.001807209,0.007739468,0.013965494,0.008853015,-0.016192591,0.013018055,-0.005570817,-0.020757522,-0.00030761,-0.000902066,0.00984352,0.020462217,-0.020794436,-0.006878159,0.015958806,0.018801123,-0.000922061,0.018653469,0.025396282,0.024485756,0.018653469,0.015417413,0.012187508,0.010809415,-0.021409655,-0.01926869,0.011787615,0.010532566,-0.035953455,0.008170121,0.021889526,0.032926574,0.010304934,0.041564263,0.036987025,0.005321653,-0.003949712,-0.001551892,0.044000532,0.053597964,-0.017521465,-0.018419687,0.017066203,-0.017336899,-0.02766029,0.023685969,-0.035362843,0.012968837,-0.005164772,-0.010526414,0.012255182,0.000616758,-0.017250769,0.003777451,-0.042745486,0.028939947,-0.01403932,0.014531496,-0.012495118,0.007517988,0.005389327,-0.010883242,-0.030465694,0.016709374,0.014113147,0.017607596,-0.009203691,-0.021040523,-0.047790289,-0.001417313,0.027881769,-0.023895144,0.025839239,0.015528153,-0.034723017,0.041022867,0.003039187,0.002700816,0.016770897,0.059208773,0.009289822,0.011369266,0.0061522,0.007487227,-0.015897285,0.022787748,-0.004318844,-0.020646783,0.040604521,0.006453658,0.019551691,0.019305604,0.035289019,0.027168114,-0.015048281,0.025790023,0.008693058,0.009646649,0.027266549,-0.015146716,0.027463419,0.008551558,-0.018702688,0.002933061,0.00716116,0.000747108,0.009412866,-0.01935482,0.031253174,0.023981275,0.006275244,-0.018665774,0.03548589,-0.003860505,-0.025986891,-0.038045205,-0.006847398,-0.020462217,0.028004814,-0.00155343,0.029013775,-0.016377157,0.003909723,0.004312692,0.012415139,0.027266549,0.001054333,0.003414471,0.011387722,-0.005589274,0.010071151,-0.037233114,0.022960009,0.040506084,0.022947706,0.01742303,-0.022246355,0.012162899,0.025113279,0.026380632,-0.027586464,0.045969237,-0.027463419,-0.044788014,0.036002673,0.004288083,0.013965494,0.007794837,-0.020942088,-0.006182961,-0.024141232,-0.006155276,0.002576234,0.042327136,-0.024251971,-0.010507957,-0.024153536,-0.029358298,-0.003894343,-0.005795372,0.001927177,0.00119891,0.001012037,-0.077714585,-0.02142196,0.030884042,0.00864384,-0.019182559,0.016278721,-0.024313495,0.047716461,-0.024781061,0.023279924,-0.009215996,-0.024313495,0.001128929,0.022578573
Sc1_A,0.035756093,-0.008711081,0.017114133,0.059240282,0.057860307,-0.057268891,0.03055655,0.05800816,0.002678319,0.02288045,0.038614608,-0.024864161,-0.062542357,-0.025406294,-0.016608965,-0.015401487,-0.044430211,0.002119245,0.04534198,0.003893496,-0.006887545,0.022424566,0.035140034,-0.036347512,-0.00838457,-0.008002613,-0.007257181,0.011169159,-0.025997711,0.005686229,0.002784589,-0.016325576,4.76E-05,-0.035977874,0.018444821,0.049555827,-0.017261988,-0.017348235,0.02371829,0.017680908,-0.003038713,-0.048101924,0.034425404,0.056726757,-0.04701766,-0.064168759,-0.029989777,-0.062690213,0.005082491,0.065154456,-0.035140034,-0.02422346,-0.020674957,-0.026244134,0.010990501,0.023853824,0.015980583,0.04068457,-0.027377684,0.051946137,0.010448369,-0.027353041,0.022030288,-0.010220427,-0.03967423,0.026663056,-0.018703567,0.007257181,-0.010386763,-0.038959604,0.062098797,0.005584579,-0.020946022,0.044183787,0.006647282,-0.044947702,-0.006462464,0.049876176,0.013171352,0.005208783,0.008711081,-0.036963571,-0.016953958,0.020798169,-0.026835551,0.025849856,-0.022042608,-0.046500172,-0.087480448,-0.002632114,-0.036248941,0.018050544,0.000103479,0.035879306,-0.008156627,0.004524957,0.03304543,0.037456416,0.039822087,0.033439711,-0.015265955,-0.035706807,0.003699437,0.041325271,0.024580775,-0.029201221,0.034450047,-0.044553421,-0.002869297,-0.001675682,-0.082601257,0.0055969,-0.045736257,0.018580355,-0.012080926,-0.040019225,-0.028240167,0.000857863,0.027771963,-0.008655636,-0.009696776,0.005775558,0.026884837,0.004016708,0.006745852,-0.052537553,0.005159498,-0.012475205,-0.034523975,-0.048077282,0.026810909,0.04760908,0.01460061,-0.026761625,-0.025258439,-0.030260842,0.023422582,0.021352623,-0.019073201,-0.006169836,0.013701163,-0.021611366,-0.028511234,0.008409212,-0.013861339,-0.011341656,0.021525118,0.010238909,-0.015475415,0.07836277,-0.00165258,0.015894335,-0.020884417,0.053769674,0.021808507,0.005452127,0.04588411,0.070132211,-0.02816624,-0.079644173,-0.04857013,0.005526054,-0.052340414,5.87E-05,-0.016769139,-0.012875644,-0.029817279,-0.023151515,-0.044578064,-0.076489948,-0.027229831,-0.070822202,-0.030926187,0.027944459,-0.006339252,0.007503605,0.003474575,-0.004688213,0.009401068,-0.03728392,-0.032355446,-0.012924928,-0.026712339,-0.003221991,-0.040585998,0.002473479,-0.041054204,0.033883274,-0.032799009,-0.015265955,-0.041645624,0.048077282,0.034252908,0.01501953,0.029250504,0.002093062,0.01450204,0.007226378,0.019023918,-0.042705245,0.03955102,-0.016522715,-0.005670828,-0.026441274,0.008846615,-0.017163418,-0.003329802,-0.001523977,-0.017582338,-0.003035633,0.006998436,-0.01801358,0.065598018,0.034523975,-0.033390425,-0.000985695,-0.004407906,-0.031295821,0.020822812,0.034745757,-0.030334769,0.058648866,0.031985808,0.002028376,0.001029589,-0.014095441,0.002826173,-0.014711501,0.053424679,-0.023250086,0.021032272,-0.026934121,-0.009709097,-0.02548022,0.013516345,-0.008045737,0.002609012,-0.029546214,0.013343848,0.013159031,0.013602594,0.017397521,-0.009142322,0.008273679,-0.024001678,0.035632882,0.007910204,-0.023163836,0.025628075,0.013454739,0.001411546,-0.050516877,0.055396069,0.017434483,0.02443292,-0.032330804,-0.012961891,-0.010694792,0.031468321,0.029940492,-0.035164677,-0.018913027,-0.038589966,-0.016719855,0.020995308,-0.001997573,-0.001395375,-0.017693229,-0.000691142,-0.052537553,0.062985919,0.010941217,-0.018777493,-0.030507267,-0.068702959,0.009930879,-0.014539004,0.009980164,0.01293725,0.040364217,-0.009407229,0.01542613,0.047116231,-0.029102651,-0.022486171,0.010528456,-0.02246153,-0.005002403,-0.014255617,-0.028856227,0.040093154,-0.010540778,-0.015241312,-0.018161435,-0.009468835,-0.008304482,0.03334114,0.04689445,-0.017570017,-0.016867708,0.021266375,-0.024322029,-0.049038336,-0.01211173,-0.014539004,0.055100363,-0.060620256,-0.015179706,0.009542761,-0.024728628,-0.046845164,0.031443678,0.082650542,-0.015955942,-0.074518554,0.010596223,0.031985808,-0.043469157,0.00092717,-0.053917527,-0.022769559,-0.004642008,-0.002803071,-0.008846615,0.017668586,-0.025652718,0.008501621,-0.007158611,-0.018962311,-0.075109974,-0.027402326,0.022215106,-0.020009613,-0.014230974,-0.018974632,0.001892843,0.002341026,-0.023003662,-0.037481058,-0.005655426,-0.00279537,-0.022621704,-0.034721114,0.007238699,0.002442676,-0.003172706,-0.032848291,-0.036593933,0.005122535,0.037481058,0.006850582,-0.009228571,0.01521667,-0.012924928,-0.07609567,0.05973313,-0.010429887,-0.031320464,-0.015364524,-0.054163951,-0.012080926,-0.017114133,0.027624108,0.04857013,0.030014418,0.067766547,-0.081960559,0.007916365,-0.013380812,-0.039033528,-0.0043463,-0.043148808,0.052636124,-0.012204139,-0.031098684,-0.026564486,-0.032552585,0.021500476,0.037136067,0.027870532,-0.001340699,0.029989777,0.009980164,-0.041423842,0.010337478,0.087924011,0.003071057,-0.026071638,-0.067520119,-0.027648751,0.048372991,-0.012493687,-0.034992181,0.007133969,-0.023348656,-0.013590273,-0.002267099,0.028092314,0.076588519,-0.005559937,0.03220759,-0.018112149,0.003579306,0.016658248,0.002034537,-0.010854968,-0.007478962,0.007417356,0.038910318,0.03644608,0.048594773,-0.031714741,0.019676941,0.029915849,-0.002114624,-0.00361935,-0.045588404,0.000685751,0.017212702,-0.018888384,0.029595498,-0.009850792,-0.037357848,-0.04068457,0.040832423,0.060965247,-0.000869414,-0.032429371,0.013935266,-0.032872934,-0.034647185,0.016707534,0.014871676,-0.028388022,-0.012388957,0.027698034,0.040561356,0.000897907,0.013824375,0.008717242,0.024740949,-0.024593094,-0.014588289,0.009456513,-0.001544769,-0.039846729,-0.065598018,0.049062978,0.002448837,-0.031837955,-0.002641355,-0.004839147,0.023779897,0.026096281,-0.060373832,-0.025973069,0.013590273,-0.052734692,0.000401594,0.064710893,-0.012629219,-0.041349914,-0.000872494,0.040635284,0.017459126,0.040068511,0.000110891,-0.013910623,-0.056233913,-0.017077168,-0.002561267,-0.041768834,-0.00300175,-0.004879191,0.010473011,-0.008329124,0.008470818,0.02577593,-0.009542761,-0.002373369,-0.034745757,0.007608335,-0.02929979,0.003557744,0.020527102,-0.029891206,0.002056099,0.011551116,-0.018986953,0.012974213,-0.01087345,-0.046155177,0.079939879,-0.011471028,0.009893916,-0.01791501,-0.041374557,0.0058002,-0.007515926,0.003696357,0.060127407,0.003055655,-0.047559794,0.024457563,0.003308239,0.019800153,0.056233913,-0.000896367,-0.019159451,0.035485025,-0.005713952,-0.012382796,0.008242876,0.048323706,0.00028589,0.023200801,0.055839632,0.036076445,-0.022510814,-0.015364524,0.000302832,-0.00320967,-0.001362262,-0.005079411,0.014514362,-0.042976312,-0.04886584,0.007953328,-0.032700438,0.003801087,0.001542459,0.01283868,0.006095909,0.007047721,-0.027599465,0.001410776,0.007324948,-0.004780622,-0.042729888,0.026810909,0.031123325,0.021303337,0.030679762,0.013639557,-0.007596014,0.006869063,-0.028733015,-0.048348349,0.001393835,0.012154854,0.065203734,0.015955942,0.004928476,-0.021438871,0.007700744,0.022005646,0.023287049,-0.037924621,0.026564486,0.007152451,0.007053881,-0.032109022,-0.001073484,0.004956199,-0.021820826,0.036593933,-0.008440015,-0.004805264,-0.010990501,0.003078757,-0.032823648,-0.035435744,0.032256875,-0.028831584,0.01542613,0.011119874,0.013553309,-0.0345979,0.015549342,0.022979019,-0.030162273,0.001172823,-0.013122067,0.039329238,0.003554663,0.011526473,0.024925767,0.009659813,-0.004611205,0.029989777,0.045489833,0.000277419,0.003948941,0.002944764,0.010078734,0.014723822,0.024014,0.016904673,-0.003459174,0.022005646,0.007053881,-0.017027885,0.012752431,-0.025702002,-0.018260004,-0.006604158,0.040093154,0.011816021,0.005199542,-0.010183464,-0.014440435,-0.011403262,0.02237528,0.019837115,-0.029767996,-0.000399669,0.020046577,0.020132825,0.048717987,0.007799313,-0.033735417,-0.023459546,0.01025739,-0.009388747,0.007411196,-0.005248827,-0.005812522,-0.019627655,0.009974003,-0.020206751,0.002960166,0.012998856,-0.015586305,-0.01272779,0.012518329,0.012469044,0.012327351,0.023065267,0.010232748,-0.079496317,-0.010522297,0.002893939,-0.000989546,0.002056099,0.011212283,0.007016918,-0.044085216,-0.024777913,-0.018247683,0.005199542,-0.01522899,-0.034129698,0.001269083,0.005640025,0.017791798,0.033291854,-0.004746738,0.011668167,0.026120923,0.002461158,-0.04307488,-0.035485025,-0.028733015,-0.029275147,-0.018038223,0.024765592,0.046820521,0.031985808,0.030186916,0.029225862,-0.029225862,0.02485184,0.02888087,0.030482624,-0.004832987,0.001155882,0.02703269,-0.034252908,0.024063284,0.031764027,0.027451612,0.022942055,-0.044873774,-0.041768834,0.01791501,0.008464658,0.028215526,0.019738546,0.018198397,-0.046229105,-0.024445241,0.008932862,-0.012690825,0.009154644,-0.042310968,-0.006924509,0.004389424,0.014773107,-0.038195688,-0.0691958,0.002833874,0.042458821,-0.015044173,-0.056825329,-0.004796023,0.001278323,-0.005683149,-0.002713742,0.024358993,0.012616899,-0.010269712,0.011341656,0.005338156,0.001751149,-0.008476979,-0.028264809,-0.001319907,0.01615308,0.006357734,-0.04647553,-0.011785218,0.008144307,-0.016116116,0.024161853,0.002521223,-0.021438871,-0.015290597,0.054508943,-0.012653862,0.012512168,-0.003175787,-0.009592046,0.004900753,-0.006237602,0.016892351,0.002775348,-0.0217469,-0.030162273,0.009074557,0.017348235,-0.019874079,-0.024198817,0.007158611,0.014070799,0.031320464,0.017606981,-0.025628075,0.050615449,0.007423517,-0.025406294,-0.01490864,0.009980164,-0.029496929,-0.022030288,0.018802136,-0.032182947,-0.019405873,0.026441274,-0.004851468,-0.02577593,-0.004106036,0.030408697,0.006468625,0.003339042,0.013072782,-0.006326931,0.001769631,0.031419035,-0.015808087,0.031024756,-0.013959908,-0.015918978,0.016054511,-0.019639976,0.023755254,0.009438031,0.013319206,0.022350639,0.038294259,-0.000165373,0.0184325,0.007214057,-0.033833988,-0.01998497,-0.017643943,-0.017964294,0.004463351,0.004722096,0.020625671,-0.017865725,-0.015721839,-0.006098989,-0.039501734,-0.026663056,-0.017397521,0.024667023,0.013159031,-0.053326111,0.035066105,0.024777913,-0.020847453,-0.006807458,0.023866145,-0.009986324,0.032725081,0.011156837,-0.057121035,-0.002670618,-0.040241007,-0.001409236,0.015586305,0.010565421,-0.005750916,-0.010078734,-0.053375393,-0.021315658,-0.013540988,-0.01646111,-0.029866565,0.012801716,0.026046995,-0.005307353,-0.007448159,0.009333301,-0.005224185,-0.017668586,-0.007164772,-0.018469464,-0.01490864,-0.027895175,0.018210718,0.03220759,0.005938814,0.013688842,0.029595498,-0.012210299,-0.01812447,-0.015610947,0.036224298,0.057811022,-0.003366765,-0.036076445,-0.041325271,0.031862598,0.007891722,-0.018272325,0.027303757,0.011341656,5.77E-05,-0.018617317,-0.054607514,-0.019664619,0.028905511,-0.034252908,0.0099432,0.032429371,0.035928588,-0.024285065,0.032133665,0.01708949,0.006154434,0.006074347,0.029669425,-0.001477003,0.041300628,-0.024001678,-0.002881618,0.054311804,0.008119664,-0.007676101,0.053917527,0.014957924,-0.019763188,0.035682168,0.04378951,0.001473922,-0.042163111,0.06086668,-0.024962731,-0.031246537,0.021377265,-0.007257181,-0.013861339,-0.017533053,-0.010010967,0.004916155,-0.011735934,0.025997711,0.030014418,0.018346252,-0.021685295,0.006018901,0.020785848,0.009284017,0.027771963,0.016263971,-0.022030288,0.032454014,-0.019824795,-0.013725806,0.012056285,-0.049925461,-0.02111852,-0.008532424,0.00569547,0.034795042,-0.014674537,0.008643315,-0.013725806,0.041620981,-0.004358621,0.007743868,0.016337898,-0.012512168,-0.005452127,0.005994259,-0.008476979,0.022449208,0.016756818,-0.044799846,0.024112569,-0.000250274,0.008452336,-0.021907076,0.016855387,0.019590693,-0.009906237,0.031739384,0.016017547,-0.012900285,0.038688537,-0.026096281,-0.011840664,0.020305321,0.009900076,0.011021304,0.004210767,-0.011095231,-0.011532634,-0.048791911,-0.044282358,0.022892771,-0.013405454,-0.042606674,0.005168739,-0.017040206,0.004990082,0.003816489,-0.029866565,0.026244134,0.039945297,-0.031295821,0.016350219,0.024100248,-0.00362551,0.00077354,0.041571695,0.010318996,0.037111424,-0.000557534,0.022005646,-0.000999557,-0.017471448,-0.018321609,0.000423156,0.034622543,-0.003948941,0.008754206,-0.011662006,0.024322029,0.006801297,-0.006992275,0.029225862,0.014009193,0.032059737,-0.017988937,-0.000582561,-0.00755289,0.025899142,0.0051749,0.035756093,0.029767996,0.019381233,-0.037234634,-0.004654329,-0.02019443,0.011501831,0.035706807,0.034450047,0.042631317,0.0412267,-0.01076872,-0.038392827,-0.01015266,0.025455579,-0.027155902,-0.026219493,-0.084868357,0.020687278,-0.0099432,-6.01E-05,-0.001902084,0.019479802,0.002644436,0.000740041,-0.018555712,0.031764027,-0.022042608,0.048816554,-0.002638275,-0.014255617,0.008082701,0.021475835,-0.002753786,0.010996662,-0.026416631,-0.016473431,-0.040930994,0.011471028,-0.008932862,-0.009247053,-0.028141597,0.024556132,0.020428533,-0.006819779,0.001029589,0.01450204,0.036520008,0.005969617,0.025751287,0.015364524,0.005405922,0.002910881,-0.008729563,0.016621286,0.03085226,0.019073201,-0.036125731,0.003032553,0.010947377,-0.026638413,-0.011132195,-0.017459126,0.074025705,-0.019442838,0.000526346,-0.023693649,-0.017754834,0.038220331,0.008476979,0.018518748,0.043740224,-0.027081976,0.014157047,-0.013368491,-0.019442838,-0.016288614,0.001146641,0.03967423,-0.030063704,-0.011372458,0.025430936,-0.013602594,-0.018050544,0.000286468,0.017261988,-0.015475415,-0.009776864,0.036002517,-0.026293419,-0.008643315,-0.004047511,0.020724241,-0.042310968,0.009930879,-0.004158401,-0.050196528,-0.013725806,0.003640912,-0.005258068,0.030950829,0.007719226,-0.007645298,-0.005295031,0.023126874,-0.00693683,0.023866145,-0.005205703,0.012080926,-0.01087345,-0.003474575,-0.014834712,0.014280259,-0.00403827,-0.010565421,0.024211138,-0.000303024,-0.00652407,0.036692504,0.009875434,0.002398012,0.053375393,-0.021759221,-0.038368184,-0.029496929,0.011409421,0.036544651,-0.025997711,0.026810909,0.012524489,-0.003560824,-0.004263132,-0.023521151,0.024531489,0.005113294,0.021155484,-0.007786992,0.016227007,0.010700953,0.03085226,0.019122487,-0.0217469,-0.016448788,-0.002136186,-0.014847034,-0.009247053,0.019898722,0.024925767,-0.003643992,-0.017742513,0.009062235,-0.011637364,0.01636254,0.015475415,-0.025652718,-0.00725102,0.001497795,-0.005002403,-0.020034255,0.018506426,-0.000617215,0.002239376,-0.029127292,-0.040167078,-0.038318902,-0.019418195,0.004435628,0.049777608,-0.030457981,-0.012124051,0.020502459,0.008131986,-0.019184092,0.003576225,0.00104037,-0.034228265,-0.010620866,-0.033833988,0.027155902,0.025184512,-0.004007467,-0.012715468,0.015955942,-0.006567194,0.003283597,0.003754883,0.002721443,-0.020539423,0.005445966,-0.009764543,-0.010091054,0.017779477,0.005439805,0.036421437,0.003662474,0.00620988,0.019184092,0.001383824,0.022215106,0.01906088,0.027993744,0.014255617,0.042434178,-0.013885981,-0.017680908,-0.014785428,0.000348266,0.01004177,0.006363895,0.003215831,-0.013713485,-0.015241312,-0.004435628,-0.003471495,0.003674795,-0.007965649,-0.016054511,0.000767764,-0.01667057,-0.005014724,-0.006333092,-0.012043963,-0.001203626,-0.001731127,0.038023192,-0.015068815,0.001091965,-0.025307724,0.041251343,-0.027303757,0.015561663,-0.021044593,-0.03149296,-0.056776043,0.002228595,-0.016966278,0.002259398,0.003927379,-0.011310852,0.046426244,0.002702961,0.022892771,0.039403167,-0.031271178,0.014477398,0.011021304,-0.026712339,-0.011273889,0.030630479,-0.003687116,0.014329544,-0.040043868,0.001057312,0.01232119,0.021081556,-0.014933283,-0.005409002,-0.014452755,0.038097121,0.037209995,0.03728392,-0.010861129,0.007448159,-0.029570855,-0.002673698,-0.011033625,0.001236739,-0.006930669,0.003385247,-0.021512797,0.006363895,0.000642627,0.01221646,-0.018789815,-0.027476253,0.012814038,0.01097818,-0.011852984,0.011372458,0.017077168,-0.009967843,0.023533473,0.009684456,0.00227172,0.014255617,0.006986115,-0.035485025,0.012253423,-0.025048979,0.014378829,-0.000756598,-0.006770494,-0.00465741,0.010288194,0.003810328,0.001018038,-0.004241569,-0.000644167,0.007380393,0.027254472,0.009333301,-0.024593094,-0.014095441,0.00046397,-0.040191721,0.026416631,-0.02329937,-0.008150467,-0.018777493,0.007497444,-0.019800153,0.015475415,-0.021093877,0.002844655,-0.001996033,-0.033144001,-0.026244134,-0.005975777,0.008982147,0.00206688,0.024765592,-0.011341656,-0.002665997,-0.003551583,-0.028018385,-0.013011176,0.000191556,-0.006400858,-0.009357944,-0.02703269,0.017274309,0.017508412,-0.01180986,0.009813827,0.01759466,0.003246634,-0.004611205,0.026465915,-0.025726644,0.004186124,0.011501831,0.040364217,-0.058944572,-0.025578789,0.001158962,-0.022732595,0.001389214,-0.006795136,0.008224394,0.011674328,-0.001235969,-0.008199752,0.029349074,0.019603014,0.01118764,-0.014686858,0.008877417,-0.003255874,0.000510944,-0.022929734,-0.001581733,-0.011557276,0.008255198,-0.02371829,-0.043962006,-0.022067251,0.018087506,-0.00632077,0.002847735,-0.045736257,0.013331528,-0.031517603,0.028905511,-0.006548712,0.004167642,0.027426969,0.021894755,-0.049210832,-0.00424465,0.00673353,0.001800434,0.017422162,0.011896109,-0.027303757,0.015290597,-0.007115487,-0.013922945,0.003191188,0.011464867,0.015130421,0.000563309,-0.015081136,0.002059179,0.014280259,0.015204349,0.020292999,0.017459126,0.046130534,0.036101088,0.004457191,0.015709518,-0.000685366,0.013245279,-0.012629219,-0.017348235,0.018383216,0.005723193,-0.044282358,0.009160805,0.009025272,0.022215106,0.000676895,0.022584742,0.034376118,0.011760576,-0.016473431,0.0066288,0.028954796,0.045194123,-0.006456303,-0.031714741,0.007195575,-0.004460271,-0.004993162,0.029644784,-0.047042303,0.005104053,-0.01594362,-0.013380812,0.01356563,-0.016990921,-0.016584322,0.01108291,-0.029496929,0.019208735,-0.013417776,0.010614705,-0.007774671,0.010177303,-0.001326838,-0.01780412,-0.013972229,0.017323593,0.00403827,-0.00921625,0.000193385,-0.019208735,-0.048077282,0.002823093,0.026515201,-0.01408312,0.02308991,0.008027256,-0.029743353,0.036618575,0.007343429,0.003579306,0.021069234,0.040832423,0.014797749,0.021217089,0.011766736,0.000415455,-0.012382796,0.019763188,-0.008754206,-0.018284645,0.032996148,0.003699437,0.015955942,0.003961263,0.031739384,0.009555083,-0.016621286,0.037949264,-0.002972487,0.001006487,0.01615308,-0.013023498,0.02392775,0.007380393,-0.010620866,0.005409002,-0.000539052,-0.00015363,0.020551745,-0.015487736,0.039279953,0.013935266,-0.000728105,-0.017964294,0.034326836,-0.019787831,-0.035287887,-0.019122487,-0.003865773,-0.007287984,0.021611366,-0.000398128,0.030531909,0.010010967,-0.010091054,0.004638928,0.010318996,0.039058171,0.006262245,0.002402632,0.007602174,-0.002515063,0.006634961,-0.027550181,0.009240893,0.040881708,0.020329963,-0.007441999,-0.020305321,0.016695213,0.026244134,0.036889642,-0.019886401,0.031566888,-0.032232232,-0.032651152,0.039353881,0.013060462,0.016596643,-0.005020885,-0.011218444,-0.013072782,-0.013651879,-0.005649265,-0.00849546,0.041423842,-0.031468321,0.010275872,-0.031911884,-0.012764753,-0.013085104,-0.000617985,-0.003973584,0.008889738,-0.002057639,-0.055691779,-0.020391569,0.018321609,-0.005144097,-0.008575548,0.011791379,-0.026564486,0.028043028,-0.024765592,0.021044593,-0.012000839,-0.009481155,-0.006040463,0.01791501
Sc1_A,0.02633488,-0.016677121,0.018137444,0.066806659,0.054142356,-0.042803384,0.010099537,0.078096539,-0.015302701,0.030384513,0.053651489,-0.023770114,-0.054829564,-0.007522499,-0.015327244,-0.014210528,-0.046705756,0.011750069,0.056007639,0.00302802,-0.023892829,0.017879739,0.033501502,-0.007921326,-0.027169351,-0.005902646,-0.026015818,0.030458143,0.000918837,-0.026923917,0.018051542,-0.016149443,-0.00386249,-0.027365696,0.01053518,0.028249253,-0.030261796,-0.034458689,0.005233843,0.01818653,0.003024952,-0.062977917,0.031709846,0.053651489,-0.029550044,-0.059836384,-0.028813746,-0.075789481,-0.008142215,0.061358064,-0.024175078,-0.017315246,-0.030188167,-0.024751842,-0.005378034,0.016701665,-0.001013942,0.030801747,-0.018125173,0.053946011,0.031415328,-0.043686941,-0.001830004,-0.006108195,-0.04209163,0.036323972,-0.028887376,0.003635465,-0.01122239,-0.0266294,0.041968916,0.024248706,-0.011314427,0.049626403,0.015155441,-0.039416421,-0.0100075,0.055664036,0.01940142,-0.018542407,0.008068585,-0.029181894,-0.002707425,-0.015094084,-0.038606495,0.040987186,-0.038164716,-0.018652851,-0.095914923,-0.012142761,-0.020284975,0.037992913,-0.006951869,0.018616036,-0.008577857,0.001102144,0.057234801,0.039318245,0.031169895,0.019119173,-0.003008079,-0.039735481,-0.006706436,0.015069541,0.049184624,-0.034385059,0.033010639,-0.036053997,-0.000805325,-0.000704851,-0.083201535,-0.000254061,-0.04879193,0.001889828,-0.022862013,-0.041158989,-0.030850833,-0.007448869,0.015548133,0.012388193,-0.026457597,0.001059961,0.031709846,0.029672759,0.032470688,-0.072009824,0.008890783,-0.041257162,-0.033746935,-0.015818108,0.033501502,0.054633219,0.022469323,-0.023880558,-0.010860377,-0.033256069,0.029918192,0.012897464,0.000416084,-0.010240661,0.027193893,-0.028985549,-0.018076085,0.006227843,-0.018824654,-0.018321518,0.00943687,0.017364332,0.00171956,0.056105811,-0.030261796,-0.00920371,-0.026531227,0.064548679,0.018272432,-0.001305393,0.042803384,0.090171807,-0.020370876,-0.063321523,-0.041551679,0.025254978,-0.073089726,-0.024800928,-0.00621864,-0.026752116,-0.020174531,-0.02427325,-0.049503684,-0.069800936,-0.033722393,-0.076034911,-0.017597493,0.036029454,0.007197301,-0.003331743,0.018284703,-0.031145353,0.019180531,-0.037600219,-0.017842924,-0.017388875,-0.011915736,-0.011277612,-0.04056995,-0.00392078,-0.034875922,0.041060816,-0.037477504,0.024113718,-0.039244618,0.045552228,0.02876466,0.024346879,0.043416966,-0.003475934,0.01887374,-0.00639351,0.020419963,-0.067641132,0.043932375,-0.007399783,-0.012118218,-0.014934553,0.01171939,-0.042214349,0.022358878,-0.024027817,-0.055614948,-0.001055359,-0.000680691,-0.004074175,0.044865016,0.03340333,-0.030728118,-0.010584266,0.002385295,-0.012228662,-0.002735036,0.026187621,-0.02640851,0.039784569,0.015781295,0.003414576,0.000227984,-0.00207697,0.01015476,0.004114058,0.047466598,-0.02343878,0.022702483,-0.034900468,-0.019806383,-0.043662399,-0.006620535,-0.002868489,0.009080993,-0.043294251,-0.003144601,0.023941915,0.018247887,0.022518409,-0.007007091,0.012652033,-0.016983911,0.038238347,0.015020453,-0.006166485,0.012523181,-0.000549538,-0.011860513,-0.030875377,0.055124085,0.013351515,0.015891738,-0.045601312,-0.013326971,-0.020739025,0.030237254,0.022616582,-0.042287976,-0.024567768,-0.038189258,-0.008387648,0.006927325,0.006049905,-0.000257704,-0.013830108,-0.012449551,-0.053209711,0.059983641,0.017352059,-0.02367194,-0.025770387,-0.086343065,0.000895828,-0.026163079,0.000320021,0.017793838,0.063616037,-0.022358878,0.015278158,0.04459504,-0.048423782,-0.020996729,0.024764115,-0.013891465,0.003273453,-0.013707391,-0.044275977,0.0449141,0.001448817,-0.014566404,-0.01689801,-0.031832565,-0.015020453,0.036495775,0.055762209,-0.021941643,-0.020137716,0.027169351,-0.023831472,-0.033722393,-0.018174259,-0.03598037,0.047564771,-0.039637309,-0.003577175,-0.002986604,-0.024837743,-0.02275157,0.014014182,0.05266976,-0.006859832,-0.071911648,-0.00010498,0.006083652,-0.043760572,-0.000730544,-0.049552772,-0.01015476,-0.006933461,0.002934449,-0.018751023,0.002073903,-0.015130898,0.001089106,-0.015781295,-7.86E-06,-0.06985002,-0.015413146,0.012799292,0.007246387,-0.026874831,-0.0391219,-0.015400873,-0.008522635,-0.004064972,-0.043785114,-0.044251435,0.008283339,0.001281617,-0.006589856,0.006841424,-0.008669894,0.013903737,-0.018763296,-0.027660215,0.01979411,0.040938098,-0.011915736,-0.018296974,-0.003136931,-0.010216118,-0.033624217,0.046730302,-0.008976685,-0.031243525,-0.033501502,-0.056253072,-0.012664304,0.004423916,0.010216118,0.048055634,0.019597765,0.043024275,-0.063321523,-0.000902731,-0.009289611,-0.030384513,-0.017069813,-0.024788657,0.0494546,-0.021917101,-0.011105809,-0.041257162,-0.042361606,0.017302973,0.04952823,0.031292614,0.021217618,0.027709302,-0.004782861,-0.041919827,-0.000430657,0.07574039,-0.005960936,-0.033157896,-0.050362699,-0.016628034,0.0353177,-0.024089176,-0.018542407,0.022395693,-0.029034635,0.00067839,0.002218094,0.020714482,0.062928833,0.001305393,0.038410146,-0.009019636,0.003245841,0.011823699,0.013584675,-0.009080993,0.01233297,0.014333243,0.030605402,0.041208073,0.032323427,-0.022444779,0.037772022,0.006970276,-0.003525021,-0.01209981,-0.04299973,-0.009682302,0.018628309,0.009130079,0.061259892,-0.002116853,-0.038311973,-0.031734388,0.047000278,0.070340887,-0.00392078,-0.011394192,0.039244618,-0.045699485,-0.024567768,-0.00424291,0.008528771,-0.012467958,-0.012081402,0.040692668,0.005577448,0.008393783,-0.003506613,0.002902236,0.014014182,-0.030040907,0.002225764,0.001596844,0.002115319,-0.037894741,-0.052964281,0.036741208,0.011762341,-0.044815928,0.001449584,0.007909054,0.038950097,-0.003641601,-0.052718848,-0.043785114,0.037772022,-0.056989368,0.011682576,0.053062454,-0.021450778,-0.03202891,-0.012639761,0.053062454,0.041404422,0.030801747,-0.0081054,-0.005868899,-0.059001915,-0.004353355,-0.013191983,-0.03485138,0.009897055,-0.020935372,-0.000971758,-0.009737524,0.026948461,0.017560678,0.016223071,0.011995501,-0.034385059,-0.006065244,-0.027144806,0.00715435,-0.01841969,-0.014296428,-0.013020181,0.015658578,-0.007062313,0.004436188,-0.009706846,-0.049233709,0.083741486,-0.011185575,0.013596946,-0.014492774,-0.05379875,-0.011658031,0.003084777,0.005402578,0.057529319,0.00069488,-0.027905647,0.004776725,-0.009265067,0.028003819,0.061701667,0.007792474,-0.003660009,0.046902101,0.016787566,-0.026874831,0.011185575,0.041846197,-0.000114184,0.026580313,0.048644673,0.03234797,-0.017376604,-0.016296702,0.01605127,-0.030801747,0.018603764,-0.004420849,0.011547588,-0.028273795,-0.055811293,-0.003081709,-0.032446142,-0.018272432,0.016787566,-0.001122086,0.001682745,0.010731525,-0.016198529,-0.022542952,-0.01255386,-0.003356286,-0.019057814,0.009792747,0.035366789,0.018603764,0.028101994,0.021880286,-0.009510499,0.022395693,-0.021708483,-0.036814839,-0.01713117,0.012412736,0.068721034,0.025868559,-0.004779793,-0.011093537,0.02222389,0.015891738,0.018996457,-0.017707936,0.009712981,-0.000111499,0.015707664,-0.021009,0.007387511,-0.002423644,-0.004862627,0.033943281,-0.003356286,-0.000605527,-0.009136216,0.010713118,-0.030679032,-0.027022092,0.047712028,-0.027905647,0.028396511,0.011750069,0.007436597,-0.03926916,0.006052973,0.023892829,-0.029942734,-0.012124353,-0.012799292,0.049503684,0.009019636,0.008639215,0.031881649,0.013891465,-0.004436188,0.022052087,0.021143988,-0.00582288,-0.006249319,-0.011553723,0.002314733,0.019830925,0.023991002,0.013842379,-0.01438233,0.02396646,-0.012296156,-0.011725525,0.006166485,-0.03782111,-0.025132263,-0.008946005,0.035955824,-0.008964413,0.030826291,-0.01689801,-0.014210528,-0.017315246,0.01916826,0.011964822,-0.03089992,-0.003549564,0.029746389,0.019695938,0.048055634,0.016370332,-0.037992913,-0.019155987,0.010240661,-0.010302018,0.005534497,-0.003966799,-0.013596946,-0.025254978,-0.003273453,-0.021278976,-0.00734456,0.013265613,-0.030826291,-0.018333789,0.028175622,0.014603219,0.022800656,0.03097355,0.017143443,-0.067052089,-0.003791928,0.014406873,-0.002554029,0.012547724,0.016223071,0.012578403,-0.032961551,-0.02146305,-0.013044724,0.003761249,-0.014419145,-0.029476414,0.030384513,-9.49E-05,0.027120264,0.018542407,1.97E-05,-0.002517215,0.018984186,0.002980468,-0.033967823,-0.030040907,-0.024334608,-0.019720482,-0.011283748,0.013216527,0.035072267,0.02670303,0.012885193,0.027684757,-0.037133899,0.026064904,0.037158445,0.032667033,-0.015388602,-0.003580243,0.019683667,-0.042852473,0.031243525,0.027586585,0.015584948,0.023230163,-0.043809656,-0.053160626,0.010682439,0.009596401,0.019217346,0.003733638,0.021573495,-0.048939191,-0.024862288,0.009215981,-0.004071108,0.002486536,-0.028641943,-0.010105673,0.009123944,0.026040362,-0.026850289,-0.057332974,-0.004046564,0.036962096,-0.024543226,-0.046853017,-0.008172894,-0.0181129,-0.016640307,-0.011400328,0.036814839,0.011320563,-0.003380829,0.018358333,0.015793566,0.011388057,-0.000117635,-0.024052361,-0.008154486,0.000915769,-0.002366887,-0.067788385,-0.012069131,-0.011161031,-0.023622854,0.008774203,-0.003773521,-0.034041453,-0.013056995,0.050460871,-0.023721026,0.019708211,-0.014198256,-0.02807745,0.003509681,-0.010614945,0.032887921,-0.01164576,-0.029255524,-0.023794657,-0.019192802,0.014038725,-0.022739299,-0.038729209,0.025021818,0.007313881,0.027635671,0.015793566,-0.022653397,0.031292614,0.005957868,-0.000353384,-0.019266432,0.009565722,-0.039072815,-0.028052906,0.024187349,-0.016480776,-0.009350969,0.019070085,-0.016554406,-0.035440419,-0.016112627,0.035366789,-0.003337879,0.021205347,0.003880898,-0.00127318,0.02367194,0.02511999,-0.017830653,0.011443279,0.001087572,-0.003525021,-0.023070632,-0.004782861,0.017045271,0.001461856,0.018296974,0.030261796,0.023794657,-0.00310165,0.00779861,-0.000990166,-0.044472326,-0.006896646,-0.019683667,-0.032912467,-0.006841424,-0.012995638,0.019008728,-0.019855469,-0.010087266,-0.001209521,-0.030531771,-0.010522908,-0.026801202,0.006939597,0.003472866,-0.053209711,0.026874831,0.017916555,-0.002121455,0.005420985,0.025279522,-0.026015818,0.041011728,0.037698396,-0.055958554,0.027684757,-0.059247345,-0.006003886,0.027562043,0.018198801,-0.009510499,-0.006792338,-0.056940284,-0.011455551,-0.006270794,-0.012044588,-0.02305836,0.009301882,0.02153668,0.006279998,-0.014112354,0.003097048,-0.001837674,-0.036544863,0.003069437,-0.002402168,-0.014394602,-0.028862832,0.028715573,0.029083721,-0.016333517,0.0247273,0.02206436,-0.018026998,-0.037722938,-0.016345788,0.021475323,0.049233709,-0.00315994,-0.037232071,-0.038115628,0.032887921,0.00967003,-0.008761931,0.009860241,-0.006046837,0.010866513,-0.01834606,-0.051933464,-0.017106628,0.028371967,-0.026482141,0.008215845,0.045871288,0.011854378,-0.018100629,0.037452962,0.005436325,0.018652851,0.025893103,0.02161031,-0.01932779,0.026457597,-0.022862013,-0.010940143,0.050755389,0.007755659,-0.008424462,0.06017999,0.019340061,-0.011062859,0.040938098,0.038189258,-0.002877693,-0.032667033,0.040766299,-0.014603219,-0.03492501,0.030310882,-0.013400601,-0.018407419,-0.015265886,-0.006528498,0.014505046,-0.01255386,0.023586039,0.021585766,0.013744206,-0.025279522,0.028911918,0.020407692,-0.000465554,0.025893103,0.003113922,-0.027071178,0.02959913,-0.015879467,-0.012823835,-0.006166485,-0.037330244,-0.006092856,-0.037943825,0.015695393,0.044889558,-0.000575232,-0.004469935,-0.015584948,0.036176715,0.001831538,0.012602946,0.017032998,-0.019462777,0.01095855,0.011038315,-0.020407692,0.026973005,0.001460322,-0.040054545,0.021058086,-0.006958005,0.009449142,-0.002442051,0.028862832,0.010265204,-0.027611129,0.009633216,0.005000682,-0.028273795,0.039293703,-0.022690212,-0.022052087,0.010756069,0.003546496,0.007583857,0.005365762,-0.0057063,-0.001797791,-0.050362699,-0.028740117,-4.47E-05,-0.004552768,-0.03340333,0.008663759,-0.018517863,-0.002639931,0.007945869,-0.021143988,0.022690212,0.043834202,-0.031218983,0.018849198,0.032004364,-0.002676745,-0.005730843,0.04695119,0.022125717,0.027120264,0.008399919,0.028298339,0.001525515,-0.014468231,-0.031513501,-0.002925246,0.015584948,0.007086856,0.018530134,-0.017204801,0.019990457,0.023573767,-0.006780066,0.034311429,0.004552768,0.015388602,-0.003371626,0.005212368,-0.003834879,0.028936462,-0.001664337,0.020972187,0.020812655,0.021401692,-0.024530953,-0.005181688,-0.010934006,0.011780748,0.041232619,0.031096267,0.028740117,0.023303792,-0.004727639,-0.038680121,-0.035391331,0.007927462,-0.03485138,-0.021696212,-0.07574039,0.021364877,-0.010694711,0.005761522,-0.000358178,0.0133147,-0.016996183,-0.008626943,-0.016689394,0.027954733,-0.011547588,0.038532864,-0.003549564,-0.013646034,0.008725117,0.017744752,0.00635056,0.011283748,-0.028347425,-0.011026043,-0.02640851,-0.004721503,-0.010062722,0.022579767,-0.037035726,0.02245705,0.028887376,-0.007553177,-0.011829834,0.00871898,0.036004912,-0.006724844,0.024800928,0.009424599,-0.01400191,-0.006016158,-0.015437689,-0.001076067,0.015388602,0.011510773,-0.0295255,0.013020181,0.012922008,-0.027120264,-0.00599775,-0.029353697,0.067052089,-0.006206368,0.008314017,-0.023868287,-0.030801747,0.026555769,0.012615218,0.017204801,0.041085359,-0.034704119,0.019843198,-0.00477059,-0.000637357,-0.022322062,0.010627217,0.032716118,-0.021389421,0.003069437,0.017487047,-0.025230436,0.000767359,0.022076631,0.023684213,-0.015118627,0.001131289,0.035268616,-0.006080584,0.003638533,-0.00768203,0.029132808,-0.039882742,-0.000939545,-0.000120319,-0.061210804,-0.008786474,0.010412463,-0.012995638,0.027341153,0.012050724,-0.001274714,-0.007160486,0.025844015,-0.002098446,-0.00500375,0.001151231,0.03210254,0.009651624,0.008172894,-0.01575675,0.006230911,-0.005016021,-0.008123808,0.025672214,-0.012388193,-0.005058972,0.046362154,0.012652033,0.015989911,0.03524407,-0.03669212,-0.051049907,-0.0133147,0.005335084,0.031857107,-0.023929644,0.022150261,0.00791519,-0.00260465,9.13E-05,-0.015314973,0.021622581,-0.002037088,0.019266432,-0.020505864,0.006767794,0.009387784,0.027046634,0.01666485,-0.013854651,-0.019585494,0.003362422,0.002222696,-0.013339243,0.028371967,0.039686397,0.005617331,-0.001509408,0.012836107,-0.002265647,0.03281429,0.001616785,-0.025844015,-0.00583822,0.000480127,-0.025426781,-0.032225255,0.038434692,-0.002900702,-0.007086856,-0.013731934,-0.012615218,-0.037379332,0.002776452,-0.004776725,0.039146446,-0.021328062,-0.015535861,0.013081539,0.001845344,-0.016824381,0.001431177,0.008534906,-0.035194986,-0.011713254,-0.047172077,0.022972459,0.008731253,0.010486093,-0.020370876,0.001848412,-0.012517045,0.02396646,0.002827073,-0.005276794,-0.028961007,0.017327517,-0.016186258,-0.025623128,0.010547451,0.008817154,0.024089176,0.016947096,0.008774203,0.009283475,0.016247615,0.023941915,0.013940552,0.017977912,0.028052906,0.02999182,-0.015351787,-0.010633352,-0.014517318,0.010811291,-0.002238035,0.007817017,-0.0033072,-0.014185984,0.003690687,-0.004338015,-0.014063268,-0.004721503,-0.016002182,0.002690551,0.008271066,-0.016861197,-0.002799462,-0.006424189,-0.00989092,0.006240115,0.001940449,0.034409601,0.003736706,-0.003294928,-0.043613311,0.04162531,-0.03210254,0.019229617,-0.023475595,-0.022039816,-0.045036819,-0.008387648,-0.012253205,0.01057813,0.012885193,-0.008583993,0.034139626,0.004135533,0.025672214,0.04017726,-0.032127082,0.017217072,-0.020493593,-0.015364059,-0.003604786,0.036986642,-0.000823732,0.020248162,-0.020027272,-0.008424462,0.004123262,0.013363786,-0.006332152,-0.010381784,-0.021990729,0.020677667,0.033035181,0.043122448,-0.009215981,0.005657213,-0.032667033,0.007301609,-0.001160434,0.01940142,-0.003316403,0.011627353,-0.013744206,0.011970958,0.008332425,0.008645351,-0.03097355,-0.027218437,0.015008182,0.026212165,-0.027537499,0.005577448,0.011584402,-0.020334061,0.02815108,0.010664031,0.000532665,0.003258113,0.002497273,-0.02229752,0.011431007,-0.026433054,0.002118387,0.00665735,-0.019119173,-0.023095176,0.02130352,-0.01362149,0.001678143,-0.018738752,0.012848378,0.014333243,0.020383149,0.022530681,-0.018812383,-0.011823699,0.009958413,-0.025475867,0.035219528,-0.007424326,-0.002181279,-0.012081402,-0.004147805,-0.014370059,0.011007637,-0.02321789,0.007964277,-0.015425417,-0.004611059,-0.0266294,-0.011989365,0.020530408,0.011400328,0.012750206,-0.001402032,0.01293428,0.000792286,-0.019511864,-0.006479411,-0.003859422,-0.002279452,-0.00340844,-0.042067088,0.009940006,0.008412191,0.000946448,0.000987098,-0.000653463,0.000119648,-0.01537633,0.024555497,-0.024629127,0.001147396,0.020714482,0.0427543,-0.073040634,-0.034974094,-0.016308973,-0.018370604,0.00233314,-0.00229019,-0.004212231,0.019916827,0.006902782,-0.006577584,0.013118354,0.005850491,0.015192256,-0.008952142,0.005028293,0.00156233,-0.003242774,-0.028494684,0.011473957,-0.010989229,-0.000813761,-0.018431962,-0.027586585,-0.006338288,0.035366789,0.009528907,-0.000261347,-0.023266977,2.33E-05,-0.024616854,0.016824381,0.008872376,0.006620535,0.012971095,0.035072267,-0.038361061,-0.005951732,0.0143087,0.01491001,0.014235071,0.006528498,-0.021254433,0.012664304,-0.007295473,-0.027905647,-0.009393919,-0.002405236,0.012529316,0.019462777,-0.019290974,-0.009577993,0.013682848,0.008179029,0.001452652,0.016529862,0.01841969,0.031218983,0.01597764,0.020800384,0.008841697,-0.001437313,-0.028371967,-0.025893103,0.010725389,0.008731253,-0.031439871,0.015130898,0.019965913,0.024555497,0.017082084,0.041281704,0.037477504,0.009314154,-0.004476071,-0.000108815,0.0353177,0.062094361,-0.010062722,-0.023770114,0.006755523,-0.010179303,-0.027586585,0.01940142,-0.038483776,0.002342344,-0.004583447,0.001563097,0.019953642,-0.00143041,-0.014836379,-0.000160586,-0.024371423,0.033354241,-0.011762341,0.012418872,-0.015621763,-0.001285451,-0.012474095,-0.014087811,-0.019536408,0.017781567,0.018284703,0.010719254,-0.015265886,-0.023230163,-0.036863923,3.55E-05,0.025893103,-0.029623672,0.025230436,0.023561496,-0.023819201,0.035931282,-0.003396169,0.002710492,0.020923099,0.055958554,0.008086992,0.004000545,0.004920917,0.012676576,-0.017830653,0.026506683,-0.005497682,-0.024224164,0.031636216,0.007669758,0.017560678,0.007970412,0.030777205,0.031243525,-0.022960188,0.031783476,0.000308324,0.006681893,0.029353697,-0.024052361,0.030065451,0.013130626,-0.013400601,-0.000473991,0.013511046,0.002658338,0.016934825,-0.020640852,0.027954733,0.018886011,0.012559995,-0.018971913,0.049209166,-0.00836924,-0.037870195,-0.043956917,0.001236365,-0.004626398,0.020518137,-0.009995229,0.019094629,-0.022739299,0.008786474,0.008669894,0.013277885,0.024702756,0.000248884,0.003709095,0.006982548,-0.011878921,0.012013908,-0.041576222,0.016812108,0.0353177,0.016308973,0.017339788,-0.023708755,-0.00374591,0.036397602,0.022653397,-0.024297792,0.047515683,-0.028887376,-0.036569405,0.049086452,0.007933597,0.020739025,-0.005356559,-0.009958413,-0.003847151,-0.021720754,-0.013658305,0.001984933,0.032544315,-0.03089992,-0.007866104,-0.018235616,-0.020763569,-0.010633352,-0.014640034,0.001972662,-0.005436325,0.002751909,-0.076967552,-0.023340607,0.017744752,0.011326699,-0.021401692,0.011332834,-0.025524953,0.050706305,-0.020248162,0.020469049,-0.013498774,-0.033108812,-0.006706436,0.018591493
Sc1_A,0.015736451,0.001227282,0.013606893,0.071711667,0.055170439,-0.054080896,0.017098378,0.052694209,-0.005667475,0.043878824,0.02458898,-0.051406566,-0.044349309,-0.027387122,-0.021889888,-0.009886354,-0.035954881,-0.006890114,0.045290276,-0.012703068,-0.015129775,0.016095506,0.023462294,-0.026000431,-0.027634744,-0.011242092,-0.014956439,0.016590752,-0.028154753,-0.010127787,0.004794603,-0.021530833,0.001765863,-0.034097709,0.013804991,0.039223507,-0.024948033,-0.020565104,0.033305313,0.009595397,0.025703283,-0.035930119,0.022979429,0.062549606,-0.035335824,-0.030952895,-0.029491918,-0.057943817,-0.00325934,0.064530596,-0.039793041,-0.041303542,-0.030655747,-0.046231244,-0.008041562,0.000726232,0.017209809,0.021233685,-0.005110323,0.049351294,0.020577485,-0.039025411,0.010356839,-0.014572623,-0.049697969,0.040362574,-0.016627895,0.018274589,-0.006753922,-0.027907129,0.046206482,-0.003627679,-0.031200517,0.037663482,0.014807865,-0.030903369,0.002285871,0.057448573,0.025381373,-0.007843464,0.015885025,-0.024787078,-0.026495678,0.012752593,-0.024465168,0.009360155,-0.023326101,-0.025926145,-0.094889194,0.011167805,-0.023078479,0.017890774,0.001953128,0.017754581,-0.009552063,0.013631655,0.02439088,0.030086214,0.050539885,0.032562446,0.001313177,-0.018955553,-0.001762767,0.030928133,0.035682496,-0.028526187,0.038579687,-0.025430897,0.002270395,-0.005717,-0.091174848,0.000727393,-0.035038676,0.007224406,-0.029690016,-0.030581459,-0.01529073,-0.00067516,0.015662165,-0.009514919,-0.016330747,0.004834842,0.041650213,0.005308421,0.026223293,-0.054080896,0.006667254,-0.027733793,-0.02736236,-0.037192997,0.034320571,0.054031372,0.008945387,-0.029863352,-0.044200733,-0.036152981,0.01796506,0.02416802,-0.011743528,-0.011458762,0.008530618,-0.012170678,-0.037886344,0.006834399,-0.013062121,-0.010449697,0.017915536,0.026099481,0.001250497,0.076020308,-0.015959313,0.002140393,-0.013483081,0.041873075,0.018187921,-0.003064336,0.0352863,0.077159375,-0.028352851,-0.073296458,-0.053734224,0.018856503,-0.037564434,-0.010975896,-0.031943388,-0.00930444,-0.03516249,0.0025629,-0.050242737,-0.074831717,-0.040486388,-0.068145894,-0.027288072,0.015043107,-0.013916422,0.007304883,0.01368118,-0.015897406,0.02502232,-0.031200517,-0.033478651,-0.00973159,-0.016875518,-0.020726059,-0.033528175,-0.013074502,-0.058191441,0.023140384,-0.058290493,-0.00208932,-0.033577699,0.04546361,0.02149369,0.023449913,0.05068846,-0.014845008,0.007688699,0.005128894,0.020676533,-0.046280768,0.044894077,-0.018980315,-0.005261992,-0.019116508,0.016541228,-0.022360371,0.020020332,-0.007880607,-0.035335824,0.009081579,0.004454121,-0.021679407,0.047568407,0.038381588,-0.036747277,-0.018646024,-5.99E-05,-0.021332735,0.009063007,0.029170008,-0.040015902,0.042095937,0.019376513,-0.015587877,-0.01241211,-0.009774924,0.002271943,-0.019822234,0.066016331,-0.028352851,0.020020332,-0.00513199,-0.0134707,-0.026545202,0.012529732,-0.006048196,-0.001259783,-0.019388894,0.002925049,0.027040448,0.02502232,0.031373855,-0.005651998,0.005475567,-0.024898509,0.039025411,0.017420288,-0.023004191,0.026074719,0.006958211,-0.004410787,-0.03776253,0.044795029,0.006246294,0.027139498,-0.060420051,-0.018447924,-0.001645146,0.015835501,0.031076707,-0.031844337,-0.018150777,-0.035880595,-0.009613969,0.017791724,0.009657303,0.012851642,-0.011898292,-0.022149891,-0.055071391,0.062747709,0.012288299,-0.004426264,-0.019054601,-0.076218404,0.001108114,-0.017717436,0.012325442,0.041179731,0.051604666,-0.014931676,0.014312618,0.055715211,-0.042120699,-0.025876619,0.022496564,-0.021431785,-0.023487056,-0.016516464,-0.045240752,0.051802766,-0.024180401,-0.005912003,-0.033924371,-0.011353522,-0.006475346,0.036573939,0.039124459,-0.019178413,-0.019946044,0.034716766,-0.021642264,-0.03776253,0.003219101,-0.01806411,0.052248485,-0.063342005,-0.009490157,0.023375627,-0.019054601,-0.017729819,0.034221519,0.08087372,-0.029219532,-0.078942262,0.009682066,0.033478651,-0.051109418,0.011031612,-0.039594941,-0.026966162,-0.004516027,-0.00224099,-0.012158297,0.005751048,-0.045934096,-0.003025645,-0.015377398,-0.020206049,-0.068839237,-0.024007065,0.02191465,-0.006822018,-0.018782217,-0.015129775,-0.007540125,-0.002250275,-0.02406897,-0.034097709,-0.042714994,0.003305769,-0.012443064,-0.022310846,0.001755029,-0.006883924,0.006753922,-0.016541228,-0.040857822,0.011056374,0.039594941,-0.006066767,-0.021964174,0.007335836,-0.00390935,-0.060073379,0.060519099,-0.015377398,-0.018423162,-0.020094618,-0.051703714,-0.008208708,-0.01636789,0.009162057,0.044101685,0.014188807,0.042640708,-0.064282969,0.015860263,-0.014250712,-0.043457866,-0.00705726,-0.039619707,0.030680509,-0.017036473,-0.017630769,-0.046949349,-0.027758555,0.010963515,0.04618172,0.028179515,0.004367454,0.018249827,0.005271278,-0.05655713,0.00229361,0.062301986,-0.016751707,-0.02642139,-0.052892305,-0.024737554,0.048707474,-0.015377398,-0.030779559,0.003819587,-0.024960414,-0.003838159,0.001915984,0.013210695,0.057943817,0.01304974,0.026099481,-0.021109873,0.008852527,0.010870657,0.005357946,0.003516249,-0.005169133,-0.006388677,0.034295809,0.047370311,0.04865795,-0.052149437,0.030210026,0.046875063,-0.02951668,0.004896748,-0.046726491,-0.007323455,0.015587877,0.003181958,0.052694209,-0.00325934,-0.029541442,-0.048633188,0.04350739,0.072900258,-0.001587883,-0.005283659,0.015451685,-0.041130207,-0.027411884,0.008549189,0.037861582,-0.034890104,-0.013235457,0.02941763,0.024081351,-0.003825778,-0.002531947,-0.005908907,0.006865352,-0.031126231,0.004191022,-0.011260663,-0.010598271,-0.02684235,-0.063342005,0.049772255,-0.011960198,-0.027461408,-0.02736236,0.00306898,0.014684053,0.034865342,-0.055021867,-0.016875518,0.024056589,-0.046924587,0.011235901,0.064382024,-0.01872031,-0.034518667,-0.005596283,0.041600689,0.035385348,0.031671003,0.004500551,-0.007527744,-0.047320787,-0.024452787,-0.00770108,-0.033850085,0.008245851,-0.018410781,0.002383373,-0.016677419,0.005388899,0.013557368,0.012851642,-0.00641344,-0.025628997,0.0183984,-0.02063939,0.01219544,0.008567762,-0.011495905,-0.020193668,-0.002335396,-0.028872861,0.018658405,-0.020577485,-0.034196757,0.08597476,-0.011514477,0.012461635,-0.002172893,-0.029987164,-0.009162057,-0.007849654,0.004039353,0.041699741,-0.004940082,-0.034667242,0.010270171,-0.01326022,0.031671003,0.06190579,0.010028738,-0.00497413,0.050242737,-0.022632757,-0.000549414,0.011037802,0.056210458,0.004296262,0.018633643,0.050911322,0.031695765,-0.006311295,-0.010548746,0.011297806,-0.015563115,0.010647796,0.002637187,0.025653759,-0.033998661,-0.056458078,-0.004717221,-0.046379816,-0.00496794,0.008462521,0.007577268,0.002734688,0.015885025,-0.021939412,-0.013557368,0.002632544,0.011594954,-0.032042436,0.026099481,0.034196757,0.013284982,0.026718538,0.015166919,-0.001496572,0.014077377,-0.026619488,-0.037341572,0.005847002,0.020007951,0.075871736,0.018930791,0.008183945,-0.013396413,0.013965946,0.006890114,0.016912661,-0.029491918,0.005655094,-0.005234134,0.00046468,-0.026792826,-0.009663493,0.00973159,-0.001393654,0.032834832,-0.000184073,-0.001885031,-0.003884588,0.006119387,-0.035954881,-0.029912878,0.054724719,-0.023796584,0.016937423,0.005252706,0.011737337,-0.029962402,0.015105013,0.019178413,-0.030210026,-0.014634528,-0.012542113,0.047370311,0.006611538,0.005608664,0.02331372,0.004333405,0.00422507,0.023177527,0.037093949,-0.01464691,-0.006137959,0.000293666,0.015575496,0.019005077,0.033775799,0.021097492,-0.005645808,0.016330747,0.001897412,-0.014609766,0.00438912,-0.020057475,-0.035137724,-0.013124027,0.027609982,0.001523656,0.022261322,-0.003095289,0.001991819,-0.011824005,0.015662165,0.009793496,-0.041897837,0.008852527,0.023264196,0.013990709,0.037292048,-0.004992702,-0.034741528,-0.018386019,0.013718323,-0.008152992,0.006302009,0.002321467,-0.002395754,-0.015352636,-0.002258014,-0.026470914,0.014882152,0.017655531,-0.002918858,-0.011625907,0.017655531,-0.004844128,0.019401275,0.031175755,-0.005608664,-0.069879256,-0.018906027,0.0269414,0.017766962,0.011817815,0.001880388,0.01872031,-0.024254689,-0.015525972,-0.02416802,0.006326772,-0.026049957,-0.023276577,0.011502095,-0.010183502,0.02073844,0.030432886,0.003862921,0.022719424,0.03776253,0.011390666,-0.022942286,-0.038133968,-0.044126447,-0.023487056,-0.021307973,0.013656417,0.04051115,0.027758555,0.030829083,0.025381373,-0.028154753,0.001249723,0.044448357,0.042913094,-0.004664601,-0.010183502,0.016231697,-0.037391096,0.029962402,0.021964174,0.027288072,0.031027181,-0.040932108,-0.050911322,0.033354837,0.00983683,0.018509831,0.019153651,0.015946932,-0.038183492,-0.031819575,0.012393539,0.007874416,0.005837716,-0.033206265,-0.000692958,0.000945611,0.013755467,-0.031497665,-0.067898266,0.003862921,0.033751037,-0.010536365,-0.067947797,0.001351868,-0.010096834,-0.003497677,-0.003952685,0.028253803,0.018670786,-0.003463629,0.011966389,0.013421175,-0.001939199,-0.005850097,-0.014993582,-0.00930444,0.014894533,0.013904041,-0.053189453,-0.020354623,-0.000759507,0.002005748,0.012139725,-0.012108772,-0.03196815,-0.024465168,0.037093949,-0.019834615,0.022409895,0.011712575,-0.016231697,0.000561021,-0.009607779,0.022360371,-0.006865352,-0.027387122,-0.029566204,0.001908246,0.01368118,-0.027387122,-0.032636732,0.01712314,0.014461192,0.023734679,0.029962402,-0.021481309,0.038059678,0.000879062,-0.008351091,-0.007453457,0.010059691,-0.026173767,-0.023066098,0.023561344,-0.014461192,-0.010195884,0.010777798,-0.010363029,-0.022298465,0.018596498,0.033354837,-0.000117718,0.020267956,0.018967934,-0.008716336,0.004481979,0.022682281,-0.019599373,0.042913094,-0.008375853,-0.003506963,-0.00379173,-0.02716426,0.026149005,0.019339368,0.008258232,0.029070958,0.035558686,-0.015637401,-0.001189365,0.000225569,-0.031522427,-0.014399286,-0.031819575,-0.032760542,0.001505858,-0.010202074,0.027907129,-0.030457648,-0.004048639,-0.011347331,-0.044027396,-0.02448993,-0.023598487,0.041328304,0.018621262,-0.057844769,0.033825323,0.023239434,-0.023004191,0.013024978,0.02416802,-0.006388677,0.033404365,0.034171995,-0.053387552,0.002620162,-0.045315038,-0.021877507,0.014906914,0.006692016,-0.012381158,-0.013780229,-0.053387552,-0.020082237,-0.017172666,-0.010641606,-0.021481309,0.015835501,0.025406135,-0.003271721,-0.017445052,0.015402161,-0.002875524,-0.025777571,-0.011359712,-0.016033599,-0.013136408,-0.035335824,0.027907129,0.026347104,-0.01379261,0.010523984,0.028204277,-0.014745959,-0.009131104,-0.015885025,0.034023423,0.061063871,-0.007756795,-0.025926145,-0.050762746,0.029566204,0.006116292,-0.006580585,0.01924032,0.021629883,-0.00758965,-0.005097942,-0.040189236,-0.021704169,0.039074935,-0.015785975,0.002691354,0.039297793,0.019104127,-0.026223293,0.028947147,0.012851642,-0.003491486,0.022323228,0.029739542,-0.007304883,0.025084225,-0.011824005,-0.001152995,0.047865555,0.009217772,-0.016850756,0.044052161,0.014461192,-0.013247839,0.046751253,0.04298738,0.01443643,-0.041031156,0.057448573,-0.017531719,-0.027733793,0.019599373,-0.011861149,-0.007645365,-0.031027181,-0.002782665,0.018633643,-0.016726945,0.022125129,0.029392868,0.03305769,-0.018460305,0.017234571,0.022595612,-0.008307757,0.026297579,0.00576962,-0.033503413,0.032834832,-0.004689363,-0.020874633,0.004206498,-0.036722515,-0.019723184,-0.019908901,-0.007502981,0.043284528,-0.004364358,0.001705504,-0.012764974,0.042343561,-0.005051512,0.008369663,0.022211798,-0.008258232,-0.007472029,0.000437597,-0.001046208,0.013074502,0.007818701,-0.037143473,0.019822234,-0.003253149,0.005840811,-0.016949804,0.013210695,0.02941763,-0.022038462,0.014077377,0.005351755,-0.017135523,0.048187464,-0.019970808,-0.003977447,0.022310846,0.011526858,-0.006716778,0.006450583,-0.015996456,-0.020701297,-0.068938285,-0.0434331,0.010226836,-0.010814941,-0.036722515,0.011954008,-0.018039348,0.01048684,0.006828208,-0.026322341,0.026272817,0.038827311,-0.021122254,0.01368118,0.026347104,-0.001373535,0.004930796,0.033726275,0.017989822,0.031745289,0.005073179,0.002808975,-0.006803446,-0.010666368,-0.011477333,0.003110766,0.027733793,-0.01614503,0.001454012,-0.011830197,0.021976555,0.011384475,-0.005661285,0.033255789,0.021233685,0.042913094,-0.008338709,0.005326993,-0.013631655,0.024316594,0.006586776,0.026173767,0.030779559,0.010152549,-0.029318582,-0.005868669,0.002316824,0.019128889,0.024366118,0.031695765,0.033651985,0.049227484,-0.017061235,-0.031448141,-0.00994826,0.016603133,-0.014473573,-0.026817588,-0.098454967,0.024848985,-0.001722529,-0.000547866,0.004841033,0.008320138,-0.013247839,0.002398849,-0.030531935,0.029690016,-0.017667912,0.043036904,-0.002829095,-0.022273703,0.01904222,0.023189908,-0.002129559,0.007112975,-0.016355509,-0.014869771,-0.040932108,-0.010703511,-0.025505185,-0.007020116,-0.022533707,0.016912661,0.009514919,-0.001048529,-0.000303145,0.012963072,0.031621478,0.003000883,0.005404375,0.012987834,0.002603138,-0.005351755,-0.015414542,0.0071625,0.027065212,0.012486397,-0.021506071,-0.001744196,0.006450583,-0.026173767,-0.008809194,-0.024712792,0.069086857,-0.007304883,0.004367454,-0.031943388,-0.017630769,0.032215774,0.009471586,0.018608879,0.045290276,-0.027783317,0.005930575,-0.013854516,-0.014857389,-0.009075388,-0.004949368,0.041204493,-0.021221304,-0.003664823,0.022323228,-0.027931891,-0.011074945,0.009013483,0.010592081,-0.011526858,-0.006042005,0.030903369,-0.01241211,-0.006939639,-0.007082022,0.024229925,-0.04298738,0.003262435,-0.001413,-0.040585436,-0.012313061,0.009781115,-0.012597828,0.029714778,0.01379261,-0.001533716,0.001861817,0.030234788,-0.005252706,0.014287856,0.006574395,0.023177527,0.006667254,0.005964623,0.002138845,0.005831525,-0.001057815,-0.023388008,0.033874847,-0.004670792,-0.005651998,0.026916636,0.017655531,0.002507184,0.060271475,-0.026173767,-0.038653973,-0.036202505,0.010740655,0.0350882,-0.023326101,0.029070958,0.002336944,-0.009347774,-0.000881384,-0.011960198,0.01358213,0.017977441,0.013842135,-0.013359269,0.012325442,0.025009939,0.028179515,0.014944058,-0.014931676,-0.022967048,-0.004076496,-0.004776032,-0.002039796,0.010387791,0.035657734,0.007614412,-0.013842135,0.014807865,-0.006227722,0.020540342,0.004336501,-0.024044208,-0.011359712,0.002782665,-0.013099265,-0.01956223,0.036029167,-0.011130661,0.005382708,-0.032636732,-0.027981417,-0.037168235,-0.008580143,0.004020781,0.046949349,-0.029120483,-0.016739326,0.013928803,-0.005326993,-0.006945829,-0.004147688,0.004909129,-0.023561344,-0.020156525,-0.033255789,0.021753695,0.018262208,0.007868226,-0.021902269,0.003290293,-0.002617067,0.015550734,0.009583016,-0.006462964,-0.020144144,0.008190135,-0.012226393,-0.002561352,0.023908015,0.00695202,0.024242306,-0.002110987,0.026644252,0.017234571,0.01849745,0.023177527,0.005772715,0.0350882,0.007818701,0.037935868,-0.019227939,-0.015204062,0.002158964,0.004002209,0.007874416,0.002870881,0.009805877,-0.001523656,-0.019723184,-0.010214455,-0.00454698,-0.006432011,-0.016479321,-0.013978328,-0.006834399,-0.015736451,-0.008611095,-7.82E-05,-0.019326987,-0.011037802,-0.000604355,0.048435088,-0.011099708,0.00302255,-0.027907129,0.04286357,-0.034939628,0.016182173,-0.030234788,-0.020825107,-0.069582105,-0.013941184,-0.007509172,0.005930575,-0.002470041,-0.004237451,0.042442609,-0.002169798,0.017197428,0.050861795,-0.019227939,0.01132876,0.002956001,-0.012802118,-0.012170678,0.025703283,-3.75E-05,0.010307314,-0.031349093,0.002600043,0.006908686,0.028897623,-0.017618388,-0.007515363,-0.019178413,0.018683167,0.031992912,0.035311062,-0.010951134,0.008623476,-0.035236776,0.002918858,-0.007119166,0.000855848,-0.014411667,0.004070306,-0.013284982,0.009743971,-0.00135032,0.010938753,-0.01989652,-0.018262208,0.024824221,0.017160285,-0.026049957,0.011811624,0.020466054,-6.52E-05,0.019116508,0.012275918,0.006295819,-0.003869112,-0.000952575,-0.034295809,0.015761213,-0.028823335,-0.002205394,-0.005655094,-0.015810739,-0.014077377,0.014535479,-0.008264422,0.010449697,-0.013074502,0.001194782,0.007657746,0.023908015,0.005531282,-0.023053715,-0.012065439,0.005645808,-0.032042436,0.022793712,-0.015550734,-0.011000658,-0.010263979,0.015402161,-0.029665254,0.004379835,-0.028129991,0.006506298,0.003191243,-0.034617718,-0.025901383,-0.00179372,-0.000297341,-0.006407249,0.021382259,0.000650398,0.00195158,0.000535872,-0.036648229,-0.000981981,-0.006834399,-0.009050626,-0.004673887,-0.019747946,0.003556488,0.028253803,-0.011204948,0.009483967,0.009799686,-0.003330532,-0.015402161,0.017927917,-0.035880595,0.005020559,0.026124243,0.034048185,-0.06680873,-0.015191681,0.017358383,-0.014993582,0.007862035,-0.013544987,-0.009892545,0.015377398,0.008864909,-0.007038688,0.026124243,0.024477549,0.010536365,-0.020800345,0.004212689,0.001894317,0.014770721,-0.011056374,0.006475346,-0.009100151,0.020602247,-0.024007065,-0.04043686,-0.012764974,0.019648897,0.009335393,-0.001209484,-0.043408338,0.004144593,-0.032116722,0.015810739,-0.012461635,0.008289185,0.015686927,0.037069187,-0.05165419,-0.009050626,0.010381601,0.008227279,-0.003203625,0.020156525,-0.020812726,0.019884139,-0.005896526,-0.00443555,0.008648239,0.004615076,0.003124695,0.010016357,-0.009013483,-0.00331815,0.017469814,0.018844122,0.011130661,0.018088872,0.044027396,0.025282323,0.012610209,0.012963072,0.010722083,0.013445937,-0.012356396,0.000991266,0.023227053,0.006506298,-0.03281007,0.01712314,0.007725842,0.021964174,0.008840146,0.026149005,0.027832843,0.006921067,-0.020478435,0.007670127,0.036400605,0.057498097,0.004407692,-0.028996672,0.019166032,-0.011087327,-0.008084896,0.040214002,-0.039099697,0.004392216,-0.005410566,-0.018980315,0.018571736,-0.014126902,-0.004283881,0.006277247,-0.041080683,0.017271714,-0.007063451,0.002454564,-0.012034485,0.018559355,-0.001492703,-0.000631439,-0.022409895,0.01999557,0.001985628,0.006351534,0.000154668,-0.024675647,-0.052050386,-0.01132876,0.031720527,-0.029962402,0.021704169,0.008493475,-0.039916854,0.033726275,0.012480207,-0.002596948,0.016553609,0.056408554,0.015674546,0.015736451,0.003510058,-0.013619274,-0.020255575,0.01796506,-0.013532606,-0.012164488,0.037861582,1.55E-05,0.030705271,0.016405035,0.037168235,0.042516895,-0.030383362,0.037415858,-0.003209815,-0.008394425,0.026594726,-0.015142156,0.034741528,0.009657303,-0.015600258,-0.005357946,0.004271499,-0.009032055,0.019326987,-0.011149232,0.029566204,0.025269942,0.011390666,-0.011477333,0.01764315,0.001421512,-0.023425151,-0.027659507,0.005825335,0.006753922,0.02289276,-0.006605348,0.017804105,0.004203403,-0.00887729,0.005203181,0.015909787,0.047518883,-0.004556266,0.002603138,0.010523984,-0.008734907,0.011043993,-0.016665038,0.019401275,0.035112962,0.024861366,-0.004491265,-0.025059463,0.011211138,0.01732124,0.045934096,-0.023808967,0.028278565,-0.03196815,-0.0436312,0.04011495,0.003123147,0.020899395,-0.000110657,-0.02502232,-0.017915536,-0.020441292,-0.00940349,0.007558697,0.052198961,-0.030210026,0.014089758,-0.025851857,-0.023908015,-0.010016357,0.002573733,-0.000411674,0.004859604,-0.007923941,-0.075723164,-0.0354844,0.017383145,-0.00726774,-0.018002203,0.00887729,-0.029269056,0.032834832,-0.027213786,0.012424492,-0.003225292,-0.013012596,-0.00227349,0.02299181
