Author,WE1,WE2,WE3,WE4,WE5,WE6,WE7,WE8,WE9,WE10,WE11,WE12,WE13,WE14,WE15,WE16,WE17,WE18,WE19,WE20,WE21,WE22,WE23,WE24,WE25,WE26,WE27,WE28,WE29,WE30,WE31,WE32,WE33,WE34,WE35,WE36,WE37,WE38,WE39,WE40,WE41,WE42,WE43,WE44,WE45,WE46,WE47,WE48,WE49,WE50,WE51,WE52,WE53,WE54,WE55,WE56,WE57,WE58,WE59,WE60,WE61,WE62,WE63,WE64,WE65,WE66,WE67,WE68,WE69,WE70,WE71,WE72,WE73,WE74,WE75,WE76,WE77,WE78,WE79,WE80,WE81,WE82,WE83,WE84,WE85,WE86,WE87,WE88,WE89,WE90,WE91,WE92,WE93,WE94,WE95,WE96,WE97,WE98,WE99,WE100,WE101,WE102,WE103,WE104,WE105,WE106,WE107,WE108,WE109,WE110,WE111,WE112,WE113,WE114,WE115,WE116,WE117,WE118,WE119,WE120,WE121,WE122,WE123,WE124,WE125,WE126,WE127,WE128,WE129,WE130,WE131,WE132,WE133,WE134,WE135,WE136,WE137,WE138,WE139,WE140,WE141,WE142,WE143,WE144,WE145,WE146,WE147,WE148,WE149,WE150,WE151,WE152,WE153,WE154,WE155,WE156,WE157,WE158,WE159,WE160,WE161,WE162,WE163,WE164,WE165,WE166,WE167,WE168,WE169,WE170,WE171,WE172,WE173,WE174,WE175,WE176,WE177,WE178,WE179,WE180,WE181,WE182,WE183,WE184,WE185,WE186,WE187,WE188,WE189,WE190,WE191,WE192,WE193,WE194,WE195,WE196,WE197,WE198,WE199,WE200,WE201,WE202,WE203,WE204,WE205,WE206,WE207,WE208,WE209,WE210,WE211,WE212,WE213,WE214,WE215,WE216,WE217,WE218,WE219,WE220,WE221,WE222,WE223,WE224,WE225,WE226,WE227,WE228,WE229,WE230,WE231,WE232,WE233,WE234,WE235,WE236,WE237,WE238,WE239,WE240,WE241,WE242,WE243,WE244,WE245,WE246,WE247,WE248,WE249,WE250,WE251,WE252,WE253,WE254,WE255,WE256,WE257,WE258,WE259,WE260,WE261,WE262,WE263,WE264,WE265,WE266,WE267,WE268,WE269,WE270,WE271,WE272,WE273,WE274,WE275,WE276,WE277,WE278,WE279,WE280,WE281,WE282,WE283,WE284,WE285,WE286,WE287,WE288,WE289,WE290,WE291,WE292,WE293,WE294,WE295,WE296,WE297,WE298,WE299,WE300
Sc3_A,-1.6874542,-0.14272037,-1.715492,-0.13589206,4.8638296,-0.32944328,0.96019673,4.0748587,-0.17866711,-0.63159806,6.5880575,1.3680526,-3.8517244,1.0339333,1.6868963,1.6933044,1.335512,0.37607333,-1.1100454,-2.0320556,1.4520531,-0.101357795,-0.9011418,-0.24601072,-0.099507816,-1.5766599,-2.9319293,-1.5196506,-0.29827273,1.5560313,0.6570265,-0.8905323,-0.40761772,-2.861863,-2.4710975,-0.60139513,-0.47842532,1.5830811,1.5354605,0.047199514,0.7436509,0.2877368,-0.44546303,-0.030961737,-1.4282746,2.3181877,-0.053168193,-1.6369691,-0.22003983,1.0748932,-0.8003861,2.319077,-0.35132298,-4.1152453,-0.26492995,0.15167072,0.16651398,1.6105709,0.9545646,-1.3243502,-0.012514445,-1.0957193,0.5162481,-1.5865529,1.5855983,2.387548,-2.9345653,-3.5992553,1.4850365,1.5639237,-0.86723346,-0.3710374,-2.3958874,-0.004737699,-0.5058171,1.4225852,-3.4304981,2.2637916,-2.568951,-0.33111405,-4.5410924,0.08457672,0.8262231,-0.028547166,2.9734643,0.99672073,-1.5768087,-2.542929,0.055891618,-0.55196255,-1.1954068,0.54863656,1.8056946,-3.8347833,-0.1262599,-2.152051,1.3354591,-0.9009152,1.2196342,1.2928379,1.9143813,1.1130303,2.8022707,3.7175,-0.14161053,3.7998176,0.8414982,-2.663654,-0.3059795,-2.1108685,1.4403244,1.3009403,-1.9372517,1.3868538,0.88064474,0.32258326,-0.8664249,-0.3275987,-0.069084235,-0.9382014,-1.461566,-2.2238185,1.1625142,1.762602,-1.3411942,-3.8012376,0.57006305,-3.2537603,3.95114,-1.2970388,-3.605735,0.37962195,4.3035765,-1.0803683,-0.31250536,0.7999898,-1.2623153,-1.2748204,2.6131668,-1.8907756,-1.1602323,0.23818791,-0.36673167,2.2366307,1.507646,0.008329286,-4.0152144,0.021612491,1.5850084,2.100047,0.62451863,2.3876872,0.20706733,1.04319,-1.3353473,1.517337,2.6608782,-0.4921374,-0.84309745,-1.18621,-0.59253246,-2.265906,0.33823976,1.9351369,-1.468112,-1.5172422,-3.1673925,0.6774024,0.051730122,-0.10785103,1.836562,-0.91589814,2.830022,-0.027730977,0.7764621,-0.13882323,0.91906387,0.28223205,-2.1150908,-1.8613684,-1.1294874,-0.41720504,1.5706133,-1.0321761,-1.3998709,0.42896497,-1.1086026,-0.14062516,0.22922318,1.761839,-0.64679056,-1.654775,0.169424,-2.1828358,1.154315,0.3538357,-3.5210125,-0.52285695,0.8531016,-0.24151221,0.24695946,-1.4476527,-0.701019,-2.661941,2.96666,0.38581523,-4.1202326,1.5954411,-0.094003946,-0.6592984,1.927832,1.4609616,-1.4214339,1.719225,0.9481644,3.3481839,-0.03437884,-2.5781758,-0.9129463,0.1237143,-1.6777982,2.4493785,-0.8547745,1.0621759,-1.9596142,-0.82021725,0.8210098,2.01832,2.5585403,-0.15536088,2.4200268,-3.0127406,0.29717156,2.0069325,1.5391791,1.7886223,-1.5338151,1.2371327,-0.03047321,-0.45158023,0.15997383,-0.006960133,0.9433231,0.40652752,-1.2644914,1.6263566,-3.331284,-0.28172538,-0.15783572,2.0509856,0.63444066,-1.8004253,-4.9510736,-0.20334196,0.014719601,-2.0952234,1.830839,0.6843525,-0.10648217,0.39118025,0.72099924,4.4603443,3.2091935,2.76296,1.3989162,-0.49976602,-1.5374916,1.6760664,-2.8277962,-0.17662832,1.6596545,-0.8732517,0.45174584,-1.906093,0.8743161,0.33456308,2.5714037,-1.7421803,-1.0172145,1.3894814,1.8586472,0.40628943,0.9329151,0.8572734,2.1902845,-1.075781,-0.6187424,0.74942386,-0.72575915,0.3422323,-0.27116174,-0.07827469,0.30777705,-0.5326566,-0.6032608,1.0644195,0.15975979,-1.6378537,-3.154208,0.18567108
Sc3_A,-1.6874542,-0.14272037,-1.715492,-0.13589206,4.8638296,-0.32944328,0.96019673,4.0748587,-0.17866711,-0.63159806,6.5880575,1.3680526,-3.8517244,1.0339333,1.6868963,1.6933044,1.335512,0.37607333,-1.1100454,-2.0320556,1.4520531,-0.101357795,-0.9011418,-0.24601072,-0.099507816,-1.5766599,-2.9319293,-1.5196506,-0.29827273,1.5560313,0.6570265,-0.8905323,-0.40761772,-2.861863,-2.4710975,-0.60139513,-0.47842532,1.5830811,1.5354605,0.047199514,0.7436509,0.2877368,-0.44546303,-0.030961737,-1.4282746,2.3181877,-0.053168193,-1.6369691,-0.22003983,1.0748932,-0.8003861,2.319077,-0.35132298,-4.1152453,-0.26492995,0.15167072,0.16651398,1.6105709,0.9545646,-1.3243502,-0.012514445,-1.0957193,0.5162481,-1.5865529,1.5855983,2.387548,-2.9345653,-3.5992553,1.4850365,1.5639237,-0.86723346,-0.3710374,-2.3958874,-0.004737699,-0.5058171,1.4225852,-3.4304981,2.2637916,-2.568951,-0.33111405,-4.5410924,0.08457672,0.8262231,-0.028547166,2.9734643,0.99672073,-1.5768087,-2.542929,0.055891618,-0.55196255,-1.1954068,0.54863656,1.8056946,-3.8347833,-0.1262599,-2.152051,1.3354591,-0.9009152,1.2196342,1.2928379,1.9143813,1.1130303,2.8022707,3.7175,-0.14161053,3.7998176,0.8414982,-2.663654,-0.3059795,-2.1108685,1.4403244,1.3009403,-1.9372517,1.3868538,0.88064474,0.32258326,-0.8664249,-0.3275987,-0.069084235,-0.9382014,-1.461566,-2.2238185,1.1625142,1.762602,-1.3411942,-3.8012376,0.57006305,-3.2537603,3.95114,-1.2970388,-3.605735,0.37962195,4.3035765,-1.0803683,-0.31250536,0.7999898,-1.2623153,-1.2748204,2.6131668,-1.8907756,-1.1602323,0.23818791,-0.36673167,2.2366307,1.507646,0.008329286,-4.0152144,0.021612491,1.5850084,2.100047,0.62451863,2.3876872,0.20706733,1.04319,-1.3353473,1.517337,2.6608782,-0.4921374,-0.84309745,-1.18621,-0.59253246,-2.265906,0.33823976,1.9351369,-1.468112,-1.5172422,-3.1673925,0.6774024,0.051730122,-0.10785103,1.836562,-0.91589814,2.830022,-0.027730977,0.7764621,-0.13882323,0.91906387,0.28223205,-2.1150908,-1.8613684,-1.1294874,-0.41720504,1.5706133,-1.0321761,-1.3998709,0.42896497,-1.1086026,-0.14062516,0.22922318,1.761839,-0.64679056,-1.654775,0.169424,-2.1828358,1.154315,0.3538357,-3.5210125,-0.52285695,0.8531016,-0.24151221,0.24695946,-1.4476527,-0.701019,-2.661941,2.96666,0.38581523,-4.1202326,1.5954411,-0.094003946,-0.6592984,1.927832,1.4609616,-1.4214339,1.719225,0.9481644,3.3481839,-0.03437884,-2.5781758,-0.9129463,0.1237143,-1.6777982,2.4493785,-0.8547745,1.0621759,-1.9596142,-0.82021725,0.8210098,2.01832,2.5585403,-0.15536088,2.4200268,-3.0127406,0.29717156,2.0069325,1.5391791,1.7886223,-1.5338151,1.2371327,-0.03047321,-0.45158023,0.15997383,-0.006960133,0.9433231,0.40652752,-1.2644914,1.6263566,-3.331284,-0.28172538,-0.15783572,2.0509856,0.63444066,-1.8004253,-4.9510736,-0.20334196,0.014719601,-2.0952234,1.830839,0.6843525,-0.10648217,0.39118025,0.72099924,4.4603443,3.2091935,2.76296,1.3989162,-0.49976602,-1.5374916,1.6760664,-2.8277962,-0.17662832,1.6596545,-0.8732517,0.45174584,-1.906093,0.8743161,0.33456308,2.5714037,-1.7421803,-1.0172145,1.3894814,1.8586472,0.40628943,0.9329151,0.8572734,2.1902845,-1.075781,-0.6187424,0.74942386,-0.72575915,0.3422323,-0.27116174,-0.07827469,0.30777705,-0.5326566,-0.6032608,1.0644195,0.15975979,-1.6378537,-3.154208,0.18567108
Sc3_A,-1.6874542,-0.14272037,-1.715492,-0.13589206,4.8638296,-0.32944328,0.96019673,4.0748587,-0.17866711,-0.63159806,6.5880575,1.3680526,-3.8517244,1.0339333,1.6868963,1.6933044,1.335512,0.37607333,-1.1100454,-2.0320556,1.4520531,-0.101357795,-0.9011418,-0.24601072,-0.099507816,-1.5766599,-2.9319293,-1.5196506,-0.29827273,1.5560313,0.6570265,-0.8905323,-0.40761772,-2.861863,-2.4710975,-0.60139513,-0.47842532,1.5830811,1.5354605,0.047199514,0.7436509,0.2877368,-0.44546303,-0.030961737,-1.4282746,2.3181877,-0.053168193,-1.6369691,-0.22003983,1.0748932,-0.8003861,2.319077,-0.35132298,-4.1152453,-0.26492995,0.15167072,0.16651398,1.6105709,0.9545646,-1.3243502,-0.012514445,-1.0957193,0.5162481,-1.5865529,1.5855983,2.387548,-2.9345653,-3.5992553,1.4850365,1.5639237,-0.86723346,-0.3710374,-2.3958874,-0.004737699,-0.5058171,1.4225852,-3.4304981,2.2637916,-2.568951,-0.33111405,-4.5410924,0.08457672,0.8262231,-0.028547166,2.9734643,0.99672073,-1.5768087,-2.542929,0.055891618,-0.55196255,-1.1954068,0.54863656,1.8056946,-3.8347833,-0.1262599,-2.152051,1.3354591,-0.9009152,1.2196342,1.2928379,1.9143813,1.1130303,2.8022707,3.7175,-0.14161053,3.7998176,0.8414982,-2.663654,-0.3059795,-2.1108685,1.4403244,1.3009403,-1.9372517,1.3868538,0.88064474,0.32258326,-0.8664249,-0.3275987,-0.069084235,-0.9382014,-1.461566,-2.2238185,1.1625142,1.762602,-1.3411942,-3.8012376,0.57006305,-3.2537603,3.95114,-1.2970388,-3.605735,0.37962195,4.3035765,-1.0803683,-0.31250536,0.7999898,-1.2623153,-1.2748204,2.6131668,-1.8907756,-1.1602323,0.23818791,-0.36673167,2.2366307,1.507646,0.008329286,-4.0152144,0.021612491,1.5850084,2.100047,0.62451863,2.3876872,0.20706733,1.04319,-1.3353473,1.517337,2.6608782,-0.4921374,-0.84309745,-1.18621,-0.59253246,-2.265906,0.33823976,1.9351369,-1.468112,-1.5172422,-3.1673925,0.6774024,0.051730122,-0.10785103,1.836562,-0.91589814,2.830022,-0.027730977,0.7764621,-0.13882323,0.91906387,0.28223205,-2.1150908,-1.8613684,-1.1294874,-0.41720504,1.5706133,-1.0321761,-1.3998709,0.42896497,-1.1086026,-0.14062516,0.22922318,1.761839,-0.64679056,-1.654775,0.169424,-2.1828358,1.154315,0.3538357,-3.5210125,-0.52285695,0.8531016,-0.24151221,0.24695946,-1.4476527,-0.701019,-2.661941,2.96666,0.38581523,-4.1202326,1.5954411,-0.094003946,-0.6592984,1.927832,1.4609616,-1.4214339,1.719225,0.9481644,3.3481839,-0.03437884,-2.5781758,-0.9129463,0.1237143,-1.6777982,2.4493785,-0.8547745,1.0621759,-1.9596142,-0.82021725,0.8210098,2.01832,2.5585403,-0.15536088,2.4200268,-3.0127406,0.29717156,2.0069325,1.5391791,1.7886223,-1.5338151,1.2371327,-0.03047321,-0.45158023,0.15997383,-0.006960133,0.9433231,0.40652752,-1.2644914,1.6263566,-3.331284,-0.28172538,-0.15783572,2.0509856,0.63444066,-1.8004253,-4.9510736,-0.20334196,0.014719601,-2.0952234,1.830839,0.6843525,-0.10648217,0.39118025,0.72099924,4.4603443,3.2091935,2.76296,1.3989162,-0.49976602,-1.5374916,1.6760664,-2.8277962,-0.17662832,1.6596545,-0.8732517,0.45174584,-1.906093,0.8743161,0.33456308,2.5714037,-1.7421803,-1.0172145,1.3894814,1.8586472,0.40628943,0.9329151,0.8572734,2.1902845,-1.075781,-0.6187424,0.74942386,-0.72575915,0.3422323,-0.27116174,-0.07827469,0.30777705,-0.5326566,-0.6032608,1.0644195,0.15975979,-1.6378537,-3.154208,0.18567108
Sc3_A,-1.6874542,-0.14272037,-1.715492,-0.13589206,4.8638296,-0.32944328,0.96019673,4.0748587,-0.17866711,-0.63159806,6.5880575,1.3680526,-3.8517244,1.0339333,1.6868963,1.6933044,1.335512,0.37607333,-1.1100454,-2.0320556,1.4520531,-0.101357795,-0.9011418,-0.24601072,-0.099507816,-1.5766599,-2.9319293,-1.5196506,-0.29827273,1.5560313,0.6570265,-0.8905323,-0.40761772,-2.861863,-2.4710975,-0.60139513,-0.47842532,1.5830811,1.5354605,0.047199514,0.7436509,0.2877368,-0.44546303,-0.030961737,-1.4282746,2.3181877,-0.053168193,-1.6369691,-0.22003983,1.0748932,-0.8003861,2.319077,-0.35132298,-4.1152453,-0.26492995,0.15167072,0.16651398,1.6105709,0.9545646,-1.3243502,-0.012514445,-1.0957193,0.5162481,-1.5865529,1.5855983,2.387548,-2.9345653,-3.5992553,1.4850365,1.5639237,-0.86723346,-0.3710374,-2.3958874,-0.004737699,-0.5058171,1.4225852,-3.4304981,2.2637916,-2.568951,-0.33111405,-4.5410924,0.08457672,0.8262231,-0.028547166,2.9734643,0.99672073,-1.5768087,-2.542929,0.055891618,-0.55196255,-1.1954068,0.54863656,1.8056946,-3.8347833,-0.1262599,-2.152051,1.3354591,-0.9009152,1.2196342,1.2928379,1.9143813,1.1130303,2.8022707,3.7175,-0.14161053,3.7998176,0.8414982,-2.663654,-0.3059795,-2.1108685,1.4403244,1.3009403,-1.9372517,1.3868538,0.88064474,0.32258326,-0.8664249,-0.3275987,-0.069084235,-0.9382014,-1.461566,-2.2238185,1.1625142,1.762602,-1.3411942,-3.8012376,0.57006305,-3.2537603,3.95114,-1.2970388,-3.605735,0.37962195,4.3035765,-1.0803683,-0.31250536,0.7999898,-1.2623153,-1.2748204,2.6131668,-1.8907756,-1.1602323,0.23818791,-0.36673167,2.2366307,1.507646,0.008329286,-4.0152144,0.021612491,1.5850084,2.100047,0.62451863,2.3876872,0.20706733,1.04319,-1.3353473,1.517337,2.6608782,-0.4921374,-0.84309745,-1.18621,-0.59253246,-2.265906,0.33823976,1.9351369,-1.468112,-1.5172422,-3.1673925,0.6774024,0.051730122,-0.10785103,1.836562,-0.91589814,2.830022,-0.027730977,0.7764621,-0.13882323,0.91906387,0.28223205,-2.1150908,-1.8613684,-1.1294874,-0.41720504,1.5706133,-1.0321761,-1.3998709,0.42896497,-1.1086026,-0.14062516,0.22922318,1.761839,-0.64679056,-1.654775,0.169424,-2.1828358,1.154315,0.3538357,-3.5210125,-0.52285695,0.8531016,-0.24151221,0.24695946,-1.4476527,-0.701019,-2.661941,2.96666,0.38581523,-4.1202326,1.5954411,-0.094003946,-0.6592984,1.927832,1.4609616,-1.4214339,1.719225,0.9481644,3.3481839,-0.03437884,-2.5781758,-0.9129463,0.1237143,-1.6777982,2.4493785,-0.8547745,1.0621759,-1.9596142,-0.82021725,0.8210098,2.01832,2.5585403,-0.15536088,2.4200268,-3.0127406,0.29717156,2.0069325,1.5391791,1.7886223,-1.5338151,1.2371327,-0.03047321,-0.45158023,0.15997383,-0.006960133,0.9433231,0.40652752,-1.2644914,1.6263566,-3.331284,-0.28172538,-0.15783572,2.0509856,0.63444066,-1.8004253,-4.9510736,-0.20334196,0.014719601,-2.0952234,1.830839,0.6843525,-0.10648217,0.39118025,0.72099924,4.4603443,3.2091935,2.76296,1.3989162,-0.49976602,-1.5374916,1.6760664,-2.8277962,-0.17662832,1.6596545,-0.8732517,0.45174584,-1.906093,0.8743161,0.33456308,2.5714037,-1.7421803,-1.0172145,1.3894814,1.8586472,0.40628943,0.9329151,0.8572734,2.1902845,-1.075781,-0.6187424,0.74942386,-0.72575915,0.3422323,-0.27116174,-0.07827469,0.30777705,-0.5326566,-0.6032608,1.0644195,0.15975979,-1.6378537,-3.154208,0.18567108
Sc3_A,-1.6874542,-0.14272037,-1.715492,-0.13589206,4.8638296,-0.32944328,0.96019673,4.0748587,-0.17866711,-0.63159806,6.5880575,1.3680526,-3.8517244,1.0339333,1.6868963,1.6933044,1.335512,0.37607333,-1.1100454,-2.0320556,1.4520531,-0.101357795,-0.9011418,-0.24601072,-0.099507816,-1.5766599,-2.9319293,-1.5196506,-0.29827273,1.5560313,0.6570265,-0.8905323,-0.40761772,-2.861863,-2.4710975,-0.60139513,-0.47842532,1.5830811,1.5354605,0.047199514,0.7436509,0.2877368,-0.44546303,-0.030961737,-1.4282746,2.3181877,-0.053168193,-1.6369691,-0.22003983,1.0748932,-0.8003861,2.319077,-0.35132298,-4.1152453,-0.26492995,0.15167072,0.16651398,1.6105709,0.9545646,-1.3243502,-0.012514445,-1.0957193,0.5162481,-1.5865529,1.5855983,2.387548,-2.9345653,-3.5992553,1.4850365,1.5639237,-0.86723346,-0.3710374,-2.3958874,-0.004737699,-0.5058171,1.4225852,-3.4304981,2.2637916,-2.568951,-0.33111405,-4.5410924,0.08457672,0.8262231,-0.028547166,2.9734643,0.99672073,-1.5768087,-2.542929,0.055891618,-0.55196255,-1.1954068,0.54863656,1.8056946,-3.8347833,-0.1262599,-2.152051,1.3354591,-0.9009152,1.2196342,1.2928379,1.9143813,1.1130303,2.8022707,3.7175,-0.14161053,3.7998176,0.8414982,-2.663654,-0.3059795,-2.1108685,1.4403244,1.3009403,-1.9372517,1.3868538,0.88064474,0.32258326,-0.8664249,-0.3275987,-0.069084235,-0.9382014,-1.461566,-2.2238185,1.1625142,1.762602,-1.3411942,-3.8012376,0.57006305,-3.2537603,3.95114,-1.2970388,-3.605735,0.37962195,4.3035765,-1.0803683,-0.31250536,0.7999898,-1.2623153,-1.2748204,2.6131668,-1.8907756,-1.1602323,0.23818791,-0.36673167,2.2366307,1.507646,0.008329286,-4.0152144,0.021612491,1.5850084,2.100047,0.62451863,2.3876872,0.20706733,1.04319,-1.3353473,1.517337,2.6608782,-0.4921374,-0.84309745,-1.18621,-0.59253246,-2.265906,0.33823976,1.9351369,-1.468112,-1.5172422,-3.1673925,0.6774024,0.051730122,-0.10785103,1.836562,-0.91589814,2.830022,-0.027730977,0.7764621,-0.13882323,0.91906387,0.28223205,-2.1150908,-1.8613684,-1.1294874,-0.41720504,1.5706133,-1.0321761,-1.3998709,0.42896497,-1.1086026,-0.14062516,0.22922318,1.761839,-0.64679056,-1.654775,0.169424,-2.1828358,1.154315,0.3538357,-3.5210125,-0.52285695,0.8531016,-0.24151221,0.24695946,-1.4476527,-0.701019,-2.661941,2.96666,0.38581523,-4.1202326,1.5954411,-0.094003946,-0.6592984,1.927832,1.4609616,-1.4214339,1.719225,0.9481644,3.3481839,-0.03437884,-2.5781758,-0.9129463,0.1237143,-1.6777982,2.4493785,-0.8547745,1.0621759,-1.9596142,-0.82021725,0.8210098,2.01832,2.5585403,-0.15536088,2.4200268,-3.0127406,0.29717156,2.0069325,1.5391791,1.7886223,-1.5338151,1.2371327,-0.03047321,-0.45158023,0.15997383,-0.006960133,0.9433231,0.40652752,-1.2644914,1.6263566,-3.331284,-0.28172538,-0.15783572,2.0509856,0.63444066,-1.8004253,-4.9510736,-0.20334196,0.014719601,-2.0952234,1.830839,0.6843525,-0.10648217,0.39118025,0.72099924,4.4603443,3.2091935,2.76296,1.3989162,-0.49976602,-1.5374916,1.6760664,-2.8277962,-0.17662832,1.6596545,-0.8732517,0.45174584,-1.906093,0.8743161,0.33456308,2.5714037,-1.7421803,-1.0172145,1.3894814,1.8586472,0.40628943,0.9329151,0.8572734,2.1902845,-1.075781,-0.6187424,0.74942386,-0.72575915,0.3422323,-0.27116174,-0.07827469,0.30777705,-0.5326566,-0.6032608,1.0644195,0.15975979,-1.6378537,-3.154208,0.18567108
Sc3_A,-1.6874542,-0.14272037,-1.715492,-0.13589206,4.8638296,-0.32944328,0.96019673,4.0748587,-0.17866711,-0.63159806,6.5880575,1.3680526,-3.8517244,1.0339333,1.6868963,1.6933044,1.335512,0.37607333,-1.1100454,-2.0320556,1.4520531,-0.101357795,-0.9011418,-0.24601072,-0.099507816,-1.5766599,-2.9319293,-1.5196506,-0.29827273,1.5560313,0.6570265,-0.8905323,-0.40761772,-2.861863,-2.4710975,-0.60139513,-0.47842532,1.5830811,1.5354605,0.047199514,0.7436509,0.2877368,-0.44546303,-0.030961737,-1.4282746,2.3181877,-0.053168193,-1.6369691,-0.22003983,1.0748932,-0.8003861,2.319077,-0.35132298,-4.1152453,-0.26492995,0.15167072,0.16651398,1.6105709,0.9545646,-1.3243502,-0.012514445,-1.0957193,0.5162481,-1.5865529,1.5855983,2.387548,-2.9345653,-3.5992553,1.4850365,1.5639237,-0.86723346,-0.3710374,-2.3958874,-0.004737699,-0.5058171,1.4225852,-3.4304981,2.2637916,-2.568951,-0.33111405,-4.5410924,0.08457672,0.8262231,-0.028547166,2.9734643,0.99672073,-1.5768087,-2.542929,0.055891618,-0.55196255,-1.1954068,0.54863656,1.8056946,-3.8347833,-0.1262599,-2.152051,1.3354591,-0.9009152,1.2196342,1.2928379,1.9143813,1.1130303,2.8022707,3.7175,-0.14161053,3.7998176,0.8414982,-2.663654,-0.3059795,-2.1108685,1.4403244,1.3009403,-1.9372517,1.3868538,0.88064474,0.32258326,-0.8664249,-0.3275987,-0.069084235,-0.9382014,-1.461566,-2.2238185,1.1625142,1.762602,-1.3411942,-3.8012376,0.57006305,-3.2537603,3.95114,-1.2970388,-3.605735,0.37962195,4.3035765,-1.0803683,-0.31250536,0.7999898,-1.2623153,-1.2748204,2.6131668,-1.8907756,-1.1602323,0.23818791,-0.36673167,2.2366307,1.507646,0.008329286,-4.0152144,0.021612491,1.5850084,2.100047,0.62451863,2.3876872,0.20706733,1.04319,-1.3353473,1.517337,2.6608782,-0.4921374,-0.84309745,-1.18621,-0.59253246,-2.265906,0.33823976,1.9351369,-1.468112,-1.5172422,-3.1673925,0.6774024,0.051730122,-0.10785103,1.836562,-0.91589814,2.830022,-0.027730977,0.7764621,-0.13882323,0.91906387,0.28223205,-2.1150908,-1.8613684,-1.1294874,-0.41720504,1.5706133,-1.0321761,-1.3998709,0.42896497,-1.1086026,-0.14062516,0.22922318,1.761839,-0.64679056,-1.654775,0.169424,-2.1828358,1.154315,0.3538357,-3.5210125,-0.52285695,0.8531016,-0.24151221,0.24695946,-1.4476527,-0.701019,-2.661941,2.96666,0.38581523,-4.1202326,1.5954411,-0.094003946,-0.6592984,1.927832,1.4609616,-1.4214339,1.719225,0.9481644,3.3481839,-0.03437884,-2.5781758,-0.9129463,0.1237143,-1.6777982,2.4493785,-0.8547745,1.0621759,-1.9596142,-0.82021725,0.8210098,2.01832,2.5585403,-0.15536088,2.4200268,-3.0127406,0.29717156,2.0069325,1.5391791,1.7886223,-1.5338151,1.2371327,-0.03047321,-0.45158023,0.15997383,-0.006960133,0.9433231,0.40652752,-1.2644914,1.6263566,-3.331284,-0.28172538,-0.15783572,2.0509856,0.63444066,-1.8004253,-4.9510736,-0.20334196,0.014719601,-2.0952234,1.830839,0.6843525,-0.10648217,0.39118025,0.72099924,4.4603443,3.2091935,2.76296,1.3989162,-0.49976602,-1.5374916,1.6760664,-2.8277962,-0.17662832,1.6596545,-0.8732517,0.45174584,-1.906093,0.8743161,0.33456308,2.5714037,-1.7421803,-1.0172145,1.3894814,1.8586472,0.40628943,0.9329151,0.8572734,2.1902845,-1.075781,-0.6187424,0.74942386,-0.72575915,0.3422323,-0.27116174,-0.07827469,0.30777705,-0.5326566,-0.6032608,1.0644195,0.15975979,-1.6378537,-3.154208,0.18567108
Sc3_A,-1.6874542,-0.14272037,-1.715492,-0.13589206,4.8638296,-0.32944328,0.96019673,4.0748587,-0.17866711,-0.63159806,6.5880575,1.3680526,-3.8517244,1.0339333,1.6868963,1.6933044,1.335512,0.37607333,-1.1100454,-2.0320556,1.4520531,-0.101357795,-0.9011418,-0.24601072,-0.099507816,-1.5766599,-2.9319293,-1.5196506,-0.29827273,1.5560313,0.6570265,-0.8905323,-0.40761772,-2.861863,-2.4710975,-0.60139513,-0.47842532,1.5830811,1.5354605,0.047199514,0.7436509,0.2877368,-0.44546303,-0.030961737,-1.4282746,2.3181877,-0.053168193,-1.6369691,-0.22003983,1.0748932,-0.8003861,2.319077,-0.35132298,-4.1152453,-0.26492995,0.15167072,0.16651398,1.6105709,0.9545646,-1.3243502,-0.012514445,-1.0957193,0.5162481,-1.5865529,1.5855983,2.387548,-2.9345653,-3.5992553,1.4850365,1.5639237,-0.86723346,-0.3710374,-2.3958874,-0.004737699,-0.5058171,1.4225852,-3.4304981,2.2637916,-2.568951,-0.33111405,-4.5410924,0.08457672,0.8262231,-0.028547166,2.9734643,0.99672073,-1.5768087,-2.542929,0.055891618,-0.55196255,-1.1954068,0.54863656,1.8056946,-3.8347833,-0.1262599,-2.152051,1.3354591,-0.9009152,1.2196342,1.2928379,1.9143813,1.1130303,2.8022707,3.7175,-0.14161053,3.7998176,0.8414982,-2.663654,-0.3059795,-2.1108685,1.4403244,1.3009403,-1.9372517,1.3868538,0.88064474,0.32258326,-0.8664249,-0.3275987,-0.069084235,-0.9382014,-1.461566,-2.2238185,1.1625142,1.762602,-1.3411942,-3.8012376,0.57006305,-3.2537603,3.95114,-1.2970388,-3.605735,0.37962195,4.3035765,-1.0803683,-0.31250536,0.7999898,-1.2623153,-1.2748204,2.6131668,-1.8907756,-1.1602323,0.23818791,-0.36673167,2.2366307,1.507646,0.008329286,-4.0152144,0.021612491,1.5850084,2.100047,0.62451863,2.3876872,0.20706733,1.04319,-1.3353473,1.517337,2.6608782,-0.4921374,-0.84309745,-1.18621,-0.59253246,-2.265906,0.33823976,1.9351369,-1.468112,-1.5172422,-3.1673925,0.6774024,0.051730122,-0.10785103,1.836562,-0.91589814,2.830022,-0.027730977,0.7764621,-0.13882323,0.91906387,0.28223205,-2.1150908,-1.8613684,-1.1294874,-0.41720504,1.5706133,-1.0321761,-1.3998709,0.42896497,-1.1086026,-0.14062516,0.22922318,1.761839,-0.64679056,-1.654775,0.169424,-2.1828358,1.154315,0.3538357,-3.5210125,-0.52285695,0.8531016,-0.24151221,0.24695946,-1.4476527,-0.701019,-2.661941,2.96666,0.38581523,-4.1202326,1.5954411,-0.094003946,-0.6592984,1.927832,1.4609616,-1.4214339,1.719225,0.9481644,3.3481839,-0.03437884,-2.5781758,-0.9129463,0.1237143,-1.6777982,2.4493785,-0.8547745,1.0621759,-1.9596142,-0.82021725,0.8210098,2.01832,2.5585403,-0.15536088,2.4200268,-3.0127406,0.29717156,2.0069325,1.5391791,1.7886223,-1.5338151,1.2371327,-0.03047321,-0.45158023,0.15997383,-0.006960133,0.9433231,0.40652752,-1.2644914,1.6263566,-3.331284,-0.28172538,-0.15783572,2.0509856,0.63444066,-1.8004253,-4.9510736,-0.20334196,0.014719601,-2.0952234,1.830839,0.6843525,-0.10648217,0.39118025,0.72099924,4.4603443,3.2091935,2.76296,1.3989162,-0.49976602,-1.5374916,1.6760664,-2.8277962,-0.17662832,1.6596545,-0.8732517,0.45174584,-1.906093,0.8743161,0.33456308,2.5714037,-1.7421803,-1.0172145,1.3894814,1.8586472,0.40628943,0.9329151,0.8572734,2.1902845,-1.075781,-0.6187424,0.74942386,-0.72575915,0.3422323,-0.27116174,-0.07827469,0.30777705,-0.5326566,-0.6032608,1.0644195,0.15975979,-1.6378537,-3.154208,0.18567108
Sc3_A,-1.6874542,-0.14272037,-1.715492,-0.13589206,4.8638296,-0.32944328,0.96019673,4.0748587,-0.17866711,-0.63159806,6.5880575,1.3680526,-3.8517244,1.0339333,1.6868963,1.6933044,1.335512,0.37607333,-1.1100454,-2.0320556,1.4520531,-0.101357795,-0.9011418,-0.24601072,-0.099507816,-1.5766599,-2.9319293,-1.5196506,-0.29827273,1.5560313,0.6570265,-0.8905323,-0.40761772,-2.861863,-2.4710975,-0.60139513,-0.47842532,1.5830811,1.5354605,0.047199514,0.7436509,0.2877368,-0.44546303,-0.030961737,-1.4282746,2.3181877,-0.053168193,-1.6369691,-0.22003983,1.0748932,-0.8003861,2.319077,-0.35132298,-4.1152453,-0.26492995,0.15167072,0.16651398,1.6105709,0.9545646,-1.3243502,-0.012514445,-1.0957193,0.5162481,-1.5865529,1.5855983,2.387548,-2.9345653,-3.5992553,1.4850365,1.5639237,-0.86723346,-0.3710374,-2.3958874,-0.004737699,-0.5058171,1.4225852,-3.4304981,2.2637916,-2.568951,-0.33111405,-4.5410924,0.08457672,0.8262231,-0.028547166,2.9734643,0.99672073,-1.5768087,-2.542929,0.055891618,-0.55196255,-1.1954068,0.54863656,1.8056946,-3.8347833,-0.1262599,-2.152051,1.3354591,-0.9009152,1.2196342,1.2928379,1.9143813,1.1130303,2.8022707,3.7175,-0.14161053,3.7998176,0.8414982,-2.663654,-0.3059795,-2.1108685,1.4403244,1.3009403,-1.9372517,1.3868538,0.88064474,0.32258326,-0.8664249,-0.3275987,-0.069084235,-0.9382014,-1.461566,-2.2238185,1.1625142,1.762602,-1.3411942,-3.8012376,0.57006305,-3.2537603,3.95114,-1.2970388,-3.605735,0.37962195,4.3035765,-1.0803683,-0.31250536,0.7999898,-1.2623153,-1.2748204,2.6131668,-1.8907756,-1.1602323,0.23818791,-0.36673167,2.2366307,1.507646,0.008329286,-4.0152144,0.021612491,1.5850084,2.100047,0.62451863,2.3876872,0.20706733,1.04319,-1.3353473,1.517337,2.6608782,-0.4921374,-0.84309745,-1.18621,-0.59253246,-2.265906,0.33823976,1.9351369,-1.468112,-1.5172422,-3.1673925,0.6774024,0.051730122,-0.10785103,1.836562,-0.91589814,2.830022,-0.027730977,0.7764621,-0.13882323,0.91906387,0.28223205,-2.1150908,-1.8613684,-1.1294874,-0.41720504,1.5706133,-1.0321761,-1.3998709,0.42896497,-1.1086026,-0.14062516,0.22922318,1.761839,-0.64679056,-1.654775,0.169424,-2.1828358,1.154315,0.3538357,-3.5210125,-0.52285695,0.8531016,-0.24151221,0.24695946,-1.4476527,-0.701019,-2.661941,2.96666,0.38581523,-4.1202326,1.5954411,-0.094003946,-0.6592984,1.927832,1.4609616,-1.4214339,1.719225,0.9481644,3.3481839,-0.03437884,-2.5781758,-0.9129463,0.1237143,-1.6777982,2.4493785,-0.8547745,1.0621759,-1.9596142,-0.82021725,0.8210098,2.01832,2.5585403,-0.15536088,2.4200268,-3.0127406,0.29717156,2.0069325,1.5391791,1.7886223,-1.5338151,1.2371327,-0.03047321,-0.45158023,0.15997383,-0.006960133,0.9433231,0.40652752,-1.2644914,1.6263566,-3.331284,-0.28172538,-0.15783572,2.0509856,0.63444066,-1.8004253,-4.9510736,-0.20334196,0.014719601,-2.0952234,1.830839,0.6843525,-0.10648217,0.39118025,0.72099924,4.4603443,3.2091935,2.76296,1.3989162,-0.49976602,-1.5374916,1.6760664,-2.8277962,-0.17662832,1.6596545,-0.8732517,0.45174584,-1.906093,0.8743161,0.33456308,2.5714037,-1.7421803,-1.0172145,1.3894814,1.8586472,0.40628943,0.9329151,0.8572734,2.1902845,-1.075781,-0.6187424,0.74942386,-0.72575915,0.3422323,-0.27116174,-0.07827469,0.30777705,-0.5326566,-0.6032608,1.0644195,0.15975979,-1.6378537,-3.154208,0.18567108
Sc3_A,-1.6874542,-0.14272037,-1.715492,-0.13589206,4.8638296,-0.32944328,0.96019673,4.0748587,-0.17866711,-0.63159806,6.5880575,1.3680526,-3.8517244,1.0339333,1.6868963,1.6933044,1.335512,0.37607333,-1.1100454,-2.0320556,1.4520531,-0.101357795,-0.9011418,-0.24601072,-0.099507816,-1.5766599,-2.9319293,-1.5196506,-0.29827273,1.5560313,0.6570265,-0.8905323,-0.40761772,-2.861863,-2.4710975,-0.60139513,-0.47842532,1.5830811,1.5354605,0.047199514,0.7436509,0.2877368,-0.44546303,-0.030961737,-1.4282746,2.3181877,-0.053168193,-1.6369691,-0.22003983,1.0748932,-0.8003861,2.319077,-0.35132298,-4.1152453,-0.26492995,0.15167072,0.16651398,1.6105709,0.9545646,-1.3243502,-0.012514445,-1.0957193,0.5162481,-1.5865529,1.5855983,2.387548,-2.9345653,-3.5992553,1.4850365,1.5639237,-0.86723346,-0.3710374,-2.3958874,-0.004737699,-0.5058171,1.4225852,-3.4304981,2.2637916,-2.568951,-0.33111405,-4.5410924,0.08457672,0.8262231,-0.028547166,2.9734643,0.99672073,-1.5768087,-2.542929,0.055891618,-0.55196255,-1.1954068,0.54863656,1.8056946,-3.8347833,-0.1262599,-2.152051,1.3354591,-0.9009152,1.2196342,1.2928379,1.9143813,1.1130303,2.8022707,3.7175,-0.14161053,3.7998176,0.8414982,-2.663654,-0.3059795,-2.1108685,1.4403244,1.3009403,-1.9372517,1.3868538,0.88064474,0.32258326,-0.8664249,-0.3275987,-0.069084235,-0.9382014,-1.461566,-2.2238185,1.1625142,1.762602,-1.3411942,-3.8012376,0.57006305,-3.2537603,3.95114,-1.2970388,-3.605735,0.37962195,4.3035765,-1.0803683,-0.31250536,0.7999898,-1.2623153,-1.2748204,2.6131668,-1.8907756,-1.1602323,0.23818791,-0.36673167,2.2366307,1.507646,0.008329286,-4.0152144,0.021612491,1.5850084,2.100047,0.62451863,2.3876872,0.20706733,1.04319,-1.3353473,1.517337,2.6608782,-0.4921374,-0.84309745,-1.18621,-0.59253246,-2.265906,0.33823976,1.9351369,-1.468112,-1.5172422,-3.1673925,0.6774024,0.051730122,-0.10785103,1.836562,-0.91589814,2.830022,-0.027730977,0.7764621,-0.13882323,0.91906387,0.28223205,-2.1150908,-1.8613684,-1.1294874,-0.41720504,1.5706133,-1.0321761,-1.3998709,0.42896497,-1.1086026,-0.14062516,0.22922318,1.761839,-0.64679056,-1.654775,0.169424,-2.1828358,1.154315,0.3538357,-3.5210125,-0.52285695,0.8531016,-0.24151221,0.24695946,-1.4476527,-0.701019,-2.661941,2.96666,0.38581523,-4.1202326,1.5954411,-0.094003946,-0.6592984,1.927832,1.4609616,-1.4214339,1.719225,0.9481644,3.3481839,-0.03437884,-2.5781758,-0.9129463,0.1237143,-1.6777982,2.4493785,-0.8547745,1.0621759,-1.9596142,-0.82021725,0.8210098,2.01832,2.5585403,-0.15536088,2.4200268,-3.0127406,0.29717156,2.0069325,1.5391791,1.7886223,-1.5338151,1.2371327,-0.03047321,-0.45158023,0.15997383,-0.006960133,0.9433231,0.40652752,-1.2644914,1.6263566,-3.331284,-0.28172538,-0.15783572,2.0509856,0.63444066,-1.8004253,-4.9510736,-0.20334196,0.014719601,-2.0952234,1.830839,0.6843525,-0.10648217,0.39118025,0.72099924,4.4603443,3.2091935,2.76296,1.3989162,-0.49976602,-1.5374916,1.6760664,-2.8277962,-0.17662832,1.6596545,-0.8732517,0.45174584,-1.906093,0.8743161,0.33456308,2.5714037,-1.7421803,-1.0172145,1.3894814,1.8586472,0.40628943,0.9329151,0.8572734,2.1902845,-1.075781,-0.6187424,0.74942386,-0.72575915,0.3422323,-0.27116174,-0.07827469,0.30777705,-0.5326566,-0.6032608,1.0644195,0.15975979,-1.6378537,-3.154208,0.18567108
Sc3_A,-1.6874542,-0.14272037,-1.715492,-0.13589206,4.8638296,-0.32944328,0.96019673,4.0748587,-0.17866711,-0.63159806,6.5880575,1.3680526,-3.8517244,1.0339333,1.6868963,1.6933044,1.335512,0.37607333,-1.1100454,-2.0320556,1.4520531,-0.101357795,-0.9011418,-0.24601072,-0.099507816,-1.5766599,-2.9319293,-1.5196506,-0.29827273,1.5560313,0.6570265,-0.8905323,-0.40761772,-2.861863,-2.4710975,-0.60139513,-0.47842532,1.5830811,1.5354605,0.047199514,0.7436509,0.2877368,-0.44546303,-0.030961737,-1.4282746,2.3181877,-0.053168193,-1.6369691,-0.22003983,1.0748932,-0.8003861,2.319077,-0.35132298,-4.1152453,-0.26492995,0.15167072,0.16651398,1.6105709,0.9545646,-1.3243502,-0.012514445,-1.0957193,0.5162481,-1.5865529,1.5855983,2.387548,-2.9345653,-3.5992553,1.4850365,1.5639237,-0.86723346,-0.3710374,-2.3958874,-0.004737699,-0.5058171,1.4225852,-3.4304981,2.2637916,-2.568951,-0.33111405,-4.5410924,0.08457672,0.8262231,-0.028547166,2.9734643,0.99672073,-1.5768087,-2.542929,0.055891618,-0.55196255,-1.1954068,0.54863656,1.8056946,-3.8347833,-0.1262599,-2.152051,1.3354591,-0.9009152,1.2196342,1.2928379,1.9143813,1.1130303,2.8022707,3.7175,-0.14161053,3.7998176,0.8414982,-2.663654,-0.3059795,-2.1108685,1.4403244,1.3009403,-1.9372517,1.3868538,0.88064474,0.32258326,-0.8664249,-0.3275987,-0.069084235,-0.9382014,-1.461566,-2.2238185,1.1625142,1.762602,-1.3411942,-3.8012376,0.57006305,-3.2537603,3.95114,-1.2970388,-3.605735,0.37962195,4.3035765,-1.0803683,-0.31250536,0.7999898,-1.2623153,-1.2748204,2.6131668,-1.8907756,-1.1602323,0.23818791,-0.36673167,2.2366307,1.507646,0.008329286,-4.0152144,0.021612491,1.5850084,2.100047,0.62451863,2.3876872,0.20706733,1.04319,-1.3353473,1.517337,2.6608782,-0.4921374,-0.84309745,-1.18621,-0.59253246,-2.265906,0.33823976,1.9351369,-1.468112,-1.5172422,-3.1673925,0.6774024,0.051730122,-0.10785103,1.836562,-0.91589814,2.830022,-0.027730977,0.7764621,-0.13882323,0.91906387,0.28223205,-2.1150908,-1.8613684,-1.1294874,-0.41720504,1.5706133,-1.0321761,-1.3998709,0.42896497,-1.1086026,-0.14062516,0.22922318,1.761839,-0.64679056,-1.654775,0.169424,-2.1828358,1.154315,0.3538357,-3.5210125,-0.52285695,0.8531016,-0.24151221,0.24695946,-1.4476527,-0.701019,-2.661941,2.96666,0.38581523,-4.1202326,1.5954411,-0.094003946,-0.6592984,1.927832,1.4609616,-1.4214339,1.719225,0.9481644,3.3481839,-0.03437884,-2.5781758,-0.9129463,0.1237143,-1.6777982,2.4493785,-0.8547745,1.0621759,-1.9596142,-0.82021725,0.8210098,2.01832,2.5585403,-0.15536088,2.4200268,-3.0127406,0.29717156,2.0069325,1.5391791,1.7886223,-1.5338151,1.2371327,-0.03047321,-0.45158023,0.15997383,-0.006960133,0.9433231,0.40652752,-1.2644914,1.6263566,-3.331284,-0.28172538,-0.15783572,2.0509856,0.63444066,-1.8004253,-4.9510736,-0.20334196,0.014719601,-2.0952234,1.830839,0.6843525,-0.10648217,0.39118025,0.72099924,4.4603443,3.2091935,2.76296,1.3989162,-0.49976602,-1.5374916,1.6760664,-2.8277962,-0.17662832,1.6596545,-0.8732517,0.45174584,-1.906093,0.8743161,0.33456308,2.5714037,-1.7421803,-1.0172145,1.3894814,1.8586472,0.40628943,0.9329151,0.8572734,2.1902845,-1.075781,-0.6187424,0.74942386,-0.72575915,0.3422323,-0.27116174,-0.07827469,0.30777705,-0.5326566,-0.6032608,1.0644195,0.15975979,-1.6378537,-3.154208,0.18567108
Sc3_A,-1.6874542,-0.14272037,-1.715492,-0.13589206,4.8638296,-0.32944328,0.96019673,4.0748587,-0.17866711,-0.63159806,6.5880575,1.3680526,-3.8517244,1.0339333,1.6868963,1.6933044,1.335512,0.37607333,-1.1100454,-2.0320556,1.4520531,-0.101357795,-0.9011418,-0.24601072,-0.099507816,-1.5766599,-2.9319293,-1.5196506,-0.29827273,1.5560313,0.6570265,-0.8905323,-0.40761772,-2.861863,-2.4710975,-0.60139513,-0.47842532,1.5830811,1.5354605,0.047199514,0.7436509,0.2877368,-0.44546303,-0.030961737,-1.4282746,2.3181877,-0.053168193,-1.6369691,-0.22003983,1.0748932,-0.8003861,2.319077,-0.35132298,-4.1152453,-0.26492995,0.15167072,0.16651398,1.6105709,0.9545646,-1.3243502,-0.012514445,-1.0957193,0.5162481,-1.5865529,1.5855983,2.387548,-2.9345653,-3.5992553,1.4850365,1.5639237,-0.86723346,-0.3710374,-2.3958874,-0.004737699,-0.5058171,1.4225852,-3.4304981,2.2637916,-2.568951,-0.33111405,-4.5410924,0.08457672,0.8262231,-0.028547166,2.9734643,0.99672073,-1.5768087,-2.542929,0.055891618,-0.55196255,-1.1954068,0.54863656,1.8056946,-3.8347833,-0.1262599,-2.152051,1.3354591,-0.9009152,1.2196342,1.2928379,1.9143813,1.1130303,2.8022707,3.7175,-0.14161053,3.7998176,0.8414982,-2.663654,-0.3059795,-2.1108685,1.4403244,1.3009403,-1.9372517,1.3868538,0.88064474,0.32258326,-0.8664249,-0.3275987,-0.069084235,-0.9382014,-1.461566,-2.2238185,1.1625142,1.762602,-1.3411942,-3.8012376,0.57006305,-3.2537603,3.95114,-1.2970388,-3.605735,0.37962195,4.3035765,-1.0803683,-0.31250536,0.7999898,-1.2623153,-1.2748204,2.6131668,-1.8907756,-1.1602323,0.23818791,-0.36673167,2.2366307,1.507646,0.008329286,-4.0152144,0.021612491,1.5850084,2.100047,0.62451863,2.3876872,0.20706733,1.04319,-1.3353473,1.517337,2.6608782,-0.4921374,-0.84309745,-1.18621,-0.59253246,-2.265906,0.33823976,1.9351369,-1.468112,-1.5172422,-3.1673925,0.6774024,0.051730122,-0.10785103,1.836562,-0.91589814,2.830022,-0.027730977,0.7764621,-0.13882323,0.91906387,0.28223205,-2.1150908,-1.8613684,-1.1294874,-0.41720504,1.5706133,-1.0321761,-1.3998709,0.42896497,-1.1086026,-0.14062516,0.22922318,1.761839,-0.64679056,-1.654775,0.169424,-2.1828358,1.154315,0.3538357,-3.5210125,-0.52285695,0.8531016,-0.24151221,0.24695946,-1.4476527,-0.701019,-2.661941,2.96666,0.38581523,-4.1202326,1.5954411,-0.094003946,-0.6592984,1.927832,1.4609616,-1.4214339,1.719225,0.9481644,3.3481839,-0.03437884,-2.5781758,-0.9129463,0.1237143,-1.6777982,2.4493785,-0.8547745,1.0621759,-1.9596142,-0.82021725,0.8210098,2.01832,2.5585403,-0.15536088,2.4200268,-3.0127406,0.29717156,2.0069325,1.5391791,1.7886223,-1.5338151,1.2371327,-0.03047321,-0.45158023,0.15997383,-0.006960133,0.9433231,0.40652752,-1.2644914,1.6263566,-3.331284,-0.28172538,-0.15783572,2.0509856,0.63444066,-1.8004253,-4.9510736,-0.20334196,0.014719601,-2.0952234,1.830839,0.6843525,-0.10648217,0.39118025,0.72099924,4.4603443,3.2091935,2.76296,1.3989162,-0.49976602,-1.5374916,1.6760664,-2.8277962,-0.17662832,1.6596545,-0.8732517,0.45174584,-1.906093,0.8743161,0.33456308,2.5714037,-1.7421803,-1.0172145,1.3894814,1.8586472,0.40628943,0.9329151,0.8572734,2.1902845,-1.075781,-0.6187424,0.74942386,-0.72575915,0.3422323,-0.27116174,-0.07827469,0.30777705,-0.5326566,-0.6032608,1.0644195,0.15975979,-1.6378537,-3.154208,0.18567108
Sc3_A,-1.6874542,-0.14272037,-1.715492,-0.13589206,4.8638296,-0.32944328,0.96019673,4.0748587,-0.17866711,-0.63159806,6.5880575,1.3680526,-3.8517244,1.0339333,1.6868963,1.6933044,1.335512,0.37607333,-1.1100454,-2.0320556,1.4520531,-0.101357795,-0.9011418,-0.24601072,-0.099507816,-1.5766599,-2.9319293,-1.5196506,-0.29827273,1.5560313,0.6570265,-0.8905323,-0.40761772,-2.861863,-2.4710975,-0.60139513,-0.47842532,1.5830811,1.5354605,0.047199514,0.7436509,0.2877368,-0.44546303,-0.030961737,-1.4282746,2.3181877,-0.053168193,-1.6369691,-0.22003983,1.0748932,-0.8003861,2.319077,-0.35132298,-4.1152453,-0.26492995,0.15167072,0.16651398,1.6105709,0.9545646,-1.3243502,-0.012514445,-1.0957193,0.5162481,-1.5865529,1.5855983,2.387548,-2.9345653,-3.5992553,1.4850365,1.5639237,-0.86723346,-0.3710374,-2.3958874,-0.004737699,-0.5058171,1.4225852,-3.4304981,2.2637916,-2.568951,-0.33111405,-4.5410924,0.08457672,0.8262231,-0.028547166,2.9734643,0.99672073,-1.5768087,-2.542929,0.055891618,-0.55196255,-1.1954068,0.54863656,1.8056946,-3.8347833,-0.1262599,-2.152051,1.3354591,-0.9009152,1.2196342,1.2928379,1.9143813,1.1130303,2.8022707,3.7175,-0.14161053,3.7998176,0.8414982,-2.663654,-0.3059795,-2.1108685,1.4403244,1.3009403,-1.9372517,1.3868538,0.88064474,0.32258326,-0.8664249,-0.3275987,-0.069084235,-0.9382014,-1.461566,-2.2238185,1.1625142,1.762602,-1.3411942,-3.8012376,0.57006305,-3.2537603,3.95114,-1.2970388,-3.605735,0.37962195,4.3035765,-1.0803683,-0.31250536,0.7999898,-1.2623153,-1.2748204,2.6131668,-1.8907756,-1.1602323,0.23818791,-0.36673167,2.2366307,1.507646,0.008329286,-4.0152144,0.021612491,1.5850084,2.100047,0.62451863,2.3876872,0.20706733,1.04319,-1.3353473,1.517337,2.6608782,-0.4921374,-0.84309745,-1.18621,-0.59253246,-2.265906,0.33823976,1.9351369,-1.468112,-1.5172422,-3.1673925,0.6774024,0.051730122,-0.10785103,1.836562,-0.91589814,2.830022,-0.027730977,0.7764621,-0.13882323,0.91906387,0.28223205,-2.1150908,-1.8613684,-1.1294874,-0.41720504,1.5706133,-1.0321761,-1.3998709,0.42896497,-1.1086026,-0.14062516,0.22922318,1.761839,-0.64679056,-1.654775,0.169424,-2.1828358,1.154315,0.3538357,-3.5210125,-0.52285695,0.8531016,-0.24151221,0.24695946,-1.4476527,-0.701019,-2.661941,2.96666,0.38581523,-4.1202326,1.5954411,-0.094003946,-0.6592984,1.927832,1.4609616,-1.4214339,1.719225,0.9481644,3.3481839,-0.03437884,-2.5781758,-0.9129463,0.1237143,-1.6777982,2.4493785,-0.8547745,1.0621759,-1.9596142,-0.82021725,0.8210098,2.01832,2.5585403,-0.15536088,2.4200268,-3.0127406,0.29717156,2.0069325,1.5391791,1.7886223,-1.5338151,1.2371327,-0.03047321,-0.45158023,0.15997383,-0.006960133,0.9433231,0.40652752,-1.2644914,1.6263566,-3.331284,-0.28172538,-0.15783572,2.0509856,0.63444066,-1.8004253,-4.9510736,-0.20334196,0.014719601,-2.0952234,1.830839,0.6843525,-0.10648217,0.39118025,0.72099924,4.4603443,3.2091935,2.76296,1.3989162,-0.49976602,-1.5374916,1.6760664,-2.8277962,-0.17662832,1.6596545,-0.8732517,0.45174584,-1.906093,0.8743161,0.33456308,2.5714037,-1.7421803,-1.0172145,1.3894814,1.8586472,0.40628943,0.9329151,0.8572734,2.1902845,-1.075781,-0.6187424,0.74942386,-0.72575915,0.3422323,-0.27116174,-0.07827469,0.30777705,-0.5326566,-0.6032608,1.0644195,0.15975979,-1.6378537,-3.154208,0.18567108
Sc3_A,-1.6874542,-0.14272037,-1.715492,-0.13589206,4.8638296,-0.32944328,0.96019673,4.0748587,-0.17866711,-0.63159806,6.5880575,1.3680526,-3.8517244,1.0339333,1.6868963,1.6933044,1.335512,0.37607333,-1.1100454,-2.0320556,1.4520531,-0.101357795,-0.9011418,-0.24601072,-0.099507816,-1.5766599,-2.9319293,-1.5196506,-0.29827273,1.5560313,0.6570265,-0.8905323,-0.40761772,-2.861863,-2.4710975,-0.60139513,-0.47842532,1.5830811,1.5354605,0.047199514,0.7436509,0.2877368,-0.44546303,-0.030961737,-1.4282746,2.3181877,-0.053168193,-1.6369691,-0.22003983,1.0748932,-0.8003861,2.319077,-0.35132298,-4.1152453,-0.26492995,0.15167072,0.16651398,1.6105709,0.9545646,-1.3243502,-0.012514445,-1.0957193,0.5162481,-1.5865529,1.5855983,2.387548,-2.9345653,-3.5992553,1.4850365,1.5639237,-0.86723346,-0.3710374,-2.3958874,-0.004737699,-0.5058171,1.4225852,-3.4304981,2.2637916,-2.568951,-0.33111405,-4.5410924,0.08457672,0.8262231,-0.028547166,2.9734643,0.99672073,-1.5768087,-2.542929,0.055891618,-0.55196255,-1.1954068,0.54863656,1.8056946,-3.8347833,-0.1262599,-2.152051,1.3354591,-0.9009152,1.2196342,1.2928379,1.9143813,1.1130303,2.8022707,3.7175,-0.14161053,3.7998176,0.8414982,-2.663654,-0.3059795,-2.1108685,1.4403244,1.3009403,-1.9372517,1.3868538,0.88064474,0.32258326,-0.8664249,-0.3275987,-0.069084235,-0.9382014,-1.461566,-2.2238185,1.1625142,1.762602,-1.3411942,-3.8012376,0.57006305,-3.2537603,3.95114,-1.2970388,-3.605735,0.37962195,4.3035765,-1.0803683,-0.31250536,0.7999898,-1.2623153,-1.2748204,2.6131668,-1.8907756,-1.1602323,0.23818791,-0.36673167,2.2366307,1.507646,0.008329286,-4.0152144,0.021612491,1.5850084,2.100047,0.62451863,2.3876872,0.20706733,1.04319,-1.3353473,1.517337,2.6608782,-0.4921374,-0.84309745,-1.18621,-0.59253246,-2.265906,0.33823976,1.9351369,-1.468112,-1.5172422,-3.1673925,0.6774024,0.051730122,-0.10785103,1.836562,-0.91589814,2.830022,-0.027730977,0.7764621,-0.13882323,0.91906387,0.28223205,-2.1150908,-1.8613684,-1.1294874,-0.41720504,1.5706133,-1.0321761,-1.3998709,0.42896497,-1.1086026,-0.14062516,0.22922318,1.761839,-0.64679056,-1.654775,0.169424,-2.1828358,1.154315,0.3538357,-3.5210125,-0.52285695,0.8531016,-0.24151221,0.24695946,-1.4476527,-0.701019,-2.661941,2.96666,0.38581523,-4.1202326,1.5954411,-0.094003946,-0.6592984,1.927832,1.4609616,-1.4214339,1.719225,0.9481644,3.3481839,-0.03437884,-2.5781758,-0.9129463,0.1237143,-1.6777982,2.4493785,-0.8547745,1.0621759,-1.9596142,-0.82021725,0.8210098,2.01832,2.5585403,-0.15536088,2.4200268,-3.0127406,0.29717156,2.0069325,1.5391791,1.7886223,-1.5338151,1.2371327,-0.03047321,-0.45158023,0.15997383,-0.006960133,0.9433231,0.40652752,-1.2644914,1.6263566,-3.331284,-0.28172538,-0.15783572,2.0509856,0.63444066,-1.8004253,-4.9510736,-0.20334196,0.014719601,-2.0952234,1.830839,0.6843525,-0.10648217,0.39118025,0.72099924,4.4603443,3.2091935,2.76296,1.3989162,-0.49976602,-1.5374916,1.6760664,-2.8277962,-0.17662832,1.6596545,-0.8732517,0.45174584,-1.906093,0.8743161,0.33456308,2.5714037,-1.7421803,-1.0172145,1.3894814,1.8586472,0.40628943,0.9329151,0.8572734,2.1902845,-1.075781,-0.6187424,0.74942386,-0.72575915,0.3422323,-0.27116174,-0.07827469,0.30777705,-0.5326566,-0.6032608,1.0644195,0.15975979,-1.6378537,-3.154208,0.18567108
Sc3_A,-1.6874542,-0.14272037,-1.715492,-0.13589206,4.8638296,-0.32944328,0.96019673,4.0748587,-0.17866711,-0.63159806,6.5880575,1.3680526,-3.8517244,1.0339333,1.6868963,1.6933044,1.335512,0.37607333,-1.1100454,-2.0320556,1.4520531,-0.101357795,-0.9011418,-0.24601072,-0.099507816,-1.5766599,-2.9319293,-1.5196506,-0.29827273,1.5560313,0.6570265,-0.8905323,-0.40761772,-2.861863,-2.4710975,-0.60139513,-0.47842532,1.5830811,1.5354605,0.047199514,0.7436509,0.2877368,-0.44546303,-0.030961737,-1.4282746,2.3181877,-0.053168193,-1.6369691,-0.22003983,1.0748932,-0.8003861,2.319077,-0.35132298,-4.1152453,-0.26492995,0.15167072,0.16651398,1.6105709,0.9545646,-1.3243502,-0.012514445,-1.0957193,0.5162481,-1.5865529,1.5855983,2.387548,-2.9345653,-3.5992553,1.4850365,1.5639237,-0.86723346,-0.3710374,-2.3958874,-0.004737699,-0.5058171,1.4225852,-3.4304981,2.2637916,-2.568951,-0.33111405,-4.5410924,0.08457672,0.8262231,-0.028547166,2.9734643,0.99672073,-1.5768087,-2.542929,0.055891618,-0.55196255,-1.1954068,0.54863656,1.8056946,-3.8347833,-0.1262599,-2.152051,1.3354591,-0.9009152,1.2196342,1.2928379,1.9143813,1.1130303,2.8022707,3.7175,-0.14161053,3.7998176,0.8414982,-2.663654,-0.3059795,-2.1108685,1.4403244,1.3009403,-1.9372517,1.3868538,0.88064474,0.32258326,-0.8664249,-0.3275987,-0.069084235,-0.9382014,-1.461566,-2.2238185,1.1625142,1.762602,-1.3411942,-3.8012376,0.57006305,-3.2537603,3.95114,-1.2970388,-3.605735,0.37962195,4.3035765,-1.0803683,-0.31250536,0.7999898,-1.2623153,-1.2748204,2.6131668,-1.8907756,-1.1602323,0.23818791,-0.36673167,2.2366307,1.507646,0.008329286,-4.0152144,0.021612491,1.5850084,2.100047,0.62451863,2.3876872,0.20706733,1.04319,-1.3353473,1.517337,2.6608782,-0.4921374,-0.84309745,-1.18621,-0.59253246,-2.265906,0.33823976,1.9351369,-1.468112,-1.5172422,-3.1673925,0.6774024,0.051730122,-0.10785103,1.836562,-0.91589814,2.830022,-0.027730977,0.7764621,-0.13882323,0.91906387,0.28223205,-2.1150908,-1.8613684,-1.1294874,-0.41720504,1.5706133,-1.0321761,-1.3998709,0.42896497,-1.1086026,-0.14062516,0.22922318,1.761839,-0.64679056,-1.654775,0.169424,-2.1828358,1.154315,0.3538357,-3.5210125,-0.52285695,0.8531016,-0.24151221,0.24695946,-1.4476527,-0.701019,-2.661941,2.96666,0.38581523,-4.1202326,1.5954411,-0.094003946,-0.6592984,1.927832,1.4609616,-1.4214339,1.719225,0.9481644,3.3481839,-0.03437884,-2.5781758,-0.9129463,0.1237143,-1.6777982,2.4493785,-0.8547745,1.0621759,-1.9596142,-0.82021725,0.8210098,2.01832,2.5585403,-0.15536088,2.4200268,-3.0127406,0.29717156,2.0069325,1.5391791,1.7886223,-1.5338151,1.2371327,-0.03047321,-0.45158023,0.15997383,-0.006960133,0.9433231,0.40652752,-1.2644914,1.6263566,-3.331284,-0.28172538,-0.15783572,2.0509856,0.63444066,-1.8004253,-4.9510736,-0.20334196,0.014719601,-2.0952234,1.830839,0.6843525,-0.10648217,0.39118025,0.72099924,4.4603443,3.2091935,2.76296,1.3989162,-0.49976602,-1.5374916,1.6760664,-2.8277962,-0.17662832,1.6596545,-0.8732517,0.45174584,-1.906093,0.8743161,0.33456308,2.5714037,-1.7421803,-1.0172145,1.3894814,1.8586472,0.40628943,0.9329151,0.8572734,2.1902845,-1.075781,-0.6187424,0.74942386,-0.72575915,0.3422323,-0.27116174,-0.07827469,0.30777705,-0.5326566,-0.6032608,1.0644195,0.15975979,-1.6378537,-3.154208,0.18567108
Sc3_A,-1.6874542,-0.14272037,-1.715492,-0.13589206,4.8638296,-0.32944328,0.96019673,4.0748587,-0.17866711,-0.63159806,6.5880575,1.3680526,-3.8517244,1.0339333,1.6868963,1.6933044,1.335512,0.37607333,-1.1100454,-2.0320556,1.4520531,-0.101357795,-0.9011418,-0.24601072,-0.099507816,-1.5766599,-2.9319293,-1.5196506,-0.29827273,1.5560313,0.6570265,-0.8905323,-0.40761772,-2.861863,-2.4710975,-0.60139513,-0.47842532,1.5830811,1.5354605,0.047199514,0.7436509,0.2877368,-0.44546303,-0.030961737,-1.4282746,2.3181877,-0.053168193,-1.6369691,-0.22003983,1.0748932,-0.8003861,2.319077,-0.35132298,-4.1152453,-0.26492995,0.15167072,0.16651398,1.6105709,0.9545646,-1.3243502,-0.012514445,-1.0957193,0.5162481,-1.5865529,1.5855983,2.387548,-2.9345653,-3.5992553,1.4850365,1.5639237,-0.86723346,-0.3710374,-2.3958874,-0.004737699,-0.5058171,1.4225852,-3.4304981,2.2637916,-2.568951,-0.33111405,-4.5410924,0.08457672,0.8262231,-0.028547166,2.9734643,0.99672073,-1.5768087,-2.542929,0.055891618,-0.55196255,-1.1954068,0.54863656,1.8056946,-3.8347833,-0.1262599,-2.152051,1.3354591,-0.9009152,1.2196342,1.2928379,1.9143813,1.1130303,2.8022707,3.7175,-0.14161053,3.7998176,0.8414982,-2.663654,-0.3059795,-2.1108685,1.4403244,1.3009403,-1.9372517,1.3868538,0.88064474,0.32258326,-0.8664249,-0.3275987,-0.069084235,-0.9382014,-1.461566,-2.2238185,1.1625142,1.762602,-1.3411942,-3.8012376,0.57006305,-3.2537603,3.95114,-1.2970388,-3.605735,0.37962195,4.3035765,-1.0803683,-0.31250536,0.7999898,-1.2623153,-1.2748204,2.6131668,-1.8907756,-1.1602323,0.23818791,-0.36673167,2.2366307,1.507646,0.008329286,-4.0152144,0.021612491,1.5850084,2.100047,0.62451863,2.3876872,0.20706733,1.04319,-1.3353473,1.517337,2.6608782,-0.4921374,-0.84309745,-1.18621,-0.59253246,-2.265906,0.33823976,1.9351369,-1.468112,-1.5172422,-3.1673925,0.6774024,0.051730122,-0.10785103,1.836562,-0.91589814,2.830022,-0.027730977,0.7764621,-0.13882323,0.91906387,0.28223205,-2.1150908,-1.8613684,-1.1294874,-0.41720504,1.5706133,-1.0321761,-1.3998709,0.42896497,-1.1086026,-0.14062516,0.22922318,1.761839,-0.64679056,-1.654775,0.169424,-2.1828358,1.154315,0.3538357,-3.5210125,-0.52285695,0.8531016,-0.24151221,0.24695946,-1.4476527,-0.701019,-2.661941,2.96666,0.38581523,-4.1202326,1.5954411,-0.094003946,-0.6592984,1.927832,1.4609616,-1.4214339,1.719225,0.9481644,3.3481839,-0.03437884,-2.5781758,-0.9129463,0.1237143,-1.6777982,2.4493785,-0.8547745,1.0621759,-1.9596142,-0.82021725,0.8210098,2.01832,2.5585403,-0.15536088,2.4200268,-3.0127406,0.29717156,2.0069325,1.5391791,1.7886223,-1.5338151,1.2371327,-0.03047321,-0.45158023,0.15997383,-0.006960133,0.9433231,0.40652752,-1.2644914,1.6263566,-3.331284,-0.28172538,-0.15783572,2.0509856,0.63444066,-1.8004253,-4.9510736,-0.20334196,0.014719601,-2.0952234,1.830839,0.6843525,-0.10648217,0.39118025,0.72099924,4.4603443,3.2091935,2.76296,1.3989162,-0.49976602,-1.5374916,1.6760664,-2.8277962,-0.17662832,1.6596545,-0.8732517,0.45174584,-1.906093,0.8743161,0.33456308,2.5714037,-1.7421803,-1.0172145,1.3894814,1.8586472,0.40628943,0.9329151,0.8572734,2.1902845,-1.075781,-0.6187424,0.74942386,-0.72575915,0.3422323,-0.27116174,-0.07827469,0.30777705,-0.5326566,-0.6032608,1.0644195,0.15975979,-1.6378537,-3.154208,0.18567108
Sc3_A,-1.6874542,-0.14272037,-1.715492,-0.13589206,4.8638296,-0.32944328,0.96019673,4.0748587,-0.17866711,-0.63159806,6.5880575,1.3680526,-3.8517244,1.0339333,1.6868963,1.6933044,1.335512,0.37607333,-1.1100454,-2.0320556,1.4520531,-0.101357795,-0.9011418,-0.24601072,-0.099507816,-1.5766599,-2.9319293,-1.5196506,-0.29827273,1.5560313,0.6570265,-0.8905323,-0.40761772,-2.861863,-2.4710975,-0.60139513,-0.47842532,1.5830811,1.5354605,0.047199514,0.7436509,0.2877368,-0.44546303,-0.030961737,-1.4282746,2.3181877,-0.053168193,-1.6369691,-0.22003983,1.0748932,-0.8003861,2.319077,-0.35132298,-4.1152453,-0.26492995,0.15167072,0.16651398,1.6105709,0.9545646,-1.3243502,-0.012514445,-1.0957193,0.5162481,-1.5865529,1.5855983,2.387548,-2.9345653,-3.5992553,1.4850365,1.5639237,-0.86723346,-0.3710374,-2.3958874,-0.004737699,-0.5058171,1.4225852,-3.4304981,2.2637916,-2.568951,-0.33111405,-4.5410924,0.08457672,0.8262231,-0.028547166,2.9734643,0.99672073,-1.5768087,-2.542929,0.055891618,-0.55196255,-1.1954068,0.54863656,1.8056946,-3.8347833,-0.1262599,-2.152051,1.3354591,-0.9009152,1.2196342,1.2928379,1.9143813,1.1130303,2.8022707,3.7175,-0.14161053,3.7998176,0.8414982,-2.663654,-0.3059795,-2.1108685,1.4403244,1.3009403,-1.9372517,1.3868538,0.88064474,0.32258326,-0.8664249,-0.3275987,-0.069084235,-0.9382014,-1.461566,-2.2238185,1.1625142,1.762602,-1.3411942,-3.8012376,0.57006305,-3.2537603,3.95114,-1.2970388,-3.605735,0.37962195,4.3035765,-1.0803683,-0.31250536,0.7999898,-1.2623153,-1.2748204,2.6131668,-1.8907756,-1.1602323,0.23818791,-0.36673167,2.2366307,1.507646,0.008329286,-4.0152144,0.021612491,1.5850084,2.100047,0.62451863,2.3876872,0.20706733,1.04319,-1.3353473,1.517337,2.6608782,-0.4921374,-0.84309745,-1.18621,-0.59253246,-2.265906,0.33823976,1.9351369,-1.468112,-1.5172422,-3.1673925,0.6774024,0.051730122,-0.10785103,1.836562,-0.91589814,2.830022,-0.027730977,0.7764621,-0.13882323,0.91906387,0.28223205,-2.1150908,-1.8613684,-1.1294874,-0.41720504,1.5706133,-1.0321761,-1.3998709,0.42896497,-1.1086026,-0.14062516,0.22922318,1.761839,-0.64679056,-1.654775,0.169424,-2.1828358,1.154315,0.3538357,-3.5210125,-0.52285695,0.8531016,-0.24151221,0.24695946,-1.4476527,-0.701019,-2.661941,2.96666,0.38581523,-4.1202326,1.5954411,-0.094003946,-0.6592984,1.927832,1.4609616,-1.4214339,1.719225,0.9481644,3.3481839,-0.03437884,-2.5781758,-0.9129463,0.1237143,-1.6777982,2.4493785,-0.8547745,1.0621759,-1.9596142,-0.82021725,0.8210098,2.01832,2.5585403,-0.15536088,2.4200268,-3.0127406,0.29717156,2.0069325,1.5391791,1.7886223,-1.5338151,1.2371327,-0.03047321,-0.45158023,0.15997383,-0.006960133,0.9433231,0.40652752,-1.2644914,1.6263566,-3.331284,-0.28172538,-0.15783572,2.0509856,0.63444066,-1.8004253,-4.9510736,-0.20334196,0.014719601,-2.0952234,1.830839,0.6843525,-0.10648217,0.39118025,0.72099924,4.4603443,3.2091935,2.76296,1.3989162,-0.49976602,-1.5374916,1.6760664,-2.8277962,-0.17662832,1.6596545,-0.8732517,0.45174584,-1.906093,0.8743161,0.33456308,2.5714037,-1.7421803,-1.0172145,1.3894814,1.8586472,0.40628943,0.9329151,0.8572734,2.1902845,-1.075781,-0.6187424,0.74942386,-0.72575915,0.3422323,-0.27116174,-0.07827469,0.30777705,-0.5326566,-0.6032608,1.0644195,0.15975979,-1.6378537,-3.154208,0.18567108
Sc3_A,-1.6874542,-0.14272037,-1.715492,-0.13589206,4.8638296,-0.32944328,0.96019673,4.0748587,-0.17866711,-0.63159806,6.5880575,1.3680526,-3.8517244,1.0339333,1.6868963,1.6933044,1.335512,0.37607333,-1.1100454,-2.0320556,1.4520531,-0.101357795,-0.9011418,-0.24601072,-0.099507816,-1.5766599,-2.9319293,-1.5196506,-0.29827273,1.5560313,0.6570265,-0.8905323,-0.40761772,-2.861863,-2.4710975,-0.60139513,-0.47842532,1.5830811,1.5354605,0.047199514,0.7436509,0.2877368,-0.44546303,-0.030961737,-1.4282746,2.3181877,-0.053168193,-1.6369691,-0.22003983,1.0748932,-0.8003861,2.319077,-0.35132298,-4.1152453,-0.26492995,0.15167072,0.16651398,1.6105709,0.9545646,-1.3243502,-0.012514445,-1.0957193,0.5162481,-1.5865529,1.5855983,2.387548,-2.9345653,-3.5992553,1.4850365,1.5639237,-0.86723346,-0.3710374,-2.3958874,-0.004737699,-0.5058171,1.4225852,-3.4304981,2.2637916,-2.568951,-0.33111405,-4.5410924,0.08457672,0.8262231,-0.028547166,2.9734643,0.99672073,-1.5768087,-2.542929,0.055891618,-0.55196255,-1.1954068,0.54863656,1.8056946,-3.8347833,-0.1262599,-2.152051,1.3354591,-0.9009152,1.2196342,1.2928379,1.9143813,1.1130303,2.8022707,3.7175,-0.14161053,3.7998176,0.8414982,-2.663654,-0.3059795,-2.1108685,1.4403244,1.3009403,-1.9372517,1.3868538,0.88064474,0.32258326,-0.8664249,-0.3275987,-0.069084235,-0.9382014,-1.461566,-2.2238185,1.1625142,1.762602,-1.3411942,-3.8012376,0.57006305,-3.2537603,3.95114,-1.2970388,-3.605735,0.37962195,4.3035765,-1.0803683,-0.31250536,0.7999898,-1.2623153,-1.2748204,2.6131668,-1.8907756,-1.1602323,0.23818791,-0.36673167,2.2366307,1.507646,0.008329286,-4.0152144,0.021612491,1.5850084,2.100047,0.62451863,2.3876872,0.20706733,1.04319,-1.3353473,1.517337,2.6608782,-0.4921374,-0.84309745,-1.18621,-0.59253246,-2.265906,0.33823976,1.9351369,-1.468112,-1.5172422,-3.1673925,0.6774024,0.051730122,-0.10785103,1.836562,-0.91589814,2.830022,-0.027730977,0.7764621,-0.13882323,0.91906387,0.28223205,-2.1150908,-1.8613684,-1.1294874,-0.41720504,1.5706133,-1.0321761,-1.3998709,0.42896497,-1.1086026,-0.14062516,0.22922318,1.761839,-0.64679056,-1.654775,0.169424,-2.1828358,1.154315,0.3538357,-3.5210125,-0.52285695,0.8531016,-0.24151221,0.24695946,-1.4476527,-0.701019,-2.661941,2.96666,0.38581523,-4.1202326,1.5954411,-0.094003946,-0.6592984,1.927832,1.4609616,-1.4214339,1.719225,0.9481644,3.3481839,-0.03437884,-2.5781758,-0.9129463,0.1237143,-1.6777982,2.4493785,-0.8547745,1.0621759,-1.9596142,-0.82021725,0.8210098,2.01832,2.5585403,-0.15536088,2.4200268,-3.0127406,0.29717156,2.0069325,1.5391791,1.7886223,-1.5338151,1.2371327,-0.03047321,-0.45158023,0.15997383,-0.006960133,0.9433231,0.40652752,-1.2644914,1.6263566,-3.331284,-0.28172538,-0.15783572,2.0509856,0.63444066,-1.8004253,-4.9510736,-0.20334196,0.014719601,-2.0952234,1.830839,0.6843525,-0.10648217,0.39118025,0.72099924,4.4603443,3.2091935,2.76296,1.3989162,-0.49976602,-1.5374916,1.6760664,-2.8277962,-0.17662832,1.6596545,-0.8732517,0.45174584,-1.906093,0.8743161,0.33456308,2.5714037,-1.7421803,-1.0172145,1.3894814,1.8586472,0.40628943,0.9329151,0.8572734,2.1902845,-1.075781,-0.6187424,0.74942386,-0.72575915,0.3422323,-0.27116174,-0.07827469,0.30777705,-0.5326566,-0.6032608,1.0644195,0.15975979,-1.6378537,-3.154208,0.18567108
Sc3_A,-1.6874542,-0.14272037,-1.715492,-0.13589206,4.8638296,-0.32944328,0.96019673,4.0748587,-0.17866711,-0.63159806,6.5880575,1.3680526,-3.8517244,1.0339333,1.6868963,1.6933044,1.335512,0.37607333,-1.1100454,-2.0320556,1.4520531,-0.101357795,-0.9011418,-0.24601072,-0.099507816,-1.5766599,-2.9319293,-1.5196506,-0.29827273,1.5560313,0.6570265,-0.8905323,-0.40761772,-2.861863,-2.4710975,-0.60139513,-0.47842532,1.5830811,1.5354605,0.047199514,0.7436509,0.2877368,-0.44546303,-0.030961737,-1.4282746,2.3181877,-0.053168193,-1.6369691,-0.22003983,1.0748932,-0.8003861,2.319077,-0.35132298,-4.1152453,-0.26492995,0.15167072,0.16651398,1.6105709,0.9545646,-1.3243502,-0.012514445,-1.0957193,0.5162481,-1.5865529,1.5855983,2.387548,-2.9345653,-3.5992553,1.4850365,1.5639237,-0.86723346,-0.3710374,-2.3958874,-0.004737699,-0.5058171,1.4225852,-3.4304981,2.2637916,-2.568951,-0.33111405,-4.5410924,0.08457672,0.8262231,-0.028547166,2.9734643,0.99672073,-1.5768087,-2.542929,0.055891618,-0.55196255,-1.1954068,0.54863656,1.8056946,-3.8347833,-0.1262599,-2.152051,1.3354591,-0.9009152,1.2196342,1.2928379,1.9143813,1.1130303,2.8022707,3.7175,-0.14161053,3.7998176,0.8414982,-2.663654,-0.3059795,-2.1108685,1.4403244,1.3009403,-1.9372517,1.3868538,0.88064474,0.32258326,-0.8664249,-0.3275987,-0.069084235,-0.9382014,-1.461566,-2.2238185,1.1625142,1.762602,-1.3411942,-3.8012376,0.57006305,-3.2537603,3.95114,-1.2970388,-3.605735,0.37962195,4.3035765,-1.0803683,-0.31250536,0.7999898,-1.2623153,-1.2748204,2.6131668,-1.8907756,-1.1602323,0.23818791,-0.36673167,2.2366307,1.507646,0.008329286,-4.0152144,0.021612491,1.5850084,2.100047,0.62451863,2.3876872,0.20706733,1.04319,-1.3353473,1.517337,2.6608782,-0.4921374,-0.84309745,-1.18621,-0.59253246,-2.265906,0.33823976,1.9351369,-1.468112,-1.5172422,-3.1673925,0.6774024,0.051730122,-0.10785103,1.836562,-0.91589814,2.830022,-0.027730977,0.7764621,-0.13882323,0.91906387,0.28223205,-2.1150908,-1.8613684,-1.1294874,-0.41720504,1.5706133,-1.0321761,-1.3998709,0.42896497,-1.1086026,-0.14062516,0.22922318,1.761839,-0.64679056,-1.654775,0.169424,-2.1828358,1.154315,0.3538357,-3.5210125,-0.52285695,0.8531016,-0.24151221,0.24695946,-1.4476527,-0.701019,-2.661941,2.96666,0.38581523,-4.1202326,1.5954411,-0.094003946,-0.6592984,1.927832,1.4609616,-1.4214339,1.719225,0.9481644,3.3481839,-0.03437884,-2.5781758,-0.9129463,0.1237143,-1.6777982,2.4493785,-0.8547745,1.0621759,-1.9596142,-0.82021725,0.8210098,2.01832,2.5585403,-0.15536088,2.4200268,-3.0127406,0.29717156,2.0069325,1.5391791,1.7886223,-1.5338151,1.2371327,-0.03047321,-0.45158023,0.15997383,-0.006960133,0.9433231,0.40652752,-1.2644914,1.6263566,-3.331284,-0.28172538,-0.15783572,2.0509856,0.63444066,-1.8004253,-4.9510736,-0.20334196,0.014719601,-2.0952234,1.830839,0.6843525,-0.10648217,0.39118025,0.72099924,4.4603443,3.2091935,2.76296,1.3989162,-0.49976602,-1.5374916,1.6760664,-2.8277962,-0.17662832,1.6596545,-0.8732517,0.45174584,-1.906093,0.8743161,0.33456308,2.5714037,-1.7421803,-1.0172145,1.3894814,1.8586472,0.40628943,0.9329151,0.8572734,2.1902845,-1.075781,-0.6187424,0.74942386,-0.72575915,0.3422323,-0.27116174,-0.07827469,0.30777705,-0.5326566,-0.6032608,1.0644195,0.15975979,-1.6378537,-3.154208,0.18567108
Sc3_A,-1.6874542,-0.14272037,-1.715492,-0.13589206,4.8638296,-0.32944328,0.96019673,4.0748587,-0.17866711,-0.63159806,6.5880575,1.3680526,-3.8517244,1.0339333,1.6868963,1.6933044,1.335512,0.37607333,-1.1100454,-2.0320556,1.4520531,-0.101357795,-0.9011418,-0.24601072,-0.099507816,-1.5766599,-2.9319293,-1.5196506,-0.29827273,1.5560313,0.6570265,-0.8905323,-0.40761772,-2.861863,-2.4710975,-0.60139513,-0.47842532,1.5830811,1.5354605,0.047199514,0.7436509,0.2877368,-0.44546303,-0.030961737,-1.4282746,2.3181877,-0.053168193,-1.6369691,-0.22003983,1.0748932,-0.8003861,2.319077,-0.35132298,-4.1152453,-0.26492995,0.15167072,0.16651398,1.6105709,0.9545646,-1.3243502,-0.012514445,-1.0957193,0.5162481,-1.5865529,1.5855983,2.387548,-2.9345653,-3.5992553,1.4850365,1.5639237,-0.86723346,-0.3710374,-2.3958874,-0.004737699,-0.5058171,1.4225852,-3.4304981,2.2637916,-2.568951,-0.33111405,-4.5410924,0.08457672,0.8262231,-0.028547166,2.9734643,0.99672073,-1.5768087,-2.542929,0.055891618,-0.55196255,-1.1954068,0.54863656,1.8056946,-3.8347833,-0.1262599,-2.152051,1.3354591,-0.9009152,1.2196342,1.2928379,1.9143813,1.1130303,2.8022707,3.7175,-0.14161053,3.7998176,0.8414982,-2.663654,-0.3059795,-2.1108685,1.4403244,1.3009403,-1.9372517,1.3868538,0.88064474,0.32258326,-0.8664249,-0.3275987,-0.069084235,-0.9382014,-1.461566,-2.2238185,1.1625142,1.762602,-1.3411942,-3.8012376,0.57006305,-3.2537603,3.95114,-1.2970388,-3.605735,0.37962195,4.3035765,-1.0803683,-0.31250536,0.7999898,-1.2623153,-1.2748204,2.6131668,-1.8907756,-1.1602323,0.23818791,-0.36673167,2.2366307,1.507646,0.008329286,-4.0152144,0.021612491,1.5850084,2.100047,0.62451863,2.3876872,0.20706733,1.04319,-1.3353473,1.517337,2.6608782,-0.4921374,-0.84309745,-1.18621,-0.59253246,-2.265906,0.33823976,1.9351369,-1.468112,-1.5172422,-3.1673925,0.6774024,0.051730122,-0.10785103,1.836562,-0.91589814,2.830022,-0.027730977,0.7764621,-0.13882323,0.91906387,0.28223205,-2.1150908,-1.8613684,-1.1294874,-0.41720504,1.5706133,-1.0321761,-1.3998709,0.42896497,-1.1086026,-0.14062516,0.22922318,1.761839,-0.64679056,-1.654775,0.169424,-2.1828358,1.154315,0.3538357,-3.5210125,-0.52285695,0.8531016,-0.24151221,0.24695946,-1.4476527,-0.701019,-2.661941,2.96666,0.38581523,-4.1202326,1.5954411,-0.094003946,-0.6592984,1.927832,1.4609616,-1.4214339,1.719225,0.9481644,3.3481839,-0.03437884,-2.5781758,-0.9129463,0.1237143,-1.6777982,2.4493785,-0.8547745,1.0621759,-1.9596142,-0.82021725,0.8210098,2.01832,2.5585403,-0.15536088,2.4200268,-3.0127406,0.29717156,2.0069325,1.5391791,1.7886223,-1.5338151,1.2371327,-0.03047321,-0.45158023,0.15997383,-0.006960133,0.9433231,0.40652752,-1.2644914,1.6263566,-3.331284,-0.28172538,-0.15783572,2.0509856,0.63444066,-1.8004253,-4.9510736,-0.20334196,0.014719601,-2.0952234,1.830839,0.6843525,-0.10648217,0.39118025,0.72099924,4.4603443,3.2091935,2.76296,1.3989162,-0.49976602,-1.5374916,1.6760664,-2.8277962,-0.17662832,1.6596545,-0.8732517,0.45174584,-1.906093,0.8743161,0.33456308,2.5714037,-1.7421803,-1.0172145,1.3894814,1.8586472,0.40628943,0.9329151,0.8572734,2.1902845,-1.075781,-0.6187424,0.74942386,-0.72575915,0.3422323,-0.27116174,-0.07827469,0.30777705,-0.5326566,-0.6032608,1.0644195,0.15975979,-1.6378537,-3.154208,0.18567108
Sc3_A,-1.6874542,-0.14272037,-1.715492,-0.13589206,4.8638296,-0.32944328,0.96019673,4.0748587,-0.17866711,-0.63159806,6.5880575,1.3680526,-3.8517244,1.0339333,1.6868963,1.6933044,1.335512,0.37607333,-1.1100454,-2.0320556,1.4520531,-0.101357795,-0.9011418,-0.24601072,-0.099507816,-1.5766599,-2.9319293,-1.5196506,-0.29827273,1.5560313,0.6570265,-0.8905323,-0.40761772,-2.861863,-2.4710975,-0.60139513,-0.47842532,1.5830811,1.5354605,0.047199514,0.7436509,0.2877368,-0.44546303,-0.030961737,-1.4282746,2.3181877,-0.053168193,-1.6369691,-0.22003983,1.0748932,-0.8003861,2.319077,-0.35132298,-4.1152453,-0.26492995,0.15167072,0.16651398,1.6105709,0.9545646,-1.3243502,-0.012514445,-1.0957193,0.5162481,-1.5865529,1.5855983,2.387548,-2.9345653,-3.5992553,1.4850365,1.5639237,-0.86723346,-0.3710374,-2.3958874,-0.004737699,-0.5058171,1.4225852,-3.4304981,2.2637916,-2.568951,-0.33111405,-4.5410924,0.08457672,0.8262231,-0.028547166,2.9734643,0.99672073,-1.5768087,-2.542929,0.055891618,-0.55196255,-1.1954068,0.54863656,1.8056946,-3.8347833,-0.1262599,-2.152051,1.3354591,-0.9009152,1.2196342,1.2928379,1.9143813,1.1130303,2.8022707,3.7175,-0.14161053,3.7998176,0.8414982,-2.663654,-0.3059795,-2.1108685,1.4403244,1.3009403,-1.9372517,1.3868538,0.88064474,0.32258326,-0.8664249,-0.3275987,-0.069084235,-0.9382014,-1.461566,-2.2238185,1.1625142,1.762602,-1.3411942,-3.8012376,0.57006305,-3.2537603,3.95114,-1.2970388,-3.605735,0.37962195,4.3035765,-1.0803683,-0.31250536,0.7999898,-1.2623153,-1.2748204,2.6131668,-1.8907756,-1.1602323,0.23818791,-0.36673167,2.2366307,1.507646,0.008329286,-4.0152144,0.021612491,1.5850084,2.100047,0.62451863,2.3876872,0.20706733,1.04319,-1.3353473,1.517337,2.6608782,-0.4921374,-0.84309745,-1.18621,-0.59253246,-2.265906,0.33823976,1.9351369,-1.468112,-1.5172422,-3.1673925,0.6774024,0.051730122,-0.10785103,1.836562,-0.91589814,2.830022,-0.027730977,0.7764621,-0.13882323,0.91906387,0.28223205,-2.1150908,-1.8613684,-1.1294874,-0.41720504,1.5706133,-1.0321761,-1.3998709,0.42896497,-1.1086026,-0.14062516,0.22922318,1.761839,-0.64679056,-1.654775,0.169424,-2.1828358,1.154315,0.3538357,-3.5210125,-0.52285695,0.8531016,-0.24151221,0.24695946,-1.4476527,-0.701019,-2.661941,2.96666,0.38581523,-4.1202326,1.5954411,-0.094003946,-0.6592984,1.927832,1.4609616,-1.4214339,1.719225,0.9481644,3.3481839,-0.03437884,-2.5781758,-0.9129463,0.1237143,-1.6777982,2.4493785,-0.8547745,1.0621759,-1.9596142,-0.82021725,0.8210098,2.01832,2.5585403,-0.15536088,2.4200268,-3.0127406,0.29717156,2.0069325,1.5391791,1.7886223,-1.5338151,1.2371327,-0.03047321,-0.45158023,0.15997383,-0.006960133,0.9433231,0.40652752,-1.2644914,1.6263566,-3.331284,-0.28172538,-0.15783572,2.0509856,0.63444066,-1.8004253,-4.9510736,-0.20334196,0.014719601,-2.0952234,1.830839,0.6843525,-0.10648217,0.39118025,0.72099924,4.4603443,3.2091935,2.76296,1.3989162,-0.49976602,-1.5374916,1.6760664,-2.8277962,-0.17662832,1.6596545,-0.8732517,0.45174584,-1.906093,0.8743161,0.33456308,2.5714037,-1.7421803,-1.0172145,1.3894814,1.8586472,0.40628943,0.9329151,0.8572734,2.1902845,-1.075781,-0.6187424,0.74942386,-0.72575915,0.3422323,-0.27116174,-0.07827469,0.30777705,-0.5326566,-0.6032608,1.0644195,0.15975979,-1.6378537,-3.154208,0.18567108
Sc3_B,-1.7194176,-0.25306034,-1.5667763,-0.09713532,4.7739067,-0.2939767,0.93032765,4.0056124,-0.3843364,-0.73560226,6.493347,1.4984196,-3.9104998,1.1330503,1.542124,1.6036654,1.2032045,0.35450858,-1.2779071,-2.0208855,1.392342,-0.110754564,-0.930702,-0.14552578,-0.0714973,-1.4959056,-2.9273272,-1.582964,-0.22042046,1.5882813,0.54038024,-0.8504661,-0.42788762,-2.8460214,-2.4487793,-0.65599126,-0.46708727,1.6256033,1.3107388,0.21198757,0.8872286,0.20050842,-0.5225508,0.06294479,-1.4430965,2.49623,0.034144014,-1.5845889,-0.2554647,1.0951622,-0.85571384,2.3033566,-0.3625957,-4.1187224,-0.35140908,0.17308392,0.033822674,1.5881922,1.0691853,-1.402153,0.06890924,-0.9958864,0.41326767,-1.5777289,1.7734765,2.5447133,-2.908645,-3.4042966,1.4976045,1.6073598,-0.81159085,-0.5043279,-2.443714,-0.18987684,-0.52100885,1.3968507,-3.5600991,2.2888613,-2.6322799,-0.1504109,-4.5537877,0.1743966,0.75697243,0.16587627,2.9441097,0.76642233,-1.8203626,-2.6352048,0.003805592,-0.55469155,-1.2471088,0.779528,1.7574676,-3.7499456,-0.07379623,-2.2034137,1.4048898,-0.99276984,1.136594,1.4875383,2.0618389,1.0772388,2.6886744,3.7372057,-0.20145689,3.8841166,0.83117265,-2.750642,-0.21231148,-2.217063,1.5614582,1.0705673,-1.7620503,1.2102686,0.87701356,0.21739528,-0.73359185,-0.26841474,-0.14029777,-1.1075586,-1.5679411,-2.1398382,1.2413951,1.6251135,-1.5929581,-3.732199,0.6687446,-3.3376198,3.9590328,-1.1281961,-3.5951154,0.39175728,4.2888756,-0.8542794,-0.3428388,0.85561,-1.189686,-1.1412674,2.5040183,-1.8450423,-1.0950757,0.24752744,-0.33330414,2.1391864,1.5125713,-0.13857642,-4.0087457,0.018008884,1.6499074,1.8845263,0.4559612,2.128423,0.099776685,1.0239366,-1.4081106,1.4375206,2.7682042,-0.5605601,-0.7805328,-1.2526802,-0.5419143,-2.256284,0.37185258,1.9370934,-1.4266273,-1.4511547,-3.1395988,0.5413304,0.14389087,-0.11024866,1.7768993,-1.0010825,2.8118632,-0.18430717,0.76095116,0.03607794,0.8219712,0.4307219,-2.2720993,-1.8498085,-0.99395114,-0.5502567,1.5521835,-1.0449828,-1.4768293,0.6148282,-0.9707918,-0.063369624,0.2682685,1.7459534,-0.4634563,-1.717637,0.15545428,-2.0599155,1.327673,0.4793156,-3.4394991,-0.43529823,0.91146076,-0.14939174,0.19065863,-1.3886671,-0.58261913,-2.5752182,2.8717535,0.29615426,-4.1214323,1.5835979,0.049018897,-0.63496745,1.8231916,1.2735163,-1.4958333,1.6745579,0.9528381,3.4757135,-0.09949581,-2.74924,-0.88136035,0.37983808,-1.6780628,2.5624578,-0.9185943,1.067786,-2.0190754,-0.84068936,0.83874273,2.0963602,2.3727705,-0.12196376,2.3671734,-2.980664,0.25346884,2.0034153,1.8319516,1.8255926,-1.4703261,1.2300125,-0.02946233,-0.4725796,0.018895006,0.09091923,0.82137346,0.37820348,-0.9707411,1.6400594,-3.2781227,-0.16121861,-0.18460199,2.082235,0.5846911,-1.8441752,-4.9775176,0.008092389,0.117670536,-2.1502116,1.781386,0.5867428,-0.03428853,0.5038482,0.6039398,4.5712514,3.226963,2.773864,1.5255468,-0.48283842,-1.3719149,1.6732329,-2.6880238,-0.23602235,1.4986452,-0.9446608,0.5988809,-1.8799103,0.9318035,0.24143827,2.5484838,-1.8199668,-1.0090683,1.5499558,2.0098534,0.3651979,1.2380563,0.8644295,2.1142464,-1.0411416,-0.68581146,0.8086002,-0.7884476,0.33514047,-0.27137437,-0.15952215,0.12095352,-0.75837713,-0.7321898,0.9882019,0.25783196,-1.5937264,-2.9460106,0.23494604
Sc3_B,-1.7194176,-0.25306034,-1.5667763,-0.09713532,4.7739067,-0.2939767,0.93032765,4.0056124,-0.3843364,-0.73560226,6.493347,1.4984196,-3.9104998,1.1330503,1.542124,1.6036654,1.2032045,0.35450858,-1.2779071,-2.0208855,1.392342,-0.110754564,-0.930702,-0.14552578,-0.0714973,-1.4959056,-2.9273272,-1.582964,-0.22042046,1.5882813,0.54038024,-0.8504661,-0.42788762,-2.8460214,-2.4487793,-0.65599126,-0.46708727,1.6256033,1.3107388,0.21198757,0.8872286,0.20050842,-0.5225508,0.06294479,-1.4430965,2.49623,0.034144014,-1.5845889,-0.2554647,1.0951622,-0.85571384,2.3033566,-0.3625957,-4.1187224,-0.35140908,0.17308392,0.033822674,1.5881922,1.0691853,-1.402153,0.06890924,-0.9958864,0.41326767,-1.5777289,1.7734765,2.5447133,-2.908645,-3.4042966,1.4976045,1.6073598,-0.81159085,-0.5043279,-2.443714,-0.18987684,-0.52100885,1.3968507,-3.5600991,2.2888613,-2.6322799,-0.1504109,-4.5537877,0.1743966,0.75697243,0.16587627,2.9441097,0.76642233,-1.8203626,-2.6352048,0.003805592,-0.55469155,-1.2471088,0.779528,1.7574676,-3.7499456,-0.07379623,-2.2034137,1.4048898,-0.99276984,1.136594,1.4875383,2.0618389,1.0772388,2.6886744,3.7372057,-0.20145689,3.8841166,0.83117265,-2.750642,-0.21231148,-2.217063,1.5614582,1.0705673,-1.7620503,1.2102686,0.87701356,0.21739528,-0.73359185,-0.26841474,-0.14029777,-1.1075586,-1.5679411,-2.1398382,1.2413951,1.6251135,-1.5929581,-3.732199,0.6687446,-3.3376198,3.9590328,-1.1281961,-3.5951154,0.39175728,4.2888756,-0.8542794,-0.3428388,0.85561,-1.189686,-1.1412674,2.5040183,-1.8450423,-1.0950757,0.24752744,-0.33330414,2.1391864,1.5125713,-0.13857642,-4.0087457,0.018008884,1.6499074,1.8845263,0.4559612,2.128423,0.099776685,1.0239366,-1.4081106,1.4375206,2.7682042,-0.5605601,-0.7805328,-1.2526802,-0.5419143,-2.256284,0.37185258,1.9370934,-1.4266273,-1.4511547,-3.1395988,0.5413304,0.14389087,-0.11024866,1.7768993,-1.0010825,2.8118632,-0.18430717,0.76095116,0.03607794,0.8219712,0.4307219,-2.2720993,-1.8498085,-0.99395114,-0.5502567,1.5521835,-1.0449828,-1.4768293,0.6148282,-0.9707918,-0.063369624,0.2682685,1.7459534,-0.4634563,-1.717637,0.15545428,-2.0599155,1.327673,0.4793156,-3.4394991,-0.43529823,0.91146076,-0.14939174,0.19065863,-1.3886671,-0.58261913,-2.5752182,2.8717535,0.29615426,-4.1214323,1.5835979,0.049018897,-0.63496745,1.8231916,1.2735163,-1.4958333,1.6745579,0.9528381,3.4757135,-0.09949581,-2.74924,-0.88136035,0.37983808,-1.6780628,2.5624578,-0.9185943,1.067786,-2.0190754,-0.84068936,0.83874273,2.0963602,2.3727705,-0.12196376,2.3671734,-2.980664,0.25346884,2.0034153,1.8319516,1.8255926,-1.4703261,1.2300125,-0.02946233,-0.4725796,0.018895006,0.09091923,0.82137346,0.37820348,-0.9707411,1.6400594,-3.2781227,-0.16121861,-0.18460199,2.082235,0.5846911,-1.8441752,-4.9775176,0.008092389,0.117670536,-2.1502116,1.781386,0.5867428,-0.03428853,0.5038482,0.6039398,4.5712514,3.226963,2.773864,1.5255468,-0.48283842,-1.3719149,1.6732329,-2.6880238,-0.23602235,1.4986452,-0.9446608,0.5988809,-1.8799103,0.9318035,0.24143827,2.5484838,-1.8199668,-1.0090683,1.5499558,2.0098534,0.3651979,1.2380563,0.8644295,2.1142464,-1.0411416,-0.68581146,0.8086002,-0.7884476,0.33514047,-0.27137437,-0.15952215,0.12095352,-0.75837713,-0.7321898,0.9882019,0.25783196,-1.5937264,-2.9460106,0.23494604
Sc3_B,-1.7194176,-0.25306034,-1.5667763,-0.09713532,4.7739067,-0.2939767,0.93032765,4.0056124,-0.3843364,-0.73560226,6.493347,1.4984196,-3.9104998,1.1330503,1.542124,1.6036654,1.2032045,0.35450858,-1.2779071,-2.0208855,1.392342,-0.110754564,-0.930702,-0.14552578,-0.0714973,-1.4959056,-2.9273272,-1.582964,-0.22042046,1.5882813,0.54038024,-0.8504661,-0.42788762,-2.8460214,-2.4487793,-0.65599126,-0.46708727,1.6256033,1.3107388,0.21198757,0.8872286,0.20050842,-0.5225508,0.06294479,-1.4430965,2.49623,0.034144014,-1.5845889,-0.2554647,1.0951622,-0.85571384,2.3033566,-0.3625957,-4.1187224,-0.35140908,0.17308392,0.033822674,1.5881922,1.0691853,-1.402153,0.06890924,-0.9958864,0.41326767,-1.5777289,1.7734765,2.5447133,-2.908645,-3.4042966,1.4976045,1.6073598,-0.81159085,-0.5043279,-2.443714,-0.18987684,-0.52100885,1.3968507,-3.5600991,2.2888613,-2.6322799,-0.1504109,-4.5537877,0.1743966,0.75697243,0.16587627,2.9441097,0.76642233,-1.8203626,-2.6352048,0.003805592,-0.55469155,-1.2471088,0.779528,1.7574676,-3.7499456,-0.07379623,-2.2034137,1.4048898,-0.99276984,1.136594,1.4875383,2.0618389,1.0772388,2.6886744,3.7372057,-0.20145689,3.8841166,0.83117265,-2.750642,-0.21231148,-2.217063,1.5614582,1.0705673,-1.7620503,1.2102686,0.87701356,0.21739528,-0.73359185,-0.26841474,-0.14029777,-1.1075586,-1.5679411,-2.1398382,1.2413951,1.6251135,-1.5929581,-3.732199,0.6687446,-3.3376198,3.9590328,-1.1281961,-3.5951154,0.39175728,4.2888756,-0.8542794,-0.3428388,0.85561,-1.189686,-1.1412674,2.5040183,-1.8450423,-1.0950757,0.24752744,-0.33330414,2.1391864,1.5125713,-0.13857642,-4.0087457,0.018008884,1.6499074,1.8845263,0.4559612,2.128423,0.099776685,1.0239366,-1.4081106,1.4375206,2.7682042,-0.5605601,-0.7805328,-1.2526802,-0.5419143,-2.256284,0.37185258,1.9370934,-1.4266273,-1.4511547,-3.1395988,0.5413304,0.14389087,-0.11024866,1.7768993,-1.0010825,2.8118632,-0.18430717,0.76095116,0.03607794,0.8219712,0.4307219,-2.2720993,-1.8498085,-0.99395114,-0.5502567,1.5521835,-1.0449828,-1.4768293,0.6148282,-0.9707918,-0.063369624,0.2682685,1.7459534,-0.4634563,-1.717637,0.15545428,-2.0599155,1.327673,0.4793156,-3.4394991,-0.43529823,0.91146076,-0.14939174,0.19065863,-1.3886671,-0.58261913,-2.5752182,2.8717535,0.29615426,-4.1214323,1.5835979,0.049018897,-0.63496745,1.8231916,1.2735163,-1.4958333,1.6745579,0.9528381,3.4757135,-0.09949581,-2.74924,-0.88136035,0.37983808,-1.6780628,2.5624578,-0.9185943,1.067786,-2.0190754,-0.84068936,0.83874273,2.0963602,2.3727705,-0.12196376,2.3671734,-2.980664,0.25346884,2.0034153,1.8319516,1.8255926,-1.4703261,1.2300125,-0.02946233,-0.4725796,0.018895006,0.09091923,0.82137346,0.37820348,-0.9707411,1.6400594,-3.2781227,-0.16121861,-0.18460199,2.082235,0.5846911,-1.8441752,-4.9775176,0.008092389,0.117670536,-2.1502116,1.781386,0.5867428,-0.03428853,0.5038482,0.6039398,4.5712514,3.226963,2.773864,1.5255468,-0.48283842,-1.3719149,1.6732329,-2.6880238,-0.23602235,1.4986452,-0.9446608,0.5988809,-1.8799103,0.9318035,0.24143827,2.5484838,-1.8199668,-1.0090683,1.5499558,2.0098534,0.3651979,1.2380563,0.8644295,2.1142464,-1.0411416,-0.68581146,0.8086002,-0.7884476,0.33514047,-0.27137437,-0.15952215,0.12095352,-0.75837713,-0.7321898,0.9882019,0.25783196,-1.5937264,-2.9460106,0.23494604
Sc3_B,-1.7194176,-0.25306034,-1.5667763,-0.09713532,4.7739067,-0.2939767,0.93032765,4.0056124,-0.3843364,-0.73560226,6.493347,1.4984196,-3.9104998,1.1330503,1.542124,1.6036654,1.2032045,0.35450858,-1.2779071,-2.0208855,1.392342,-0.110754564,-0.930702,-0.14552578,-0.0714973,-1.4959056,-2.9273272,-1.582964,-0.22042046,1.5882813,0.54038024,-0.8504661,-0.42788762,-2.8460214,-2.4487793,-0.65599126,-0.46708727,1.6256033,1.3107388,0.21198757,0.8872286,0.20050842,-0.5225508,0.06294479,-1.4430965,2.49623,0.034144014,-1.5845889,-0.2554647,1.0951622,-0.85571384,2.3033566,-0.3625957,-4.1187224,-0.35140908,0.17308392,0.033822674,1.5881922,1.0691853,-1.402153,0.06890924,-0.9958864,0.41326767,-1.5777289,1.7734765,2.5447133,-2.908645,-3.4042966,1.4976045,1.6073598,-0.81159085,-0.5043279,-2.443714,-0.18987684,-0.52100885,1.3968507,-3.5600991,2.2888613,-2.6322799,-0.1504109,-4.5537877,0.1743966,0.75697243,0.16587627,2.9441097,0.76642233,-1.8203626,-2.6352048,0.003805592,-0.55469155,-1.2471088,0.779528,1.7574676,-3.7499456,-0.07379623,-2.2034137,1.4048898,-0.99276984,1.136594,1.4875383,2.0618389,1.0772388,2.6886744,3.7372057,-0.20145689,3.8841166,0.83117265,-2.750642,-0.21231148,-2.217063,1.5614582,1.0705673,-1.7620503,1.2102686,0.87701356,0.21739528,-0.73359185,-0.26841474,-0.14029777,-1.1075586,-1.5679411,-2.1398382,1.2413951,1.6251135,-1.5929581,-3.732199,0.6687446,-3.3376198,3.9590328,-1.1281961,-3.5951154,0.39175728,4.2888756,-0.8542794,-0.3428388,0.85561,-1.189686,-1.1412674,2.5040183,-1.8450423,-1.0950757,0.24752744,-0.33330414,2.1391864,1.5125713,-0.13857642,-4.0087457,0.018008884,1.6499074,1.8845263,0.4559612,2.128423,0.099776685,1.0239366,-1.4081106,1.4375206,2.7682042,-0.5605601,-0.7805328,-1.2526802,-0.5419143,-2.256284,0.37185258,1.9370934,-1.4266273,-1.4511547,-3.1395988,0.5413304,0.14389087,-0.11024866,1.7768993,-1.0010825,2.8118632,-0.18430717,0.76095116,0.03607794,0.8219712,0.4307219,-2.2720993,-1.8498085,-0.99395114,-0.5502567,1.5521835,-1.0449828,-1.4768293,0.6148282,-0.9707918,-0.063369624,0.2682685,1.7459534,-0.4634563,-1.717637,0.15545428,-2.0599155,1.327673,0.4793156,-3.4394991,-0.43529823,0.91146076,-0.14939174,0.19065863,-1.3886671,-0.58261913,-2.5752182,2.8717535,0.29615426,-4.1214323,1.5835979,0.049018897,-0.63496745,1.8231916,1.2735163,-1.4958333,1.6745579,0.9528381,3.4757135,-0.09949581,-2.74924,-0.88136035,0.37983808,-1.6780628,2.5624578,-0.9185943,1.067786,-2.0190754,-0.84068936,0.83874273,2.0963602,2.3727705,-0.12196376,2.3671734,-2.980664,0.25346884,2.0034153,1.8319516,1.8255926,-1.4703261,1.2300125,-0.02946233,-0.4725796,0.018895006,0.09091923,0.82137346,0.37820348,-0.9707411,1.6400594,-3.2781227,-0.16121861,-0.18460199,2.082235,0.5846911,-1.8441752,-4.9775176,0.008092389,0.117670536,-2.1502116,1.781386,0.5867428,-0.03428853,0.5038482,0.6039398,4.5712514,3.226963,2.773864,1.5255468,-0.48283842,-1.3719149,1.6732329,-2.6880238,-0.23602235,1.4986452,-0.9446608,0.5988809,-1.8799103,0.9318035,0.24143827,2.5484838,-1.8199668,-1.0090683,1.5499558,2.0098534,0.3651979,1.2380563,0.8644295,2.1142464,-1.0411416,-0.68581146,0.8086002,-0.7884476,0.33514047,-0.27137437,-0.15952215,0.12095352,-0.75837713,-0.7321898,0.9882019,0.25783196,-1.5937264,-2.9460106,0.23494604
Sc3_B,-1.7194176,-0.25306034,-1.5667763,-0.09713532,4.7739067,-0.2939767,0.93032765,4.0056124,-0.3843364,-0.73560226,6.493347,1.4984196,-3.9104998,1.1330503,1.542124,1.6036654,1.2032045,0.35450858,-1.2779071,-2.0208855,1.392342,-0.110754564,-0.930702,-0.14552578,-0.0714973,-1.4959056,-2.9273272,-1.582964,-0.22042046,1.5882813,0.54038024,-0.8504661,-0.42788762,-2.8460214,-2.4487793,-0.65599126,-0.46708727,1.6256033,1.3107388,0.21198757,0.8872286,0.20050842,-0.5225508,0.06294479,-1.4430965,2.49623,0.034144014,-1.5845889,-0.2554647,1.0951622,-0.85571384,2.3033566,-0.3625957,-4.1187224,-0.35140908,0.17308392,0.033822674,1.5881922,1.0691853,-1.402153,0.06890924,-0.9958864,0.41326767,-1.5777289,1.7734765,2.5447133,-2.908645,-3.4042966,1.4976045,1.6073598,-0.81159085,-0.5043279,-2.443714,-0.18987684,-0.52100885,1.3968507,-3.5600991,2.2888613,-2.6322799,-0.1504109,-4.5537877,0.1743966,0.75697243,0.16587627,2.9441097,0.76642233,-1.8203626,-2.6352048,0.003805592,-0.55469155,-1.2471088,0.779528,1.7574676,-3.7499456,-0.07379623,-2.2034137,1.4048898,-0.99276984,1.136594,1.4875383,2.0618389,1.0772388,2.6886744,3.7372057,-0.20145689,3.8841166,0.83117265,-2.750642,-0.21231148,-2.217063,1.5614582,1.0705673,-1.7620503,1.2102686,0.87701356,0.21739528,-0.73359185,-0.26841474,-0.14029777,-1.1075586,-1.5679411,-2.1398382,1.2413951,1.6251135,-1.5929581,-3.732199,0.6687446,-3.3376198,3.9590328,-1.1281961,-3.5951154,0.39175728,4.2888756,-0.8542794,-0.3428388,0.85561,-1.189686,-1.1412674,2.5040183,-1.8450423,-1.0950757,0.24752744,-0.33330414,2.1391864,1.5125713,-0.13857642,-4.0087457,0.018008884,1.6499074,1.8845263,0.4559612,2.128423,0.099776685,1.0239366,-1.4081106,1.4375206,2.7682042,-0.5605601,-0.7805328,-1.2526802,-0.5419143,-2.256284,0.37185258,1.9370934,-1.4266273,-1.4511547,-3.1395988,0.5413304,0.14389087,-0.11024866,1.7768993,-1.0010825,2.8118632,-0.18430717,0.76095116,0.03607794,0.8219712,0.4307219,-2.2720993,-1.8498085,-0.99395114,-0.5502567,1.5521835,-1.0449828,-1.4768293,0.6148282,-0.9707918,-0.063369624,0.2682685,1.7459534,-0.4634563,-1.717637,0.15545428,-2.0599155,1.327673,0.4793156,-3.4394991,-0.43529823,0.91146076,-0.14939174,0.19065863,-1.3886671,-0.58261913,-2.5752182,2.8717535,0.29615426,-4.1214323,1.5835979,0.049018897,-0.63496745,1.8231916,1.2735163,-1.4958333,1.6745579,0.9528381,3.4757135,-0.09949581,-2.74924,-0.88136035,0.37983808,-1.6780628,2.5624578,-0.9185943,1.067786,-2.0190754,-0.84068936,0.83874273,2.0963602,2.3727705,-0.12196376,2.3671734,-2.980664,0.25346884,2.0034153,1.8319516,1.8255926,-1.4703261,1.2300125,-0.02946233,-0.4725796,0.018895006,0.09091923,0.82137346,0.37820348,-0.9707411,1.6400594,-3.2781227,-0.16121861,-0.18460199,2.082235,0.5846911,-1.8441752,-4.9775176,0.008092389,0.117670536,-2.1502116,1.781386,0.5867428,-0.03428853,0.5038482,0.6039398,4.5712514,3.226963,2.773864,1.5255468,-0.48283842,-1.3719149,1.6732329,-2.6880238,-0.23602235,1.4986452,-0.9446608,0.5988809,-1.8799103,0.9318035,0.24143827,2.5484838,-1.8199668,-1.0090683,1.5499558,2.0098534,0.3651979,1.2380563,0.8644295,2.1142464,-1.0411416,-0.68581146,0.8086002,-0.7884476,0.33514047,-0.27137437,-0.15952215,0.12095352,-0.75837713,-0.7321898,0.9882019,0.25783196,-1.5937264,-2.9460106,0.23494604
Sc3_B,-1.7194176,-0.25306034,-1.5667763,-0.09713532,4.7739067,-0.2939767,0.93032765,4.0056124,-0.3843364,-0.73560226,6.493347,1.4984196,-3.9104998,1.1330503,1.542124,1.6036654,1.2032045,0.35450858,-1.2779071,-2.0208855,1.392342,-0.110754564,-0.930702,-0.14552578,-0.0714973,-1.4959056,-2.9273272,-1.582964,-0.22042046,1.5882813,0.54038024,-0.8504661,-0.42788762,-2.8460214,-2.4487793,-0.65599126,-0.46708727,1.6256033,1.3107388,0.21198757,0.8872286,0.20050842,-0.5225508,0.06294479,-1.4430965,2.49623,0.034144014,-1.5845889,-0.2554647,1.0951622,-0.85571384,2.3033566,-0.3625957,-4.1187224,-0.35140908,0.17308392,0.033822674,1.5881922,1.0691853,-1.402153,0.06890924,-0.9958864,0.41326767,-1.5777289,1.7734765,2.5447133,-2.908645,-3.4042966,1.4976045,1.6073598,-0.81159085,-0.5043279,-2.443714,-0.18987684,-0.52100885,1.3968507,-3.5600991,2.2888613,-2.6322799,-0.1504109,-4.5537877,0.1743966,0.75697243,0.16587627,2.9441097,0.76642233,-1.8203626,-2.6352048,0.003805592,-0.55469155,-1.2471088,0.779528,1.7574676,-3.7499456,-0.07379623,-2.2034137,1.4048898,-0.99276984,1.136594,1.4875383,2.0618389,1.0772388,2.6886744,3.7372057,-0.20145689,3.8841166,0.83117265,-2.750642,-0.21231148,-2.217063,1.5614582,1.0705673,-1.7620503,1.2102686,0.87701356,0.21739528,-0.73359185,-0.26841474,-0.14029777,-1.1075586,-1.5679411,-2.1398382,1.2413951,1.6251135,-1.5929581,-3.732199,0.6687446,-3.3376198,3.9590328,-1.1281961,-3.5951154,0.39175728,4.2888756,-0.8542794,-0.3428388,0.85561,-1.189686,-1.1412674,2.5040183,-1.8450423,-1.0950757,0.24752744,-0.33330414,2.1391864,1.5125713,-0.13857642,-4.0087457,0.018008884,1.6499074,1.8845263,0.4559612,2.128423,0.099776685,1.0239366,-1.4081106,1.4375206,2.7682042,-0.5605601,-0.7805328,-1.2526802,-0.5419143,-2.256284,0.37185258,1.9370934,-1.4266273,-1.4511547,-3.1395988,0.5413304,0.14389087,-0.11024866,1.7768993,-1.0010825,2.8118632,-0.18430717,0.76095116,0.03607794,0.8219712,0.4307219,-2.2720993,-1.8498085,-0.99395114,-0.5502567,1.5521835,-1.0449828,-1.4768293,0.6148282,-0.9707918,-0.063369624,0.2682685,1.7459534,-0.4634563,-1.717637,0.15545428,-2.0599155,1.327673,0.4793156,-3.4394991,-0.43529823,0.91146076,-0.14939174,0.19065863,-1.3886671,-0.58261913,-2.5752182,2.8717535,0.29615426,-4.1214323,1.5835979,0.049018897,-0.63496745,1.8231916,1.2735163,-1.4958333,1.6745579,0.9528381,3.4757135,-0.09949581,-2.74924,-0.88136035,0.37983808,-1.6780628,2.5624578,-0.9185943,1.067786,-2.0190754,-0.84068936,0.83874273,2.0963602,2.3727705,-0.12196376,2.3671734,-2.980664,0.25346884,2.0034153,1.8319516,1.8255926,-1.4703261,1.2300125,-0.02946233,-0.4725796,0.018895006,0.09091923,0.82137346,0.37820348,-0.9707411,1.6400594,-3.2781227,-0.16121861,-0.18460199,2.082235,0.5846911,-1.8441752,-4.9775176,0.008092389,0.117670536,-2.1502116,1.781386,0.5867428,-0.03428853,0.5038482,0.6039398,4.5712514,3.226963,2.773864,1.5255468,-0.48283842,-1.3719149,1.6732329,-2.6880238,-0.23602235,1.4986452,-0.9446608,0.5988809,-1.8799103,0.9318035,0.24143827,2.5484838,-1.8199668,-1.0090683,1.5499558,2.0098534,0.3651979,1.2380563,0.8644295,2.1142464,-1.0411416,-0.68581146,0.8086002,-0.7884476,0.33514047,-0.27137437,-0.15952215,0.12095352,-0.75837713,-0.7321898,0.9882019,0.25783196,-1.5937264,-2.9460106,0.23494604
Sc3_B,-1.7194176,-0.25306034,-1.5667763,-0.09713532,4.7739067,-0.2939767,0.93032765,4.0056124,-0.3843364,-0.73560226,6.493347,1.4984196,-3.9104998,1.1330503,1.542124,1.6036654,1.2032045,0.35450858,-1.2779071,-2.0208855,1.392342,-0.110754564,-0.930702,-0.14552578,-0.0714973,-1.4959056,-2.9273272,-1.582964,-0.22042046,1.5882813,0.54038024,-0.8504661,-0.42788762,-2.8460214,-2.4487793,-0.65599126,-0.46708727,1.6256033,1.3107388,0.21198757,0.8872286,0.20050842,-0.5225508,0.06294479,-1.4430965,2.49623,0.034144014,-1.5845889,-0.2554647,1.0951622,-0.85571384,2.3033566,-0.3625957,-4.1187224,-0.35140908,0.17308392,0.033822674,1.5881922,1.0691853,-1.402153,0.06890924,-0.9958864,0.41326767,-1.5777289,1.7734765,2.5447133,-2.908645,-3.4042966,1.4976045,1.6073598,-0.81159085,-0.5043279,-2.443714,-0.18987684,-0.52100885,1.3968507,-3.5600991,2.2888613,-2.6322799,-0.1504109,-4.5537877,0.1743966,0.75697243,0.16587627,2.9441097,0.76642233,-1.8203626,-2.6352048,0.003805592,-0.55469155,-1.2471088,0.779528,1.7574676,-3.7499456,-0.07379623,-2.2034137,1.4048898,-0.99276984,1.136594,1.4875383,2.0618389,1.0772388,2.6886744,3.7372057,-0.20145689,3.8841166,0.83117265,-2.750642,-0.21231148,-2.217063,1.5614582,1.0705673,-1.7620503,1.2102686,0.87701356,0.21739528,-0.73359185,-0.26841474,-0.14029777,-1.1075586,-1.5679411,-2.1398382,1.2413951,1.6251135,-1.5929581,-3.732199,0.6687446,-3.3376198,3.9590328,-1.1281961,-3.5951154,0.39175728,4.2888756,-0.8542794,-0.3428388,0.85561,-1.189686,-1.1412674,2.5040183,-1.8450423,-1.0950757,0.24752744,-0.33330414,2.1391864,1.5125713,-0.13857642,-4.0087457,0.018008884,1.6499074,1.8845263,0.4559612,2.128423,0.099776685,1.0239366,-1.4081106,1.4375206,2.7682042,-0.5605601,-0.7805328,-1.2526802,-0.5419143,-2.256284,0.37185258,1.9370934,-1.4266273,-1.4511547,-3.1395988,0.5413304,0.14389087,-0.11024866,1.7768993,-1.0010825,2.8118632,-0.18430717,0.76095116,0.03607794,0.8219712,0.4307219,-2.2720993,-1.8498085,-0.99395114,-0.5502567,1.5521835,-1.0449828,-1.4768293,0.6148282,-0.9707918,-0.063369624,0.2682685,1.7459534,-0.4634563,-1.717637,0.15545428,-2.0599155,1.327673,0.4793156,-3.4394991,-0.43529823,0.91146076,-0.14939174,0.19065863,-1.3886671,-0.58261913,-2.5752182,2.8717535,0.29615426,-4.1214323,1.5835979,0.049018897,-0.63496745,1.8231916,1.2735163,-1.4958333,1.6745579,0.9528381,3.4757135,-0.09949581,-2.74924,-0.88136035,0.37983808,-1.6780628,2.5624578,-0.9185943,1.067786,-2.0190754,-0.84068936,0.83874273,2.0963602,2.3727705,-0.12196376,2.3671734,-2.980664,0.25346884,2.0034153,1.8319516,1.8255926,-1.4703261,1.2300125,-0.02946233,-0.4725796,0.018895006,0.09091923,0.82137346,0.37820348,-0.9707411,1.6400594,-3.2781227,-0.16121861,-0.18460199,2.082235,0.5846911,-1.8441752,-4.9775176,0.008092389,0.117670536,-2.1502116,1.781386,0.5867428,-0.03428853,0.5038482,0.6039398,4.5712514,3.226963,2.773864,1.5255468,-0.48283842,-1.3719149,1.6732329,-2.6880238,-0.23602235,1.4986452,-0.9446608,0.5988809,-1.8799103,0.9318035,0.24143827,2.5484838,-1.8199668,-1.0090683,1.5499558,2.0098534,0.3651979,1.2380563,0.8644295,2.1142464,-1.0411416,-0.68581146,0.8086002,-0.7884476,0.33514047,-0.27137437,-0.15952215,0.12095352,-0.75837713,-0.7321898,0.9882019,0.25783196,-1.5937264,-2.9460106,0.23494604
Sc3_B,-1.7194176,-0.25306034,-1.5667763,-0.09713532,4.7739067,-0.2939767,0.93032765,4.0056124,-0.3843364,-0.73560226,6.493347,1.4984196,-3.9104998,1.1330503,1.542124,1.6036654,1.2032045,0.35450858,-1.2779071,-2.0208855,1.392342,-0.110754564,-0.930702,-0.14552578,-0.0714973,-1.4959056,-2.9273272,-1.582964,-0.22042046,1.5882813,0.54038024,-0.8504661,-0.42788762,-2.8460214,-2.4487793,-0.65599126,-0.46708727,1.6256033,1.3107388,0.21198757,0.8872286,0.20050842,-0.5225508,0.06294479,-1.4430965,2.49623,0.034144014,-1.5845889,-0.2554647,1.0951622,-0.85571384,2.3033566,-0.3625957,-4.1187224,-0.35140908,0.17308392,0.033822674,1.5881922,1.0691853,-1.402153,0.06890924,-0.9958864,0.41326767,-1.5777289,1.7734765,2.5447133,-2.908645,-3.4042966,1.4976045,1.6073598,-0.81159085,-0.5043279,-2.443714,-0.18987684,-0.52100885,1.3968507,-3.5600991,2.2888613,-2.6322799,-0.1504109,-4.5537877,0.1743966,0.75697243,0.16587627,2.9441097,0.76642233,-1.8203626,-2.6352048,0.003805592,-0.55469155,-1.2471088,0.779528,1.7574676,-3.7499456,-0.07379623,-2.2034137,1.4048898,-0.99276984,1.136594,1.4875383,2.0618389,1.0772388,2.6886744,3.7372057,-0.20145689,3.8841166,0.83117265,-2.750642,-0.21231148,-2.217063,1.5614582,1.0705673,-1.7620503,1.2102686,0.87701356,0.21739528,-0.73359185,-0.26841474,-0.14029777,-1.1075586,-1.5679411,-2.1398382,1.2413951,1.6251135,-1.5929581,-3.732199,0.6687446,-3.3376198,3.9590328,-1.1281961,-3.5951154,0.39175728,4.2888756,-0.8542794,-0.3428388,0.85561,-1.189686,-1.1412674,2.5040183,-1.8450423,-1.0950757,0.24752744,-0.33330414,2.1391864,1.5125713,-0.13857642,-4.0087457,0.018008884,1.6499074,1.8845263,0.4559612,2.128423,0.099776685,1.0239366,-1.4081106,1.4375206,2.7682042,-0.5605601,-0.7805328,-1.2526802,-0.5419143,-2.256284,0.37185258,1.9370934,-1.4266273,-1.4511547,-3.1395988,0.5413304,0.14389087,-0.11024866,1.7768993,-1.0010825,2.8118632,-0.18430717,0.76095116,0.03607794,0.8219712,0.4307219,-2.2720993,-1.8498085,-0.99395114,-0.5502567,1.5521835,-1.0449828,-1.4768293,0.6148282,-0.9707918,-0.063369624,0.2682685,1.7459534,-0.4634563,-1.717637,0.15545428,-2.0599155,1.327673,0.4793156,-3.4394991,-0.43529823,0.91146076,-0.14939174,0.19065863,-1.3886671,-0.58261913,-2.5752182,2.8717535,0.29615426,-4.1214323,1.5835979,0.049018897,-0.63496745,1.8231916,1.2735163,-1.4958333,1.6745579,0.9528381,3.4757135,-0.09949581,-2.74924,-0.88136035,0.37983808,-1.6780628,2.5624578,-0.9185943,1.067786,-2.0190754,-0.84068936,0.83874273,2.0963602,2.3727705,-0.12196376,2.3671734,-2.980664,0.25346884,2.0034153,1.8319516,1.8255926,-1.4703261,1.2300125,-0.02946233,-0.4725796,0.018895006,0.09091923,0.82137346,0.37820348,-0.9707411,1.6400594,-3.2781227,-0.16121861,-0.18460199,2.082235,0.5846911,-1.8441752,-4.9775176,0.008092389,0.117670536,-2.1502116,1.781386,0.5867428,-0.03428853,0.5038482,0.6039398,4.5712514,3.226963,2.773864,1.5255468,-0.48283842,-1.3719149,1.6732329,-2.6880238,-0.23602235,1.4986452,-0.9446608,0.5988809,-1.8799103,0.9318035,0.24143827,2.5484838,-1.8199668,-1.0090683,1.5499558,2.0098534,0.3651979,1.2380563,0.8644295,2.1142464,-1.0411416,-0.68581146,0.8086002,-0.7884476,0.33514047,-0.27137437,-0.15952215,0.12095352,-0.75837713,-0.7321898,0.9882019,0.25783196,-1.5937264,-2.9460106,0.23494604
Sc3_B,-1.7194176,-0.25306034,-1.5667763,-0.09713532,4.7739067,-0.2939767,0.93032765,4.0056124,-0.3843364,-0.73560226,6.493347,1.4984196,-3.9104998,1.1330503,1.542124,1.6036654,1.2032045,0.35450858,-1.2779071,-2.0208855,1.392342,-0.110754564,-0.930702,-0.14552578,-0.0714973,-1.4959056,-2.9273272,-1.582964,-0.22042046,1.5882813,0.54038024,-0.8504661,-0.42788762,-2.8460214,-2.4487793,-0.65599126,-0.46708727,1.6256033,1.3107388,0.21198757,0.8872286,0.20050842,-0.5225508,0.06294479,-1.4430965,2.49623,0.034144014,-1.5845889,-0.2554647,1.0951622,-0.85571384,2.3033566,-0.3625957,-4.1187224,-0.35140908,0.17308392,0.033822674,1.5881922,1.0691853,-1.402153,0.06890924,-0.9958864,0.41326767,-1.5777289,1.7734765,2.5447133,-2.908645,-3.4042966,1.4976045,1.6073598,-0.81159085,-0.5043279,-2.443714,-0.18987684,-0.52100885,1.3968507,-3.5600991,2.2888613,-2.6322799,-0.1504109,-4.5537877,0.1743966,0.75697243,0.16587627,2.9441097,0.76642233,-1.8203626,-2.6352048,0.003805592,-0.55469155,-1.2471088,0.779528,1.7574676,-3.7499456,-0.07379623,-2.2034137,1.4048898,-0.99276984,1.136594,1.4875383,2.0618389,1.0772388,2.6886744,3.7372057,-0.20145689,3.8841166,0.83117265,-2.750642,-0.21231148,-2.217063,1.5614582,1.0705673,-1.7620503,1.2102686,0.87701356,0.21739528,-0.73359185,-0.26841474,-0.14029777,-1.1075586,-1.5679411,-2.1398382,1.2413951,1.6251135,-1.5929581,-3.732199,0.6687446,-3.3376198,3.9590328,-1.1281961,-3.5951154,0.39175728,4.2888756,-0.8542794,-0.3428388,0.85561,-1.189686,-1.1412674,2.5040183,-1.8450423,-1.0950757,0.24752744,-0.33330414,2.1391864,1.5125713,-0.13857642,-4.0087457,0.018008884,1.6499074,1.8845263,0.4559612,2.128423,0.099776685,1.0239366,-1.4081106,1.4375206,2.7682042,-0.5605601,-0.7805328,-1.2526802,-0.5419143,-2.256284,0.37185258,1.9370934,-1.4266273,-1.4511547,-3.1395988,0.5413304,0.14389087,-0.11024866,1.7768993,-1.0010825,2.8118632,-0.18430717,0.76095116,0.03607794,0.8219712,0.4307219,-2.2720993,-1.8498085,-0.99395114,-0.5502567,1.5521835,-1.0449828,-1.4768293,0.6148282,-0.9707918,-0.063369624,0.2682685,1.7459534,-0.4634563,-1.717637,0.15545428,-2.0599155,1.327673,0.4793156,-3.4394991,-0.43529823,0.91146076,-0.14939174,0.19065863,-1.3886671,-0.58261913,-2.5752182,2.8717535,0.29615426,-4.1214323,1.5835979,0.049018897,-0.63496745,1.8231916,1.2735163,-1.4958333,1.6745579,0.9528381,3.4757135,-0.09949581,-2.74924,-0.88136035,0.37983808,-1.6780628,2.5624578,-0.9185943,1.067786,-2.0190754,-0.84068936,0.83874273,2.0963602,2.3727705,-0.12196376,2.3671734,-2.980664,0.25346884,2.0034153,1.8319516,1.8255926,-1.4703261,1.2300125,-0.02946233,-0.4725796,0.018895006,0.09091923,0.82137346,0.37820348,-0.9707411,1.6400594,-3.2781227,-0.16121861,-0.18460199,2.082235,0.5846911,-1.8441752,-4.9775176,0.008092389,0.117670536,-2.1502116,1.781386,0.5867428,-0.03428853,0.5038482,0.6039398,4.5712514,3.226963,2.773864,1.5255468,-0.48283842,-1.3719149,1.6732329,-2.6880238,-0.23602235,1.4986452,-0.9446608,0.5988809,-1.8799103,0.9318035,0.24143827,2.5484838,-1.8199668,-1.0090683,1.5499558,2.0098534,0.3651979,1.2380563,0.8644295,2.1142464,-1.0411416,-0.68581146,0.8086002,-0.7884476,0.33514047,-0.27137437,-0.15952215,0.12095352,-0.75837713,-0.7321898,0.9882019,0.25783196,-1.5937264,-2.9460106,0.23494604
Sc3_B,-1.7194176,-0.25306034,-1.5667763,-0.09713532,4.7739067,-0.2939767,0.93032765,4.0056124,-0.3843364,-0.73560226,6.493347,1.4984196,-3.9104998,1.1330503,1.542124,1.6036654,1.2032045,0.35450858,-1.2779071,-2.0208855,1.392342,-0.110754564,-0.930702,-0.14552578,-0.0714973,-1.4959056,-2.9273272,-1.582964,-0.22042046,1.5882813,0.54038024,-0.8504661,-0.42788762,-2.8460214,-2.4487793,-0.65599126,-0.46708727,1.6256033,1.3107388,0.21198757,0.8872286,0.20050842,-0.5225508,0.06294479,-1.4430965,2.49623,0.034144014,-1.5845889,-0.2554647,1.0951622,-0.85571384,2.3033566,-0.3625957,-4.1187224,-0.35140908,0.17308392,0.033822674,1.5881922,1.0691853,-1.402153,0.06890924,-0.9958864,0.41326767,-1.5777289,1.7734765,2.5447133,-2.908645,-3.4042966,1.4976045,1.6073598,-0.81159085,-0.5043279,-2.443714,-0.18987684,-0.52100885,1.3968507,-3.5600991,2.2888613,-2.6322799,-0.1504109,-4.5537877,0.1743966,0.75697243,0.16587627,2.9441097,0.76642233,-1.8203626,-2.6352048,0.003805592,-0.55469155,-1.2471088,0.779528,1.7574676,-3.7499456,-0.07379623,-2.2034137,1.4048898,-0.99276984,1.136594,1.4875383,2.0618389,1.0772388,2.6886744,3.7372057,-0.20145689,3.8841166,0.83117265,-2.750642,-0.21231148,-2.217063,1.5614582,1.0705673,-1.7620503,1.2102686,0.87701356,0.21739528,-0.73359185,-0.26841474,-0.14029777,-1.1075586,-1.5679411,-2.1398382,1.2413951,1.6251135,-1.5929581,-3.732199,0.6687446,-3.3376198,3.9590328,-1.1281961,-3.5951154,0.39175728,4.2888756,-0.8542794,-0.3428388,0.85561,-1.189686,-1.1412674,2.5040183,-1.8450423,-1.0950757,0.24752744,-0.33330414,2.1391864,1.5125713,-0.13857642,-4.0087457,0.018008884,1.6499074,1.8845263,0.4559612,2.128423,0.099776685,1.0239366,-1.4081106,1.4375206,2.7682042,-0.5605601,-0.7805328,-1.2526802,-0.5419143,-2.256284,0.37185258,1.9370934,-1.4266273,-1.4511547,-3.1395988,0.5413304,0.14389087,-0.11024866,1.7768993,-1.0010825,2.8118632,-0.18430717,0.76095116,0.03607794,0.8219712,0.4307219,-2.2720993,-1.8498085,-0.99395114,-0.5502567,1.5521835,-1.0449828,-1.4768293,0.6148282,-0.9707918,-0.063369624,0.2682685,1.7459534,-0.4634563,-1.717637,0.15545428,-2.0599155,1.327673,0.4793156,-3.4394991,-0.43529823,0.91146076,-0.14939174,0.19065863,-1.3886671,-0.58261913,-2.5752182,2.8717535,0.29615426,-4.1214323,1.5835979,0.049018897,-0.63496745,1.8231916,1.2735163,-1.4958333,1.6745579,0.9528381,3.4757135,-0.09949581,-2.74924,-0.88136035,0.37983808,-1.6780628,2.5624578,-0.9185943,1.067786,-2.0190754,-0.84068936,0.83874273,2.0963602,2.3727705,-0.12196376,2.3671734,-2.980664,0.25346884,2.0034153,1.8319516,1.8255926,-1.4703261,1.2300125,-0.02946233,-0.4725796,0.018895006,0.09091923,0.82137346,0.37820348,-0.9707411,1.6400594,-3.2781227,-0.16121861,-0.18460199,2.082235,0.5846911,-1.8441752,-4.9775176,0.008092389,0.117670536,-2.1502116,1.781386,0.5867428,-0.03428853,0.5038482,0.6039398,4.5712514,3.226963,2.773864,1.5255468,-0.48283842,-1.3719149,1.6732329,-2.6880238,-0.23602235,1.4986452,-0.9446608,0.5988809,-1.8799103,0.9318035,0.24143827,2.5484838,-1.8199668,-1.0090683,1.5499558,2.0098534,0.3651979,1.2380563,0.8644295,2.1142464,-1.0411416,-0.68581146,0.8086002,-0.7884476,0.33514047,-0.27137437,-0.15952215,0.12095352,-0.75837713,-0.7321898,0.9882019,0.25783196,-1.5937264,-2.9460106,0.23494604
