Author,WE1,WE2,WE3,WE4,WE5,WE6,WE7,WE8,WE9,WE10,WE11,WE12,WE13,WE14,WE15,WE16,WE17,WE18,WE19,WE20,WE21,WE22,WE23,WE24,WE25,WE26,WE27,WE28,WE29,WE30,WE31,WE32,WE33,WE34,WE35,WE36,WE37,WE38,WE39,WE40,WE41,WE42,WE43,WE44,WE45,WE46,WE47,WE48,WE49,WE50,WE51,WE52,WE53,WE54,WE55,WE56,WE57,WE58,WE59,WE60,WE61,WE62,WE63,WE64,WE65,WE66,WE67,WE68,WE69,WE70,WE71,WE72,WE73,WE74,WE75,WE76,WE77,WE78,WE79,WE80,WE81,WE82,WE83,WE84,WE85,WE86,WE87,WE88,WE89,WE90,WE91,WE92,WE93,WE94,WE95,WE96,WE97,WE98,WE99,WE100,WE101,WE102,WE103,WE104,WE105,WE106,WE107,WE108,WE109,WE110,WE111,WE112,WE113,WE114,WE115,WE116,WE117,WE118,WE119,WE120,WE121,WE122,WE123,WE124,WE125,WE126,WE127,WE128,WE129,WE130,WE131,WE132,WE133,WE134,WE135,WE136,WE137,WE138,WE139,WE140,WE141,WE142,WE143,WE144,WE145,WE146,WE147,WE148,WE149,WE150,WE151,WE152,WE153,WE154,WE155,WE156,WE157,WE158,WE159,WE160,WE161,WE162,WE163,WE164,WE165,WE166,WE167,WE168,WE169,WE170,WE171,WE172,WE173,WE174,WE175,WE176,WE177,WE178,WE179,WE180,WE181,WE182,WE183,WE184,WE185,WE186,WE187,WE188,WE189,WE190,WE191,WE192,WE193,WE194,WE195,WE196,WE197,WE198,WE199,WE200,WE201,WE202,WE203,WE204,WE205,WE206,WE207,WE208,WE209,WE210,WE211,WE212,WE213,WE214,WE215,WE216,WE217,WE218,WE219,WE220,WE221,WE222,WE223,WE224,WE225,WE226,WE227,WE228,WE229,WE230,WE231,WE232,WE233,WE234,WE235,WE236,WE237,WE238,WE239,WE240,WE241,WE242,WE243,WE244,WE245,WE246,WE247,WE248,WE249,WE250,WE251,WE252,WE253,WE254,WE255,WE256,WE257,WE258,WE259,WE260,WE261,WE262,WE263,WE264,WE265,WE266,WE267,WE268,WE269,WE270,WE271,WE272,WE273,WE274,WE275,WE276,WE277,WE278,WE279,WE280,WE281,WE282,WE283,WE284,WE285,WE286,WE287,WE288,WE289,WE290,WE291,WE292,WE293,WE294,WE295,WE296,WE297,WE298,WE299,WE300,WE301,WE302,WE303,WE304,WE305,WE306,WE307,WE308,WE309,WE310,WE311,WE312,WE313,WE314,WE315,WE316,WE317,WE318,WE319,WE320,WE321,WE322,WE323,WE324,WE325,WE326,WE327,WE328,WE329,WE330,WE331,WE332,WE333,WE334,WE335,WE336,WE337,WE338,WE339,WE340,WE341,WE342,WE343,WE344,WE345,WE346,WE347,WE348,WE349,WE350,WE351,WE352,WE353,WE354,WE355,WE356,WE357,WE358,WE359,WE360,WE361,WE362,WE363,WE364,WE365,WE366,WE367,WE368,WE369,WE370,WE371,WE372,WE373,WE374,WE375,WE376,WE377,WE378,WE379,WE380,WE381,WE382,WE383,WE384,WE385,WE386,WE387,WE388,WE389,WE390,WE391,WE392,WE393,WE394,WE395,WE396,WE397,WE398,WE399,WE400,WE401,WE402,WE403,WE404,WE405,WE406,WE407,WE408,WE409,WE410,WE411,WE412,WE413,WE414,WE415,WE416,WE417,WE418,WE419,WE420,WE421,WE422,WE423,WE424,WE425,WE426,WE427,WE428,WE429,WE430,WE431,WE432,WE433,WE434,WE435,WE436,WE437,WE438,WE439,WE440,WE441,WE442,WE443,WE444,WE445,WE446,WE447,WE448,WE449,WE450,WE451,WE452,WE453,WE454,WE455,WE456,WE457,WE458,WE459,WE460,WE461,WE462,WE463,WE464,WE465,WE466,WE467,WE468,WE469,WE470,WE471,WE472,WE473,WE474,WE475,WE476,WE477,WE478,WE479,WE480,WE481,WE482,WE483,WE484,WE485,WE486,WE487,WE488,WE489,WE490,WE491,WE492,WE493,WE494,WE495,WE496,WE497,WE498,WE499,WE500,WE501,WE502,WE503,WE504,WE505,WE506,WE507,WE508,WE509,WE510,WE511,WE512,WE513,WE514,WE515,WE516,WE517,WE518,WE519,WE520,WE521,WE522,WE523,WE524,WE525,WE526,WE527,WE528,WE529,WE530,WE531,WE532,WE533,WE534,WE535,WE536,WE537,WE538,WE539,WE540,WE541,WE542,WE543,WE544,WE545,WE546,WE547,WE548,WE549,WE550,WE551,WE552,WE553,WE554,WE555,WE556,WE557,WE558,WE559,WE560,WE561,WE562,WE563,WE564,WE565,WE566,WE567,WE568,WE569,WE570,WE571,WE572,WE573,WE574,WE575,WE576,WE577,WE578,WE579,WE580,WE581,WE582,WE583,WE584,WE585,WE586,WE587,WE588,WE589,WE590,WE591,WE592,WE593,WE594,WE595,WE596,WE597,WE598,WE599,WE600,WE601,WE602,WE603,WE604,WE605,WE606,WE607,WE608,WE609,WE610,WE611,WE612,WE613,WE614,WE615,WE616,WE617,WE618,WE619,WE620,WE621,WE622,WE623,WE624,WE625,WE626,WE627,WE628,WE629,WE630,WE631,WE632,WE633,WE634,WE635,WE636,WE637,WE638,WE639,WE640,WE641,WE642,WE643,WE644,WE645,WE646,WE647,WE648,WE649,WE650,WE651,WE652,WE653,WE654,WE655,WE656,WE657,WE658,WE659,WE660,WE661,WE662,WE663,WE664,WE665,WE666,WE667,WE668,WE669,WE670,WE671,WE672,WE673,WE674,WE675,WE676,WE677,WE678,WE679,WE680,WE681,WE682,WE683,WE684,WE685,WE686,WE687,WE688,WE689,WE690,WE691,WE692,WE693,WE694,WE695,WE696,WE697,WE698,WE699,WE700,WE701,WE702,WE703,WE704,WE705,WE706,WE707,WE708,WE709,WE710,WE711,WE712,WE713,WE714,WE715,WE716,WE717,WE718,WE719,WE720,WE721,WE722,WE723,WE724,WE725,WE726,WE727,WE728,WE729,WE730,WE731,WE732,WE733,WE734,WE735,WE736,WE737,WE738,WE739,WE740,WE741,WE742,WE743,WE744,WE745,WE746,WE747,WE748,WE749,WE750,WE751,WE752,WE753,WE754,WE755,WE756,WE757,WE758,WE759,WE760,WE761,WE762,WE763,WE764,WE765,WE766,WE767,WE768,WE769,WE770,WE771,WE772,WE773,WE774,WE775,WE776,WE777,WE778,WE779,WE780,WE781,WE782,WE783,WE784,WE785,WE786,WE787,WE788,WE789,WE790,WE791,WE792,WE793,WE794,WE795,WE796,WE797,WE798,WE799,WE800,WE801,WE802,WE803,WE804,WE805,WE806,WE807,WE808,WE809,WE810,WE811,WE812,WE813,WE814,WE815,WE816,WE817,WE818,WE819,WE820,WE821,WE822,WE823,WE824,WE825,WE826,WE827,WE828,WE829,WE830,WE831,WE832,WE833,WE834,WE835,WE836,WE837,WE838,WE839,WE840,WE841,WE842,WE843,WE844,WE845,WE846,WE847,WE848,WE849,WE850,WE851,WE852,WE853,WE854,WE855,WE856,WE857,WE858,WE859,WE860,WE861,WE862,WE863,WE864,WE865,WE866,WE867,WE868,WE869,WE870,WE871,WE872,WE873,WE874,WE875,WE876,WE877,WE878,WE879,WE880,WE881,WE882,WE883,WE884,WE885,WE886,WE887,WE888,WE889,WE890,WE891,WE892,WE893,WE894,WE895,WE896,WE897,WE898,WE899,WE900,WE901,WE902,WE903,WE904,WE905,WE906,WE907,WE908,WE909,WE910,WE911,WE912,WE913,WE914,WE915,WE916,WE917,WE918,WE919,WE920,WE921,WE922,WE923,WE924,WE925,WE926,WE927,WE928,WE929,WE930,WE931,WE932,WE933,WE934,WE935,WE936,WE937,WE938,WE939,WE940,WE941,WE942,WE943,WE944,WE945,WE946,WE947,WE948,WE949,WE950,WE951,WE952,WE953,WE954,WE955,WE956,WE957,WE958,WE959,WE960,WE961,WE962,WE963,WE964,WE965,WE966,WE967,WE968,WE969,WE970,WE971,WE972,WE973,WE974,WE975,WE976,WE977,WE978,WE979,WE980,WE981,WE982,WE983,WE984,WE985,WE986,WE987,WE988,WE989,WE990,WE991,WE992,WE993,WE994,WE995,WE996,WE997,WE998,WE999,WE1000,WE1001,WE1002,WE1003,WE1004,WE1005,WE1006,WE1007,WE1008,WE1009,WE1010,WE1011,WE1012,WE1013,WE1014,WE1015,WE1016,WE1017,WE1018,WE1019,WE1020,WE1021,WE1022,WE1023,WE1024,WE1025,WE1026,WE1027,WE1028,WE1029,WE1030,WE1031,WE1032,WE1033,WE1034,WE1035,WE1036,WE1037,WE1038,WE1039,WE1040,WE1041,WE1042,WE1043,WE1044,WE1045,WE1046,WE1047,WE1048,WE1049,WE1050,WE1051,WE1052,WE1053,WE1054,WE1055,WE1056,WE1057,WE1058,WE1059,WE1060,WE1061,WE1062,WE1063,WE1064,WE1065,WE1066,WE1067,WE1068,WE1069,WE1070,WE1071,WE1072,WE1073,WE1074,WE1075,WE1076,WE1077,WE1078,WE1079,WE1080,WE1081,WE1082,WE1083,WE1084,WE1085,WE1086,WE1087,WE1088,WE1089,WE1090,WE1091,WE1092,WE1093,WE1094,WE1095,WE1096,WE1097,WE1098,WE1099,WE1100,WE1101,WE1102,WE1103,WE1104,WE1105,WE1106,WE1107,WE1108,WE1109,WE1110,WE1111,WE1112,WE1113,WE1114,WE1115,WE1116,WE1117,WE1118,WE1119,WE1120,WE1121,WE1122,WE1123,WE1124,WE1125,WE1126,WE1127,WE1128,WE1129,WE1130,WE1131,WE1132,WE1133,WE1134,WE1135,WE1136,WE1137,WE1138,WE1139,WE1140,WE1141,WE1142,WE1143,WE1144,WE1145,WE1146,WE1147,WE1148,WE1149,WE1150,WE1151,WE1152,WE1153,WE1154,WE1155,WE1156,WE1157,WE1158,WE1159,WE1160,WE1161,WE1162,WE1163,WE1164,WE1165,WE1166,WE1167,WE1168,WE1169,WE1170,WE1171,WE1172,WE1173,WE1174,WE1175,WE1176,WE1177,WE1178,WE1179,WE1180,WE1181,WE1182,WE1183,WE1184,WE1185,WE1186,WE1187,WE1188,WE1189,WE1190,WE1191,WE1192,WE1193,WE1194,WE1195,WE1196,WE1197,WE1198,WE1199,WE1200,WE1201,WE1202,WE1203,WE1204,WE1205,WE1206,WE1207,WE1208,WE1209,WE1210,WE1211,WE1212,WE1213,WE1214,WE1215,WE1216,WE1217,WE1218,WE1219,WE1220,WE1221,WE1222,WE1223,WE1224,WE1225,WE1226,WE1227,WE1228,WE1229,WE1230,WE1231,WE1232,WE1233,WE1234,WE1235,WE1236,WE1237,WE1238,WE1239,WE1240,WE1241,WE1242,WE1243,WE1244,WE1245,WE1246,WE1247,WE1248,WE1249,WE1250,WE1251,WE1252,WE1253,WE1254,WE1255,WE1256,WE1257,WE1258,WE1259,WE1260,WE1261,WE1262,WE1263,WE1264,WE1265,WE1266,WE1267,WE1268,WE1269,WE1270,WE1271,WE1272,WE1273,WE1274,WE1275,WE1276,WE1277,WE1278,WE1279,WE1280,WE1281,WE1282,WE1283,WE1284,WE1285,WE1286,WE1287,WE1288,WE1289,WE1290,WE1291,WE1292,WE1293,WE1294,WE1295,WE1296,WE1297,WE1298,WE1299,WE1300,WE1301,WE1302,WE1303,WE1304,WE1305,WE1306,WE1307,WE1308,WE1309,WE1310,WE1311,WE1312,WE1313,WE1314,WE1315,WE1316,WE1317,WE1318,WE1319,WE1320,WE1321,WE1322,WE1323,WE1324,WE1325,WE1326,WE1327,WE1328,WE1329,WE1330,WE1331,WE1332,WE1333,WE1334,WE1335,WE1336,WE1337,WE1338,WE1339,WE1340,WE1341,WE1342,WE1343,WE1344,WE1345,WE1346,WE1347,WE1348,WE1349,WE1350,WE1351,WE1352,WE1353,WE1354,WE1355,WE1356,WE1357,WE1358,WE1359,WE1360,WE1361,WE1362,WE1363,WE1364,WE1365,WE1366,WE1367,WE1368,WE1369,WE1370,WE1371,WE1372,WE1373,WE1374,WE1375,WE1376,WE1377,WE1378,WE1379,WE1380,WE1381,WE1382,WE1383,WE1384,WE1385,WE1386,WE1387,WE1388,WE1389,WE1390,WE1391,WE1392,WE1393,WE1394,WE1395,WE1396,WE1397,WE1398,WE1399,WE1400,WE1401,WE1402,WE1403,WE1404,WE1405,WE1406,WE1407,WE1408,WE1409,WE1410,WE1411,WE1412,WE1413,WE1414,WE1415,WE1416,WE1417,WE1418,WE1419,WE1420,WE1421,WE1422,WE1423,WE1424,WE1425,WE1426,WE1427,WE1428,WE1429,WE1430,WE1431,WE1432,WE1433,WE1434,WE1435,WE1436,WE1437,WE1438,WE1439,WE1440,WE1441,WE1442,WE1443,WE1444,WE1445,WE1446,WE1447,WE1448,WE1449,WE1450,WE1451,WE1452,WE1453,WE1454,WE1455,WE1456,WE1457,WE1458,WE1459,WE1460,WE1461,WE1462,WE1463,WE1464,WE1465,WE1466,WE1467,WE1468,WE1469,WE1470,WE1471,WE1472,WE1473,WE1474,WE1475,WE1476,WE1477,WE1478,WE1479,WE1480,WE1481,WE1482,WE1483,WE1484,WE1485,WE1486,WE1487,WE1488,WE1489,WE1490,WE1491,WE1492,WE1493,WE1494,WE1495,WE1496,WE1497,WE1498,WE1499,WE1500,WE1501,WE1502,WE1503,WE1504,WE1505,WE1506,WE1507,WE1508,WE1509,WE1510,WE1511,WE1512,WE1513,WE1514,WE1515,WE1516,WE1517,WE1518,WE1519,WE1520,WE1521,WE1522,WE1523,WE1524,WE1525,WE1526,WE1527,WE1528,WE1529,WE1530,WE1531,WE1532,WE1533,WE1534,WE1535,WE1536
Sc1_A,0.037350755,-0.027089711,-0.004592477,0.034684829,0.028339365,-0.053679563,-0.017328529,0.031296879,-0.023174131,0.012621501,0.006945991,0.013024167,-0.038794801,-9.75E-05,0.031213569,0.064315505,-0.014162741,-0.008823942,0.005626912,0.000113358,0.023132475,-0.009545964,-0.021230225,0.011163572,-0.015620669,0.005186062,-0.031324647,0.043154702,0.018480988,-0.023562912,-0.022827005,-0.011649548,0.009816723,-0.025840059,0.033685107,0.029852835,0.034323819,-0.043543484,0.043626793,-0.038905881,0.007185508,-0.013058879,0.001134234,0.038267169,-0.011982789,0.033462945,0.012420168,0.005581786,0.056845352,0.029186353,-0.036378805,0.009677872,0.018953079,0.046376031,-0.010594285,0.002603445,-0.000192546,0.029602904,0.025229117,0.015967796,0.033851728,-0.00898362,0.028686492,0.041016407,-0.042460449,0.020535974,-0.024229394,-0.034212738,-0.013378236,0.006477371,0.099472426,0.043654565,-0.011205227,0.016675932,-0.010497089,-0.049402971,-0.02289643,-0.00961539,-0.023201901,-0.079200268,-0.000966746,0.019786181,0.001552521,0.007105669,-0.018411562,-0.020258272,-0.031991132,0.007692312,-0.063760102,0.004037075,0.028200515,0.003936409,0.011010836,-0.013822556,0.045931712,0.025229117,-0.037850618,-0.012906144,-0.013697592,-0.001898779,0.044737596,-0.044015575,-0.004668844,0.016509311,0.03812832,-0.028880883,0.027853388,-0.008358793,0.033907268,-0.026770355,-0.137739599,0.025867829,0.018022781,-0.007192451,0.01718968,-0.009816723,0.002153917,0.011198284,0.025409622,0.014884762,-0.023549028,0.002173009,0.002825605,-0.020716479,0.041877277,-0.068814255,0.008476817,0.01259373,-0.033268556,-0.02628438,0.033046395,0.006033049,-0.05676204,-0.055984478,-0.022188293,-0.058594868,-0.052207749,0.025867829,-0.011587066,-0.040655397,0.004943074,-0.009296034,0.009316862,0.012996397,0.070924781,-0.018258827,0.036961976,0.044848677,-0.010094424,0.044765368,0.016439887,-0.010344354,-0.025215231,0.014482096,0.052513219,-0.016314922,0.036239952,0.008185231,-0.034518208,0.037156366,0.009434884,-0.051957816,-0.006130245,-0.016550967,-0.021646777,-0.026631506,-0.076478794,-0.019091928,-0.058594868,0.003651765,-0.030713707,-0.028020009,-0.02840879,0.062593758,0.044376586,-0.033351865,0.000718551,-0.020327698,0.005425579,0.05287423,0.02295197,0.011316307,-0.045848399,-0.009275206,-0.003919052,0.013558741,-0.008962793,0.02152181,0.00884477,0.010990009,-0.012517363,0.027159138,0.002294503,-0.018703148,0.077922843,-0.031685662,0.011975846,0.052096669,-0.00396765,0.021966133,0.018383792,-0.036267724,0.020133307,-0.011843938,0.00300264,0.00551236,0.007532634,0.004054431,-0.036239952,-0.055623468,0.051346876,-0.01308665,0.013475431,-0.014843107,-0.031685662,-0.009879205,0.025020842,0.048653178,-0.021035835,0.024312705,-0.022507649,0.012468765,0.003901696,0.019355744,0.030158306,0.027867274,0.054512665,-0.077645138,0.004786867,-0.026062218,0.059816752,-0.005359625,-0.032046672,-0.012892259,-0.024104429,-0.013891982,0.005762292,0.041488498,0.023549028,0.005422108,-0.016606508,0.008185231,0.069813982,0.044376586,-0.043210242,0.007768679,-0.033823956,-0.078200541,0.030074995,0.010920583,0.072035588,0.045765091,-0.001973411,0.033046395,-0.003132812,-0.039572362,-0.015690094,-0.047014743,0.036712043,-0.062482677,0.039128043,-0.020660939,0.013676764,-0.014100257,0.023965579,-0.011753686,0.049680673,0.013065822,0.018272713,0.034601517,-0.044209965,-0.00953208,-0.007296588,0.00631075,-0.022604844,-0.014086372,-0.007574289,0.014995842,0.036323264,0.011392675,0.032046672,0.028519871,0.025548473,0.004755626,-0.019203009,0.015384624,0.007490979,0.006890451,0.009719527,-0.005755349,-0.016773127,-0.041099716,0.003596225,0.055345766,0.006029578,-0.002459388,-0.012107754,0.006772428,0.016051106,-0.005810889,0.09797284,-0.042765923,0.01564844,0.023549028,0.002665928,0.015440164,0.002278882,-0.027853388,-0.002568732,0.011253824,0.005269372,-0.000217822,0.014287706,-0.034573749,-0.014010005,-0.017731195,0.009587619,-0.007595117,-0.002771801,-0.00870592,-0.003738547,-0.003092892,0.027061941,-0.036489885,-0.018161632,-0.030602627,0.067036971,-0.00787976,0.014384901,-0.003908639,-0.006841853,-0.072035588,-0.003981535,0.000702496,-0.016620392,-0.036156643,-0.044959757,-0.023896152,0.053624023,-0.002827341,0.002967927,-0.065148607,-0.036878664,-0.003216122,0.007699254,0.001213205,0.02485422,-0.002771801,0.025159692,0.027783964,-0.039711215,0.023465717,-0.019952802,-0.006703003,-0.047320213,-0.031602349,0.050152764,-0.002209457,-0.044182196,0.020591514,0.008976678,-0.040599857,0.024965301,0.018494872,-0.057484064,-0.023479601,-0.02661762,0.012461822,0.00790753,-0.020313812,0.012850604,-0.008171346,0.004172455,0.012336858,-0.010927526,0.110913694,-0.01606499,-0.045931712,-0.027325757,0.026659276,0.003957236,0.082421593,0.012281317,-0.027992239,0.032990854,0.006321164,0.017953357,-0.036573194,-0.004540408,0.038822569,0.009240494,-0.015176348,-0.015801175,0.034018345,0.010781733,-0.013051937,0.00380103,0.016745357,0.069203034,0.002497572,0.010941411,0.029630674,0.009087758,0.064593203,0.003606639,0.027506264,0.019564021,-0.040072225,-0.002874203,0.044654287,-0.019897262,0.012996397,0.029741755,-0.004998614,0.011406559,0.00413427,0.003440019,-0.00892808,0.034490436,0.014398786,-0.058761489,-0.027714539,-0.026714817,-0.023271326,0.014718141,0.042238291,0.066703729,-0.063482404,0.039794523,-0.019050274,0.003254306,0.023354637,0.025965024,-0.029158583,-0.034407128,-0.002679813,0.011094146,0.005560958,0.009247436,-0.053568482,-0.019966686,-0.016981402,-0.04929189,0.01126771,-0.00194217,0.027034171,0.068314396,-0.004037075,-0.024673715,-0.007997783,0.018147746,-0.024354359,-0.01573175,0.014565406,-0.009184954,0.075367995,-0.006237854,0.026478771,0.028797572,-0.020133307,0.008386564,0.010149964,-0.026020564,0.000661275,-0.00349903,-0.082810372,0.023937808,-0.019522365,0.022132752,-0.03923912,0.02804778,-0.033185244,0.010927526,-0.013989178,-0.020924754,-0.009289091,-0.003762846,0.021202454,0.016217725,-0.013315753,0.054762594,0.020202732,0.005286729,0.027131367,0.010740078,-0.048569869,0.030436007,-0.020299928,-0.005623441,0.025298541,-0.04171066,-0.009962516,0.028991962,-0.015467934,0.02300751,-0.051569037,-0.037489608,-0.008317139,-0.006859209,0.007643714,0.001446648,-0.012732581,-0.002709318,0.031324647,-0.037739538,0.020772019,-0.002825605,0.013565684,0.002129618,-0.008574012,-0.033907268,-0.010337411,0.006522497,0.012364628,-0.002252848,0.008199116,0.006685647,0.013780901,-0.023743417,-0.023965579,0.014329361,0.023049166,-0.029464053,-0.011656491,0.049514052,0.022091098,-0.050708164,-0.035962254,-0.018633723,-0.017203564,0.011934191,0.006168429,0.01419051,0.05226329,-0.038905881,0.033740647,-0.003349766,-0.038211629,-0.016301036,-0.013773959,-0.014176626,-0.001884894,0.028547641,0.02334075,0.003644823,0.017439609,0.03807278,-0.021063605,-0.003363651,0.042515989,0.044432126,0.00644613,0.014169683,-0.01603722,0.012253547,0.021632891,-0.043265782,0.018703148,0.00083614,0.026464885,-0.047708996,0.007036244,0.043432403,-0.025992794,-0.031657889,0.013406006,0.022410454,0.04873649,-0.005762292,0.013871155,0.00163236,-0.00606082,-0.019564021,-0.032852005,0.030574856,0.002429882,0.004422385,-0.012114697,-0.011448215,0.019911146,-0.018578183,-0.01903639,-0.036156643,0.036850896,-0.057539605,0.029769525,-0.001613268,0.004797281,0.028686492,0.054207195,-0.01245488,-0.002872468,-0.036378805,0.015967796,0.036517654,0.017634001,-0.011843938,-0.028353252,-0.000275965,-0.033157475,-0.005137464,-0.003998891,-0.036295492,-0.004936132,-0.008199116,0.013586511,0.014287706,-0.02446544,0.012961685,-0.025326312,0.021605121,-0.013412948,0.029991684,-0.023118591,-0.042738151,0.01132325,-0.00334803,-0.021591237,0.034462668,-0.027048057,-0.016051106,-0.00165232,-0.024632061,0.032768693,-0.009365459,-0.029019732,-0.058261625,0.012663156,0.020383239,-0.003306375,0.02485422,0.002985283,-0.002884617,-0.036323264,0.01903639,-0.028311595,-0.002719732,-0.004908361,-0.018855883,-0.012350743,0.03862818,0.016176071,0.029408514,0.030797018,-0.011934191,0.007317416,0.008372678,0.013912809,-0.012184123,-0.057983924,-0.018730918,0.002502778,0.024409899,0.010941411,0.009941688,0.008539299,-0.012968627,-0.015967796,-0.000897321,0.023132475,-0.006425302,0.018161632,-0.003783673,0.013149132,0.007497921,0.007664542,0.006411417,0.000216086,-0.006366291,0.028256055,0.049097501,0.004609833,0.031935591,0.045154147,-0.008976678,0.032129981,-0.00119932,0.018661493,0.005880314,0.010143021,0.00702583,0.039516822,0.00380103,-0.015093038,-0.026187185,0.002624272,0.039433513,-0.033018623,0.001431027,-0.021549581,-0.007789507,0.010038883,0.00407873,-0.017661771,-0.012760351,0.007886702,-0.014954188,0.008115806,-0.006991117,-0.09130802,-0.016231611,-0.016439887,-0.046070561,0.010753963,-0.031491268,-0.030519316,0.000229103,-0.002908916,0.016162187,-0.029047502,-0.014745912,0.015995566,-0.027284103,0.033796187,-0.027145252,-0.025756748,0.008199116,0.031741202,-0.028089436,0.006630106,-0.029519593,0.020286042,-0.02815886,-0.019855607,-0.020286042,0.003278605,0.005942797,-0.023257442,-0.059372429,0.021146916,-0.026867552,0.007553461,0.006119831,0.006286452,-0.023410177,0.017786736,-0.0193974,0.028492101,-0.031352419,0.022104982,-0.005790061,-0.008810057,-0.019480711,-0.00205325,0.01154541,-0.002240698,-0.039794523,0.022007788,-0.023368521,0.044265505,-0.013440718,0.013794786,0.005672039,-1.24E-05,0.010288814,-0.0141072,0.006845324,0.020966409,0.000303952,0.043460172,0.012656214,0.015273543,-0.011357962,0.03207444,0.008428219,0.027353527,0.022632614,0.009594562,-0.033574026,-0.039600134,-0.007831162,-0.052207749,-0.001200188,0.002048043,0.030908098,-0.016537081,0.014058602,0.036961976,-0.006137188,-0.023437947,0.062316056,-0.000458206,-0.052652068,-0.04504307,0.016578738,0.008310196,-0.005602614,-0.041155256,-0.026409345,-0.049569592,0.013676764,-0.002310124,0.023951693,-0.012697869,-0.005307556,-0.013489316,-0.037239674,-0.030658167,-0.029130813,0.002535755,-0.015995566,-0.033240784,-0.005699809,0.026839782,0.002632951,0.033490714,-0.062649295,0.053679563,0.003011318,-0.030380467,-0.016259382,0.004724385,-0.004328661,-0.056401029,-0.005633855,-0.063982263,0.016023336,-0.002101848,-0.023604566,-0.031991132,0.000648692,0.003700363,-0.031741202,-0.012628444,-0.017384069,-0.026478771,0.029547364,-0.051346876,-0.007171623,-0.013871155,-0.000363831,-0.006654405,0.017231334,0.017050829,0.01760623,0.043126933,0.004828522,0.009830608,-0.009337689,0.022229949,-0.003309846,0.033046395,-0.028394906,-0.005495004,-0.002044572,-0.015023612,-0.008532356,-0.001670544,-0.012003616,-0.013739247,-0.029186353,-0.020383239,0.003509444,-0.038767029,0.013815614,0.001070016,0.006807141,-0.03893365,-0.00631075,0.000226283,0.025840059,-0.011906422,0.028519871,0.027200792,-0.013718419,-0.020674823,-0.016717587,-0.003500766,0.01316996,0.019203009,-0.031685662,0.004922247,-0.027297987,0.000203394,0.001706124,0.011010836,-0.020841444,0.003873926,0.017953357,0.035434622,0.041516267,-0.015717864,0.020924754,-0.000740246,-0.016787013,-0.015537359,0.024159968,0.001569877,0.019439055,-0.024604291,-0.049875062,-0.026201069,-0.008803115,-0.03832271,0.009941688,0.036517654,-0.007178565,0.00625521,-0.034129426,-0.010156906,-0.013010282,-0.017120253,-0.01721745,0.013447661,-0.005213832,-0.003748961,0.016370462,-0.003019996,0.008574012,-0.026076104,-0.011781456,-0.031296879,0.001238372,0.02807555,-0.005435993,0.030574856,0.001320814,0.004956959,-0.017897816,-0.002790893,0.001411935,0.01325327,0.034073886,-0.002074078,0.015023612,-0.018855883,-0.011475985,0.001181096,-0.002002917,0.004266178,-0.004880591,-0.001248786,-0.006567623,0.057372984,0.011802283,0.020938639,-0.019522365,0.006900865,0.01788393,-0.000370123,-0.018717034,0.001326021,-0.026006678,0.004307834,0.005158292,0.001924814,0.024895877,-0.019591792,0.029297434,-0.017453495,0.029602904,-0.010115251,0.040905327,-0.026923092,-0.007324358,-0.047681227,0.020716479,0.006241325,0.009004449,-0.012711754,8.42E-05,0.019827837,-0.045542929,0.008879483,-0.016953634,-0.033462945,-0.056289949,-0.012468765,-0.020758133,0.009344632,-0.006203142,-0.001985561,0.004162041,0.011892537,-0.027603459,0.001971676,0.023146361,-0.013989178,0.016995288,-0.023979463,0.007470151,0.023660107,0.014495981,-0.011670375,0.005074982,-0.022535419,-0.018078322,0.025548473,0.00787976,0.026298264,0.010101366,0.003516386,0.005182591,0.011816168,-0.000396374,-0.004189811,-0.004016248,-0.015287428,0.012822834,0.037961699,0.013301868,-0.001240975,0.012336858,-0.022563189,-0.015079153,-0.004207167,0.008469874,0.022396568,0.004384201,-0.040294383,-0.005529717,0.015315198,0.024687599,-0.022021672,0.01319773,0.000626129,-0.017120253,-0.011101089,-0.021952247,0.020633169,-0.008587897,-0.006425302,0.003821857,0.005727579,0.002230285,-0.01780062,0.00561997,-0.010733135,0.01752292,-0.009365459,0.013072765,0.032713152,-0.00399542,-0.004807695,0.001654055,0.036656503,-0.045487389,0.024396013,0.015967796,-0.015245773,-0.036017794,0.005387395,-0.00710914,0.014148856,0.018800344,-0.011913364,-0.026437115,-0.037156366,0.037933927,0.052235518,-0.031991132,-0.023118591,0.002707583,0.006609279,0.036156643,-0.02813109,-0.014620947,0.025715092,-0.028742032,0.029880606,-0.042432681,0.027159138,-0.010469319,-0.029491823,0.026214955,0.018661493,0.024868106,0.027200792,0.001030964,0.042099439,0.00460289,-0.005852544,0.011309365,-0.031741202,0.014856992,-0.007803392,-0.006453072,-0.023798957,0.032657612,-0.017509034,-0.005845602,-0.002634686,-0.037017517,0.008948908,0.002912387,-0.050569315,-0.002037629,0.001978618,0.012295202,-0.000740246,-0.022174409,-0.008143576,0.006303808,0.007366013,0.062149435,-0.006008751,-0.010337411,0.034823678,-0.000424795,0.02471537,0.033157475,0.017592344,0.005734521,-0.019897262,-0.005713694,-0.011281595,-0.014329361,-0.038017239,-0.030824788,-0.001841503,0.030047225,0.001815469,-0.000316969,0.003138019,0.015940025,0.016634278,-0.016828667,-0.033157475,-0.017911701,0.009539022,0.025062496,-0.005765763,-0.003098099,0.014232165,-0.009018333,-0.025437392,-0.002037629,-0.008643437,-0.018911423,0.028825343,0.003172731,-0.022840889,0.025090266,-0.020522088,0.019230779,0.023785073,-0.018147746,-0.018841999,-0.023729533,0.009094701,-0.001471814,0.000209903,0.014940303,-0.001283498,-0.015273543,-0.02446544,-0.009323804,0.084198877,-0.002278882,-0.011781456,-0.014801452,-0.007338244,-0.031546809,0.011219112,0.00506804,-0.026867552,-0.002766594,-0.005304085,0.003599697,0.01132325,-0.019952802,0.025034726,-0.01388504,-0.029991684,-0.002842962,0.003419191,-0.008629552,0.015967796,-0.023590682,0.02595114,-0.030102765,-0.032296602,-0.001862331,-0.00213656,0.012468765,0.019105814,0.038294937,0.029602904,0.013607339,-0.001262671,0.006196199,0.013010282,0.025812289,0.034046117,-0.060594313,-0.000469922,-0.02267427,0.006616221,0.010684538,-0.017620115,-0.051707886,0.029602904,-0.005057625,-0.020091653,0.006852267,0.001193246,0.008643437,0.010323527,0.020341583,-0.00694252,0.002317066,0.003434812,-0.018036665,0.032574303,0.006425302,-0.004811166,0.004911833,-0.00980978,0.035212461,-0.018314367,-0.031158028,0.030297156,-0.044071116,0.010698423,0.051041406,-0.014141913,-0.007050129,-0.021868937,-0.002174744,0.018592067,-0.013093593,0.023687877,0.009219666,0.003738547,0.022521535,-0.011836996,-0.046320491,0.000357974,-0.014648717,-0.01143433,-0.043460172,-0.031296879,-0.040794246,0.015606784,0.004585534,-0.01044155,0.00699806,-0.013579569,0.012440995,-0.000530669,0.035878941,0.020744249,-0.002091434,-0.049625132,-0.011239939,-0.00878923,0.000275965,0.032685384,-0.015884485,0.002223342,0.013905867,0.00188663,-0.044820908,-0.028061666,-0.011059434,-0.012434053,0.010531803,-0.002225077,-0.00542905,0.048375476,-0.016217725,0.034212738,-0.00947654,0.01788393,-0.019203009,-0.015218004,-0.012892259,-0.012920029,0.002079285,-0.005074982,-0.015495704,0.042599302,-0.001235769,0.034518208,0.037045285,-0.008629552,-0.036212184,-0.014204395,0.036073331,0.002665928,-0.012677041,-0.002931479,-0.007754794,0.004863235,0.019994456,-0.012184123,0.009400172,-0.004193282,4.17E-05,-0.028880883,-0.03929466,0.035462391,-0.026895322,-0.010316584,0.003776731,-0.026076104,0.021896707,0.007727025,0.00476604,0.026714817,-0.002905444,-0.00967093,0.010351297,-0.012552076,0.036101103,-0.037100825,-0.008400449,0.014926418,0.033851728,-0.028547641,-0.005040269,-0.034962531,0.008379621,-0.000416768,-0.018869769,-0.004589005,0.00542905,0.013385178,-0.010288814,-0.00093724,0.001308665,0.011163572,0.005744935,0.01168426,-0.011316307,-0.013989178,0.006550267,-0.001352924,-0.036573194,-0.005252016,-0.010969182,-0.003035617,0.024118314,-0.007220221,-0.019175239,-0.00231533,0.003210915,0.018953079,-0.028797572,-0.003630938,0.023299096,0.007838105,0.028853113,-0.00435296,-0.059927829,-0.018717034,0.027728423,0.001706992,-0.014884762,-0.01226049,0.024729256,0.002398641,-0.007928357,0.008324081,0.026187185,-0.008664264,-0.005408223,-0.006376704,-0.017786736,0.009684815,-0.008754517,-0.01041378,-0.01311442,-0.009539022,0.020216618,0.02270204,0.004130799,-0.001050056,0.014114142,-0.003485145,-0.055706777,-0.028603181,0.064204425,-0.001221016,-0.034129426,-0.011274652,-0.038267169,0.013808671,0.020188848,0.005168706,-0.014197453,-0.004703557,-0.01052486,-0.025965024,-0.014759797,0.011212169,0.01311442,0.023729533,-0.026742587,0.000380103,-0.008775345,-0.012385455,0.019411284,0.008268541,0.003620524,-0.003342823,0.022299374,0.010837274,0.034323819,-0.021646777,-0.015454049,0.002209457,0.003393156,-0.01126771,0.00128697,-0.003472995,-0.008830885,-0.021938363,0.027881159,0.011274652,-0.032324374,0.008393507,0.013919752,0.002164331,0.003148433,0.008657322,-0.007379898,0.004231466,0.016467657,-0.017509034,0.001815469,0.008608725,0.003441754,0.007074428,-0.018689264,-0.003176203,-0.02846433,-0.039100271,0.036489885,-0.012079984,0.00870592,0.021577351,-0.030213846,0.007084841,-0.001184567,-0.007949186,-0.018717034,0.007303531,0.013794786,-0.049264122,0.004946545,0.037295215,0.036906436,0.002462859,-0.023396291,-0.008539299,0.029658444,-0.024687599,0.006053877,-0.007942243,-0.001625417,0.01564844,0.051652346,0.009997228,0.053512942,-0.004856293,-0.020896984,-0.010955296,-0.008455989,-0.001860595,0.007400726,0.000452999,0.001843239,-0.000993648,0.038100548,-0.023854498,-0.030019455,0.013357408,0.00334803,0.038794801,-0.023798957,-0.01757846,0.028991962,-0.029797295,-0.032629844,-0.010615112,0.016467657,0.012642329,0.032157753,0.042349372,-0.017647885,0.013760074,0.005908084,-0.018953079,0.03837825,0.010830331,0.010767848,0.002183422,0.001637567,0.010163849,0.01961956,0.019105814,0.03140796,0.026214955,0.022910316,-0.002044572,0.002594767,-0.019661216,0.030741477,0.03571232,-0.005293672,-0.003217858,0.029852835,0.010483204,-0.019091928,-0.027297987,0.016703703,-0.012739523,-0.023535142,0.018231057,0.014357131,-0.010191619,0.033185244,0.004148155,-0.001533429,0.02267427,0.002074078,-0.009990286,-0.031796742,0.013753132,-0.033268556,-0.026742587,0.004589005,-0.00399542,-0.000664312,-0.022341028,-0.019105814,0.01961956,0.0417662,-0.064537667,-0.007345186,0.034545977,0.032241061,-0.017092483,0.020452663,-0.008962793
Sc1_A,0.037350755,-0.027089711,-0.004592477,0.034684829,0.028339365,-0.053679563,-0.017328529,0.031296879,-0.023174131,0.012621501,0.006945991,0.013024167,-0.038794801,-9.75E-05,0.031213569,0.064315505,-0.014162741,-0.008823942,0.005626912,0.000113358,0.023132475,-0.009545964,-0.021230225,0.011163572,-0.015620669,0.005186062,-0.031324647,0.043154702,0.018480988,-0.023562912,-0.022827005,-0.011649548,0.009816723,-0.025840059,0.033685107,0.029852835,0.034323819,-0.043543484,0.043626793,-0.038905881,0.007185508,-0.013058879,0.001134234,0.038267169,-0.011982789,0.033462945,0.012420168,0.005581786,0.056845352,0.029186353,-0.036378805,0.009677872,0.018953079,0.046376031,-0.010594285,0.002603445,-0.000192546,0.029602904,0.025229117,0.015967796,0.033851728,-0.00898362,0.028686492,0.041016407,-0.042460449,0.020535974,-0.024229394,-0.034212738,-0.013378236,0.006477371,0.099472426,0.043654565,-0.011205227,0.016675932,-0.010497089,-0.049402971,-0.02289643,-0.00961539,-0.023201901,-0.079200268,-0.000966746,0.019786181,0.001552521,0.007105669,-0.018411562,-0.020258272,-0.031991132,0.007692312,-0.063760102,0.004037075,0.028200515,0.003936409,0.011010836,-0.013822556,0.045931712,0.025229117,-0.037850618,-0.012906144,-0.013697592,-0.001898779,0.044737596,-0.044015575,-0.004668844,0.016509311,0.03812832,-0.028880883,0.027853388,-0.008358793,0.033907268,-0.026770355,-0.137739599,0.025867829,0.018022781,-0.007192451,0.01718968,-0.009816723,0.002153917,0.011198284,0.025409622,0.014884762,-0.023549028,0.002173009,0.002825605,-0.020716479,0.041877277,-0.068814255,0.008476817,0.01259373,-0.033268556,-0.02628438,0.033046395,0.006033049,-0.05676204,-0.055984478,-0.022188293,-0.058594868,-0.052207749,0.025867829,-0.011587066,-0.040655397,0.004943074,-0.009296034,0.009316862,0.012996397,0.070924781,-0.018258827,0.036961976,0.044848677,-0.010094424,0.044765368,0.016439887,-0.010344354,-0.025215231,0.014482096,0.052513219,-0.016314922,0.036239952,0.008185231,-0.034518208,0.037156366,0.009434884,-0.051957816,-0.006130245,-0.016550967,-0.021646777,-0.026631506,-0.076478794,-0.019091928,-0.058594868,0.003651765,-0.030713707,-0.028020009,-0.02840879,0.062593758,0.044376586,-0.033351865,0.000718551,-0.020327698,0.005425579,0.05287423,0.02295197,0.011316307,-0.045848399,-0.009275206,-0.003919052,0.013558741,-0.008962793,0.02152181,0.00884477,0.010990009,-0.012517363,0.027159138,0.002294503,-0.018703148,0.077922843,-0.031685662,0.011975846,0.052096669,-0.00396765,0.021966133,0.018383792,-0.036267724,0.020133307,-0.011843938,0.00300264,0.00551236,0.007532634,0.004054431,-0.036239952,-0.055623468,0.051346876,-0.01308665,0.013475431,-0.014843107,-0.031685662,-0.009879205,0.025020842,0.048653178,-0.021035835,0.024312705,-0.022507649,0.012468765,0.003901696,0.019355744,0.030158306,0.027867274,0.054512665,-0.077645138,0.004786867,-0.026062218,0.059816752,-0.005359625,-0.032046672,-0.012892259,-0.024104429,-0.013891982,0.005762292,0.041488498,0.023549028,0.005422108,-0.016606508,0.008185231,0.069813982,0.044376586,-0.043210242,0.007768679,-0.033823956,-0.078200541,0.030074995,0.010920583,0.072035588,0.045765091,-0.001973411,0.033046395,-0.003132812,-0.039572362,-0.015690094,-0.047014743,0.036712043,-0.062482677,0.039128043,-0.020660939,0.013676764,-0.014100257,0.023965579,-0.011753686,0.049680673,0.013065822,0.018272713,0.034601517,-0.044209965,-0.00953208,-0.007296588,0.00631075,-0.022604844,-0.014086372,-0.007574289,0.014995842,0.036323264,0.011392675,0.032046672,0.028519871,0.025548473,0.004755626,-0.019203009,0.015384624,0.007490979,0.006890451,0.009719527,-0.005755349,-0.016773127,-0.041099716,0.003596225,0.055345766,0.006029578,-0.002459388,-0.012107754,0.006772428,0.016051106,-0.005810889,0.09797284,-0.042765923,0.01564844,0.023549028,0.002665928,0.015440164,0.002278882,-0.027853388,-0.002568732,0.011253824,0.005269372,-0.000217822,0.014287706,-0.034573749,-0.014010005,-0.017731195,0.009587619,-0.007595117,-0.002771801,-0.00870592,-0.003738547,-0.003092892,0.027061941,-0.036489885,-0.018161632,-0.030602627,0.067036971,-0.00787976,0.014384901,-0.003908639,-0.006841853,-0.072035588,-0.003981535,0.000702496,-0.016620392,-0.036156643,-0.044959757,-0.023896152,0.053624023,-0.002827341,0.002967927,-0.065148607,-0.036878664,-0.003216122,0.007699254,0.001213205,0.02485422,-0.002771801,0.025159692,0.027783964,-0.039711215,0.023465717,-0.019952802,-0.006703003,-0.047320213,-0.031602349,0.050152764,-0.002209457,-0.044182196,0.020591514,0.008976678,-0.040599857,0.024965301,0.018494872,-0.057484064,-0.023479601,-0.02661762,0.012461822,0.00790753,-0.020313812,0.012850604,-0.008171346,0.004172455,0.012336858,-0.010927526,0.110913694,-0.01606499,-0.045931712,-0.027325757,0.026659276,0.003957236,0.082421593,0.012281317,-0.027992239,0.032990854,0.006321164,0.017953357,-0.036573194,-0.004540408,0.038822569,0.009240494,-0.015176348,-0.015801175,0.034018345,0.010781733,-0.013051937,0.00380103,0.016745357,0.069203034,0.002497572,0.010941411,0.029630674,0.009087758,0.064593203,0.003606639,0.027506264,0.019564021,-0.040072225,-0.002874203,0.044654287,-0.019897262,0.012996397,0.029741755,-0.004998614,0.011406559,0.00413427,0.003440019,-0.00892808,0.034490436,0.014398786,-0.058761489,-0.027714539,-0.026714817,-0.023271326,0.014718141,0.042238291,0.066703729,-0.063482404,0.039794523,-0.019050274,0.003254306,0.023354637,0.025965024,-0.029158583,-0.034407128,-0.002679813,0.011094146,0.005560958,0.009247436,-0.053568482,-0.019966686,-0.016981402,-0.04929189,0.01126771,-0.00194217,0.027034171,0.068314396,-0.004037075,-0.024673715,-0.007997783,0.018147746,-0.024354359,-0.01573175,0.014565406,-0.009184954,0.075367995,-0.006237854,0.026478771,0.028797572,-0.020133307,0.008386564,0.010149964,-0.026020564,0.000661275,-0.00349903,-0.082810372,0.023937808,-0.019522365,0.022132752,-0.03923912,0.02804778,-0.033185244,0.010927526,-0.013989178,-0.020924754,-0.009289091,-0.003762846,0.021202454,0.016217725,-0.013315753,0.054762594,0.020202732,0.005286729,0.027131367,0.010740078,-0.048569869,0.030436007,-0.020299928,-0.005623441,0.025298541,-0.04171066,-0.009962516,0.028991962,-0.015467934,0.02300751,-0.051569037,-0.037489608,-0.008317139,-0.006859209,0.007643714,0.001446648,-0.012732581,-0.002709318,0.031324647,-0.037739538,0.020772019,-0.002825605,0.013565684,0.002129618,-0.008574012,-0.033907268,-0.010337411,0.006522497,0.012364628,-0.002252848,0.008199116,0.006685647,0.013780901,-0.023743417,-0.023965579,0.014329361,0.023049166,-0.029464053,-0.011656491,0.049514052,0.022091098,-0.050708164,-0.035962254,-0.018633723,-0.017203564,0.011934191,0.006168429,0.01419051,0.05226329,-0.038905881,0.033740647,-0.003349766,-0.038211629,-0.016301036,-0.013773959,-0.014176626,-0.001884894,0.028547641,0.02334075,0.003644823,0.017439609,0.03807278,-0.021063605,-0.003363651,0.042515989,0.044432126,0.00644613,0.014169683,-0.01603722,0.012253547,0.021632891,-0.043265782,0.018703148,0.00083614,0.026464885,-0.047708996,0.007036244,0.043432403,-0.025992794,-0.031657889,0.013406006,0.022410454,0.04873649,-0.005762292,0.013871155,0.00163236,-0.00606082,-0.019564021,-0.032852005,0.030574856,0.002429882,0.004422385,-0.012114697,-0.011448215,0.019911146,-0.018578183,-0.01903639,-0.036156643,0.036850896,-0.057539605,0.029769525,-0.001613268,0.004797281,0.028686492,0.054207195,-0.01245488,-0.002872468,-0.036378805,0.015967796,0.036517654,0.017634001,-0.011843938,-0.028353252,-0.000275965,-0.033157475,-0.005137464,-0.003998891,-0.036295492,-0.004936132,-0.008199116,0.013586511,0.014287706,-0.02446544,0.012961685,-0.025326312,0.021605121,-0.013412948,0.029991684,-0.023118591,-0.042738151,0.01132325,-0.00334803,-0.021591237,0.034462668,-0.027048057,-0.016051106,-0.00165232,-0.024632061,0.032768693,-0.009365459,-0.029019732,-0.058261625,0.012663156,0.020383239,-0.003306375,0.02485422,0.002985283,-0.002884617,-0.036323264,0.01903639,-0.028311595,-0.002719732,-0.004908361,-0.018855883,-0.012350743,0.03862818,0.016176071,0.029408514,0.030797018,-0.011934191,0.007317416,0.008372678,0.013912809,-0.012184123,-0.057983924,-0.018730918,0.002502778,0.024409899,0.010941411,0.009941688,0.008539299,-0.012968627,-0.015967796,-0.000897321,0.023132475,-0.006425302,0.018161632,-0.003783673,0.013149132,0.007497921,0.007664542,0.006411417,0.000216086,-0.006366291,0.028256055,0.049097501,0.004609833,0.031935591,0.045154147,-0.008976678,0.032129981,-0.00119932,0.018661493,0.005880314,0.010143021,0.00702583,0.039516822,0.00380103,-0.015093038,-0.026187185,0.002624272,0.039433513,-0.033018623,0.001431027,-0.021549581,-0.007789507,0.010038883,0.00407873,-0.017661771,-0.012760351,0.007886702,-0.014954188,0.008115806,-0.006991117,-0.09130802,-0.016231611,-0.016439887,-0.046070561,0.010753963,-0.031491268,-0.030519316,0.000229103,-0.002908916,0.016162187,-0.029047502,-0.014745912,0.015995566,-0.027284103,0.033796187,-0.027145252,-0.025756748,0.008199116,0.031741202,-0.028089436,0.006630106,-0.029519593,0.020286042,-0.02815886,-0.019855607,-0.020286042,0.003278605,0.005942797,-0.023257442,-0.059372429,0.021146916,-0.026867552,0.007553461,0.006119831,0.006286452,-0.023410177,0.017786736,-0.0193974,0.028492101,-0.031352419,0.022104982,-0.005790061,-0.008810057,-0.019480711,-0.00205325,0.01154541,-0.002240698,-0.039794523,0.022007788,-0.023368521,0.044265505,-0.013440718,0.013794786,0.005672039,-1.24E-05,0.010288814,-0.0141072,0.006845324,0.020966409,0.000303952,0.043460172,0.012656214,0.015273543,-0.011357962,0.03207444,0.008428219,0.027353527,0.022632614,0.009594562,-0.033574026,-0.039600134,-0.007831162,-0.052207749,-0.001200188,0.002048043,0.030908098,-0.016537081,0.014058602,0.036961976,-0.006137188,-0.023437947,0.062316056,-0.000458206,-0.052652068,-0.04504307,0.016578738,0.008310196,-0.005602614,-0.041155256,-0.026409345,-0.049569592,0.013676764,-0.002310124,0.023951693,-0.012697869,-0.005307556,-0.013489316,-0.037239674,-0.030658167,-0.029130813,0.002535755,-0.015995566,-0.033240784,-0.005699809,0.026839782,0.002632951,0.033490714,-0.062649295,0.053679563,0.003011318,-0.030380467,-0.016259382,0.004724385,-0.004328661,-0.056401029,-0.005633855,-0.063982263,0.016023336,-0.002101848,-0.023604566,-0.031991132,0.000648692,0.003700363,-0.031741202,-0.012628444,-0.017384069,-0.026478771,0.029547364,-0.051346876,-0.007171623,-0.013871155,-0.000363831,-0.006654405,0.017231334,0.017050829,0.01760623,0.043126933,0.004828522,0.009830608,-0.009337689,0.022229949,-0.003309846,0.033046395,-0.028394906,-0.005495004,-0.002044572,-0.015023612,-0.008532356,-0.001670544,-0.012003616,-0.013739247,-0.029186353,-0.020383239,0.003509444,-0.038767029,0.013815614,0.001070016,0.006807141,-0.03893365,-0.00631075,0.000226283,0.025840059,-0.011906422,0.028519871,0.027200792,-0.013718419,-0.020674823,-0.016717587,-0.003500766,0.01316996,0.019203009,-0.031685662,0.004922247,-0.027297987,0.000203394,0.001706124,0.011010836,-0.020841444,0.003873926,0.017953357,0.035434622,0.041516267,-0.015717864,0.020924754,-0.000740246,-0.016787013,-0.015537359,0.024159968,0.001569877,0.019439055,-0.024604291,-0.049875062,-0.026201069,-0.008803115,-0.03832271,0.009941688,0.036517654,-0.007178565,0.00625521,-0.034129426,-0.010156906,-0.013010282,-0.017120253,-0.01721745,0.013447661,-0.005213832,-0.003748961,0.016370462,-0.003019996,0.008574012,-0.026076104,-0.011781456,-0.031296879,0.001238372,0.02807555,-0.005435993,0.030574856,0.001320814,0.004956959,-0.017897816,-0.002790893,0.001411935,0.01325327,0.034073886,-0.002074078,0.015023612,-0.018855883,-0.011475985,0.001181096,-0.002002917,0.004266178,-0.004880591,-0.001248786,-0.006567623,0.057372984,0.011802283,0.020938639,-0.019522365,0.006900865,0.01788393,-0.000370123,-0.018717034,0.001326021,-0.026006678,0.004307834,0.005158292,0.001924814,0.024895877,-0.019591792,0.029297434,-0.017453495,0.029602904,-0.010115251,0.040905327,-0.026923092,-0.007324358,-0.047681227,0.020716479,0.006241325,0.009004449,-0.012711754,8.42E-05,0.019827837,-0.045542929,0.008879483,-0.016953634,-0.033462945,-0.056289949,-0.012468765,-0.020758133,0.009344632,-0.006203142,-0.001985561,0.004162041,0.011892537,-0.027603459,0.001971676,0.023146361,-0.013989178,0.016995288,-0.023979463,0.007470151,0.023660107,0.014495981,-0.011670375,0.005074982,-0.022535419,-0.018078322,0.025548473,0.00787976,0.026298264,0.010101366,0.003516386,0.005182591,0.011816168,-0.000396374,-0.004189811,-0.004016248,-0.015287428,0.012822834,0.037961699,0.013301868,-0.001240975,0.012336858,-0.022563189,-0.015079153,-0.004207167,0.008469874,0.022396568,0.004384201,-0.040294383,-0.005529717,0.015315198,0.024687599,-0.022021672,0.01319773,0.000626129,-0.017120253,-0.011101089,-0.021952247,0.020633169,-0.008587897,-0.006425302,0.003821857,0.005727579,0.002230285,-0.01780062,0.00561997,-0.010733135,0.01752292,-0.009365459,0.013072765,0.032713152,-0.00399542,-0.004807695,0.001654055,0.036656503,-0.045487389,0.024396013,0.015967796,-0.015245773,-0.036017794,0.005387395,-0.00710914,0.014148856,0.018800344,-0.011913364,-0.026437115,-0.037156366,0.037933927,0.052235518,-0.031991132,-0.023118591,0.002707583,0.006609279,0.036156643,-0.02813109,-0.014620947,0.025715092,-0.028742032,0.029880606,-0.042432681,0.027159138,-0.010469319,-0.029491823,0.026214955,0.018661493,0.024868106,0.027200792,0.001030964,0.042099439,0.00460289,-0.005852544,0.011309365,-0.031741202,0.014856992,-0.007803392,-0.006453072,-0.023798957,0.032657612,-0.017509034,-0.005845602,-0.002634686,-0.037017517,0.008948908,0.002912387,-0.050569315,-0.002037629,0.001978618,0.012295202,-0.000740246,-0.022174409,-0.008143576,0.006303808,0.007366013,0.062149435,-0.006008751,-0.010337411,0.034823678,-0.000424795,0.02471537,0.033157475,0.017592344,0.005734521,-0.019897262,-0.005713694,-0.011281595,-0.014329361,-0.038017239,-0.030824788,-0.001841503,0.030047225,0.001815469,-0.000316969,0.003138019,0.015940025,0.016634278,-0.016828667,-0.033157475,-0.017911701,0.009539022,0.025062496,-0.005765763,-0.003098099,0.014232165,-0.009018333,-0.025437392,-0.002037629,-0.008643437,-0.018911423,0.028825343,0.003172731,-0.022840889,0.025090266,-0.020522088,0.019230779,0.023785073,-0.018147746,-0.018841999,-0.023729533,0.009094701,-0.001471814,0.000209903,0.014940303,-0.001283498,-0.015273543,-0.02446544,-0.009323804,0.084198877,-0.002278882,-0.011781456,-0.014801452,-0.007338244,-0.031546809,0.011219112,0.00506804,-0.026867552,-0.002766594,-0.005304085,0.003599697,0.01132325,-0.019952802,0.025034726,-0.01388504,-0.029991684,-0.002842962,0.003419191,-0.008629552,0.015967796,-0.023590682,0.02595114,-0.030102765,-0.032296602,-0.001862331,-0.00213656,0.012468765,0.019105814,0.038294937,0.029602904,0.013607339,-0.001262671,0.006196199,0.013010282,0.025812289,0.034046117,-0.060594313,-0.000469922,-0.02267427,0.006616221,0.010684538,-0.017620115,-0.051707886,0.029602904,-0.005057625,-0.020091653,0.006852267,0.001193246,0.008643437,0.010323527,0.020341583,-0.00694252,0.002317066,0.003434812,-0.018036665,0.032574303,0.006425302,-0.004811166,0.004911833,-0.00980978,0.035212461,-0.018314367,-0.031158028,0.030297156,-0.044071116,0.010698423,0.051041406,-0.014141913,-0.007050129,-0.021868937,-0.002174744,0.018592067,-0.013093593,0.023687877,0.009219666,0.003738547,0.022521535,-0.011836996,-0.046320491,0.000357974,-0.014648717,-0.01143433,-0.043460172,-0.031296879,-0.040794246,0.015606784,0.004585534,-0.01044155,0.00699806,-0.013579569,0.012440995,-0.000530669,0.035878941,0.020744249,-0.002091434,-0.049625132,-0.011239939,-0.00878923,0.000275965,0.032685384,-0.015884485,0.002223342,0.013905867,0.00188663,-0.044820908,-0.028061666,-0.011059434,-0.012434053,0.010531803,-0.002225077,-0.00542905,0.048375476,-0.016217725,0.034212738,-0.00947654,0.01788393,-0.019203009,-0.015218004,-0.012892259,-0.012920029,0.002079285,-0.005074982,-0.015495704,0.042599302,-0.001235769,0.034518208,0.037045285,-0.008629552,-0.036212184,-0.014204395,0.036073331,0.002665928,-0.012677041,-0.002931479,-0.007754794,0.004863235,0.019994456,-0.012184123,0.009400172,-0.004193282,4.17E-05,-0.028880883,-0.03929466,0.035462391,-0.026895322,-0.010316584,0.003776731,-0.026076104,0.021896707,0.007727025,0.00476604,0.026714817,-0.002905444,-0.00967093,0.010351297,-0.012552076,0.036101103,-0.037100825,-0.008400449,0.014926418,0.033851728,-0.028547641,-0.005040269,-0.034962531,0.008379621,-0.000416768,-0.018869769,-0.004589005,0.00542905,0.013385178,-0.010288814,-0.00093724,0.001308665,0.011163572,0.005744935,0.01168426,-0.011316307,-0.013989178,0.006550267,-0.001352924,-0.036573194,-0.005252016,-0.010969182,-0.003035617,0.024118314,-0.007220221,-0.019175239,-0.00231533,0.003210915,0.018953079,-0.028797572,-0.003630938,0.023299096,0.007838105,0.028853113,-0.00435296,-0.059927829,-0.018717034,0.027728423,0.001706992,-0.014884762,-0.01226049,0.024729256,0.002398641,-0.007928357,0.008324081,0.026187185,-0.008664264,-0.005408223,-0.006376704,-0.017786736,0.009684815,-0.008754517,-0.01041378,-0.01311442,-0.009539022,0.020216618,0.02270204,0.004130799,-0.001050056,0.014114142,-0.003485145,-0.055706777,-0.028603181,0.064204425,-0.001221016,-0.034129426,-0.011274652,-0.038267169,0.013808671,0.020188848,0.005168706,-0.014197453,-0.004703557,-0.01052486,-0.025965024,-0.014759797,0.011212169,0.01311442,0.023729533,-0.026742587,0.000380103,-0.008775345,-0.012385455,0.019411284,0.008268541,0.003620524,-0.003342823,0.022299374,0.010837274,0.034323819,-0.021646777,-0.015454049,0.002209457,0.003393156,-0.01126771,0.00128697,-0.003472995,-0.008830885,-0.021938363,0.027881159,0.011274652,-0.032324374,0.008393507,0.013919752,0.002164331,0.003148433,0.008657322,-0.007379898,0.004231466,0.016467657,-0.017509034,0.001815469,0.008608725,0.003441754,0.007074428,-0.018689264,-0.003176203,-0.02846433,-0.039100271,0.036489885,-0.012079984,0.00870592,0.021577351,-0.030213846,0.007084841,-0.001184567,-0.007949186,-0.018717034,0.007303531,0.013794786,-0.049264122,0.004946545,0.037295215,0.036906436,0.002462859,-0.023396291,-0.008539299,0.029658444,-0.024687599,0.006053877,-0.007942243,-0.001625417,0.01564844,0.051652346,0.009997228,0.053512942,-0.004856293,-0.020896984,-0.010955296,-0.008455989,-0.001860595,0.007400726,0.000452999,0.001843239,-0.000993648,0.038100548,-0.023854498,-0.030019455,0.013357408,0.00334803,0.038794801,-0.023798957,-0.01757846,0.028991962,-0.029797295,-0.032629844,-0.010615112,0.016467657,0.012642329,0.032157753,0.042349372,-0.017647885,0.013760074,0.005908084,-0.018953079,0.03837825,0.010830331,0.010767848,0.002183422,0.001637567,0.010163849,0.01961956,0.019105814,0.03140796,0.026214955,0.022910316,-0.002044572,0.002594767,-0.019661216,0.030741477,0.03571232,-0.005293672,-0.003217858,0.029852835,0.010483204,-0.019091928,-0.027297987,0.016703703,-0.012739523,-0.023535142,0.018231057,0.014357131,-0.010191619,0.033185244,0.004148155,-0.001533429,0.02267427,0.002074078,-0.009990286,-0.031796742,0.013753132,-0.033268556,-0.026742587,0.004589005,-0.00399542,-0.000664312,-0.022341028,-0.019105814,0.01961956,0.0417662,-0.064537667,-0.007345186,0.034545977,0.032241061,-0.017092483,0.020452663,-0.008962793
Sc1_A,0.037350755,-0.027089711,-0.004592477,0.034684829,0.028339365,-0.053679563,-0.017328529,0.031296879,-0.023174131,0.012621501,0.006945991,0.013024167,-0.038794801,-9.75E-05,0.031213569,0.064315505,-0.014162741,-0.008823942,0.005626912,0.000113358,0.023132475,-0.009545964,-0.021230225,0.011163572,-0.015620669,0.005186062,-0.031324647,0.043154702,0.018480988,-0.023562912,-0.022827005,-0.011649548,0.009816723,-0.025840059,0.033685107,0.029852835,0.034323819,-0.043543484,0.043626793,-0.038905881,0.007185508,-0.013058879,0.001134234,0.038267169,-0.011982789,0.033462945,0.012420168,0.005581786,0.056845352,0.029186353,-0.036378805,0.009677872,0.018953079,0.046376031,-0.010594285,0.002603445,-0.000192546,0.029602904,0.025229117,0.015967796,0.033851728,-0.00898362,0.028686492,0.041016407,-0.042460449,0.020535974,-0.024229394,-0.034212738,-0.013378236,0.006477371,0.099472426,0.043654565,-0.011205227,0.016675932,-0.010497089,-0.049402971,-0.02289643,-0.00961539,-0.023201901,-0.079200268,-0.000966746,0.019786181,0.001552521,0.007105669,-0.018411562,-0.020258272,-0.031991132,0.007692312,-0.063760102,0.004037075,0.028200515,0.003936409,0.011010836,-0.013822556,0.045931712,0.025229117,-0.037850618,-0.012906144,-0.013697592,-0.001898779,0.044737596,-0.044015575,-0.004668844,0.016509311,0.03812832,-0.028880883,0.027853388,-0.008358793,0.033907268,-0.026770355,-0.137739599,0.025867829,0.018022781,-0.007192451,0.01718968,-0.009816723,0.002153917,0.011198284,0.025409622,0.014884762,-0.023549028,0.002173009,0.002825605,-0.020716479,0.041877277,-0.068814255,0.008476817,0.01259373,-0.033268556,-0.02628438,0.033046395,0.006033049,-0.05676204,-0.055984478,-0.022188293,-0.058594868,-0.052207749,0.025867829,-0.011587066,-0.040655397,0.004943074,-0.009296034,0.009316862,0.012996397,0.070924781,-0.018258827,0.036961976,0.044848677,-0.010094424,0.044765368,0.016439887,-0.010344354,-0.025215231,0.014482096,0.052513219,-0.016314922,0.036239952,0.008185231,-0.034518208,0.037156366,0.009434884,-0.051957816,-0.006130245,-0.016550967,-0.021646777,-0.026631506,-0.076478794,-0.019091928,-0.058594868,0.003651765,-0.030713707,-0.028020009,-0.02840879,0.062593758,0.044376586,-0.033351865,0.000718551,-0.020327698,0.005425579,0.05287423,0.02295197,0.011316307,-0.045848399,-0.009275206,-0.003919052,0.013558741,-0.008962793,0.02152181,0.00884477,0.010990009,-0.012517363,0.027159138,0.002294503,-0.018703148,0.077922843,-0.031685662,0.011975846,0.052096669,-0.00396765,0.021966133,0.018383792,-0.036267724,0.020133307,-0.011843938,0.00300264,0.00551236,0.007532634,0.004054431,-0.036239952,-0.055623468,0.051346876,-0.01308665,0.013475431,-0.014843107,-0.031685662,-0.009879205,0.025020842,0.048653178,-0.021035835,0.024312705,-0.022507649,0.012468765,0.003901696,0.019355744,0.030158306,0.027867274,0.054512665,-0.077645138,0.004786867,-0.026062218,0.059816752,-0.005359625,-0.032046672,-0.012892259,-0.024104429,-0.013891982,0.005762292,0.041488498,0.023549028,0.005422108,-0.016606508,0.008185231,0.069813982,0.044376586,-0.043210242,0.007768679,-0.033823956,-0.078200541,0.030074995,0.010920583,0.072035588,0.045765091,-0.001973411,0.033046395,-0.003132812,-0.039572362,-0.015690094,-0.047014743,0.036712043,-0.062482677,0.039128043,-0.020660939,0.013676764,-0.014100257,0.023965579,-0.011753686,0.049680673,0.013065822,0.018272713,0.034601517,-0.044209965,-0.00953208,-0.007296588,0.00631075,-0.022604844,-0.014086372,-0.007574289,0.014995842,0.036323264,0.011392675,0.032046672,0.028519871,0.025548473,0.004755626,-0.019203009,0.015384624,0.007490979,0.006890451,0.009719527,-0.005755349,-0.016773127,-0.041099716,0.003596225,0.055345766,0.006029578,-0.002459388,-0.012107754,0.006772428,0.016051106,-0.005810889,0.09797284,-0.042765923,0.01564844,0.023549028,0.002665928,0.015440164,0.002278882,-0.027853388,-0.002568732,0.011253824,0.005269372,-0.000217822,0.014287706,-0.034573749,-0.014010005,-0.017731195,0.009587619,-0.007595117,-0.002771801,-0.00870592,-0.003738547,-0.003092892,0.027061941,-0.036489885,-0.018161632,-0.030602627,0.067036971,-0.00787976,0.014384901,-0.003908639,-0.006841853,-0.072035588,-0.003981535,0.000702496,-0.016620392,-0.036156643,-0.044959757,-0.023896152,0.053624023,-0.002827341,0.002967927,-0.065148607,-0.036878664,-0.003216122,0.007699254,0.001213205,0.02485422,-0.002771801,0.025159692,0.027783964,-0.039711215,0.023465717,-0.019952802,-0.006703003,-0.047320213,-0.031602349,0.050152764,-0.002209457,-0.044182196,0.020591514,0.008976678,-0.040599857,0.024965301,0.018494872,-0.057484064,-0.023479601,-0.02661762,0.012461822,0.00790753,-0.020313812,0.012850604,-0.008171346,0.004172455,0.012336858,-0.010927526,0.110913694,-0.01606499,-0.045931712,-0.027325757,0.026659276,0.003957236,0.082421593,0.012281317,-0.027992239,0.032990854,0.006321164,0.017953357,-0.036573194,-0.004540408,0.038822569,0.009240494,-0.015176348,-0.015801175,0.034018345,0.010781733,-0.013051937,0.00380103,0.016745357,0.069203034,0.002497572,0.010941411,0.029630674,0.009087758,0.064593203,0.003606639,0.027506264,0.019564021,-0.040072225,-0.002874203,0.044654287,-0.019897262,0.012996397,0.029741755,-0.004998614,0.011406559,0.00413427,0.003440019,-0.00892808,0.034490436,0.014398786,-0.058761489,-0.027714539,-0.026714817,-0.023271326,0.014718141,0.042238291,0.066703729,-0.063482404,0.039794523,-0.019050274,0.003254306,0.023354637,0.025965024,-0.029158583,-0.034407128,-0.002679813,0.011094146,0.005560958,0.009247436,-0.053568482,-0.019966686,-0.016981402,-0.04929189,0.01126771,-0.00194217,0.027034171,0.068314396,-0.004037075,-0.024673715,-0.007997783,0.018147746,-0.024354359,-0.01573175,0.014565406,-0.009184954,0.075367995,-0.006237854,0.026478771,0.028797572,-0.020133307,0.008386564,0.010149964,-0.026020564,0.000661275,-0.00349903,-0.082810372,0.023937808,-0.019522365,0.022132752,-0.03923912,0.02804778,-0.033185244,0.010927526,-0.013989178,-0.020924754,-0.009289091,-0.003762846,0.021202454,0.016217725,-0.013315753,0.054762594,0.020202732,0.005286729,0.027131367,0.010740078,-0.048569869,0.030436007,-0.020299928,-0.005623441,0.025298541,-0.04171066,-0.009962516,0.028991962,-0.015467934,0.02300751,-0.051569037,-0.037489608,-0.008317139,-0.006859209,0.007643714,0.001446648,-0.012732581,-0.002709318,0.031324647,-0.037739538,0.020772019,-0.002825605,0.013565684,0.002129618,-0.008574012,-0.033907268,-0.010337411,0.006522497,0.012364628,-0.002252848,0.008199116,0.006685647,0.013780901,-0.023743417,-0.023965579,0.014329361,0.023049166,-0.029464053,-0.011656491,0.049514052,0.022091098,-0.050708164,-0.035962254,-0.018633723,-0.017203564,0.011934191,0.006168429,0.01419051,0.05226329,-0.038905881,0.033740647,-0.003349766,-0.038211629,-0.016301036,-0.013773959,-0.014176626,-0.001884894,0.028547641,0.02334075,0.003644823,0.017439609,0.03807278,-0.021063605,-0.003363651,0.042515989,0.044432126,0.00644613,0.014169683,-0.01603722,0.012253547,0.021632891,-0.043265782,0.018703148,0.00083614,0.026464885,-0.047708996,0.007036244,0.043432403,-0.025992794,-0.031657889,0.013406006,0.022410454,0.04873649,-0.005762292,0.013871155,0.00163236,-0.00606082,-0.019564021,-0.032852005,0.030574856,0.002429882,0.004422385,-0.012114697,-0.011448215,0.019911146,-0.018578183,-0.01903639,-0.036156643,0.036850896,-0.057539605,0.029769525,-0.001613268,0.004797281,0.028686492,0.054207195,-0.01245488,-0.002872468,-0.036378805,0.015967796,0.036517654,0.017634001,-0.011843938,-0.028353252,-0.000275965,-0.033157475,-0.005137464,-0.003998891,-0.036295492,-0.004936132,-0.008199116,0.013586511,0.014287706,-0.02446544,0.012961685,-0.025326312,0.021605121,-0.013412948,0.029991684,-0.023118591,-0.042738151,0.01132325,-0.00334803,-0.021591237,0.034462668,-0.027048057,-0.016051106,-0.00165232,-0.024632061,0.032768693,-0.009365459,-0.029019732,-0.058261625,0.012663156,0.020383239,-0.003306375,0.02485422,0.002985283,-0.002884617,-0.036323264,0.01903639,-0.028311595,-0.002719732,-0.004908361,-0.018855883,-0.012350743,0.03862818,0.016176071,0.029408514,0.030797018,-0.011934191,0.007317416,0.008372678,0.013912809,-0.012184123,-0.057983924,-0.018730918,0.002502778,0.024409899,0.010941411,0.009941688,0.008539299,-0.012968627,-0.015967796,-0.000897321,0.023132475,-0.006425302,0.018161632,-0.003783673,0.013149132,0.007497921,0.007664542,0.006411417,0.000216086,-0.006366291,0.028256055,0.049097501,0.004609833,0.031935591,0.045154147,-0.008976678,0.032129981,-0.00119932,0.018661493,0.005880314,0.010143021,0.00702583,0.039516822,0.00380103,-0.015093038,-0.026187185,0.002624272,0.039433513,-0.033018623,0.001431027,-0.021549581,-0.007789507,0.010038883,0.00407873,-0.017661771,-0.012760351,0.007886702,-0.014954188,0.008115806,-0.006991117,-0.09130802,-0.016231611,-0.016439887,-0.046070561,0.010753963,-0.031491268,-0.030519316,0.000229103,-0.002908916,0.016162187,-0.029047502,-0.014745912,0.015995566,-0.027284103,0.033796187,-0.027145252,-0.025756748,0.008199116,0.031741202,-0.028089436,0.006630106,-0.029519593,0.020286042,-0.02815886,-0.019855607,-0.020286042,0.003278605,0.005942797,-0.023257442,-0.059372429,0.021146916,-0.026867552,0.007553461,0.006119831,0.006286452,-0.023410177,0.017786736,-0.0193974,0.028492101,-0.031352419,0.022104982,-0.005790061,-0.008810057,-0.019480711,-0.00205325,0.01154541,-0.002240698,-0.039794523,0.022007788,-0.023368521,0.044265505,-0.013440718,0.013794786,0.005672039,-1.24E-05,0.010288814,-0.0141072,0.006845324,0.020966409,0.000303952,0.043460172,0.012656214,0.015273543,-0.011357962,0.03207444,0.008428219,0.027353527,0.022632614,0.009594562,-0.033574026,-0.039600134,-0.007831162,-0.052207749,-0.001200188,0.002048043,0.030908098,-0.016537081,0.014058602,0.036961976,-0.006137188,-0.023437947,0.062316056,-0.000458206,-0.052652068,-0.04504307,0.016578738,0.008310196,-0.005602614,-0.041155256,-0.026409345,-0.049569592,0.013676764,-0.002310124,0.023951693,-0.012697869,-0.005307556,-0.013489316,-0.037239674,-0.030658167,-0.029130813,0.002535755,-0.015995566,-0.033240784,-0.005699809,0.026839782,0.002632951,0.033490714,-0.062649295,0.053679563,0.003011318,-0.030380467,-0.016259382,0.004724385,-0.004328661,-0.056401029,-0.005633855,-0.063982263,0.016023336,-0.002101848,-0.023604566,-0.031991132,0.000648692,0.003700363,-0.031741202,-0.012628444,-0.017384069,-0.026478771,0.029547364,-0.051346876,-0.007171623,-0.013871155,-0.000363831,-0.006654405,0.017231334,0.017050829,0.01760623,0.043126933,0.004828522,0.009830608,-0.009337689,0.022229949,-0.003309846,0.033046395,-0.028394906,-0.005495004,-0.002044572,-0.015023612,-0.008532356,-0.001670544,-0.012003616,-0.013739247,-0.029186353,-0.020383239,0.003509444,-0.038767029,0.013815614,0.001070016,0.006807141,-0.03893365,-0.00631075,0.000226283,0.025840059,-0.011906422,0.028519871,0.027200792,-0.013718419,-0.020674823,-0.016717587,-0.003500766,0.01316996,0.019203009,-0.031685662,0.004922247,-0.027297987,0.000203394,0.001706124,0.011010836,-0.020841444,0.003873926,0.017953357,0.035434622,0.041516267,-0.015717864,0.020924754,-0.000740246,-0.016787013,-0.015537359,0.024159968,0.001569877,0.019439055,-0.024604291,-0.049875062,-0.026201069,-0.008803115,-0.03832271,0.009941688,0.036517654,-0.007178565,0.00625521,-0.034129426,-0.010156906,-0.013010282,-0.017120253,-0.01721745,0.013447661,-0.005213832,-0.003748961,0.016370462,-0.003019996,0.008574012,-0.026076104,-0.011781456,-0.031296879,0.001238372,0.02807555,-0.005435993,0.030574856,0.001320814,0.004956959,-0.017897816,-0.002790893,0.001411935,0.01325327,0.034073886,-0.002074078,0.015023612,-0.018855883,-0.011475985,0.001181096,-0.002002917,0.004266178,-0.004880591,-0.001248786,-0.006567623,0.057372984,0.011802283,0.020938639,-0.019522365,0.006900865,0.01788393,-0.000370123,-0.018717034,0.001326021,-0.026006678,0.004307834,0.005158292,0.001924814,0.024895877,-0.019591792,0.029297434,-0.017453495,0.029602904,-0.010115251,0.040905327,-0.026923092,-0.007324358,-0.047681227,0.020716479,0.006241325,0.009004449,-0.012711754,8.42E-05,0.019827837,-0.045542929,0.008879483,-0.016953634,-0.033462945,-0.056289949,-0.012468765,-0.020758133,0.009344632,-0.006203142,-0.001985561,0.004162041,0.011892537,-0.027603459,0.001971676,0.023146361,-0.013989178,0.016995288,-0.023979463,0.007470151,0.023660107,0.014495981,-0.011670375,0.005074982,-0.022535419,-0.018078322,0.025548473,0.00787976,0.026298264,0.010101366,0.003516386,0.005182591,0.011816168,-0.000396374,-0.004189811,-0.004016248,-0.015287428,0.012822834,0.037961699,0.013301868,-0.001240975,0.012336858,-0.022563189,-0.015079153,-0.004207167,0.008469874,0.022396568,0.004384201,-0.040294383,-0.005529717,0.015315198,0.024687599,-0.022021672,0.01319773,0.000626129,-0.017120253,-0.011101089,-0.021952247,0.020633169,-0.008587897,-0.006425302,0.003821857,0.005727579,0.002230285,-0.01780062,0.00561997,-0.010733135,0.01752292,-0.009365459,0.013072765,0.032713152,-0.00399542,-0.004807695,0.001654055,0.036656503,-0.045487389,0.024396013,0.015967796,-0.015245773,-0.036017794,0.005387395,-0.00710914,0.014148856,0.018800344,-0.011913364,-0.026437115,-0.037156366,0.037933927,0.052235518,-0.031991132,-0.023118591,0.002707583,0.006609279,0.036156643,-0.02813109,-0.014620947,0.025715092,-0.028742032,0.029880606,-0.042432681,0.027159138,-0.010469319,-0.029491823,0.026214955,0.018661493,0.024868106,0.027200792,0.001030964,0.042099439,0.00460289,-0.005852544,0.011309365,-0.031741202,0.014856992,-0.007803392,-0.006453072,-0.023798957,0.032657612,-0.017509034,-0.005845602,-0.002634686,-0.037017517,0.008948908,0.002912387,-0.050569315,-0.002037629,0.001978618,0.012295202,-0.000740246,-0.022174409,-0.008143576,0.006303808,0.007366013,0.062149435,-0.006008751,-0.010337411,0.034823678,-0.000424795,0.02471537,0.033157475,0.017592344,0.005734521,-0.019897262,-0.005713694,-0.011281595,-0.014329361,-0.038017239,-0.030824788,-0.001841503,0.030047225,0.001815469,-0.000316969,0.003138019,0.015940025,0.016634278,-0.016828667,-0.033157475,-0.017911701,0.009539022,0.025062496,-0.005765763,-0.003098099,0.014232165,-0.009018333,-0.025437392,-0.002037629,-0.008643437,-0.018911423,0.028825343,0.003172731,-0.022840889,0.025090266,-0.020522088,0.019230779,0.023785073,-0.018147746,-0.018841999,-0.023729533,0.009094701,-0.001471814,0.000209903,0.014940303,-0.001283498,-0.015273543,-0.02446544,-0.009323804,0.084198877,-0.002278882,-0.011781456,-0.014801452,-0.007338244,-0.031546809,0.011219112,0.00506804,-0.026867552,-0.002766594,-0.005304085,0.003599697,0.01132325,-0.019952802,0.025034726,-0.01388504,-0.029991684,-0.002842962,0.003419191,-0.008629552,0.015967796,-0.023590682,0.02595114,-0.030102765,-0.032296602,-0.001862331,-0.00213656,0.012468765,0.019105814,0.038294937,0.029602904,0.013607339,-0.001262671,0.006196199,0.013010282,0.025812289,0.034046117,-0.060594313,-0.000469922,-0.02267427,0.006616221,0.010684538,-0.017620115,-0.051707886,0.029602904,-0.005057625,-0.020091653,0.006852267,0.001193246,0.008643437,0.010323527,0.020341583,-0.00694252,0.002317066,0.003434812,-0.018036665,0.032574303,0.006425302,-0.004811166,0.004911833,-0.00980978,0.035212461,-0.018314367,-0.031158028,0.030297156,-0.044071116,0.010698423,0.051041406,-0.014141913,-0.007050129,-0.021868937,-0.002174744,0.018592067,-0.013093593,0.023687877,0.009219666,0.003738547,0.022521535,-0.011836996,-0.046320491,0.000357974,-0.014648717,-0.01143433,-0.043460172,-0.031296879,-0.040794246,0.015606784,0.004585534,-0.01044155,0.00699806,-0.013579569,0.012440995,-0.000530669,0.035878941,0.020744249,-0.002091434,-0.049625132,-0.011239939,-0.00878923,0.000275965,0.032685384,-0.015884485,0.002223342,0.013905867,0.00188663,-0.044820908,-0.028061666,-0.011059434,-0.012434053,0.010531803,-0.002225077,-0.00542905,0.048375476,-0.016217725,0.034212738,-0.00947654,0.01788393,-0.019203009,-0.015218004,-0.012892259,-0.012920029,0.002079285,-0.005074982,-0.015495704,0.042599302,-0.001235769,0.034518208,0.037045285,-0.008629552,-0.036212184,-0.014204395,0.036073331,0.002665928,-0.012677041,-0.002931479,-0.007754794,0.004863235,0.019994456,-0.012184123,0.009400172,-0.004193282,4.17E-05,-0.028880883,-0.03929466,0.035462391,-0.026895322,-0.010316584,0.003776731,-0.026076104,0.021896707,0.007727025,0.00476604,0.026714817,-0.002905444,-0.00967093,0.010351297,-0.012552076,0.036101103,-0.037100825,-0.008400449,0.014926418,0.033851728,-0.028547641,-0.005040269,-0.034962531,0.008379621,-0.000416768,-0.018869769,-0.004589005,0.00542905,0.013385178,-0.010288814,-0.00093724,0.001308665,0.011163572,0.005744935,0.01168426,-0.011316307,-0.013989178,0.006550267,-0.001352924,-0.036573194,-0.005252016,-0.010969182,-0.003035617,0.024118314,-0.007220221,-0.019175239,-0.00231533,0.003210915,0.018953079,-0.028797572,-0.003630938,0.023299096,0.007838105,0.028853113,-0.00435296,-0.059927829,-0.018717034,0.027728423,0.001706992,-0.014884762,-0.01226049,0.024729256,0.002398641,-0.007928357,0.008324081,0.026187185,-0.008664264,-0.005408223,-0.006376704,-0.017786736,0.009684815,-0.008754517,-0.01041378,-0.01311442,-0.009539022,0.020216618,0.02270204,0.004130799,-0.001050056,0.014114142,-0.003485145,-0.055706777,-0.028603181,0.064204425,-0.001221016,-0.034129426,-0.011274652,-0.038267169,0.013808671,0.020188848,0.005168706,-0.014197453,-0.004703557,-0.01052486,-0.025965024,-0.014759797,0.011212169,0.01311442,0.023729533,-0.026742587,0.000380103,-0.008775345,-0.012385455,0.019411284,0.008268541,0.003620524,-0.003342823,0.022299374,0.010837274,0.034323819,-0.021646777,-0.015454049,0.002209457,0.003393156,-0.01126771,0.00128697,-0.003472995,-0.008830885,-0.021938363,0.027881159,0.011274652,-0.032324374,0.008393507,0.013919752,0.002164331,0.003148433,0.008657322,-0.007379898,0.004231466,0.016467657,-0.017509034,0.001815469,0.008608725,0.003441754,0.007074428,-0.018689264,-0.003176203,-0.02846433,-0.039100271,0.036489885,-0.012079984,0.00870592,0.021577351,-0.030213846,0.007084841,-0.001184567,-0.007949186,-0.018717034,0.007303531,0.013794786,-0.049264122,0.004946545,0.037295215,0.036906436,0.002462859,-0.023396291,-0.008539299,0.029658444,-0.024687599,0.006053877,-0.007942243,-0.001625417,0.01564844,0.051652346,0.009997228,0.053512942,-0.004856293,-0.020896984,-0.010955296,-0.008455989,-0.001860595,0.007400726,0.000452999,0.001843239,-0.000993648,0.038100548,-0.023854498,-0.030019455,0.013357408,0.00334803,0.038794801,-0.023798957,-0.01757846,0.028991962,-0.029797295,-0.032629844,-0.010615112,0.016467657,0.012642329,0.032157753,0.042349372,-0.017647885,0.013760074,0.005908084,-0.018953079,0.03837825,0.010830331,0.010767848,0.002183422,0.001637567,0.010163849,0.01961956,0.019105814,0.03140796,0.026214955,0.022910316,-0.002044572,0.002594767,-0.019661216,0.030741477,0.03571232,-0.005293672,-0.003217858,0.029852835,0.010483204,-0.019091928,-0.027297987,0.016703703,-0.012739523,-0.023535142,0.018231057,0.014357131,-0.010191619,0.033185244,0.004148155,-0.001533429,0.02267427,0.002074078,-0.009990286,-0.031796742,0.013753132,-0.033268556,-0.026742587,0.004589005,-0.00399542,-0.000664312,-0.022341028,-0.019105814,0.01961956,0.0417662,-0.064537667,-0.007345186,0.034545977,0.032241061,-0.017092483,0.020452663,-0.008962793
Sc1_A,0.037350755,-0.027089711,-0.004592477,0.034684829,0.028339365,-0.053679563,-0.017328529,0.031296879,-0.023174131,0.012621501,0.006945991,0.013024167,-0.038794801,-9.75E-05,0.031213569,0.064315505,-0.014162741,-0.008823942,0.005626912,0.000113358,0.023132475,-0.009545964,-0.021230225,0.011163572,-0.015620669,0.005186062,-0.031324647,0.043154702,0.018480988,-0.023562912,-0.022827005,-0.011649548,0.009816723,-0.025840059,0.033685107,0.029852835,0.034323819,-0.043543484,0.043626793,-0.038905881,0.007185508,-0.013058879,0.001134234,0.038267169,-0.011982789,0.033462945,0.012420168,0.005581786,0.056845352,0.029186353,-0.036378805,0.009677872,0.018953079,0.046376031,-0.010594285,0.002603445,-0.000192546,0.029602904,0.025229117,0.015967796,0.033851728,-0.00898362,0.028686492,0.041016407,-0.042460449,0.020535974,-0.024229394,-0.034212738,-0.013378236,0.006477371,0.099472426,0.043654565,-0.011205227,0.016675932,-0.010497089,-0.049402971,-0.02289643,-0.00961539,-0.023201901,-0.079200268,-0.000966746,0.019786181,0.001552521,0.007105669,-0.018411562,-0.020258272,-0.031991132,0.007692312,-0.063760102,0.004037075,0.028200515,0.003936409,0.011010836,-0.013822556,0.045931712,0.025229117,-0.037850618,-0.012906144,-0.013697592,-0.001898779,0.044737596,-0.044015575,-0.004668844,0.016509311,0.03812832,-0.028880883,0.027853388,-0.008358793,0.033907268,-0.026770355,-0.137739599,0.025867829,0.018022781,-0.007192451,0.01718968,-0.009816723,0.002153917,0.011198284,0.025409622,0.014884762,-0.023549028,0.002173009,0.002825605,-0.020716479,0.041877277,-0.068814255,0.008476817,0.01259373,-0.033268556,-0.02628438,0.033046395,0.006033049,-0.05676204,-0.055984478,-0.022188293,-0.058594868,-0.052207749,0.025867829,-0.011587066,-0.040655397,0.004943074,-0.009296034,0.009316862,0.012996397,0.070924781,-0.018258827,0.036961976,0.044848677,-0.010094424,0.044765368,0.016439887,-0.010344354,-0.025215231,0.014482096,0.052513219,-0.016314922,0.036239952,0.008185231,-0.034518208,0.037156366,0.009434884,-0.051957816,-0.006130245,-0.016550967,-0.021646777,-0.026631506,-0.076478794,-0.019091928,-0.058594868,0.003651765,-0.030713707,-0.028020009,-0.02840879,0.062593758,0.044376586,-0.033351865,0.000718551,-0.020327698,0.005425579,0.05287423,0.02295197,0.011316307,-0.045848399,-0.009275206,-0.003919052,0.013558741,-0.008962793,0.02152181,0.00884477,0.010990009,-0.012517363,0.027159138,0.002294503,-0.018703148,0.077922843,-0.031685662,0.011975846,0.052096669,-0.00396765,0.021966133,0.018383792,-0.036267724,0.020133307,-0.011843938,0.00300264,0.00551236,0.007532634,0.004054431,-0.036239952,-0.055623468,0.051346876,-0.01308665,0.013475431,-0.014843107,-0.031685662,-0.009879205,0.025020842,0.048653178,-0.021035835,0.024312705,-0.022507649,0.012468765,0.003901696,0.019355744,0.030158306,0.027867274,0.054512665,-0.077645138,0.004786867,-0.026062218,0.059816752,-0.005359625,-0.032046672,-0.012892259,-0.024104429,-0.013891982,0.005762292,0.041488498,0.023549028,0.005422108,-0.016606508,0.008185231,0.069813982,0.044376586,-0.043210242,0.007768679,-0.033823956,-0.078200541,0.030074995,0.010920583,0.072035588,0.045765091,-0.001973411,0.033046395,-0.003132812,-0.039572362,-0.015690094,-0.047014743,0.036712043,-0.062482677,0.039128043,-0.020660939,0.013676764,-0.014100257,0.023965579,-0.011753686,0.049680673,0.013065822,0.018272713,0.034601517,-0.044209965,-0.00953208,-0.007296588,0.00631075,-0.022604844,-0.014086372,-0.007574289,0.014995842,0.036323264,0.011392675,0.032046672,0.028519871,0.025548473,0.004755626,-0.019203009,0.015384624,0.007490979,0.006890451,0.009719527,-0.005755349,-0.016773127,-0.041099716,0.003596225,0.055345766,0.006029578,-0.002459388,-0.012107754,0.006772428,0.016051106,-0.005810889,0.09797284,-0.042765923,0.01564844,0.023549028,0.002665928,0.015440164,0.002278882,-0.027853388,-0.002568732,0.011253824,0.005269372,-0.000217822,0.014287706,-0.034573749,-0.014010005,-0.017731195,0.009587619,-0.007595117,-0.002771801,-0.00870592,-0.003738547,-0.003092892,0.027061941,-0.036489885,-0.018161632,-0.030602627,0.067036971,-0.00787976,0.014384901,-0.003908639,-0.006841853,-0.072035588,-0.003981535,0.000702496,-0.016620392,-0.036156643,-0.044959757,-0.023896152,0.053624023,-0.002827341,0.002967927,-0.065148607,-0.036878664,-0.003216122,0.007699254,0.001213205,0.02485422,-0.002771801,0.025159692,0.027783964,-0.039711215,0.023465717,-0.019952802,-0.006703003,-0.047320213,-0.031602349,0.050152764,-0.002209457,-0.044182196,0.020591514,0.008976678,-0.040599857,0.024965301,0.018494872,-0.057484064,-0.023479601,-0.02661762,0.012461822,0.00790753,-0.020313812,0.012850604,-0.008171346,0.004172455,0.012336858,-0.010927526,0.110913694,-0.01606499,-0.045931712,-0.027325757,0.026659276,0.003957236,0.082421593,0.012281317,-0.027992239,0.032990854,0.006321164,0.017953357,-0.036573194,-0.004540408,0.038822569,0.009240494,-0.015176348,-0.015801175,0.034018345,0.010781733,-0.013051937,0.00380103,0.016745357,0.069203034,0.002497572,0.010941411,0.029630674,0.009087758,0.064593203,0.003606639,0.027506264,0.019564021,-0.040072225,-0.002874203,0.044654287,-0.019897262,0.012996397,0.029741755,-0.004998614,0.011406559,0.00413427,0.003440019,-0.00892808,0.034490436,0.014398786,-0.058761489,-0.027714539,-0.026714817,-0.023271326,0.014718141,0.042238291,0.066703729,-0.063482404,0.039794523,-0.019050274,0.003254306,0.023354637,0.025965024,-0.029158583,-0.034407128,-0.002679813,0.011094146,0.005560958,0.009247436,-0.053568482,-0.019966686,-0.016981402,-0.04929189,0.01126771,-0.00194217,0.027034171,0.068314396,-0.004037075,-0.024673715,-0.007997783,0.018147746,-0.024354359,-0.01573175,0.014565406,-0.009184954,0.075367995,-0.006237854,0.026478771,0.028797572,-0.020133307,0.008386564,0.010149964,-0.026020564,0.000661275,-0.00349903,-0.082810372,0.023937808,-0.019522365,0.022132752,-0.03923912,0.02804778,-0.033185244,0.010927526,-0.013989178,-0.020924754,-0.009289091,-0.003762846,0.021202454,0.016217725,-0.013315753,0.054762594,0.020202732,0.005286729,0.027131367,0.010740078,-0.048569869,0.030436007,-0.020299928,-0.005623441,0.025298541,-0.04171066,-0.009962516,0.028991962,-0.015467934,0.02300751,-0.051569037,-0.037489608,-0.008317139,-0.006859209,0.007643714,0.001446648,-0.012732581,-0.002709318,0.031324647,-0.037739538,0.020772019,-0.002825605,0.013565684,0.002129618,-0.008574012,-0.033907268,-0.010337411,0.006522497,0.012364628,-0.002252848,0.008199116,0.006685647,0.013780901,-0.023743417,-0.023965579,0.014329361,0.023049166,-0.029464053,-0.011656491,0.049514052,0.022091098,-0.050708164,-0.035962254,-0.018633723,-0.017203564,0.011934191,0.006168429,0.01419051,0.05226329,-0.038905881,0.033740647,-0.003349766,-0.038211629,-0.016301036,-0.013773959,-0.014176626,-0.001884894,0.028547641,0.02334075,0.003644823,0.017439609,0.03807278,-0.021063605,-0.003363651,0.042515989,0.044432126,0.00644613,0.014169683,-0.01603722,0.012253547,0.021632891,-0.043265782,0.018703148,0.00083614,0.026464885,-0.047708996,0.007036244,0.043432403,-0.025992794,-0.031657889,0.013406006,0.022410454,0.04873649,-0.005762292,0.013871155,0.00163236,-0.00606082,-0.019564021,-0.032852005,0.030574856,0.002429882,0.004422385,-0.012114697,-0.011448215,0.019911146,-0.018578183,-0.01903639,-0.036156643,0.036850896,-0.057539605,0.029769525,-0.001613268,0.004797281,0.028686492,0.054207195,-0.01245488,-0.002872468,-0.036378805,0.015967796,0.036517654,0.017634001,-0.011843938,-0.028353252,-0.000275965,-0.033157475,-0.005137464,-0.003998891,-0.036295492,-0.004936132,-0.008199116,0.013586511,0.014287706,-0.02446544,0.012961685,-0.025326312,0.021605121,-0.013412948,0.029991684,-0.023118591,-0.042738151,0.01132325,-0.00334803,-0.021591237,0.034462668,-0.027048057,-0.016051106,-0.00165232,-0.024632061,0.032768693,-0.009365459,-0.029019732,-0.058261625,0.012663156,0.020383239,-0.003306375,0.02485422,0.002985283,-0.002884617,-0.036323264,0.01903639,-0.028311595,-0.002719732,-0.004908361,-0.018855883,-0.012350743,0.03862818,0.016176071,0.029408514,0.030797018,-0.011934191,0.007317416,0.008372678,0.013912809,-0.012184123,-0.057983924,-0.018730918,0.002502778,0.024409899,0.010941411,0.009941688,0.008539299,-0.012968627,-0.015967796,-0.000897321,0.023132475,-0.006425302,0.018161632,-0.003783673,0.013149132,0.007497921,0.007664542,0.006411417,0.000216086,-0.006366291,0.028256055,0.049097501,0.004609833,0.031935591,0.045154147,-0.008976678,0.032129981,-0.00119932,0.018661493,0.005880314,0.010143021,0.00702583,0.039516822,0.00380103,-0.015093038,-0.026187185,0.002624272,0.039433513,-0.033018623,0.001431027,-0.021549581,-0.007789507,0.010038883,0.00407873,-0.017661771,-0.012760351,0.007886702,-0.014954188,0.008115806,-0.006991117,-0.09130802,-0.016231611,-0.016439887,-0.046070561,0.010753963,-0.031491268,-0.030519316,0.000229103,-0.002908916,0.016162187,-0.029047502,-0.014745912,0.015995566,-0.027284103,0.033796187,-0.027145252,-0.025756748,0.008199116,0.031741202,-0.028089436,0.006630106,-0.029519593,0.020286042,-0.02815886,-0.019855607,-0.020286042,0.003278605,0.005942797,-0.023257442,-0.059372429,0.021146916,-0.026867552,0.007553461,0.006119831,0.006286452,-0.023410177,0.017786736,-0.0193974,0.028492101,-0.031352419,0.022104982,-0.005790061,-0.008810057,-0.019480711,-0.00205325,0.01154541,-0.002240698,-0.039794523,0.022007788,-0.023368521,0.044265505,-0.013440718,0.013794786,0.005672039,-1.24E-05,0.010288814,-0.0141072,0.006845324,0.020966409,0.000303952,0.043460172,0.012656214,0.015273543,-0.011357962,0.03207444,0.008428219,0.027353527,0.022632614,0.009594562,-0.033574026,-0.039600134,-0.007831162,-0.052207749,-0.001200188,0.002048043,0.030908098,-0.016537081,0.014058602,0.036961976,-0.006137188,-0.023437947,0.062316056,-0.000458206,-0.052652068,-0.04504307,0.016578738,0.008310196,-0.005602614,-0.041155256,-0.026409345,-0.049569592,0.013676764,-0.002310124,0.023951693,-0.012697869,-0.005307556,-0.013489316,-0.037239674,-0.030658167,-0.029130813,0.002535755,-0.015995566,-0.033240784,-0.005699809,0.026839782,0.002632951,0.033490714,-0.062649295,0.053679563,0.003011318,-0.030380467,-0.016259382,0.004724385,-0.004328661,-0.056401029,-0.005633855,-0.063982263,0.016023336,-0.002101848,-0.023604566,-0.031991132,0.000648692,0.003700363,-0.031741202,-0.012628444,-0.017384069,-0.026478771,0.029547364,-0.051346876,-0.007171623,-0.013871155,-0.000363831,-0.006654405,0.017231334,0.017050829,0.01760623,0.043126933,0.004828522,0.009830608,-0.009337689,0.022229949,-0.003309846,0.033046395,-0.028394906,-0.005495004,-0.002044572,-0.015023612,-0.008532356,-0.001670544,-0.012003616,-0.013739247,-0.029186353,-0.020383239,0.003509444,-0.038767029,0.013815614,0.001070016,0.006807141,-0.03893365,-0.00631075,0.000226283,0.025840059,-0.011906422,0.028519871,0.027200792,-0.013718419,-0.020674823,-0.016717587,-0.003500766,0.01316996,0.019203009,-0.031685662,0.004922247,-0.027297987,0.000203394,0.001706124,0.011010836,-0.020841444,0.003873926,0.017953357,0.035434622,0.041516267,-0.015717864,0.020924754,-0.000740246,-0.016787013,-0.015537359,0.024159968,0.001569877,0.019439055,-0.024604291,-0.049875062,-0.026201069,-0.008803115,-0.03832271,0.009941688,0.036517654,-0.007178565,0.00625521,-0.034129426,-0.010156906,-0.013010282,-0.017120253,-0.01721745,0.013447661,-0.005213832,-0.003748961,0.016370462,-0.003019996,0.008574012,-0.026076104,-0.011781456,-0.031296879,0.001238372,0.02807555,-0.005435993,0.030574856,0.001320814,0.004956959,-0.017897816,-0.002790893,0.001411935,0.01325327,0.034073886,-0.002074078,0.015023612,-0.018855883,-0.011475985,0.001181096,-0.002002917,0.004266178,-0.004880591,-0.001248786,-0.006567623,0.057372984,0.011802283,0.020938639,-0.019522365,0.006900865,0.01788393,-0.000370123,-0.018717034,0.001326021,-0.026006678,0.004307834,0.005158292,0.001924814,0.024895877,-0.019591792,0.029297434,-0.017453495,0.029602904,-0.010115251,0.040905327,-0.026923092,-0.007324358,-0.047681227,0.020716479,0.006241325,0.009004449,-0.012711754,8.42E-05,0.019827837,-0.045542929,0.008879483,-0.016953634,-0.033462945,-0.056289949,-0.012468765,-0.020758133,0.009344632,-0.006203142,-0.001985561,0.004162041,0.011892537,-0.027603459,0.001971676,0.023146361,-0.013989178,0.016995288,-0.023979463,0.007470151,0.023660107,0.014495981,-0.011670375,0.005074982,-0.022535419,-0.018078322,0.025548473,0.00787976,0.026298264,0.010101366,0.003516386,0.005182591,0.011816168,-0.000396374,-0.004189811,-0.004016248,-0.015287428,0.012822834,0.037961699,0.013301868,-0.001240975,0.012336858,-0.022563189,-0.015079153,-0.004207167,0.008469874,0.022396568,0.004384201,-0.040294383,-0.005529717,0.015315198,0.024687599,-0.022021672,0.01319773,0.000626129,-0.017120253,-0.011101089,-0.021952247,0.020633169,-0.008587897,-0.006425302,0.003821857,0.005727579,0.002230285,-0.01780062,0.00561997,-0.010733135,0.01752292,-0.009365459,0.013072765,0.032713152,-0.00399542,-0.004807695,0.001654055,0.036656503,-0.045487389,0.024396013,0.015967796,-0.015245773,-0.036017794,0.005387395,-0.00710914,0.014148856,0.018800344,-0.011913364,-0.026437115,-0.037156366,0.037933927,0.052235518,-0.031991132,-0.023118591,0.002707583,0.006609279,0.036156643,-0.02813109,-0.014620947,0.025715092,-0.028742032,0.029880606,-0.042432681,0.027159138,-0.010469319,-0.029491823,0.026214955,0.018661493,0.024868106,0.027200792,0.001030964,0.042099439,0.00460289,-0.005852544,0.011309365,-0.031741202,0.014856992,-0.007803392,-0.006453072,-0.023798957,0.032657612,-0.017509034,-0.005845602,-0.002634686,-0.037017517,0.008948908,0.002912387,-0.050569315,-0.002037629,0.001978618,0.012295202,-0.000740246,-0.022174409,-0.008143576,0.006303808,0.007366013,0.062149435,-0.006008751,-0.010337411,0.034823678,-0.000424795,0.02471537,0.033157475,0.017592344,0.005734521,-0.019897262,-0.005713694,-0.011281595,-0.014329361,-0.038017239,-0.030824788,-0.001841503,0.030047225,0.001815469,-0.000316969,0.003138019,0.015940025,0.016634278,-0.016828667,-0.033157475,-0.017911701,0.009539022,0.025062496,-0.005765763,-0.003098099,0.014232165,-0.009018333,-0.025437392,-0.002037629,-0.008643437,-0.018911423,0.028825343,0.003172731,-0.022840889,0.025090266,-0.020522088,0.019230779,0.023785073,-0.018147746,-0.018841999,-0.023729533,0.009094701,-0.001471814,0.000209903,0.014940303,-0.001283498,-0.015273543,-0.02446544,-0.009323804,0.084198877,-0.002278882,-0.011781456,-0.014801452,-0.007338244,-0.031546809,0.011219112,0.00506804,-0.026867552,-0.002766594,-0.005304085,0.003599697,0.01132325,-0.019952802,0.025034726,-0.01388504,-0.029991684,-0.002842962,0.003419191,-0.008629552,0.015967796,-0.023590682,0.02595114,-0.030102765,-0.032296602,-0.001862331,-0.00213656,0.012468765,0.019105814,0.038294937,0.029602904,0.013607339,-0.001262671,0.006196199,0.013010282,0.025812289,0.034046117,-0.060594313,-0.000469922,-0.02267427,0.006616221,0.010684538,-0.017620115,-0.051707886,0.029602904,-0.005057625,-0.020091653,0.006852267,0.001193246,0.008643437,0.010323527,0.020341583,-0.00694252,0.002317066,0.003434812,-0.018036665,0.032574303,0.006425302,-0.004811166,0.004911833,-0.00980978,0.035212461,-0.018314367,-0.031158028,0.030297156,-0.044071116,0.010698423,0.051041406,-0.014141913,-0.007050129,-0.021868937,-0.002174744,0.018592067,-0.013093593,0.023687877,0.009219666,0.003738547,0.022521535,-0.011836996,-0.046320491,0.000357974,-0.014648717,-0.01143433,-0.043460172,-0.031296879,-0.040794246,0.015606784,0.004585534,-0.01044155,0.00699806,-0.013579569,0.012440995,-0.000530669,0.035878941,0.020744249,-0.002091434,-0.049625132,-0.011239939,-0.00878923,0.000275965,0.032685384,-0.015884485,0.002223342,0.013905867,0.00188663,-0.044820908,-0.028061666,-0.011059434,-0.012434053,0.010531803,-0.002225077,-0.00542905,0.048375476,-0.016217725,0.034212738,-0.00947654,0.01788393,-0.019203009,-0.015218004,-0.012892259,-0.012920029,0.002079285,-0.005074982,-0.015495704,0.042599302,-0.001235769,0.034518208,0.037045285,-0.008629552,-0.036212184,-0.014204395,0.036073331,0.002665928,-0.012677041,-0.002931479,-0.007754794,0.004863235,0.019994456,-0.012184123,0.009400172,-0.004193282,4.17E-05,-0.028880883,-0.03929466,0.035462391,-0.026895322,-0.010316584,0.003776731,-0.026076104,0.021896707,0.007727025,0.00476604,0.026714817,-0.002905444,-0.00967093,0.010351297,-0.012552076,0.036101103,-0.037100825,-0.008400449,0.014926418,0.033851728,-0.028547641,-0.005040269,-0.034962531,0.008379621,-0.000416768,-0.018869769,-0.004589005,0.00542905,0.013385178,-0.010288814,-0.00093724,0.001308665,0.011163572,0.005744935,0.01168426,-0.011316307,-0.013989178,0.006550267,-0.001352924,-0.036573194,-0.005252016,-0.010969182,-0.003035617,0.024118314,-0.007220221,-0.019175239,-0.00231533,0.003210915,0.018953079,-0.028797572,-0.003630938,0.023299096,0.007838105,0.028853113,-0.00435296,-0.059927829,-0.018717034,0.027728423,0.001706992,-0.014884762,-0.01226049,0.024729256,0.002398641,-0.007928357,0.008324081,0.026187185,-0.008664264,-0.005408223,-0.006376704,-0.017786736,0.009684815,-0.008754517,-0.01041378,-0.01311442,-0.009539022,0.020216618,0.02270204,0.004130799,-0.001050056,0.014114142,-0.003485145,-0.055706777,-0.028603181,0.064204425,-0.001221016,-0.034129426,-0.011274652,-0.038267169,0.013808671,0.020188848,0.005168706,-0.014197453,-0.004703557,-0.01052486,-0.025965024,-0.014759797,0.011212169,0.01311442,0.023729533,-0.026742587,0.000380103,-0.008775345,-0.012385455,0.019411284,0.008268541,0.003620524,-0.003342823,0.022299374,0.010837274,0.034323819,-0.021646777,-0.015454049,0.002209457,0.003393156,-0.01126771,0.00128697,-0.003472995,-0.008830885,-0.021938363,0.027881159,0.011274652,-0.032324374,0.008393507,0.013919752,0.002164331,0.003148433,0.008657322,-0.007379898,0.004231466,0.016467657,-0.017509034,0.001815469,0.008608725,0.003441754,0.007074428,-0.018689264,-0.003176203,-0.02846433,-0.039100271,0.036489885,-0.012079984,0.00870592,0.021577351,-0.030213846,0.007084841,-0.001184567,-0.007949186,-0.018717034,0.007303531,0.013794786,-0.049264122,0.004946545,0.037295215,0.036906436,0.002462859,-0.023396291,-0.008539299,0.029658444,-0.024687599,0.006053877,-0.007942243,-0.001625417,0.01564844,0.051652346,0.009997228,0.053512942,-0.004856293,-0.020896984,-0.010955296,-0.008455989,-0.001860595,0.007400726,0.000452999,0.001843239,-0.000993648,0.038100548,-0.023854498,-0.030019455,0.013357408,0.00334803,0.038794801,-0.023798957,-0.01757846,0.028991962,-0.029797295,-0.032629844,-0.010615112,0.016467657,0.012642329,0.032157753,0.042349372,-0.017647885,0.013760074,0.005908084,-0.018953079,0.03837825,0.010830331,0.010767848,0.002183422,0.001637567,0.010163849,0.01961956,0.019105814,0.03140796,0.026214955,0.022910316,-0.002044572,0.002594767,-0.019661216,0.030741477,0.03571232,-0.005293672,-0.003217858,0.029852835,0.010483204,-0.019091928,-0.027297987,0.016703703,-0.012739523,-0.023535142,0.018231057,0.014357131,-0.010191619,0.033185244,0.004148155,-0.001533429,0.02267427,0.002074078,-0.009990286,-0.031796742,0.013753132,-0.033268556,-0.026742587,0.004589005,-0.00399542,-0.000664312,-0.022341028,-0.019105814,0.01961956,0.0417662,-0.064537667,-0.007345186,0.034545977,0.032241061,-0.017092483,0.020452663,-0.008962793
