Author,WE1,WE2,WE3,WE4,WE5,WE6,WE7,WE8,WE9,WE10,WE11,WE12,WE13,WE14,WE15,WE16,WE17,WE18,WE19,WE20,WE21,WE22,WE23,WE24,WE25,WE26,WE27,WE28,WE29,WE30,WE31,WE32,WE33,WE34,WE35,WE36,WE37,WE38,WE39,WE40,WE41,WE42,WE43,WE44,WE45,WE46,WE47,WE48,WE49,WE50,WE51,WE52,WE53,WE54,WE55,WE56,WE57,WE58,WE59,WE60,WE61,WE62,WE63,WE64,WE65,WE66,WE67,WE68,WE69,WE70,WE71,WE72,WE73,WE74,WE75,WE76,WE77,WE78,WE79,WE80,WE81,WE82,WE83,WE84,WE85,WE86,WE87,WE88,WE89,WE90,WE91,WE92,WE93,WE94,WE95,WE96,WE97,WE98,WE99,WE100,WE101,WE102,WE103,WE104,WE105,WE106,WE107,WE108,WE109,WE110,WE111,WE112,WE113,WE114,WE115,WE116,WE117,WE118,WE119,WE120,WE121,WE122,WE123,WE124,WE125,WE126,WE127,WE128,WE129,WE130,WE131,WE132,WE133,WE134,WE135,WE136,WE137,WE138,WE139,WE140,WE141,WE142,WE143,WE144,WE145,WE146,WE147,WE148,WE149,WE150,WE151,WE152,WE153,WE154,WE155,WE156,WE157,WE158,WE159,WE160,WE161,WE162,WE163,WE164,WE165,WE166,WE167,WE168,WE169,WE170,WE171,WE172,WE173,WE174,WE175,WE176,WE177,WE178,WE179,WE180,WE181,WE182,WE183,WE184,WE185,WE186,WE187,WE188,WE189,WE190,WE191,WE192,WE193,WE194,WE195,WE196,WE197,WE198,WE199,WE200,WE201,WE202,WE203,WE204,WE205,WE206,WE207,WE208,WE209,WE210,WE211,WE212,WE213,WE214,WE215,WE216,WE217,WE218,WE219,WE220,WE221,WE222,WE223,WE224,WE225,WE226,WE227,WE228,WE229,WE230,WE231,WE232,WE233,WE234,WE235,WE236,WE237,WE238,WE239,WE240,WE241,WE242,WE243,WE244,WE245,WE246,WE247,WE248,WE249,WE250,WE251,WE252,WE253,WE254,WE255,WE256,WE257,WE258,WE259,WE260,WE261,WE262,WE263,WE264,WE265,WE266,WE267,WE268,WE269,WE270,WE271,WE272,WE273,WE274,WE275,WE276,WE277,WE278,WE279,WE280,WE281,WE282,WE283,WE284,WE285,WE286,WE287,WE288,WE289,WE290,WE291,WE292,WE293,WE294,WE295,WE296,WE297,WE298,WE299,WE300
Sc5_A,-1.6862094,-0.30971068,-1.6543186,0.615292,4.1198215,-0.014072731,0.9035142,3.6565928,-0.1266735,-0.2812608,5.2990823,1.0433729,-3.4345195,1.5992945,1.5863864,1.2261235,0.54068,0.2317212,-0.74323404,-2.2793465,1.3568119,0.11469356,-0.77251905,-0.27001077,-0.10040121,-1.1747564,-2.6459043,-1.3816676,0.038489394,1.6041955,0.2807749,-1.1046505,-0.19811301,-3.1322308,-2.2293892,-0.8058506,-0.8507305,1.544066,0.80354756,0.001895399,0.6526054,-0.08550905,-0.22762449,0.024362963,-1.307213,2.0564787,-0.47244522,-1.2514352,-0.019297693,0.7589795,-1.0086572,1.910949,-0.5756095,-3.4531236,-0.38019156,0.39174324,-0.16754602,1.2041403,1.1891726,-0.8854441,-0.5578525,-1.3636822,0.825076,-1.4438823,1.4636308,1.9248021,-2.6578813,-2.6778045,0.9378154,1.5378237,-0.8818064,-0.87011755,-1.7898644,-0.11914349,-0.058066063,1.2878793,-3.1172192,2.005788,-2.0171056,-0.049420103,-3.7000887,0.15706971,0.93403184,-0.20298192,2.7022476,0.24162892,-1.2380939,-2.0183969,-0.34232193,-0.7470854,-1.0386503,0.82994866,1.6185554,-2.9669034,0.11413092,-1.9705231,1.4754916,-1.0290731,1.0873766,1.4800766,1.5330962,0.78874695,2.611717,2.6328592,-0.02092914,2.9464917,0.5922822,-2.42506,-0.09029646,-2.5153298,0.8942152,0.7455548,-1.7741078,0.8088954,1.1209532,0.41535923,-0.41013965,-0.4521458,0.15138113,-1.3206431,-0.978862,-1.9397233,0.8228877,1.4249585,-1.0931681,-3.2919111,0.5232182,-2.7950375,3.9340115,-0.80170196,-3.3381937,0.52339727,3.9480028,-0.6273246,-0.119219,0.32131615,-1.9763764,-1.2067186,1.9034532,-1.7024342,-1.0794258,0.067862675,-0.49441049,1.3363249,1.4168806,0.09025328,-3.7634585,-0.31009594,1.5741913,1.3823518,0.5797508,1.5583948,-0.022164961,1.2114419,-1.3463304,1.1760012,2.4200063,-0.54581916,-0.8344881,-1.2887977,-0.46382576,-1.9170197,-0.027729005,1.8998603,-1.4126081,-1.218625,-2.6975574,0.47390586,0.06554437,0.67446685,1.216177,-0.26299456,2.3127365,-0.19163048,0.37179795,-0.30189922,0.3013718,0.41426206,-2.1574042,-1.6775349,-0.9341794,-0.38576844,0.9781765,-0.85141844,-1.2442043,0.52880794,-0.7647496,0.01751063,-0.10871749,1.4609619,-0.36194003,-1.5698142,-0.3082161,-1.8208361,0.607368,0.20329718,-2.6586215,-0.30920374,0.55840445,0.19044764,0.40041673,-1.4368774,-0.10525488,-2.0181785,2.4745677,0.14543039,-3.1867971,1.3323877,0.12910256,-0.56588966,1.4347091,1.1907291,-1.3812771,1.4884439,0.90982795,3.0556364,-0.2840146,-2.0512037,-0.8162388,0.09050703,-1.0684091,1.8978183,-0.9494442,0.80023485,-2.0262291,-1.2514348,0.7373188,2.2778826,2.3000102,0.16751759,2.263111,-1.8828659,0.5808326,1.2626275,1.4837109,2.1211858,-1.5082856,0.9666024,-0.18631262,-0.61282957,-0.08890053,-0.25260663,1.0414066,0.20625986,-1.1460397,1.1563364,-3.0050383,0.237386,-0.26346067,1.7436025,0.08419619,-1.482046,-4.689236,0.26138014,0.11204128,-2.0902305,1.4524934,0.6461075,0.0791325,0.5196881,0.605154,4.345979,2.2669668,1.8440912,1.5384668,-0.604384,-1.195279,1.4330492,-2.771053,0.012212579,1.5234113,-0.5364721,0.62658286,-1.6999832,0.65509266,0.27540913,2.1594758,-1.5791873,-0.630078,1.3714621,1.6470622,0.6311814,1.0726858,0.5994379,1.5044734,-0.9760849,-1.3555665,0.48412952,-0.6555981,0.077907205,-0.13941693,0.32849845,0.14279397,-0.9950755,-0.89179456,1.1839439,0.32104006,-1.2574773,-2.3237407,-0.26037878
Sc5_A,-1.3597271,-0.23310567,-1.7123564,0.36403885,3.8553772,0.07413494,0.62092936,3.646184,0.14911467,-0.700978,4.881212,0.8847844,-3.0550156,1.3229827,1.6614742,0.7980375,0.65863764,0.35583085,-0.11922458,-2.4178045,1.326187,-0.07860177,-0.9531463,-0.22919486,0.07603599,-1.588597,-2.0723202,-1.66155,0.38547632,1.5967282,0.21333055,-1.1795552,0.001891597,-2.520165,-2.2419984,-1.2424269,-0.82958305,1.7732692,0.9316111,0.31288534,0.8785737,0.010496019,-0.36368826,0.14127843,-1.3802327,2.1399097,0.1259651,-1.0443541,-0.11384703,1.0632012,-0.8006648,1.6079315,-0.4524172,-3.3295822,-0.4551641,0.13542858,0.23883937,1.1891873,1.3028008,-0.7789272,-0.57807606,-1.197305,1.0673578,-1.0318997,1.1492648,1.8848805,-2.20621,-2.4546025,0.64595985,1.2357855,-0.5578978,-0.70462835,-1.9443203,-0.10136824,-0.39206737,0.9042016,-2.7655118,1.9982219,-2.2941847,0.09183706,-3.8389893,-0.13802783,0.6056624,0.16063508,2.5478752,0.30189016,-1.4708495,-1.9404804,-0.067925304,-0.62679964,-0.64389753,0.29700717,1.4179494,-2.6806931,-0.38447568,-1.6766164,1.4229151,-0.9467313,0.6803817,1.2822684,1.481275,0.80914783,1.9727532,2.9100416,-0.4083784,2.7578015,0.95418733,-2.1994634,-0.21983193,-2.455152,0.4598201,1.1135908,-2.0521686,0.8832562,1.0586816,0.41112536,-0.3232419,0.13665974,0.32576412,-1.0835545,-1.2236367,-2.0040126,0.81493354,1.4298112,-1.4527094,-3.0506504,0.051915526,-2.4478967,3.5923686,-0.5393421,-2.7684271,0.6965673,3.701054,-0.50102895,-0.15112427,0.34840652,-2.0544765,-1.3572187,1.6080369,-1.8613727,-1.0921931,0.028741516,-0.4211397,1.1412714,1.3075755,0.16534793,-3.5533547,-0.00093987,1.1761599,1.33635,0.18304996,1.6979758,-0.1062896,1.1818075,-1.4295738,1.1834868,1.9560342,-0.8355001,-0.85191697,-0.94829696,-0.6848397,-1.5955309,-0.011975663,1.5951933,-1.3731244,-1.2685868,-2.5806875,0.9621099,0.08349322,0.972854,0.7659852,-0.19590604,2.608456,-0.37704748,0.36063817,-0.51587516,-0.036106676,0.556701,-2.1536345,-1.7958134,-0.82897127,-0.34634134,1.1229624,-0.69938976,-1.0608525,0.24411482,-0.5334175,0.30646637,-0.33879253,0.9891071,-0.28607595,-1.5703429,-0.32208192,-1.863185,0.11865578,0.45576656,-2.5081317,-0.016127346,0.6109702,0.14160407,0.19426325,-0.92774844,-0.06678685,-1.7176074,2.315052,0.6136028,-3.2876282,1.6799374,0.1500575,-0.323944,1.2478588,1.3979605,-1.4376098,0.8791894,0.7017499,2.8147223,-0.38138115,-1.9595132,-1.0169214,-0.055881444,-0.95194507,1.7625328,-0.65428156,0.955241,-1.8468385,-0.61445445,0.554151,2.24453,2.0940285,0.3031671,2.240409,-1.9854975,0.12269443,1.167686,1.3865898,2.2306569,-1.5024179,0.7229396,-0.031116905,-0.45009315,-0.11810678,-0.48362473,0.77192384,0.06299285,-1.5793343,1.2222805,-2.795591,0.29303426,-0.20923613,2.0186353,0.443103,-1.5306561,-4.1117516,0.16856252,0.34981996,-2.225627,1.2679275,0.66215974,-0.04852569,0.69898343,0.69770306,3.7917688,2.7192261,2.0246081,1.3952203,-0.42233104,-1.0028265,1.1714561,-2.5254836,0.0332648,1.5828762,-0.5762565,0.81564534,-1.303103,0.47122067,0.6241073,2.4044187,-1.2108164,-0.79158777,1.6984706,1.3633025,0.5742605,0.96245533,0.22096802,1.6012,-0.86075217,-1.3141052,0.777343,-0.23210411,0.26849213,-0.20933962,0.18501714,0.26155818,-0.91517013,-0.8165938,1.070098,-0.006977039,-0.9568917,-2.312824,-0.036499754
Sc5_A,-1.3080833,-0.25247273,-1.7990928,0.19069774,3.5432284,0.08949994,0.5474897,3.6437562,0.059831183,-0.3496928,4.5252314,0.91994816,-2.8427527,1.4248992,1.9362837,0.6083236,0.81779957,-0.0656714,-0.2798784,-2.6337154,1.4517217,-0.022062441,-0.28817433,-1.1668566,0.047360428,-1.2762867,-2.2518392,-1.6898409,0.30737215,1.7228938,0.039416067,-1.2499058,-0.07443,-2.9249287,-1.6648823,-1.3419846,-0.86135334,1.5810744,1.2752169,0.45930263,0.68544054,-0.387322,0.096796945,0.14464565,-0.94177693,1.9010328,-0.1679658,-1.1031555,-0.07722244,1.2861191,-0.5789079,1.8249066,-0.6881733,-3.2142801,-0.4554379,-0.12997921,0.37166458,1.1633924,1.4139302,-0.34754404,-0.67539996,-1.0561819,0.9126765,-1.0117099,1.1042756,1.6929195,-2.4885976,-1.7860469,0.92309165,1.2525902,-0.60893744,-0.9487008,-1.5620453,-0.29473132,-0.6293149,1.0860448,-2.5375032,1.4277827,-2.192569,-0.39792722,-3.4001832,-0.39621568,0.8973466,0.077929735,2.576016,0.28648272,-1.2447408,-1.7992082,-0.6854828,-0.8139499,-0.5170131,0.759535,1.327963,-2.5175424,-0.048172228,-1.6855685,1.5741594,-0.96627057,1.1820012,1.0344491,1.1671633,0.39612255,2.3152082,2.2301147,-0.04026287,2.17897,0.47601306,-2.3129587,-0.2280405,-2.4409816,0.82394326,1.0012811,-1.7657537,0.9113685,0.9395432,0.5405092,-0.22515659,-0.3761948,0.32276776,-1.1845703,-1.1641673,-1.8839673,0.5099682,1.3592231,-1.6555719,-3.1314712,0.5901196,-2.2284756,3.3687754,-0.58786577,-2.7728379,0.473516,3.9408863,-0.14193867,0.25241655,-9.72E-05,-2.0846965,-1.100799,1.8897456,-1.8684734,-1.2062252,-0.003538978,-0.8710665,0.99281603,1.2933363,0.08873129,-3.2850342,0.37932575,1.1603912,1.060691,-0.24667698,1.5340573,-0.08943625,1.1557071,-1.2252629,0.7561789,2.178836,-0.73767436,-0.48428458,-0.85829604,-0.5777728,-1.9633871,-0.24644911,1.6745023,-1.4092017,-1.0776126,-2.7430577,0.6361616,-0.15772142,0.997396,0.90728265,0.023732785,2.3204844,-0.57648855,0.001046526,-0.4301308,-0.04640664,-0.058512837,-2.0858848,-2.2034807,-0.66220945,-0.6052609,0.99892366,-0.2125316,-1.0124667,0.5373639,-0.3545984,0.010336695,-0.15694961,0.87634385,-0.54056174,-1.4840727,-0.46182618,-2.0804565,0.15240918,0.39322054,-2.2074375,0.011454855,0.52792096,0.4408244,-0.04587747,-0.98910296,0.36615288,-2.0613182,2.2132993,0.27135882,-2.9614637,1.0660717,-0.007648123,0.02481107,1.2890716,1.4244901,-1.6658292,0.8336458,0.5432101,2.7181685,-0.11113353,-2.0522218,-1.278906,-0.5372844,-0.9212231,1.4575131,-0.5386499,1.029854,-1.9075571,-1.1757666,0.68347025,2.1615937,1.9487971,0.5238428,2.1122448,-2.1158588,0.19635046,1.2377676,1.5419488,1.8771482,-1.7951504,0.9929764,-0.03840912,-0.6856194,-0.120880485,-0.8017347,0.9591595,0.028411066,-1.3291864,1.7414587,-2.7984302,0.35489362,-0.42629516,1.8809805,0.3031953,-1.8525747,-4.094809,0.31053308,0.17699541,-2.089407,1.485826,0.6677181,0.050303884,0.9063051,1.1096885,4.381199,2.9946406,1.7661242,1.3693515,-1.1727182,-1.1303287,1.1734946,-2.7617536,0.054019798,1.7988592,-0.6752327,0.43430457,-1.4984677,0.19159468,0.34333313,2.3210816,-1.3901223,-0.6028769,1.160104,1.4944024,0.9294682,0.76651907,0.68178326,1.3380421,-0.9544604,-1.9563035,0.26228204,-0.644724,0.3097327,-0.40041766,0.30479634,0.5849769,-0.8481458,-1.0427443,1.180286,-0.048214994,-1.2145865,-2.270621,0.099358395
Sc5_A,-1.4974431,-0.7106133,-1.8580852,0.58332103,3.6034513,-0.27772158,0.49135235,3.566365,0.037987724,-0.1330108,4.274396,0.6740144,-2.8972776,1.3431327,1.6562998,0.86402583,0.37873384,0.3984689,-0.12302945,-2.3790193,1.4895089,0.22433454,-0.5262542,-0.2870678,-0.17889343,-1.2582864,-2.6550252,-1.2676958,0.39636132,1.1753138,-0.015092436,-1.3157568,0.08468949,-2.6475892,-2.013075,-0.8907057,-0.5133971,1.2545947,0.7065995,-0.3794639,0.8793089,-0.0517175,-0.005549348,0.020445844,-0.94988257,1.726756,-0.57005936,-1.1257488,-0.09818631,0.51313084,-0.711423,1.43326,-0.41728288,-3.0397248,-0.19832128,0.4314794,-0.119926676,0.8161381,1.1435015,-0.691089,-0.9431975,-1.249246,1.5757211,-0.91588557,1.1156934,1.7212523,-2.1037009,-2.2643015,0.65404487,1.2504146,-0.8649362,-0.8613976,-1.7178111,-0.06460506,0.39412168,1.1906317,-2.640535,1.6243676,-1.5643026,-0.24050066,-3.497267,-0.14861122,0.883316,-0.38155434,2.658902,0.43586117,-0.96548134,-1.4803206,-0.48126993,-0.78633153,-0.58328825,0.35175288,1.0115926,-2.6102006,-0.13318884,-1.7876976,1.5678234,-1.1696335,1.1445962,1.0905415,0.97824574,0.60148746,1.9913979,2.6444843,-0.0726262,2.5976439,0.14103067,-1.9934466,-0.009921851,-2.3557308,0.49826264,0.80563146,-1.4847478,0.57234347,0.8556743,-0.032980084,-0.23660749,-0.45658323,0.43361288,-1.5708181,-0.9633977,-1.8861625,0.34801486,1.4977547,-1.1308012,-2.735134,0.14539336,-2.5219824,3.746305,-0.6392522,-2.9706895,0.7780647,3.6697688,-0.9906482,0.31339955,-0.082115285,-1.9114203,-1.186163,1.9496723,-1.3744086,-0.80306125,0.3318538,-0.58366334,1.0544113,1.2237391,0.08504235,-2.9437046,-0.29711923,1.4335865,1.2545745,0.4271682,1.4317273,0.19867495,1.3496262,-1.6092725,0.7941167,2.1400373,-0.6716342,-0.6661773,-1.1560477,-0.6023872,-2.2170775,0.1534554,1.6737381,-1.0154243,-0.9315469,-2.491882,1.0417095,-0.041909885,0.9407069,1.4028281,0.025918357,2.090944,-0.1497101,0.37941346,-0.2325168,0.20225911,0.27885416,-1.9400895,-1.7147889,-1.0585225,0.085941255,0.53832895,-0.75945175,-1.2111982,0.14357558,-0.021056967,-0.12747595,-0.52583545,1.2549809,-0.22307134,-1.4901403,-0.57564366,-1.6013193,0.52057904,0.29420036,-2.487014,-0.19558622,0.6276501,-0.09332754,0.39566308,-0.9543464,0.25367907,-1.6576107,2.1210892,0.22012238,-2.6944063,1.2120905,-0.14840133,-0.09292325,1.196741,1.3017973,-0.88724226,1.2521836,0.8534786,2.4171567,-0.2624349,-1.5848483,-1.03327,-0.16127512,-0.73734057,1.0256753,-1.0114527,1.0442073,-1.608179,-0.73468477,0.72000515,2.2576032,2.1505713,0.46416867,1.750222,-1.7196927,0.30234092,1.169051,1.0673134,2.1073554,-1.377664,1.030307,-0.048003584,-0.4438665,0.13741465,-0.11531829,0.96096545,0.16058311,-1.6024624,1.3308587,-3.0185857,0.545758,-0.3764642,1.6191835,-0.039353143,-1.2748333,-3.9962096,0.30158123,-0.049,-1.8800682,1.4286914,0.85372555,-0.19939703,0.6545302,0.7774712,3.5051496,1.76448,1.4959885,1.1540312,-0.5809698,-1.2345994,0.989247,-2.6047559,0.07758423,1.4627444,-0.5836836,0.56854814,-1.1517752,0.6779961,0.10646644,1.9279348,-1.3288699,-0.44012526,1.1601813,1.433466,0.57915694,0.68212557,0.19080704,1.0496204,-1.098988,-1.8030958,0.4767635,-1.0235713,0.46871966,-0.42087153,0.10741941,-0.035626736,-1.0578661,-1.037741,0.8539238,-0.006478528,-0.8835418,-1.8553463,-0.2064712
Sc5_A,-1.2537372,-0.065244935,-1.8041743,0.13557081,3.7700222,0.25843963,0.65356225,3.4847596,-0.17046234,-0.3039702,4.7957993,0.94232917,-3.2401562,1.4950464,1.6151633,0.69894564,0.94290835,0.151848,-0.5913563,-2.3178601,1.3893591,-0.15993766,-0.6454777,-0.7606229,-0.3143108,-1.410095,-2.7949739,-1.6838647,0.40032524,1.437616,0.22157823,-1.2270322,-0.34444577,-2.628733,-2.018371,-0.8892103,-0.9241471,1.577659,1.2083447,0.17830944,0.8942841,-0.11166047,-0.24755453,0.19539723,-1.2370323,1.8898673,-0.1603214,-1.3456138,-0.3594272,0.9573883,-0.38100573,1.7774794,-0.43444887,-3.497581,-0.6863042,0.14703988,0.16889915,1.2341902,1.1792814,-0.55997765,-0.5704391,-1.1992676,0.89568186,-1.3321217,1.0862858,1.7599552,-2.319852,-2.4754958,0.6002051,1.3998638,-0.47114274,-0.96534634,-1.7959725,-0.1871718,-0.09349693,1.1376861,-2.984972,1.6176924,-1.9927844,-0.23074377,-3.7071867,-0.5290776,0.88262224,-0.09332852,2.4713986,0.07167028,-1.2820073,-1.9531646,-0.18424077,-0.6945935,-0.8778598,0.7353143,1.2302567,-2.5682309,0.038594693,-1.6576489,1.2587407,-0.7705754,1.1211736,1.2796519,1.1856551,1.0447129,1.987514,2.46154,-0.3431176,2.684034,0.3993776,-2.4620676,-0.21151143,-2.673732,0.7361001,0.641077,-1.6682181,0.6762829,0.75365263,0.48790264,-0.449636,-0.22252259,0.6303605,-1.4292119,-1.2172099,-2.0409782,0.25076643,1.1410848,-1.4046539,-3.0946505,0.64677763,-2.4858816,3.5787125,-0.23092784,-2.8763196,0.40746355,3.5039997,-1.0802605,-0.052817732,0.50159675,-1.9894422,-1.1024528,2.2694442,-1.7969193,-1.4540777,-0.13430215,-0.57279897,1.4048526,1.1166856,-0.02387247,-3.2049456,0.1999905,1.3059283,1.112257,0.17060398,1.6497086,0.047464777,0.9757334,-1.3777558,0.879865,2.544423,-0.53804225,-0.8349889,-0.7717079,-0.48088244,-2.046323,-0.28431967,1.9293712,-1.3018956,-1.2313496,-3.106794,1.044077,-0.2415562,0.7324368,1.152921,-0.059628896,2.5582075,-0.1510306,0.9935486,-0.35060668,0.16812053,0.2363901,-2.1265297,-1.995533,-0.85613257,-0.3844406,1.386099,-0.5442326,-1.190361,0.6229294,-0.34486097,-0.014115018,0.011634491,1.2995036,-0.14802802,-1.2197453,-0.24256644,-1.7666225,0.07198368,0.20873855,-2.4438875,-0.30521187,0.48380736,0.14028597,0.087794,-1.1979048,-0.056140266,-1.6746763,2.2007067,0.33875185,-2.8749785,1.0859163,-0.24011943,-0.10611599,1.0369515,1.1181047,-1.0846491,1.3315047,0.2909301,2.7880867,-0.14296152,-2.1020007,-0.87642545,-0.4227268,-1.0221422,1.2608435,-0.41748664,0.9438573,-1.7058859,-0.82217145,0.630307,2.0853763,2.1727524,0.38258055,1.533372,-2.252075,0.005723055,1.214166,1.3990502,1.8886766,-1.3976612,1.047016,-0.19427848,-0.492132,-0.25737125,-0.2759149,1.1835414,-0.06837864,-1.1555512,1.2610418,-2.836045,0.39017278,-0.2862707,1.8847648,0.12189576,-1.8920649,-3.9021337,0.17501047,-0.052964244,-2.1356215,1.5279175,0.7123284,0.087884784,0.49127388,0.5767501,3.9103212,2.4174821,1.6375562,1.2459202,-0.7967171,-1.0870111,1.1818523,-3.1178317,0.055002104,1.4916576,-0.51710516,0.36154485,-1.2570679,0.49763492,0.26759702,1.8221048,-1.3231591,-0.864411,1.6405346,1.3145216,0.33921573,0.72340745,0.6101486,1.3444551,-0.89676315,-1.322817,0.788656,-0.73307383,0.25543323,-0.44323227,0.21516061,0.4658679,-0.8335088,-0.7803389,0.99849296,-0.04244532,-1.013009,-2.479146,0.14035517
Sc5_A,-1.0121348,0.040763706,-1.9304739,0.13932686,3.7346556,0.34639338,0.6353288,3.7710593,-0.052157357,-0.54993564,4.6059203,0.8156854,-3.026645,1.6329135,1.9159652,0.9788498,0.5696987,0.030339716,-0.35105002,-2.3917823,1.5188013,-0.09509077,-0.4338004,-0.7681841,-0.0533917,-1.3765824,-2.4873896,-1.8757658,0.45301226,1.8516269,0.45889702,-1.1045781,-0.12310172,-2.68641,-1.8814214,-1.040562,-1.0794516,1.8890765,1.173892,0.37167305,0.85686266,0.10372881,0.13088043,-0.17838468,-1.1908178,1.8828015,-0.17701237,-1.4594141,-0.07072895,1.1833143,-0.5891744,1.4977742,-0.4867154,-3.381443,-0.43446508,0.119744815,0.34144917,0.9134918,1.1041645,-0.18850312,-0.8929515,-1.1278632,0.881053,-1.2209846,1.47131,2.0133862,-2.3965843,-2.1022625,0.40208954,1.1608638,-0.7185197,-0.8771032,-1.9323877,0.10845371,-0.10563373,1.2094772,-2.4825497,1.5026428,-2.2869947,-0.22817571,-3.8124073,-0.3860859,0.7362841,-0.04069036,2.4251902,0.06390518,-1.1141293,-1.9770075,-0.27274576,-0.7527028,-0.6904941,0.5009737,1.0919378,-2.7520773,-0.30518895,-1.7120378,0.99181587,-0.93206406,1.1086855,1.168474,1.4687169,0.86173815,2.1479864,2.7482378,-0.071782105,2.4548285,0.7579137,-2.2591972,-0.22169116,-2.6014004,0.42230496,0.65482414,-1.8101294,0.7932775,0.9154533,0.7274645,-0.4551126,-0.2233,0.5049265,-0.9729715,-1.3200886,-2.10928,0.41752666,1.3086723,-1.2203993,-2.6381469,0.3915084,-2.2578611,3.418969,-0.26285613,-2.613628,0.68619233,3.47905,-0.49380097,0.06596516,0.41692343,-2.0937603,-0.972692,2.0598938,-1.6403433,-1.0583837,-0.09223848,-0.5556621,1.2440311,0.9692623,0.354859,-3.7116227,-0.037434764,1.2993153,1.2194538,0.18424793,1.3048851,0.05344851,1.2005466,-1.5931047,1.0044932,2.1535957,-0.640955,-0.8106047,-0.98253155,-0.52517664,-1.9190048,-0.4510053,1.7235014,-1.6607903,-1.0772775,-2.7396495,0.5247407,-0.26433486,1.2163944,1.0957143,0.25823233,2.4876688,-0.41797915,0.48838893,-0.38321483,-0.17153873,0.17440028,-1.9312537,-2.1241386,-0.6101005,-0.34911436,1.27588,-0.45130476,-1.2967877,0.6323383,-0.23979443,0.09037613,-0.29687998,1.1361217,-0.2470417,-1.3652288,-0.44010296,-2.2958903,-0.1273457,-0.003809067,-2.4637685,-0.10737649,0.49687204,0.47952873,0.013612356,-0.66546345,0.048222434,-2.0925517,2.149484,0.6083806,-2.9966335,1.5471679,-0.2092183,-0.23423272,1.0632097,1.3994173,-1.2897446,0.9410102,0.5894484,2.7174869,-0.40066785,-1.7739573,-0.89568496,-0.34739515,-0.99973524,1.5578201,-0.7029734,1.053487,-1.7452669,-0.8221719,0.43252733,2.1405022,1.9617887,0.41197658,1.7972543,-1.7622248,0.0859977,1.3300492,1.4704982,1.8657845,-1.508875,0.7334525,-0.34557155,-0.5030682,-0.30237147,-0.4168155,1.0293078,-0.21180844,-1.4164084,1.6019652,-2.793767,0.4752881,-0.18923938,2.0838716,0.33731496,-1.3029664,-4.0709805,0.41007322,0.13343126,-1.967166,1.2468909,0.3506454,0.08228278,0.830401,0.6540834,3.8982213,2.4578164,1.9116,1.7636806,-0.62348276,-1.071458,1.1113521,-2.8785284,-0.19286504,1.7060581,-0.6429567,0.648429,-1.1668745,0.42235458,0.17271814,2.3403625,-1.64675,-0.9502138,1.4793154,1.3155978,0.39630315,0.5912903,0.09429185,1.4631437,-0.6060694,-1.7500991,0.4770603,-0.6926877,0.19290702,-0.34163553,0.07102217,0.32571095,-0.8441581,-0.6701867,1.2029305,0.00754857,-0.72934616,-2.2501042,0.095108934
Sc5_A,-1.4329269,0.043710914,-2.0982654,0.39279094,3.8900237,0.25625083,0.43848783,3.6569827,-0.08963083,-0.72291344,5.025429,0.8665476,-3.0364664,1.6065084,1.6116008,1.0507147,0.49473494,0.113055155,-0.6748775,-2.3138428,1.5655236,-0.049916703,-0.76751584,-0.64010763,-0.04274833,-1.3105896,-2.388012,-1.2059115,0.3484206,1.3257375,0.21165515,-1.5802943,-0.28780335,-2.4359012,-1.9602317,-0.89005715,-0.5855843,1.3610677,1.0330929,-0.003527995,0.6993051,0.17244817,-0.20902131,-0.011509192,-1.414319,1.9959359,0.07626784,-1.5506952,-0.19989738,0.8744646,-0.81662047,1.5666339,-0.3681479,-3.7483656,-0.51862633,0.16904888,-0.23767552,1.3122467,1.0944588,-0.8920083,-0.33078772,-1.235499,1.0090686,-1.2173201,1.5022353,2.133342,-2.4267874,-2.398935,0.68347216,1.2746402,-0.4196176,-0.89365685,-1.9217008,-0.063487925,-0.048776012,1.0740778,-2.8523602,1.7450924,-2.3476348,-0.15414649,-4.0739307,-0.37778908,0.72460234,0.09914308,2.610984,0.065061666,-1.3047839,-2.2796645,-0.19698043,-0.54731166,-0.706877,0.17270383,1.5273322,-2.739774,-0.13911545,-1.8915731,1.3658974,-1.4016955,0.767283,1.1855799,1.4248291,0.61257577,1.808285,2.840252,-0.3844214,2.9747267,0.6445028,-2.3454058,-0.22634517,-2.4222314,0.76067555,0.9168018,-1.5484571,0.8373728,0.8164926,0.34795263,-0.6741631,-0.32674965,0.36840627,-1.2459592,-1.2951903,-1.8067461,0.6204082,1.5070328,-1.2509205,-3.0112548,0.5022126,-2.4473698,3.7451227,-0.4929174,-2.613332,0.57799584,3.4672194,-0.2947862,0.1919349,0.41129974,-2.038466,-0.91522455,1.9755479,-1.6684554,-1.0857152,0.033573013,-0.5397783,0.8427767,0.8414959,-0.098911956,-3.1995852,-0.27982086,1.3357171,1.5617387,0.2859375,1.5440341,-0.06234607,1.4321362,-1.4482839,0.8463093,2.22338,-0.37144047,-0.96618086,-1.1917591,-0.67428076,-1.7887846,-0.3032876,1.7985438,-1.2420858,-1.1901919,-3.1048164,0.9769697,-0.120407276,0.85453075,1.2707773,0.027428126,2.1625774,-0.087160476,0.7894627,-0.23937593,0.17866558,0.4450478,-2.1174555,-1.7968372,-1.1783437,-0.07005913,1.1952994,-0.702153,-1.0707446,0.37814984,-0.53635323,0.19202133,-0.15877634,1.4907471,-0.3476587,-1.4015696,-0.43361643,-1.8633271,0.23722503,0.22208516,-2.1751595,-0.3265221,0.49464506,0.057990547,0.034305274,-0.9093752,-0.18874565,-1.67574,2.3271608,0.7450162,-3.3355167,1.7557075,-0.030089034,-0.19660442,1.2895147,1.3308691,-1.29779,1.1038717,0.71904874,2.970893,-0.20151268,-2.1964343,-1.0925611,-0.19252911,-1.0904006,1.6666003,-0.6493917,0.9755942,-1.6918527,-0.9065837,0.54304016,2.3574593,2.3897626,0.4243345,2.1838574,-1.8210671,-0.0737866,1.4036112,1.4970244,2.0049822,-1.6430442,0.67054945,-0.21282081,-0.594573,-0.371933,-0.35222152,0.95000535,0.14573893,-1.4583149,1.155145,-3.1057959,0.5924859,-0.26565987,2.0299184,0.47665337,-1.3693737,-4.1420565,0.099574216,0.14757572,-2.1262774,1.487053,0.5514845,0.03113537,0.74735236,0.52050436,3.8026245,2.2728083,1.7544106,1.4210222,-0.8291423,-1.057997,1.1322125,-2.71493,0.13928333,1.7757477,-0.37786597,0.5615694,-1.4439774,0.6683491,0.048838995,2.0735898,-1.0172856,-0.906508,1.3938801,1.4180934,0.36105898,0.9237883,0.22423394,1.4888479,-0.9438224,-1.3615955,0.72355115,-0.89065486,0.359381,-0.45343402,0.027851455,0.060549576,-0.72541183,-0.68795115,1.055734,-0.010919393,-0.67321014,-2.3343961,0.1384411
Sc5_A,-1.8432578,-0.603798,-1.8371087,0.6031767,3.8035736,0.052267496,0.5273804,3.5170505,-0.38490748,-0.45914218,4.620811,0.8805792,-3.1297188,1.6781304,1.5737864,0.6697091,0.75213605,0.30649763,-0.7044043,-2.7086453,1.2519644,-0.088968694,-0.6470387,-0.95396197,0.06604636,-1.2824463,-2.301393,-1.5445055,0.36249253,1.3070121,-0.031625822,-1.3705001,-0.29428062,-2.5134575,-1.679677,-1.2438982,-0.5197114,1.2788508,0.6942753,0.2454838,0.7088395,-0.32744178,-0.24527135,0.43252108,-1.0595257,1.7498454,-0.08728088,-1.1395041,-0.20666784,0.98119456,-0.72269595,1.8729975,-0.27619785,-3.5069656,-0.51535946,0.2702807,-0.28022474,1.1163479,0.97883195,-0.8105863,-0.6160668,-1.0693289,1.0004762,-1.0268177,1.5609505,1.5739815,-2.4061434,-1.918192,0.76863277,1.3270977,-0.36100888,-1.0088099,-1.6989411,-0.23532273,-0.43803906,1.040017,-2.757041,1.3880306,-1.970284,-0.021557197,-3.4588602,-0.60185724,0.54668504,0.17896359,2.453083,0.036482587,-1.2772969,-2.0686643,-0.43119997,-0.7513194,-0.6120967,0.51100695,1.2103871,-2.5475588,-0.24765025,-1.5724704,1.4103405,-0.8126173,1.1950115,1.3512006,1.2897674,0.38560796,1.8234043,2.6958964,-0.20685409,2.75184,0.34435424,-2.3158467,0.20507534,-2.667785,0.91119784,0.88728184,-1.6935302,0.61174077,0.77729213,0.7642506,-0.170205,-0.10133055,0.25956425,-1.6596277,-1.1778034,-1.9820105,0.58774877,1.5293397,-1.3042476,-3.147885,0.34890324,-2.3050416,3.4398322,-0.4705608,-3.0993228,0.73593795,4.0022454,-0.30298504,0.35917,0.1720763,-2.0912278,-1.2850325,1.6075091,-1.6802456,-1.1890619,-0.079944484,-0.7507043,0.91586787,1.5289831,-0.032935683,-3.1205075,-0.06858428,1.3488173,1.3779628,0.09539906,1.4041626,-0.071054004,1.1410204,-1.3634758,0.602018,2.3393438,-0.77474415,-0.8297913,-1.351698,-0.506089,-1.635396,0.048935562,1.7446578,-1.2710377,-1.2147535,-2.8032916,0.71872556,-0.07688517,0.9122167,1.1295398,-0.027816236,2.1537175,-0.34008828,0.27430752,-0.36119664,0.19462082,0.13800819,-2.2102032,-1.7491864,-0.84306175,-0.30156153,1.2568504,-0.6861298,-1.2212018,0.3281195,-0.37549752,0.043576263,-0.3746622,1.1928111,-0.2185169,-1.6079514,-0.1767736,-1.8509389,0.708807,0.53031385,-2.2231934,-0.27615887,0.42972943,-0.026218805,-0.030083772,-1.2688892,0.252393,-1.5038514,2.5353832,0.11722191,-3.2457304,1.2807425,0.19317088,-0.11136833,1.0841478,1.3575584,-1.4289978,0.97418875,0.5013346,2.6861596,-0.10398159,-2.3225656,-1.0685132,-0.053571638,-0.77055866,1.5758077,-0.6772531,0.8361878,-1.7251602,-1.3285313,0.7080759,2.121384,2.1040015,0.38506192,2.0865512,-2.0427947,0.42437318,1.398074,1.6929348,1.7281054,-1.6836157,0.72288615,-0.19879861,-0.7189965,-0.038494714,-0.50483686,0.8935798,-0.11228149,-1.2108576,1.0835037,-3.002778,0.6804085,-0.2581969,1.9365398,0.19800878,-1.8450718,-3.781008,0.36633965,0.3166446,-2.4020457,1.4867128,0.6218047,-0.10150059,0.6053178,0.65186137,4.3128257,2.7908313,1.6215839,1.395518,-0.9803027,-1.0174046,1.0112185,-2.4806523,0.112411745,1.764646,-0.63572764,0.7953816,-1.1781662,0.20929626,0.37279916,2.203558,-1.3764718,-0.5168573,1.2763335,1.9448558,0.88067245,0.8297052,0.38484514,1.1731712,-0.9596397,-1.6268461,0.46131095,-0.99517244,0.09563222,-0.44163656,0.14497717,0.46826893,-0.88700444,-1.1878033,0.9220401,-0.020431343,-1.5210607,-2.0598142,0.13330925
Sc5_A,-1.2805493,-0.04422831,-1.9127184,0.20166507,3.984859,-0.06236242,0.74921405,3.539502,-0.08927067,-0.7496998,5.1578245,0.9285963,-3.4269133,1.239928,1.5303521,0.945655,0.7980251,0.3909267,-0.60770357,-2.4271095,1.3085613,0.15004179,-0.69941103,-0.54400295,-0.13151944,-1.3316445,-2.3084884,-1.8239405,0.43594617,1.4725666,0.41148612,-1.220812,-0.022826161,-2.5186815,-1.8937579,-0.9655329,-0.54767305,1.7190254,1.377783,0.28712192,0.8410154,-0.16404547,-0.36369592,0.17984948,-1.2210233,1.9496698,-0.19272473,-1.281649,-0.21450748,1.0182811,-0.5702791,1.5976213,-0.599898,-3.384623,-0.4884892,0.25004825,0.2899293,1.1909379,1.0359783,-0.7587502,-0.40713206,-0.98500484,0.72859496,-1.1242357,1.419277,2.0159452,-2.5448797,-2.6549878,0.92035,1.4436333,-0.49278516,-0.6744824,-1.9054396,-0.063572496,-0.61186653,1.209836,-2.7928553,1.5592464,-2.1037002,-0.20778027,-3.7466006,-0.23604318,0.5159703,-0.044053726,2.2995343,0.40916204,-1.1591204,-2.2258093,-0.12521182,-0.6423594,-0.6152558,0.40324366,1.5753819,-2.7472165,-0.223156,-1.7000322,1.4021772,-0.7797967,0.97653323,1.2138476,1.5438933,0.862959,2.2322104,2.7653153,-0.25665563,2.8428955,0.87224346,-2.3501549,-0.21323475,-2.5186057,0.71513355,0.9749024,-1.6778108,1.0325607,0.8864324,0.5441688,-0.19864585,-0.18475522,0.28348556,-1.2278225,-1.3133357,-1.936386,0.79761535,1.6087185,-1.4752779,-3.0152147,0.32106143,-2.3587406,3.7143714,-0.5562017,-3.114629,0.5737177,3.647835,-0.5452426,-0.30194226,0.47485524,-1.8218746,-1.172863,1.7133794,-1.720979,-1.2660856,0.3408923,-0.3707942,1.206057,1.0991758,0.10026708,-3.3545425,-0.004844254,1.2654227,1.3474334,0.18385364,1.6393812,-0.24241163,1.0145056,-1.3585422,1.2046982,2.1563394,-0.7936647,-0.548313,-1.0716208,-0.4868177,-1.8352346,-0.04764938,1.7319918,-1.2494489,-1.2667581,-3.017504,0.80317336,-0.1151482,0.70531183,0.9511383,-0.29246423,2.341118,-0.39158908,0.34110397,-0.18198784,0.10630743,0.097305626,-1.9617357,-1.8517436,-1.0426794,-0.58940417,1.2678226,-0.6706171,-1.130602,0.50356764,-0.6675255,-0.23156595,0.02494442,1.2634121,-0.042511683,-1.1728671,-0.44745094,-1.8079709,0.38458958,0.50513095,-2.4498806,-0.19263639,0.62948656,0.26046178,0.14147478,-0.94704264,-0.21527071,-1.9328687,1.936605,0.6470776,-3.1777344,1.4788195,0.091032416,-0.21461077,1.1935962,1.3498623,-1.4689872,1.0932238,0.633872,2.7374856,0.023308525,-1.9743255,-1.1031442,-0.16696285,-0.9822687,1.7395746,-0.5081394,1.0502143,-1.7860774,-0.9099279,0.58619875,2.38269,1.880132,0.25342238,1.8790562,-2.274261,-0.26957488,1.2266867,1.4498547,1.6564492,-1.3852717,0.9617197,-0.2740777,-0.2860332,-0.1436024,-0.5076243,1.0771257,0.11003804,-1.0996765,1.4821367,-2.8217711,0.35560146,-0.0889753,1.9210473,0.18017972,-1.7102464,-4.012062,0.000115585,0.21308915,-2.1128635,1.2939196,0.5471307,0.027894627,0.7166627,0.4387672,3.6856084,2.6655574,2.0858161,1.3700583,-0.81713504,-1.1289071,1.1523926,-2.9764233,-0.070875086,1.5378542,-0.5705281,0.6599221,-1.3195963,0.2580524,0.4509336,2.0041547,-1.2088009,-1.045932,1.3590791,1.155398,0.56413376,0.75777423,0.35789523,1.6861337,-0.8387046,-1.2057024,0.6429622,-0.64529264,0.2618264,-0.34769988,0.21501139,0.24142586,-0.70904547,-0.6624539,1.1313148,0.0715018,-0.9696683,-2.26815,0.184644
Sc5_A,-1.1499704,0.099066265,-1.8162562,0.08989628,3.3414984,0.25112963,0.78416944,3.5418732,-0.0445636,-0.40775344,4.8623686,0.5678545,-3.063842,1.5297933,1.7617885,0.607737,0.5058125,0.040927157,-0.48793897,-2.494915,1.2370726,0.102620125,-0.50527316,-0.7745472,-0.35600972,-1.431707,-2.5689142,-1.634898,0.371291,1.693255,0.22190876,-1.1307906,-0.034796342,-2.4009602,-1.906019,-1.0883279,-0.8072238,1.7385852,1.2311957,0.20854005,0.6527125,-0.14143744,-0.08453443,0.022136848,-1.2039568,2.312997,-0.31298697,-1.3372451,-0.03098569,0.91567844,-0.58812696,1.300963,-0.5852866,-3.4530241,-0.49835,0.35656098,0.21774246,1.0085242,1.1963607,-0.3720994,-0.6867497,-1.239892,0.88296473,-1.11259,1.4682539,1.854133,-2.4059803,-2.3205097,0.4623467,1.0896395,-0.43527067,-1.0074224,-1.6096019,-0.1410807,-0.31079355,1.124413,-2.720719,1.5002474,-2.0071084,-0.14476174,-3.588837,-0.48435703,0.7927362,-0.111999124,2.7402036,0.00916027,-1.0890324,-2.0732315,-0.40656465,-0.5886185,-0.80512047,0.8724204,1.3716819,-2.8773422,-0.3255691,-1.6142989,1.266708,-1.1230204,1.024131,0.9716071,1.2779624,0.62655646,2.0476298,2.649133,-0.24593878,2.4957886,0.4767546,-2.133031,-0.23231903,-2.485875,0.60925543,0.6256871,-1.7285894,0.78455585,0.93222666,0.66640335,-0.6366807,-0.34066302,0.3371898,-1.1154892,-1.1597736,-1.9612266,0.45615172,1.3092195,-1.2825533,-2.7903478,0.41513225,-2.1844378,3.5475702,-0.4808935,-2.8034146,0.5730523,3.603968,-0.5673402,-0.25131485,0.051229827,-2.0065525,-0.7799099,1.8865826,-1.5674174,-0.9833735,-0.09272222,-0.5941324,0.8108782,1.0742362,0.10048154,-3.5597684,-0.058306746,1.551371,1.2988851,-0.04570754,1.379775,-0.032257564,0.95364445,-1.3569636,0.9095086,2.3674612,-0.6867537,-0.787441,-1.2830693,-0.43752196,-1.846919,-0.41131383,1.8671327,-1.2800952,-1.2520376,-2.7999835,0.7562907,-0.32531607,1.0841615,1.1531534,0.029177118,2.192889,-0.3589913,0.45824796,-0.18603952,0.31597847,0.42108536,-1.8096601,-1.7833682,-0.87620014,-0.22209027,1.1051637,-0.869771,-1.403503,0.6925069,-0.393832,0.06591229,-0.4256756,1.0917478,-0.36839586,-1.3139639,-0.5756208,-1.9076995,0.17881559,0.24121913,-2.3325288,-0.08580281,0.5495332,0.28225076,0.20260929,-0.92119086,-0.021163875,-1.8092384,2.23057,0.5408202,-2.8371294,1.019927,-0.32461792,-0.26544923,1.6820323,1.2098125,-0.9563947,1.0320287,0.30992207,2.8973703,-0.38526598,-1.9823996,-1.0304321,-0.25230378,-0.85733753,1.4081436,-0.6252791,0.9836075,-1.9749901,-0.9346035,0.64920866,2.2556183,2.1048439,0.47547844,1.9798344,-1.5791197,0.052157193,1.090379,1.155151,2.0827334,-1.6752855,0.9384638,-0.24844797,-0.64311105,-0.7490756,-0.5009128,0.913525,-0.30352604,-1.5303377,1.2894461,-2.5185828,0.44903037,-0.30535504,2.0455465,0.20841819,-1.1578702,-3.8781614,0.36936477,0.28697273,-1.8642154,1.4075785,0.5041054,-0.19954434,0.7539527,0.72136253,4.016669,2.2711263,1.828508,1.6006708,-0.87295043,-1.0653169,1.1725905,-2.7874806,0.053712472,1.8702191,-0.82566756,0.4131777,-1.225327,0.21493755,0.36163136,2.258347,-1.3126962,-0.79417104,1.576807,1.1807215,0.54512364,0.87642527,0.20021279,1.6172878,-0.559701,-1.7989324,0.43129706,-0.8619552,0.028792886,-0.28055593,0.040667802,0.31173638,-0.89590067,-1.0001976,1.1195205,-0.21278436,-0.74567556,-2.3868484,0.067825206
Sc5_A,-1.3258206,-0.33782396,-1.8829741,0.1230685,3.847364,0.19603623,0.87972206,3.666869,-0.11996915,-0.30063638,4.486302,0.94214106,-3.1498175,1.2624787,1.5556144,0.5018077,0.58740085,0.09403663,-0.3687067,-2.2467158,1.2223577,-0.18135911,-1.0067674,-0.32645908,-0.631526,-1.6095334,-2.3964398,-1.7500288,0.53125244,1.659883,0.2863431,-1.3758298,0.033440057,-2.6863604,-2.18796,-0.91358143,-0.88943505,1.4815683,1.4693589,0.33746055,0.7490312,-0.18405606,-0.48709533,0.23852155,-1.4172723,1.8606621,-0.40469503,-1.2067178,-0.07278015,0.8377499,-0.63067895,1.49674,-0.32247746,-3.208439,-0.6139723,0.7038484,0.16158716,0.9746836,1.2428598,-0.45622638,-0.32677877,-1.0399557,1.0021658,-1.3799552,1.004012,1.9290656,-2.3576741,-2.2200491,0.46593952,1.4487003,-0.5949091,-0.92292243,-1.5600493,-0.20301737,-0.03823014,0.9692258,-2.6296384,1.8139192,-1.9132599,0.017322611,-3.6146705,-0.32627708,1.132611,-0.17336571,2.8073623,-0.08521328,-1.3189802,-2.2105649,-0.14207649,-0.7887124,-1.1665372,0.7059015,1.411546,-2.6021109,-0.07534872,-1.5676199,1.3262527,-0.9377874,0.9050781,1.4211826,1.2146592,1.1916709,1.9435682,2.5189998,-0.5699716,2.6687012,0.46456546,-2.0130687,-0.06286978,-2.2688794,0.5103704,0.7926227,-1.6618108,0.59329563,0.8058507,0.6435491,-0.43888813,0.1296189,0.30754325,-1.2678558,-1.2363328,-2.141654,0.5254485,1.2410403,-1.0879543,-2.9762886,0.4093417,-2.29117,3.561442,-0.32480624,-2.747002,0.62656647,3.5081778,-1.2054412,0.05474243,0.1552451,-2.0842283,-1.0416154,2.128444,-1.766475,-1.1567197,0.2848204,-0.40604573,1.3862486,0.8878971,0.12132356,-3.4494672,-0.06591729,1.215489,0.9327121,0.2730041,1.4927223,0.04653515,1.2714399,-1.7556095,0.91412646,2.481974,-0.48601305,-0.80187225,-1.0910873,-0.37644106,-1.7841702,-0.11816807,1.7859831,-1.5340471,-1.0805156,-2.6886954,0.7705741,0.08828003,1.0900244,1.168152,0.022540696,2.2942867,-0.386467,0.5268704,-0.26376516,-0.14405423,0.39354193,-2.1906104,-1.7658437,-0.82612026,-0.22905518,1.3057797,-0.72258115,-1.3361309,0.2772859,-0.33250067,0.070206724,-0.25026968,1.3209118,-0.32286716,-1.4563613,-0.29129848,-1.6825439,0.071154594,0.4763302,-2.03189,0.04256543,0.44857064,0.15915345,0.030863808,-1.3153715,-0.1515629,-1.7359338,2.0577,0.3462882,-2.4288614,0.892037,-0.21166986,-0.27994633,1.0215129,0.9061747,-0.968575,1.4477777,0.42469886,2.9435833,-0.14895244,-1.6785997,-0.627681,-0.21020266,-0.8219786,1.3996539,-0.5146169,0.87059885,-2.0260303,-0.7790167,0.9731436,2.336155,2.3432536,0.059919342,1.6641524,-2.0781524,0.18002068,1.0605283,1.3584017,2.296068,-1.3857884,1.1302258,-0.15660465,-0.35473984,-0.5225846,-0.39901957,0.86811054,0.30149245,-1.5364529,0.83278745,-2.8706872,0.4229003,-0.19604892,2.1520092,0.04775836,-1.6967292,-4.0609555,0.4991072,-0.17884536,-1.8467293,1.4089531,0.67886037,0.111884624,0.5323936,0.62606025,3.4320138,2.1330104,1.6234823,1.2100544,-0.63519466,-0.8281882,1.1864865,-3.016846,-0.040515374,1.3536279,-0.4676137,0.22911905,-1.3414377,0.45259246,0.40988854,1.8917966,-1.444663,-0.57116926,1.5950655,1.304168,0.51035804,0.9258638,0.38547567,1.2321956,-0.80677783,-1.4744312,0.819182,-0.75287473,0.24363893,-0.32173198,0.30640754,0.36073732,-0.98363054,-0.5491712,1.0216877,-0.037044905,-0.64397,-2.2219791,-0.26842105
Sc5_A,-1.4317927,-0.28440058,-1.7363125,0.34693155,3.79333,-0.032110453,0.5922688,3.6463263,-0.08267176,-0.18987699,4.627222,0.91701955,-3.3337197,1.2877584,1.6901245,1.0910338,0.6442898,0.6512714,-0.37380168,-2.192179,1.6420369,0.10927165,-0.4878652,-0.54739505,-0.30770296,-1.3327749,-2.7550406,-1.6780595,0.51350677,1.1900693,-0.12290746,-1.0269164,0.16845074,-2.486797,-1.8099912,-0.83800197,-0.7706593,1.3931447,0.9098928,-0.39898703,0.7693873,-0.44182652,-0.26429453,0.1511229,-0.8972927,1.5155796,-0.71172607,-1.2905364,-0.16724475,0.6774706,-0.78466105,1.4356961,-0.29125798,-3.080087,-0.43420413,0.44059914,0.38126108,1.1218796,1.0460638,-0.7703597,-0.42279232,-1.1686994,0.9643254,-1.3461567,1.0901138,1.9888248,-2.1658087,-2.1567347,0.6669229,1.2055866,-0.82329977,-0.929498,-1.7523566,-0.26814207,0.08531117,1.0397812,-2.8014443,1.5784004,-1.7874072,-0.19890423,-3.6076632,-0.29530898,0.8384006,-0.13463542,2.7308884,0.13327305,-1.0898684,-2.025534,-0.29303697,-0.98807406,-0.84194237,0.45438018,1.1185718,-2.6601217,0.26037967,-1.7225865,1.4437287,-0.9398559,1.2685393,1.266393,1.033139,0.82708013,1.8770983,2.9825802,0.19464225,2.8822265,0.4780814,-2.10465,0.08413755,-2.3535185,0.7772117,0.7733339,-1.6314366,0.7203078,0.9622427,0.046567988,-0.19912332,-0.54157114,0.56563497,-1.7215263,-0.9428212,-2.1030931,0.55927813,1.5423442,-1.2242316,-2.9297493,0.18348016,-2.4783027,3.9923081,-0.76392543,-3.1958318,0.651886,3.9407823,-0.75158095,0.076165356,0.004943376,-1.9040151,-1.2883856,2.0750124,-1.5135643,-0.92534804,-0.000200656,-0.37463838,1.1006082,1.3904961,0.2086801,-3.2285304,-0.1339399,1.4949564,1.4248809,0.42923185,1.3706992,0.29287732,1.0782356,-1.548843,0.74246716,2.4092312,-0.6712955,-0.7915327,-1.3451544,-0.45146072,-2.0276654,0.13729395,1.7403994,-1.3781885,-0.9594194,-2.640044,0.997666,-0.2073117,0.9371931,1.1347561,-0.19143571,2.44877,-0.021840848,0.412343,-0.42327046,0.006036474,-0.056641992,-2.2063472,-1.5726674,-0.667208,-0.057634752,0.9461758,-0.7391058,-1.4231851,0.48782745,-0.4160381,-0.261386,-0.79166746,1.1255492,-0.5143209,-1.4938678,-0.4371744,-1.8364782,0.5847175,0.46210256,-2.5850415,-0.32987887,0.75588965,-0.15341467,0.24852389,-1.1738764,0.43843022,-1.9571112,2.1972764,0.15494268,-2.9340394,1.2310784,-0.1718596,-0.22448833,1.4281482,1.2001302,-1.11469,1.188135,0.40561593,2.5936983,-0.24089018,-2.239218,-1.1487726,0.058648445,-1.0398885,1.4516095,-1.1088219,0.6858418,-1.8376354,-1.1148582,1.0135422,2.1268034,2.3081887,-0.10498288,2.2847042,-1.9366153,0.4679717,1.0047467,1.6119694,1.7240524,-1.2845194,0.8156956,-0.09053137,-0.3749611,0.038859826,-0.21773289,1.1552074,0.15913187,-1.3798944,1.3225188,-3.0553854,0.37188444,-0.33533317,1.9927974,0.23376523,-1.4787889,-4.190594,0.2712835,-0.18254332,-1.9263241,1.4368882,0.9252678,0.09157197,0.4361616,0.8099348,4.049549,2.0925891,1.7166241,1.4508607,-0.6757915,-0.9939719,1.1473525,-2.4483948,-0.13362567,1.7282312,-0.70603305,0.56476814,-1.1444273,0.57100797,0.4862957,2.0070543,-1.4256243,-0.59355974,0.9622803,1.5901961,0.6436392,0.678091,0.5699263,1.2837576,-0.8304198,-1.549159,0.6208344,-0.8700134,0.46128675,-0.35087982,0.22139063,0.12613386,-0.92443454,-0.6490846,1.0363046,0.12200138,-0.90707123,-1.8355033,-0.09098397
Sc5_A,-1.1790744,-0.26820585,-1.9730872,0.21551336,3.437282,0.06675042,0.48951858,3.4843884,-0.27156478,-0.21092148,4.508286,0.47983196,-2.9115248,1.3891351,1.8239281,0.8955432,0.4482932,0.31572145,-0.048412323,-2.6453795,1.5710728,0.117309704,-0.41154405,-1.0466932,-0.24594074,-1.0841851,-2.4507222,-1.4276184,0.46392292,1.4515723,-0.028619627,-1.2027938,0.053916052,-2.8331912,-1.5851158,-0.9718989,-0.93146366,1.6783975,0.97917926,0.163072,0.6165602,-0.20709392,-0.08769194,0.076249346,-0.8728036,2.1811986,-0.27021414,-1.2582774,-0.034157295,1.002494,-0.5553027,1.354542,-0.57533723,-2.975502,-0.16551824,0.23808923,0.008545079,0.9897452,0.9999356,-0.107619815,-0.8426727,-1.3533883,1.0614845,-0.8983298,1.1451946,1.5501008,-2.1830223,-1.769721,0.7459376,1.0255059,-0.6820311,-0.6636481,-1.6818902,-0.23896743,-0.45261464,0.9110335,-2.2100773,1.2332631,-1.9241214,-0.03536814,-3.251365,-0.30661795,0.5003901,-0.104641974,2.8024209,0.09198578,-1.1790168,-1.7683465,-0.6809614,-0.9753689,-0.6328729,0.5755253,1.2937264,-2.6146755,-0.15916535,-1.385308,1.3823073,-1.1837068,1.0971262,0.7787123,0.947901,0.27279538,2.00336,2.6550055,0.1509212,2.1911573,0.43475372,-2.031968,-0.038670827,-2.191877,0.6800325,0.80878717,-1.8213464,0.7502392,0.7750075,0.3100085,-0.11393406,-0.44110584,0.001525705,-1.3627502,-1.1909665,-1.8867033,0.6726841,1.4378232,-1.3706342,-2.7386177,0.41604313,-2.4592218,3.6457868,-0.7175651,-2.9599397,0.7295359,3.844718,-0.5650572,0.044670504,-0.10716779,-2.0347533,-1.175907,1.6099432,-1.7492044,-0.89988095,-0.17672431,-0.72559613,0.81712246,1.4589063,0.15604001,-3.492126,0.1246319,1.5393988,1.3026689,0.28456712,1.3902887,0.062004507,1.0069665,-1.546782,0.8947154,2.1624715,-0.83281636,-0.74052596,-1.2403964,-0.40414345,-1.9106045,-0.14410731,1.6555458,-1.2813658,-1.0780611,-2.6832511,0.76937455,-0.3524032,1.059432,1.1067727,-0.17807369,2.0499384,-0.4901707,-0.10281649,-0.20281856,0.044802833,0.21702932,-1.8857186,-1.9232682,-0.77827567,-0.055390675,1.1612264,-0.65154284,-1.0871552,0.5452191,-0.22751787,-0.13360196,-0.43573797,0.9323766,-0.35037467,-1.250551,-0.3709644,-2.1202476,0.08867584,0.3971625,-2.4342585,-0.030708,0.599306,0.04106525,0.2046776,-0.94196963,0.5048753,-1.7503581,2.2412355,-0.039191436,-2.9520981,1.4072709,-0.19131263,0.16320193,1.4236541,1.3095694,-1.3589971,0.9507116,0.13134126,2.704323,-0.032858245,-1.9007508,-1.1403999,-0.5524411,-0.77088195,1.2846724,-0.7960267,0.961882,-2.1483257,-1.1605873,0.774728,2.304269,1.8677654,0.5562948,2.2975764,-1.9088428,0.38119817,1.5371027,1.3969368,1.6636208,-1.8290833,0.7100309,0.15462252,-0.6529009,-0.17291285,-0.6695129,0.9183121,-0.18252392,-1.4344914,1.4691311,-2.6951306,0.36288068,-0.3725496,2.0348773,0.33216456,-1.670339,-3.6508977,0.28806415,0.22871675,-2.13954,1.4775362,0.8627802,-0.08665929,0.7389102,0.87542105,3.8614051,2.7284338,1.8075036,1.3560878,-1.1011952,-1.229809,1.1349623,-2.8005626,-0.1948605,2.044793,-0.79972166,0.555217,-1.1290568,0.17568657,0.38896236,2.3837569,-1.391461,-0.5262861,1.1056284,1.5446329,0.83288294,0.51257396,0.25257498,1.2738616,-0.6304249,-1.65897,0.231457,-0.6736662,0.31031647,-0.13060527,0.18955903,0.44012153,-0.97601277,-1.186197,1.0485138,-0.10542209,-1.1654702,-2.1314652,0.15654562
Sc5_A,-1.581289,-0.36729375,-1.9414948,0.5089495,4.006604,-0.14252296,0.75134313,3.797779,-0.010066935,0.06250033,4.7980757,0.9261949,-3.2436783,1.4312545,1.4368716,0.9849552,0.10552375,0.3401204,-0.42453232,-2.3122895,1.5192674,0.17650965,-0.5998505,0.017039113,-0.29124236,-1.1646436,-2.8064456,-1.2490565,0.3807631,1.2798388,0.21610947,-1.3241065,0.23944458,-2.6260774,-2.1239915,-0.57584107,-0.7905944,1.6440278,1.0505146,-0.26607624,0.767527,-0.06893702,-0.10609305,0.03366453,-0.9502117,1.9651656,-0.62227595,-1.1475106,0.018752858,0.87605435,-0.91002995,1.3038406,-0.40373164,-3.186901,-0.5599296,0.7938626,0.3480096,0.9310851,1.2265705,-0.7360969,-0.9625235,-1.4309818,1.1992115,-1.1978228,1.299921,1.731332,-2.1232977,-2.1949248,0.6733853,1.4334677,-0.8926937,-1.1181959,-1.6816022,-0.2208473,0.30438745,1.0561417,-2.6774697,1.8304963,-2.0491447,-0.33743826,-3.7341506,0.001748159,1.2110369,-0.30571812,2.6110883,0.34841895,-0.92560375,-1.8509479,-0.29163477,-0.92347133,-1.0661538,0.734399,1.5136981,-2.8861806,0.10679951,-1.5423783,1.3501285,-1.2514914,1.1049418,1.4149755,1.0416738,0.93334013,2.1648347,2.3052225,-0.16540934,2.8595161,0.4462199,-2.2768562,-0.044532303,-2.5319102,0.5080061,0.9132097,-1.516201,0.8245192,1.209034,0.37204033,-0.118078575,-0.3834092,0.7204657,-1.5734602,-0.8785662,-1.9977224,0.4801735,1.3979217,-1.0475335,-3.0988839,0.27844045,-2.5176828,3.8141952,-0.7472513,-3.0064998,0.3793305,3.904161,-0.79708177,-0.042502157,0.19671835,-1.9658332,-1.2658918,1.9031793,-1.4787468,-1.0613351,0.23412974,-0.44341362,0.9594617,1.3547477,0.15803362,-3.2122493,-0.24731812,1.6690421,1.397782,0.015370671,1.4918454,0.20568377,1.2448499,-1.5795552,0.9762649,2.221898,-0.661799,-0.8764533,-1.2126036,-0.623995,-2.0654724,0.32475585,1.8401241,-1.1641779,-0.91652364,-2.7258918,0.62721324,0.18740629,1.0081307,1.328199,0.15269995,1.9891701,-0.042059373,0.53450954,-0.29795358,0.03887583,0.18228532,-2.0988204,-1.4297227,-0.7920603,-0.22516374,0.91329163,-0.995656,-1.3924501,0.37078673,-0.43994483,-0.23259312,-0.65877485,1.2546308,-0.25721824,-1.2078352,-0.6691625,-1.960171,0.5401325,0.39584777,-2.2415602,0.012663231,0.4465199,0.13721475,0.12835893,-1.3652966,0.052098893,-1.8823379,2.272979,0.23530616,-2.8753774,1.3907746,-0.25177473,-0.18223989,1.3971797,1.0667357,-0.74497426,1.474152,0.70831627,2.9098299,-0.37263572,-1.507486,-1.018868,-0.118800044,-1.1417894,1.340046,-0.76841486,0.81820166,-1.905589,-1.4021826,0.87115204,2.3007975,2.1156719,0.1838876,1.9383916,-1.5968077,0.21243408,1.100052,1.4410201,2.2065845,-1.2920337,0.7608466,-0.28914747,-0.36509722,-0.3526508,-0.17014262,0.91848433,0.020271992,-1.4792215,1.177297,-3.052682,0.5064893,-0.5374277,1.961773,0.011666449,-1.3198227,-4.343581,0.4047042,0.013452878,-1.718717,1.301278,0.62775224,-0.00836442,0.594379,0.7246121,4.1105533,1.7504293,1.6555442,1.4328485,-0.6728683,-0.9840505,0.9924451,-2.729143,0.08845787,1.5683247,-0.40101817,0.42070457,-1.5063018,0.38186225,0.42098817,2.1163256,-1.1441638,-0.6262436,1.1589748,1.3646165,0.7051555,0.91904503,0.52988625,1.5252914,-0.7923782,-1.865418,0.55718327,-0.8813025,0.3391471,-0.3303243,0.36711037,-0.1626233,-1.0652437,-0.5873656,1.1568379,0.20032807,-0.71312636,-2.2264574,-0.1107443
Sc5_A,-1.3546119,-0.40092698,-1.8415072,0.26970857,4.043803,-0.06808683,0.80321443,3.7687452,-0.12212506,-0.38564935,4.6092844,1.0281718,-3.3623328,1.2832195,1.7661709,1.24507,0.71782196,0.35465702,-0.5719637,-2.4203246,1.5080172,-0.16491716,-0.37762988,-0.29849324,-0.16589643,-1.3990175,-2.7603824,-1.6208826,0.33886856,1.4999812,0.020310339,-1.0549655,-0.086296424,-2.9725895,-1.6463045,-0.9795273,-0.7147262,1.7211465,0.99190253,-0.09414151,0.7643525,0.11254529,-0.28322664,-0.026311252,-1.0519236,1.861093,-0.3084499,-1.3917359,0.003720783,0.96598285,-0.5547558,1.6601702,-0.7997887,-3.1836512,-0.37338406,0.35199878,0.27004948,1.4208393,0.907853,-0.85887635,-0.67247564,-0.87177116,1.1087093,-1.26344,1.184283,1.9280574,-2.2878735,-2.2604787,0.548883,1.1892556,-0.9454721,-0.98782706,-1.9608443,-0.34539503,0.02044426,1.1107242,-2.78621,1.6206318,-1.9196501,0.02872776,-3.7137566,-0.19819121,0.8939395,-0.018298374,2.5220773,0.36529714,-1.0577216,-2.078921,-0.62566125,-0.8200246,-0.91335475,0.76980984,0.9769042,-2.7395756,-0.14404635,-1.936961,1.7434611,-1.2561983,1.1860529,1.3476282,1.2559451,0.7306817,2.178074,2.772634,-0.031751715,2.7391214,0.52261996,-2.4034793,0.09052756,-2.512382,0.9781879,0.79894894,-1.874373,0.577055,1.1950411,0.15643527,-0.16831473,-0.46146816,0.09619629,-1.5218978,-1.1417449,-1.9434502,0.88850814,1.1728656,-0.95926565,-2.8755498,0.38468304,-2.4991589,4.0446367,-0.57348835,-2.889583,0.48348182,3.8224561,-0.678841,0.21322353,0.28889072,-2.1731336,-1.0648061,2.058426,-1.6558555,-0.94733965,0.06900242,-0.41518974,1.101467,1.3347372,0.12107289,-3.6019325,-0.021643844,1.3415043,1.355199,0.21176955,1.5477403,0.07886203,0.9298545,-1.3808577,0.83285046,2.4148004,-0.75461507,-0.66523767,-1.2072928,-0.2795958,-2.1612687,-0.004570561,1.69225,-1.2139541,-0.98855984,-2.6354475,0.7571579,0.23748603,0.7215744,1.124018,-0.42301753,2.3087516,-0.18714796,0.4327986,-0.05101806,-0.08098977,0.10074439,-2.087541,-1.6672382,-0.86827874,-0.089241385,1.1687696,-0.55389977,-1.0682725,0.5086304,-0.19787289,-0.084585,-0.20073569,1.6242434,-0.12163771,-1.4521005,-0.3412661,-1.816129,0.62108123,0.22211796,-2.4961307,-0.16327576,0.73282355,0.046097565,0.14765814,-1.3260746,0.118534714,-1.712297,2.52397,0.31566194,-3.237188,1.3422563,0.001642948,-0.3959609,1.2328697,1.2561226,-1.0402783,1.0528198,0.61398,2.7582593,-0.28188562,-1.9557769,-0.75770724,-0.04055443,-1.0920274,1.3940662,-0.8058483,0.86137766,-1.6687994,-0.8955307,1.0691819,2.3227785,2.1432824,0.037232727,1.8517184,-1.9028455,0.22237067,1.0812798,1.6104175,2.0073624,-1.4899858,0.91655284,-0.18923974,-0.4094226,-0.2662508,-0.20638749,0.920534,0.02402285,-1.108479,1.3710557,-2.9873312,0.052979376,-0.29394197,2.0389307,-0.054835003,-1.5156841,-3.9895842,0.20643602,-0.1754294,-1.8049867,1.5213405,0.8408907,0.07616826,0.70279396,0.854555,4.1734066,2.2877479,1.668357,1.556406,-0.60004413,-1.1388515,1.4941734,-2.772591,-0.032530695,1.3005613,-0.75831115,0.55112576,-1.3693117,0.5648466,0.07418658,2.1120472,-1.5290997,-0.68775904,1.2713637,1.8382269,0.8152622,0.9860006,0.5045788,1.3892367,-0.5469972,-1.5486538,0.6466022,-0.72101474,0.068193115,-0.3622885,0.21086954,0.15382098,-0.9143035,-1.0174466,0.85286814,0.18676482,-0.76729435,-2.4630344,-0.41478118
Sc5_A,-1.247876,-0.49374938,-1.8946875,0.26023453,3.7187314,0.09167966,0.539346,3.4665878,-0.23055306,0.08616202,4.5039406,0.7080203,-3.0804784,1.5826381,1.5911428,0.84217846,0.52931553,0.23847347,-0.34018186,-2.3150537,1.2983012,-0.08542953,-0.49392325,-0.21369621,-0.38391113,-1.5561355,-2.6489644,-1.2880323,0.45910516,1.1050248,0.24356902,-1.0472858,-0.034997914,-2.575726,-1.9178292,-0.6012697,-0.48102134,1.4807409,1.1468897,-0.09425701,0.9351982,-0.39426038,-0.24886611,0.19924128,-1.2193229,1.8103325,-0.23959182,-1.2849385,0.067979895,0.6261876,-0.4701553,1.3671618,-0.43478745,-2.9996667,-0.76407677,0.745878,0.36986598,1.0005141,1.344387,-0.6964335,-0.5423014,-1.3348297,0.8647549,-1.3171079,1.1750264,1.8359326,-2.2380319,-2.2805092,0.5653122,1.2373054,-1.0508771,-1.0254592,-1.6485009,0.09816228,0.12715866,1.1601459,-2.621695,1.6705507,-1.8218731,-0.19151741,-3.495709,-0.3749298,0.8584766,-0.15506004,2.5891082,0.15199071,-0.8582303,-1.7719774,-0.48221412,-0.5611047,-0.8587558,0.71808773,1.0108335,-2.639868,0.1344846,-1.6818302,1.4681528,-1.0572108,1.018519,1.241273,0.9490153,0.7466895,1.983667,2.4180906,-0.14224803,2.8391128,0.29501444,-2.0614953,0.015504489,-2.3884275,0.59959805,0.75869554,-1.4469992,0.4525175,0.81065893,0.46158892,-0.21062094,-0.3024115,0.69063145,-1.5428705,-1.1887167,-2.01547,0.5313921,1.2541697,-0.9992363,-2.9368224,0.10033455,-2.4946659,3.7697341,-0.52277535,-2.8470554,0.60341805,3.6364174,-0.88152915,0.038923778,0.005142927,-2.0263095,-1.1172587,1.9765402,-1.4796002,-0.89259493,0.21711557,-0.47302616,0.8916438,1.353352,-0.09692069,-3.2556908,-0.05960813,1.5238631,1.2448887,0.19240315,1.3496844,0.29806098,1.243159,-1.4105918,0.6681662,2.347949,-0.29192716,-0.67049396,-1.2496052,-0.60214484,-1.8328131,0.1331635,1.7652788,-1.2320529,-0.913437,-2.7911143,0.6879242,0.18906713,0.73798704,1.1370565,0.029404577,2.063847,-0.08632112,0.6387079,-0.29275778,0.19363254,0.15276068,-2.0800273,-1.6093408,-0.52588505,-0.18254653,0.77761704,-0.8423479,-1.327156,0.38288024,-0.20503263,-0.11012475,-0.6858163,1.2345465,-0.30453902,-1.4170554,-0.56580853,-1.8545624,0.5241897,0.13560651,-2.3049715,-0.18923216,0.6084273,-0.20983045,0.34730202,-1.1602385,0.003315511,-1.8924896,1.9990438,0.26760823,-2.7146227,1.1861659,-0.09035313,-0.3060168,1.2846767,0.93906075,-0.5197323,1.1893294,0.63110125,2.7550285,-0.2572121,-1.7168443,-1.1840757,-0.22292471,-0.81545687,1.1940336,-0.7152732,0.55525583,-1.4754263,-0.9444787,0.80949455,2.170108,2.2733715,0.25988135,1.4967321,-1.8238099,0.35873094,0.68724287,1.3295265,2.0095568,-1.1494446,0.84706664,-0.18410532,-0.06862036,-0.13979699,-0.28971153,1.0116711,0.114831515,-1.4982853,1.1190542,-2.9507372,0.17262095,-0.55027544,1.8336409,-0.007995435,-1.2412016,-3.9499419,0.23821576,-0.21587946,-1.8995289,1.3425218,0.68598294,-0.030425565,0.53326166,0.695335,3.9143944,1.6252574,1.3864075,1.2536261,-0.7221891,-0.96667385,1.0106304,-2.8080275,0.004369728,1.4901373,-0.41100287,0.30639532,-1.1885445,0.29079336,0.24360663,1.6359862,-0.9940193,-0.60172796,1.4565849,1.3736078,0.31554595,0.7955846,0.5210124,1.3115454,-0.94546646,-1.5861895,0.54255164,-0.93450606,0.27014682,-0.4373441,0.41591313,0.13622133,-0.962765,-0.45094636,0.73630476,0.11014525,-0.7517226,-2.024413,-0.20372738
Sc5_A,-1.662258,-0.35949075,-1.9233699,0.30957925,3.8367164,-0.018597044,0.49045396,4.0209107,-0.005684623,-0.24222836,4.6412435,1.1802198,-3.307541,1.4622616,1.789984,0.98723626,0.67834294,0.27802563,-0.17366987,-2.8185031,1.6060395,-0.21830654,-0.27028644,-0.7990364,-0.009414462,-1.0155623,-2.6237886,-1.5691153,0.5450897,1.3084296,0.053822964,-1.1718769,-0.037459016,-3.1110644,-1.5118804,-1.2460251,-0.6883984,1.5912845,1.0396823,0.19747978,0.6632129,-0.2231366,-0.075429685,0.2033624,-1.0797923,1.9606968,-0.35479444,-1.0878719,-0.012766376,1.2148248,-0.5532648,1.685818,-0.524689,-3.285787,-0.46247348,0.41272599,0.013065624,0.9259776,1.2860937,-0.6749256,-0.75619566,-1.3181678,0.9820064,-1.005416,1.0003206,1.4394422,-2.461848,-1.7571099,0.7396647,1.3127646,-0.8089415,-1.1123109,-1.819398,-0.5837526,-0.35621276,0.9108756,-2.725787,1.3578411,-2.083295,-0.20009176,-3.6227386,-0.26648372,0.8945816,0.13553081,2.5940723,0.08294222,-0.9807399,-2.016071,-0.79822594,-0.73438764,-0.69632953,0.66049325,1.1721481,-2.6131582,-0.043226827,-1.8558214,1.52234,-1.1582714,1.1892112,1.3884943,0.9700839,0.5060454,2.1129925,2.8190129,-0.13261385,2.4954872,0.21196835,-2.3749378,-0.121565185,-2.383911,0.8801612,0.7817327,-1.790245,0.84058595,0.7959508,0.48791823,0.09303175,-0.10228856,0.19514455,-1.6392101,-1.258009,-2.0225725,0.79508555,1.3562107,-1.5040089,-3.0765731,0.2617333,-2.37112,3.9322429,-0.41136724,-2.914935,0.53298855,4.2601066,-0.39562574,0.42741552,-0.22702962,-1.8735046,-1.3348767,1.7857429,-1.6904099,-1.092809,0.082252674,-0.7336131,1.1145703,1.3988938,0.29283214,-3.2749763,0.13268045,1.4493667,1.1994876,-0.20520923,1.5154471,-0.013572516,1.1639719,-1.1781384,0.5053022,2.506899,-0.9396238,-0.78592396,-0.9884332,-0.53937477,-2.0287993,0.012602206,1.6434821,-1.251941,-0.9375128,-2.8579333,0.8209699,-0.14520074,1.1396664,1.121843,-0.3622919,2.3417928,-0.5735272,-0.014004134,-0.22703522,0.031950604,0.027033405,-2.2308023,-1.9100548,-0.73546386,-0.27315903,1.1503614,-0.61074466,-1.4727207,0.5766555,-0.32522857,-0.20538448,-0.50302887,0.7985441,-0.32281318,-1.477543,-0.057026297,-1.9907537,0.5640592,0.5385837,-2.185558,0.13940082,0.5472881,0.13924743,0.12669599,-1.3659959,0.42568007,-2.0848672,2.5907419,0.21159239,-3.2108908,1.1839373,0.108741984,-0.003386944,1.4376189,1.3817757,-1.4287157,1.0172478,0.36677116,2.6044853,-0.013009806,-2.1555574,-1.3520193,-0.3344961,-1.0060362,1.398315,-0.73199975,0.9823691,-1.941989,-1.2884461,0.907782,2.2761235,1.9456779,0.2088124,2.2480454,-2.020104,0.4593851,1.2881082,1.719887,2.2401087,-1.5045266,0.66460717,0.05900919,-0.6900246,-0.19633071,-0.69300944,0.8598399,-0.012612667,-1.1100742,1.5607244,-2.9664674,0.51859546,-0.6713233,1.9011512,0.22355554,-1.8176845,-4.0935407,0.38192856,-0.004332045,-2.1384113,1.8170938,0.7557227,-0.1174137,0.9605884,0.93752736,4.3600564,2.8270004,1.6588793,1.612288,-1.1222407,-1.2085599,1.0774894,-2.9335463,0.09670191,1.8411478,-0.9370456,0.63036615,-1.4130473,0.3232123,0.55123603,2.2110503,-1.3950449,-0.40823832,1.112127,1.708569,1.1649935,0.95355976,0.48777655,1.3846976,-0.86447996,-2.0461128,0.5029362,-0.6944732,0.23439196,-0.6524157,0.32580227,0.4360283,-0.7609283,-1.1726825,0.93938595,-0.16097191,-1.290077,-2.1220126,-0.2048066
Sc5_A,-1.0138696,-0.080867134,-2.184444,0.17099713,3.503102,0.14485723,0.54554206,3.3552864,0.1819716,-0.31631514,4.6971164,0.5587288,-2.9998693,1.3494182,1.8199587,0.6160316,0.31171608,0.030512972,-0.43762895,-2.3758106,1.3254749,-0.059936356,-0.49798852,-0.7851404,-0.35695317,-1.2396874,-2.6353533,-1.5534623,0.51366013,1.4276563,0.064815864,-1.0962598,-0.2223713,-2.6866672,-1.60478,-0.8902092,-0.9333973,1.5367371,0.96761155,0.058649387,1.0452204,0.019535983,0.41440034,-0.21343318,-0.92947215,2.2604399,-0.14665423,-1.3108377,-0.12085143,0.87327456,-0.37830713,1.4360154,-0.7809488,-3.063394,-0.49167797,0.2620379,0.2125645,1.08484,1.3272976,-0.57788527,-0.9011828,-1.0889124,1.017315,-1.133222,1.5027087,2.191703,-2.500749,-2.0892375,0.63415504,1.1104721,-0.61872673,-1.0683302,-1.8833503,-0.13264713,-0.09284933,1.3561304,-2.659276,1.640622,-2.2204077,-0.16870351,-3.4039335,-0.15710342,0.79778016,-0.18763119,2.3955417,0.16972308,-1.0998887,-1.5399787,-0.6436735,-0.80818003,-0.57916903,0.6954151,1.1886791,-2.5877616,-0.11015098,-1.516561,1.3624275,-1.0964329,1.113125,1.0669075,0.97974074,0.6553556,2.1310859,2.3039207,0.11366079,2.5997195,0.6027479,-2.0685651,-0.16783537,-2.557094,0.626222,0.8040082,-1.304655,0.9314652,1.0464156,0.31028357,-0.24563377,-0.5028496,0.7062639,-1.2121458,-1.1382253,-1.6879131,0.37747234,1.4864081,-1.2747631,-2.8642528,0.49580848,-2.4018433,3.7626522,-0.42063698,-2.8606017,0.41137543,3.3987875,-0.42891806,0.04823761,0.27006856,-2.0887644,-0.9623525,1.9787722,-1.6660385,-1.2011459,0.04580622,-0.73028696,0.91989326,1.0329236,-0.1001084,-3.4255319,-0.041229848,1.4138095,1.2320051,-0.013898086,1.2595419,-0.052198492,0.88870853,-1.3600123,0.84385234,2.015866,-0.40590852,-0.4346841,-0.98665535,-0.7446082,-1.9866959,-0.4714714,1.6724027,-1.2210888,-1.0480585,-2.8735514,0.6818222,-0.38769862,0.84314567,1.0364747,0.19488312,2.055995,-0.07305933,0.6280226,-0.36754784,-0.007508071,0.32782874,-2.050413,-1.9117385,-0.5801588,-0.15210344,0.9839939,-0.66963357,-1.1869546,0.7972791,-0.111686125,-0.084348395,-0.48009706,1.1365981,-0.23925865,-1.0529997,-0.96522695,-1.8925414,0.20069556,0.31359035,-2.3506763,-0.1613505,0.4732384,0.36956644,0.16604939,-0.6713922,0.119708866,-1.847137,2.2439094,0.31819877,-2.7557752,1.2812359,-0.004708158,-0.21984087,1.4151078,0.9796525,-0.9860496,0.8899154,0.6431333,2.6685095,-0.51259804,-1.9243261,-1.0401809,-0.53267616,-0.88681924,1.3248316,-0.62874216,0.90537596,-1.7032938,-0.93606216,0.47372767,2.048538,2.02083,0.84220487,1.8650726,-1.57371,0.13070989,0.91140413,1.2319193,1.8831468,-1.4749123,0.9328615,-0.16590133,-0.6536406,-0.27417713,-0.45322812,1.0134999,-0.18921262,-1.2161982,1.4517095,-2.689667,0.4317267,-0.15349156,1.8775779,0.061857704,-1.3530359,-3.9058206,0.097504556,0.16144522,-1.8910071,1.2906559,0.42291832,-0.17996444,0.8038108,0.6590441,3.9143012,2.1011593,1.9728128,1.5077542,-0.8534978,-1.1414056,0.9777187,-2.9950733,-0.23008752,1.5509883,-0.6224071,0.68205255,-1.2877136,0.26277655,0.16949424,2.078185,-1.4319737,-0.9658586,1.3740896,1.3186386,0.52052414,0.68885314,0.1310066,1.4269711,-0.45990065,-1.6846355,0.31693792,-0.79993796,0.24479106,-0.3866027,0.17781018,0.35592064,-0.8193011,-0.84598917,0.9620765,0.07027831,-0.67753327,-2.4539442,-0.09326344
Sc5_A,-1.2984564,0.006920973,-1.9885733,0.3036253,3.398169,0.37337792,0.5012723,3.7022383,-0.4480725,-0.20125556,4.7272706,0.84292483,-3.160436,1.5859927,1.5839466,0.5866803,0.7726807,-0.000195416,-0.58906627,-2.4427578,1.2762111,0.3927673,-0.45202994,-0.68516076,-0.061041486,-1.389865,-2.5135024,-1.6482033,0.15635677,1.3144515,0.31152588,-1.2975224,-0.09876958,-2.7982879,-1.6933188,-1.0272405,-0.53611773,1.6407782,1.3636308,0.23253906,0.8437275,-0.0563719,0.124302864,0.15517424,-1.3825494,1.5785346,-0.48296404,-1.1678679,-0.044317923,0.776986,-0.37744573,1.6098598,-0.60487694,-3.2983346,-0.48516884,0.020925682,0.1794151,0.9176974,1.3747234,-0.7344638,-0.6589199,-0.9907784,1.0213652,-1.1863146,1.0747846,1.7204664,-2.3470848,-2.192994,0.55357546,1.021817,-0.3750011,-0.8115349,-1.4406369,-0.3693124,-0.06979468,1.0488766,-2.6541975,1.3603996,-1.7751949,-0.41845223,-3.678704,-0.33641487,0.8069619,-0.19989157,2.3961818,0.2842603,-0.80858827,-1.8213233,-0.4828064,-0.53104705,-0.65794146,0.3911062,1.0815068,-2.6140342,-0.018773723,-1.487807,1.2769585,-0.816967,1.1674513,0.8107603,1.1442319,0.2749515,2.0110497,2.4149497,-0.32387766,2.5063782,-0.13344996,-1.784957,-0.32760203,-2.1929107,0.3195025,0.59183925,-1.3970815,0.4637083,0.8347259,0.58978575,-0.3253588,-0.7240762,0.6719751,-1.3844417,-1.0607008,-1.7581642,0.0758591,1.4191105,-1.4337628,-2.8102949,0.26040158,-2.3152437,3.363798,-0.46598804,-2.588535,0.32429162,3.7795136,-0.6206797,0.27168384,-0.02672594,-2.1401145,-1.1809129,1.9476459,-1.4025831,-1.1481102,-0.27090618,-0.43139583,0.8520973,1.0941113,0.11573766,-3.1426177,0.07231133,1.3226272,1.2990042,0.13704026,1.5900575,0.25916702,1.1999643,-1.4506006,0.9378528,2.2990606,-0.6627652,-0.7208051,-0.93276066,-0.8249927,-1.7471141,-0.14448556,1.8104634,-1.4177781,-1.0738819,-2.5106444,0.88031465,-0.21389346,0.8057521,0.9831964,0.07813878,2.2923172,-0.29079857,0.3242114,-0.6046841,-0.048975535,0.21606691,-1.7194723,-1.6885885,-0.8857048,-0.094190195,1.2008244,-0.8301957,-1.1714387,0.352377,-0.27449965,-0.17370808,-0.08912673,1.0336146,-0.26156205,-1.2364666,-0.7366293,-1.8720387,0.2821439,-0.013865963,-2.2831109,-0.14296626,0.4112418,-0.024107872,0.09943616,-0.9157772,0.06482755,-1.6186764,2.0103853,0.55292434,-2.7419891,1.1619148,0.12067374,-0.12240195,1.1026131,1.090098,-1.3250613,0.6143521,0.53662705,2.5690377,-0.34740758,-2.0628333,-1.2620201,-0.09353441,-0.80146104,1.259892,-0.81488496,0.7671948,-1.2816526,-1.0730027,0.7944082,2.2130299,2.4838705,0.36243346,1.4675025,-1.9995428,0.12593158,1.0865791,1.4733,1.7237229,-1.5062338,0.715185,0.17171708,-0.3187095,-0.20458488,-0.45875382,1.0223744,-0.34752518,-1.6138514,1.2655127,-2.9459143,0.5888948,-0.30745143,1.8127127,0.06787213,-0.9951335,-4.2256746,0.32452026,-0.34368393,-2.260797,1.127935,0.58221596,-0.12649897,0.59255385,0.95461607,3.566237,2.12324,1.6606072,1.2357852,-0.7385649,-1.1934774,1.2173963,-2.6279435,0.0571026,1.7144098,-0.69982225,0.44019645,-1.116555,0.50815344,0.31632757,1.5888065,-1.456816,-0.6277658,1.3166575,1.0831046,0.55723083,0.85817224,0.33342513,1.0783638,-0.953761,-1.4092492,0.6881762,-0.8885521,0.17492104,-0.4197992,0.33948365,0.10368862,-1.039057,-0.9562409,0.5935532,-0.10915496,-0.63383764,-2.3996456,0.26653877
Sc5_A,-1.3671111,-0.18280843,-2.1485388,0.3790967,3.5244043,0.1023898,0.35286477,3.6478288,-0.090438865,-0.40564498,4.6258335,1.0234382,-3.0606573,1.3727508,1.5979658,0.8908964,0.82729304,0.3300331,-0.45950586,-2.675477,1.5046221,-0.05212547,-0.5649029,-0.7360547,-0.37416366,-1.5782305,-2.4722385,-1.4922249,0.34693503,1.194811,0.18864466,-1.0881621,-0.3540281,-2.325295,-1.8060652,-0.9214574,-0.59426975,1.4100013,1.109159,0.47128937,0.9134104,-0.10518682,-0.082089946,0.10812569,-1.1379086,1.8434631,0.10764016,-1.5531232,-0.3344781,1.151824,-0.56589913,1.4957602,-0.3478144,-3.3599432,-0.79054075,0.45936048,0.19872339,1.3216995,1.017196,-0.32456934,-0.69836855,-0.9470531,0.7365203,-1.1001232,1.4790182,1.6069906,-2.2814703,-2.1825225,0.54834175,1.3176118,-0.7473928,-0.7744133,-1.9239134,0.081455626,-0.26792112,1.2097672,-2.7160783,1.4299105,-2.0687385,-0.16348073,-3.6514285,-0.19850428,0.7978332,0.041303508,2.6659482,-0.12521492,-1.1867535,-1.828852,-0.09726912,-0.6579994,-0.47858757,0.3046306,1.197093,-2.585075,0.08577316,-1.6865646,1.3595893,-1.0333903,1.0864757,1.1452545,1.0018963,0.6446168,1.7700365,2.7310991,0.025523603,2.8969562,0.073560126,-2.0684843,0.012917325,-2.6112022,0.7219304,0.82810175,-1.5553911,0.5250518,0.7211125,0.5529276,-0.3243501,-0.46736443,0.4609716,-1.7314774,-1.1031111,-2.2128808,0.19984658,1.3740454,-1.5761187,-3.1695035,0.36560398,-2.2724483,3.4952407,-0.47122395,-2.8144958,0.5570715,3.8098664,-0.80456734,0.04591326,0.17812179,-2.0390627,-1.2131168,1.9384044,-1.6728338,-1.1316388,-0.103799775,-0.4941074,0.94992536,1.1810474,-0.006069126,-3.120677,0.13022849,1.2285817,1.2392339,0.14791255,1.6820265,0.12271848,0.8961551,-1.4540788,0.836358,2.7341342,-0.5600277,-0.80501735,-1.0563444,-0.82433045,-2.0109127,-0.11323441,1.6891083,-1.5629506,-1.1557887,-2.9545505,1.1030056,-0.07866529,1.0781264,0.92901224,-0.15724866,2.393958,-0.092004664,0.4075232,-0.42218295,-0.015297078,0.008136802,-2.1691294,-1.920733,-0.6934674,-0.29655007,1.0898545,-0.75986236,-1.2683734,0.29730716,-0.5131215,-0.22704971,-0.21145892,1.1419238,-0.3740714,-1.340582,-0.4955259,-1.9349468,0.31384024,0.341962,-2.65249,-0.29735765,0.65356606,-0.09833514,-0.2021611,-1.2289888,0.14183499,-1.7450511,2.3135679,0.29059282,-3.032977,1.2916445,-0.14284047,-0.15611959,1.2625197,1.0946946,-1.0789788,1.2430813,0.48593822,2.6821978,-0.07166503,-2.4396567,-1.2987616,-0.17417617,-1.0955048,1.3460507,-0.5462522,0.38065955,-1.5601857,-1.2458606,0.60176516,2.1394794,2.4748714,0.3970067,1.904624,-2.1579688,0.43262553,1.1705697,1.6381836,1.7423351,-1.4936819,0.8803134,-0.051635668,-0.5175,-0.30963725,-0.3776246,1.0497457,-0.030044973,-1.4168651,1.2345705,-2.7669964,0.42033336,-0.20972428,2.1188486,0.18094894,-1.6369368,-3.9837878,0.42735696,0.000334939,-2.216554,1.2772464,0.7892697,0.1167868,0.70425165,0.65275884,4.1802716,2.4163082,1.738878,1.3664227,-0.8450319,-0.9175104,1.2515172,-2.6738715,-0.06716531,1.8652917,-0.94635737,0.6361172,-0.9943582,0.33573174,0.23282143,2.120375,-1.1994474,-0.6943329,1.3886285,1.684887,0.37978756,0.5217314,0.42805925,1.3286906,-0.677296,-1.4510746,0.6183187,-0.7522899,0.43725297,-0.37802145,0.0303664,0.37306288,-0.8453835,-0.82357293,0.922485,0.072432704,-1.3173788,-2.3387477,0.085454136
Sc5_B,-1.7092313,-0.23234741,-1.5995847,0.5662181,4.099885,0.02645551,0.8674161,3.5585344,-0.1077344,-0.2708939,5.2486696,1.0635341,-3.4108293,1.6705173,1.4955152,1.1438279,0.5275303,0.1738534,-0.73725337,-2.2810967,1.3766917,0.15554416,-0.72274077,-0.34768796,-0.095977716,-1.166795,-2.667477,-1.4503268,0.09292447,1.6476269,0.26893374,-1.0371389,-0.21885957,-3.1656272,-2.1779115,-0.77046776,-0.8710881,1.6029712,0.72180545,0.059565537,0.6561696,-0.08948439,-0.15941142,0.036796797,-1.2918148,2.01434,-0.41268185,-1.2013496,0.026698707,0.7965116,-0.9960729,1.8852938,-0.6107506,-3.3876643,-0.41903022,0.42598945,-0.15741463,1.2193528,1.2323679,-0.7932478,-0.4812565,-1.3608888,0.75183165,-1.503426,1.4476643,1.8776671,-2.6733878,-2.603993,0.93371606,1.5433614,-0.94981664,-0.7764187,-1.721055,-0.13583642,-0.025807373,1.2816025,-3.0872757,2.0301492,-2.0051677,-0.026052654,-3.665818,0.10556802,0.9646371,-0.11139579,2.6348903,0.18285999,-1.2233367,-1.8862627,-0.34801954,-0.768168,-1.1253296,0.8902353,1.6140815,-2.9441667,0.14958224,-1.923068,1.5618069,-0.9999833,0.9534124,1.4092593,1.4937865,0.68771744,2.6147115,2.5908115,0.03152427,2.8337228,0.5154277,-2.3981318,-0.14137599,-2.479163,0.8671335,0.75168663,-1.7275383,0.7369286,1.0538563,0.4048212,-0.4292976,-0.47959793,0.22071736,-1.2531035,-0.97453415,-1.960985,0.81977063,1.4606308,-1.165696,-3.3013887,0.5541585,-2.825987,3.833773,-0.80657697,-3.2909467,0.447048,3.9044642,-0.5172142,-0.1331794,0.29250494,-1.92148,-1.1532754,1.7793157,-1.6818142,-1.0416608,0.045072682,-0.47803673,1.2349523,1.3872688,0.04893501,-3.7585838,-0.24382053,1.6084994,1.3390335,0.5325541,1.5161831,-0.021851445,1.1966532,-1.3547534,1.1914551,2.4701867,-0.5636874,-0.84590673,-1.2786006,-0.48827237,-1.9251335,-0.014581533,1.859041,-1.4395757,-1.1764724,-2.682888,0.4620547,0.18954898,0.6502243,1.2013464,-0.12180315,2.1634367,-0.16104789,0.3038579,-0.26795784,0.24703227,0.44452626,-2.1532583,-1.6072676,-0.9078184,-0.43397805,0.9794369,-0.80008554,-1.2180277,0.4716356,-0.78874856,0.08230843,-0.08375653,1.4353019,-0.29854307,-1.4628124,-0.2933943,-1.8836663,0.68243015,0.14079614,-2.6317034,-0.32220912,0.47950092,0.20171347,0.39285275,-1.4586877,-0.17239285,-1.9752719,2.3412712,0.1702782,-3.1291623,1.3757305,0.26028913,-0.4882843,1.4274118,1.2145085,-1.4487942,1.3723919,0.9690878,3.0803905,-0.26388422,-2.0162983,-0.9168728,0.014768965,-1.0669959,1.8779429,-0.9309958,0.7942864,-2.0971186,-1.2979147,0.7148311,2.379141,2.2371488,0.25807902,2.1921,-1.8635474,0.48857474,1.35475,1.5129911,2.1002934,-1.5709808,1.0048971,-0.21577491,-0.5298628,-0.10786843,-0.21473484,1.0051051,0.18298283,-1.141339,1.1514101,-2.9792352,0.23640029,-0.15953545,1.6802864,0.09867094,-1.5431029,-4.7181664,0.3424213,0.1439868,-2.1086679,1.4874189,0.6970396,0.08505114,0.5532604,0.58149016,4.33956,2.2322607,1.8605138,1.5126103,-0.6037463,-1.1426259,1.3944227,-2.687197,-0.007384327,1.4815152,-0.5617466,0.557533,-1.6512179,0.66066295,0.20428969,2.0883002,-1.5638769,-0.6004146,1.4077576,1.6051495,0.5645706,1.0575749,0.6961109,1.5655881,-1.0329593,-1.3547866,0.5000561,-0.69073343,0.10612763,-0.13733515,0.3653642,0.13277373,-0.9592416,-0.9157773,1.1763616,0.25743985,-1.2231865,-2.2866526,-0.23497432
Sc5_B,-1.379398,-0.15724875,-1.6596208,0.3142364,3.833795,0.11427355,0.58348286,3.5507553,0.16982101,-0.6943864,4.8287234,0.90306926,-3.0288274,1.3899366,1.5737442,0.71446425,0.64683247,0.30059746,-0.10822388,-2.420657,1.3452616,-0.04048911,-0.906248,-0.30438116,0.081803195,-1.5842952,-2.0885289,-1.7306333,0.44128704,1.6388943,0.20125695,-1.1145363,-0.016618155,-2.5475495,-2.1920516,-1.211652,-0.84920096,1.8324473,0.85319734,0.37154233,0.883917,0.007428657,-0.29849553,0.15433945,-1.3658679,2.0996318,0.1890458,-0.9939351,-0.06991047,1.1022218,-0.78670055,1.5804689,-0.48556107,-3.2649095,-0.49354988,0.1665962,0.2520673,1.2038541,1.3457438,-0.6883995,-0.5037699,-1.1932064,0.99815595,-1.0863701,1.1311281,1.8387194,-2.2175333,-2.3809805,0.63954836,1.2386602,-0.62133217,-0.6121499,-1.8787006,-0.117451034,-0.36347783,0.8949102,-2.7334743,2.0218453,-2.2848802,0.11573112,-3.8068223,-0.19055523,0.6326908,0.252706,2.4811008,0.24524996,-1.4584359,-1.8113589,-0.071184784,-0.6462983,-0.7248954,0.3511951,1.4119321,-2.6562085,-0.35415006,-1.6280335,1.5064023,-0.917763,0.5467463,1.2117692,1.442623,0.7110864,1.9703548,2.8714616,-0.36059755,2.646588,0.8824693,-2.1714063,-0.27057305,-2.4194872,0.42987835,1.1226112,-2.0091999,0.8139007,0.99292576,0.40084413,-0.3411469,0.114861324,0.39462885,-1.0159155,-1.221463,-2.0252194,0.81183654,1.4645358,-1.5262161,-3.0578606,0.0780822,-2.4751043,3.4920678,-0.5419019,-2.7177544,0.6237721,3.6566694,-0.39291915,-0.16496311,0.3206185,-2.0017495,-1.3065066,1.4848824,-1.8426448,-1.0555803,0.006257708,-0.40461066,1.041086,1.2778757,0.12579827,-3.5468693,0.06606884,1.20621,1.2938492,0.13386421,1.6580936,-0.10668383,1.1671823,-1.4384555,1.1985749,2.0009687,-0.85528064,-0.8631642,-0.9355526,-0.7104458,-1.6007483,0.000938523,1.5529728,-1.3990166,-1.228017,-2.5654533,0.954644,0.20421192,0.95176256,0.74782413,-0.058068193,2.465749,-0.34885293,0.2944874,-0.48465237,-0.091745585,0.58731055,-2.1495721,-1.7284757,-0.80246615,-0.39288783,1.125391,-0.64821523,-1.0338774,0.18616037,-0.55482924,0.37187055,-0.31643504,0.96023667,-0.22380465,-1.4663094,-0.30778593,-1.9246267,0.18757729,0.3970951,-2.4807086,-0.026336908,0.53468925,0.15215191,0.18519543,-0.9447237,-0.13174535,-1.6733916,2.1841223,0.64165306,-3.232428,1.7249684,0.2777843,-0.24647771,1.2392108,1.4228032,-1.503725,0.7612889,0.75763893,2.8367898,-0.36261752,-1.9248128,-1.1164354,-0.130738,-0.9496033,1.7420837,-0.6338914,0.95074546,-1.9142734,-0.6543536,0.53076386,2.3427062,2.0311966,0.39234722,2.1711762,-1.967567,0.029184759,1.2564677,1.4142514,2.211253,-1.5633279,0.75814855,-0.058473337,-0.3680723,-0.13679197,-0.4487218,0.7343886,0.03916992,-1.5783651,1.2180387,-2.7687624,0.2925383,-0.10773913,1.9593586,0.46015978,-1.5904255,-4.1350813,0.24658746,0.38285667,-2.244679,1.3003515,0.7118142,-0.043831855,0.7331157,0.6754638,3.780922,2.6892397,2.0420759,1.3688896,-0.42019808,-0.9500326,1.1317257,-2.4419098,0.014385683,1.5426346,-0.6011616,0.75007945,-1.2523915,0.4751086,0.5578554,2.3372502,-1.192869,-0.7640883,1.7364777,1.3201925,0.5090218,0.94684684,0.31181788,1.6614255,-0.91509265,-1.3130023,0.7952649,-0.26274693,0.2975146,-0.20789647,0.2196694,0.2528025,-0.8796648,-0.8392872,1.0617796,-0.07154132,-0.9210529,-2.2766726,-0.009938511
Sc5_B,-1.3273784,-0.17656651,-1.7469335,0.13931224,3.518985,0.12987807,0.50932723,3.548042,0.07985103,-0.34015533,4.4696302,0.9385768,-2.814723,1.4928886,1.8506001,0.52293736,0.8072879,-0.12457067,-0.27018595,-2.638375,1.4718953,0.016627243,-0.2356043,-1.2500658,0.052904673,-1.2693704,-2.2695887,-1.7593517,0.362687,1.7662286,0.025859632,-1.1852926,-0.09362718,-2.9557626,-1.6099874,-1.311954,-0.8812905,1.6388153,1.1994487,0.5193427,0.6891894,-0.3937129,0.16600813,0.15777102,-0.92371845,1.8586521,-0.10715926,-1.0530864,-0.032858606,1.3271058,-0.5630565,1.7991759,-0.72337407,-3.148467,-0.4939326,-0.100936756,0.38603613,1.177885,1.4579182,-0.2531699,-0.6016984,-1.0508959,0.8419934,-1.0661634,1.0857135,1.6450307,-2.5023057,-1.7066494,0.9189721,1.2556131,-0.6729733,-0.85799927,-1.493058,-0.31247005,-0.6026231,1.0782429,-2.5034766,1.4467187,-2.1823921,-0.37804812,-3.36427,-0.45104057,0.92688096,0.16956717,2.5092905,0.22955678,-1.230408,-1.6685507,-0.6938977,-0.8350627,-0.5971786,0.8177278,1.3211789,-2.49163,-0.014959756,-1.6369251,1.659139,-0.9373846,1.0521746,0.9616888,1.1257865,0.29434708,2.315657,2.185762,0.010718077,2.0626242,0.40011102,-2.2857695,-0.27899098,-2.4050994,0.7969531,1.0093906,-1.720279,0.8420546,0.8726118,0.5312775,-0.24229392,-0.40232766,0.3917988,-1.1175853,-1.1614919,-1.9042327,0.5043211,1.393456,-1.7309734,-3.1393747,0.62084395,-2.25393,3.2663326,-0.59083694,-2.722061,0.39865983,3.8983767,-0.030536173,0.24190211,-0.03086657,-2.032075,-1.0478091,1.7685972,-1.8497527,-1.1704608,-0.026354238,-0.8582412,0.8911151,1.2634352,0.04843328,-3.2762947,0.44968957,1.1903934,1.015775,-0.29958025,1.4926983,-0.08969111,1.1408238,-1.2324663,0.76774776,2.2257519,-0.75669444,-0.49249923,-0.8447663,-0.6025578,-1.9716845,-0.23545295,1.6328254,-1.4354665,-1.0353386,-2.7291343,0.62595886,-0.03867745,0.97645044,0.8902486,0.16378383,2.1749816,-0.5498777,-0.06828465,-0.39810672,-0.10228596,-0.032944955,-2.0812464,-2.139353,-0.63424075,-0.65409446,1.0003254,-0.15715784,-0.9850133,0.48169217,-0.3745794,0.07345475,-0.1330146,0.8464536,-0.48023817,-1.3790314,-0.44865507,-2.1438794,0.22180343,0.33386484,-2.1774325,0.001446789,0.45073602,0.45389503,-0.05697159,-1.0066366,0.30462164,-2.0198438,2.081158,0.29663485,-2.9033911,1.1061118,0.119119175,0.10539881,1.2807431,1.4496228,-1.7340298,0.7150381,0.5979329,2.7394927,-0.09006575,-2.0181975,-1.3808798,-0.6163607,-0.91861886,1.4344659,-0.5172395,1.0259677,-1.9756852,-1.220454,0.66109586,2.2593515,1.8845804,0.61510956,2.0417519,-2.0989647,0.10319485,1.32738,1.5709822,1.8547443,-1.8586694,1.0305336,-0.06590231,-0.6053335,-0.13964072,-0.76938534,0.9230801,0.004233801,-1.3261294,1.7415305,-2.7715504,0.35491177,-0.32632506,1.820392,0.31913328,-1.915193,-4.1180625,0.38995782,0.20868352,-2.1073766,1.5201561,0.71755683,0.055834334,0.9422592,1.0908209,4.3752337,2.9668665,1.7814865,1.3427321,-1.1768327,-1.0784506,1.1336707,-2.6799164,0.0352612,1.7603058,-0.7010317,0.36537865,-1.4492435,0.19316322,0.27455765,2.2530322,-1.3736193,-0.5737283,1.1937308,1.452265,0.8670086,0.749234,0.7767256,1.3962423,-1.0097327,-1.9605492,0.27596158,-0.67889035,0.33917946,-0.40056288,0.3405429,0.5788923,-0.81198335,-1.0673853,1.1728629,-0.113302276,-1.1807956,-2.2340174,0.12712555
Sc5_B,-1.5178626,-0.6400921,-1.8075408,0.53625345,3.5802257,-0.24121486,0.4535618,3.472101,0.05739425,-0.12191431,4.217959,0.6902329,-2.8703022,1.4089775,1.5701965,0.78258026,0.36487144,0.34463376,-0.11226901,-2.3815012,1.5095515,0.26419175,-0.47676784,-0.36129567,-0.17531416,-1.2513736,-2.6756759,-1.332254,0.4511992,1.2132425,-0.028798519,-1.2530849,0.06720678,-2.6754916,-1.962212,-0.857649,-0.530064,1.3084189,0.6278431,-0.32756686,0.8845565,-0.05523369,0.061322916,0.032273363,-0.93228275,1.6838759,-0.5138526,-1.0769523,-0.05495785,0.54692477,-0.6969965,1.4048954,-0.44950992,-2.9739196,-0.23388302,0.46446756,-0.109875076,0.8274848,1.184329,-0.60156715,-0.8732807,-1.2456489,1.5119791,-0.9683742,1.097628,1.6746355,-2.1139734,-2.1905286,0.64782125,1.253354,-0.9296672,-0.77195615,-1.6515931,-0.08008223,0.42857647,1.1838521,-2.608088,1.6444939,-1.5492252,-0.21977042,-3.4629261,-0.20022571,0.91209394,-0.2956549,2.594303,0.38139066,-0.9491835,-1.3499033,-0.48783714,-0.8067602,-0.66225123,0.40535638,1.0023769,-2.5856068,-0.10139144,-1.7409443,1.6509039,-1.1430334,1.017287,1.0198202,0.9362284,0.5035987,1.9891971,2.6044736,-0.023017334,2.48724,0.06404789,-1.9642437,-0.05798652,-2.3199334,0.46920386,0.8119697,-1.43797,0.50177276,0.7895143,-0.046686277,-0.25346565,-0.48280334,0.50204676,-1.5084378,-0.9591437,-1.9060054,0.34117028,1.5323727,-1.2002853,-2.739634,0.17182434,-2.5492764,3.6491668,-0.64257777,-2.9226294,0.70731837,3.6259732,-0.88858646,0.30361086,-0.11288442,-1.8585303,-1.135021,1.8316461,-1.352066,-0.76478785,0.31226867,-0.5687736,0.9554234,1.1939209,0.04559033,-2.932372,-0.23379968,1.4651637,1.2122155,0.38090792,1.3904333,0.20077436,1.3366473,-1.6194501,0.8057434,2.1856172,-0.6897028,-0.6756962,-1.1452394,-0.62683403,-2.2272625,0.16747259,1.6329612,-1.037908,-0.88900125,-2.4762137,1.0350345,0.0754903,0.9197545,1.390204,0.16294263,1.9467331,-0.12019854,0.314674,-0.19957776,0.14962174,0.3066164,-1.9343635,-1.6480718,-1.0343928,0.043804288,0.5359455,-0.70974046,-1.1859618,0.08590398,-0.037884545,-0.06685344,-0.5054279,1.2288272,-0.16147089,-1.3874319,-0.5636867,-1.6594574,0.5914661,0.23532772,-2.4599404,-0.20706454,0.552956,-0.08489553,0.38840973,-0.9712156,0.19256873,-1.613747,1.9910688,0.24443127,-2.6354187,1.2524505,-0.025537238,-0.015047223,1.1878408,1.3253834,-0.947613,1.1395665,0.9095415,2.4355636,-0.24305853,-1.5477537,-1.1310244,-0.23556703,-0.733294,0.9996086,-0.99436206,1.0405226,-1.6723855,-0.774805,0.6984151,2.3540187,2.0893955,0.5529649,1.67831,-1.6999364,0.21207447,1.2561551,1.0918461,2.087315,-1.436398,1.0673519,-0.074977316,-0.3633551,0.12116797,-0.07807681,0.9256851,0.138009,-1.6017002,1.3275826,-2.9940846,0.54733175,-0.2782611,1.5577779,-0.026554225,-1.33138,-4.0181537,0.37920633,-0.019843083,-1.8959407,1.4618089,0.90399706,-0.19602232,0.68765086,0.75630546,3.4921725,1.7272809,1.5088149,1.126235,-0.5801707,-1.1846992,0.9487869,-2.523418,0.05942555,1.422289,-0.60817546,0.50221497,-1.1007947,0.68349576,0.03725511,1.8581597,-1.3122263,-0.4102837,1.1930776,1.3917478,0.5151992,0.6645281,0.2796829,1.104204,-1.154237,-1.8060002,0.49189427,-1.0600835,0.49882254,-0.42118034,0.14077991,-0.046638515,-1.0241994,-1.0618056,0.84400135,-0.06981062,-0.8477867,-1.8161529,-0.18180086
Sc5_B,-1.2728449,0.013312601,-1.7513233,0.0829958,3.747354,0.30081415,0.61575866,3.386354,-0.15210669,-0.29391202,4.7417016,0.9614094,-3.2150903,1.5645862,1.5255593,0.61312264,0.93330586,0.09395737,-0.5841597,-2.319916,1.40929,-0.121868186,-0.5951867,-0.84157085,-0.31174478,-1.404212,-2.8175633,-1.754304,0.45720476,1.4791502,0.20937026,-1.1613156,-0.36619517,-2.6574976,-1.9656901,-0.85493046,-0.94489574,1.6361843,1.1309443,0.23682067,0.8998504,-0.115812026,-0.18027848,0.20913628,-1.2212145,1.8467954,-0.09859383,-1.2968885,-0.31682336,0.99617416,-0.3632588,1.7509855,-0.46800113,-3.4332352,-0.72729194,0.17883241,0.18175964,1.2494853,1.2219063,-0.4660695,-0.4948125,-1.1951164,0.8238596,-1.3900499,1.0673102,1.7119584,-2.3323276,-2.4008062,0.5932986,1.4041739,-0.53491604,-0.873508,-1.72799,-0.20425142,-0.06190114,1.1302109,-2.954248,1.6384993,-1.9807758,-0.20917194,-3.6733623,-0.5857974,0.91244817,-0.001847681,2.4028494,0.012127293,-1.2677876,-1.821968,-0.18853828,-0.71499467,-0.9622037,0.79412204,1.2225513,-2.5423818,0.0730082,-1.6080844,1.3422512,-0.7396289,0.9890044,1.207939,1.1438519,0.94698477,1.9851999,2.4185183,-0.293978,2.5703175,0.32175896,-2.4357555,-0.26303983,-2.6393113,0.7079872,0.6462569,-1.6212785,0.60400623,0.68420744,0.47809628,-0.46891183,-0.2477247,0.7029631,-1.3633507,-1.2149451,-2.062856,0.2428494,1.1739563,-1.4789965,-3.1023545,0.67841357,-2.51387,3.4766011,-0.23092432,-2.825702,0.33099487,3.4571993,-0.9752187,-0.06605968,0.47463375,-1.9352747,-1.0487306,2.1497984,-1.7773302,-1.4199041,-0.15854374,-0.55727214,1.3052012,1.0848706,-0.065689616,-3.195406,0.26982972,1.337583,1.067144,0.12048181,1.6087445,0.048363183,0.9591195,-1.3863493,0.89264226,2.5950892,-0.5556434,-0.84628314,-0.75725603,-0.50519776,-2.055438,-0.27348864,1.8892612,-1.3276236,-1.1897794,-3.0957472,1.0371777,-0.12154397,0.708957,1.1377228,0.08169021,2.4126642,-0.12044948,0.93162835,-0.31745946,0.11326709,0.26481017,-2.1221695,-1.9287452,-0.82940894,-0.43209577,1.3907925,-0.49088192,-1.1640244,0.5671966,-0.36504117,0.049685407,0.03733127,1.2727683,-0.08353764,-1.1109906,-0.22735687,-1.8282866,0.1416756,0.14698775,-2.415458,-0.31803697,0.4051625,0.15100095,0.07767324,-1.21745,-0.12210669,-1.6293505,2.0665977,0.3649534,-2.8153572,1.1266879,-0.113531195,-0.02549966,1.026375,1.1410023,-1.1488988,1.2154341,0.34429187,2.810302,-0.12186594,-2.0679178,-0.9764342,-0.50194883,-1.020354,1.2358096,-0.39475054,0.93918955,-1.7732693,-0.86450005,0.60716826,2.183867,2.1095238,0.47393903,1.4569939,-2.2360942,-0.09035553,1.3048412,1.4272848,1.8660547,-1.4587151,1.0855587,-0.22347613,-0.40908018,-0.277549,-0.23866682,1.1488501,-0.09371438,-1.1509838,1.2570558,-2.8091044,0.3904893,-0.18370926,1.823355,0.13652599,-1.9558988,-3.9240863,0.25440866,-0.022773115,-2.154235,1.5630865,0.7632462,0.09381072,0.5242278,0.55311286,3.9002929,2.3844392,1.6520483,1.2178828,-0.7977122,-1.0340364,1.1415383,-3.0378494,0.035987608,1.4499652,-0.5419312,0.2910333,-1.2051103,0.50181174,0.19721286,1.7488803,-1.3058578,-0.83706236,1.6786946,1.2702707,0.27088812,0.7055144,0.70582294,1.4035292,-0.95232636,-1.3217691,0.8069764,-0.768468,0.28483585,-0.44374135,0.25065324,0.45869106,-0.7967133,-0.8031095,0.9894289,-0.10840058,-0.97703856,-2.443789,0.16885987
Sc5_B,-1.0287788,0.118252575,-1.8799707,0.0880827,3.7122564,0.38844514,0.59830964,3.6774464,-0.03328051,-0.5421536,4.551595,0.83325005,-3.000439,1.7018696,1.8310559,0.8974555,0.55725783,-0.027121015,-0.34205067,-2.3943968,1.5393058,-0.05742813,-0.3830083,-0.84719294,-0.04873875,-1.3705686,-2.5068853,-1.9460453,0.50891966,1.8955464,0.44894695,-1.0394772,-0.14248908,-2.7149389,-1.8289144,-1.0083772,-1.1009672,1.9487214,1.0981213,0.43033105,0.8619829,0.101455115,0.19961193,-0.16806595,-1.1750103,1.8407363,-0.1169486,-1.4128312,-0.02679916,1.2230031,-0.5735818,1.4696301,-0.51986885,-3.317731,-0.47236386,0.15052629,0.3554137,0.9257655,1.1451164,-0.09385529,-0.82185227,-1.1232262,0.81088585,-1.2765645,1.4559774,1.9686648,-2.4093835,-2.0263436,0.393721,1.1630974,-0.7827551,-0.7868083,-1.8672105,0.0942328,-0.0749192,1.2027785,-2.4484441,1.5219878,-2.277708,-0.20711607,-3.780286,-0.44022483,0.7641664,0.04896242,2.357955,0.005770427,-1.0988775,-1.8492514,-0.27766642,-0.77307874,-0.7712085,0.556396,1.083283,-2.7283826,-0.2744597,-1.6641471,1.0710617,-0.90321356,0.9796813,1.0976179,1.4302801,0.7649183,2.147052,2.7086427,-0.021621129,2.3420346,0.6851689,-2.2318637,-0.27202943,-2.5672348,0.3923008,0.65998924,-1.76552,0.72375214,0.849059,0.7198751,-0.47395688,-0.24788538,0.57470024,-0.9049786,-1.3187276,-2.13118,0.4111798,1.3421123,-1.2913854,-2.641897,0.42025828,-2.283278,3.3180656,-0.26311588,-2.5620968,0.61391157,3.433201,-0.38652262,0.054029606,0.38992918,-2.041792,-0.9192287,1.941479,-1.619948,-1.021794,-0.11553404,-0.5403779,1.1455182,0.93701893,0.3171971,-3.706495,0.028720913,1.3301328,1.1763399,0.13547742,1.2620919,0.054374024,1.1861963,-1.6032606,1.0179818,2.199788,-0.6589691,-0.8214187,-0.97017443,-0.5492558,-1.9268452,-0.44181597,1.6826864,-1.6888392,-1.0354654,-2.7258513,0.5137317,-0.14747769,1.1974839,1.0804205,0.398677,2.3451428,-0.39035428,0.42383608,-0.35115612,-0.22783522,0.20160681,-1.925392,-2.060062,-0.58200973,-0.3953001,1.279549,-0.39850733,-1.2719793,0.57806104,-0.2586097,0.15346031,-0.2743613,1.1087009,-0.18496189,-1.2603621,-0.4268976,-2.3603919,-0.061019734,-0.0657848,-2.4362059,-0.118254036,0.42027932,0.49277472,0.003130468,-0.680137,-0.015252821,-2.0517907,2.0182688,0.6361566,-2.9394896,1.5907336,-0.08550528,-0.15666558,1.0531112,1.4240673,-1.3540962,0.8245911,0.64395094,2.7385712,-0.3822179,-1.7380135,-0.9933796,-0.42403752,-0.9978066,1.5358528,-0.6831528,1.0498382,-1.8113089,-0.863454,0.4083306,2.237012,1.8983847,0.50131845,1.7249398,-1.742602,-0.007043711,1.4194374,1.4986238,1.8435332,-1.5693363,0.768458,-0.37529418,-0.42215994,-0.3224212,-0.38164955,0.9942031,-0.2376998,-1.4141039,1.6008866,-2.7671442,0.47629827,-0.088414095,2.0256212,0.35335904,-1.3603663,-4.093782,0.48944575,0.16441216,-1.9839307,1.2788744,0.39732337,0.08801602,0.86533445,0.63166785,3.8883412,2.4259229,1.9279925,1.7406034,-0.62302524,-1.0196648,1.0714537,-2.7985518,-0.21345225,1.6671636,-0.6682062,0.58202523,-1.1154583,0.4258077,0.103292264,2.2732198,-1.6325427,-0.9242485,1.5152032,1.2724499,0.33013538,0.572751,0.18334894,1.5217351,-0.65786284,-1.7525986,0.4923598,-0.7268739,0.22106732,-0.34129465,0.104449265,0.31755626,-0.8083601,-0.69148666,1.1957754,-0.056363862,-0.6919275,-2.2137334,0.12253596
Sc5_B,-1.4534329,0.12274394,-2.0481818,0.34267205,3.868491,0.2983696,0.39908868,3.5605755,-0.07069874,-0.71643233,4.973564,0.884884,-3.0098302,1.6765947,1.5224687,0.9683283,0.4814202,0.05516281,-0.6684231,-2.3158536,1.5868227,-0.011135968,-0.718532,-0.71958935,-0.037914705,-1.3039033,-2.407055,-1.2719396,0.40454525,1.3660989,0.19943218,-1.5179136,-0.3089549,-2.4628842,-1.9073573,-0.85597646,-0.60337126,1.4174451,0.9546532,0.053127326,0.70320183,0.17070735,-0.14179838,0.000414229,-1.4000797,1.9539965,0.13963771,-1.5039665,-0.1561917,0.91233635,-0.8026338,1.5385166,-0.40095508,-3.6864874,-0.55797553,0.20084818,-0.22830369,1.328112,1.1361322,-0.80141675,-0.25357085,-1.2316756,0.93860155,-1.273959,1.4868618,2.0887516,-2.4400916,-2.3240206,0.6773041,1.2778738,-0.48260066,-0.8017305,-1.8551558,-0.0794326,-0.016981412,1.0661099,-2.8206937,1.7668535,-2.3386753,-0.13205181,-4.0433774,-0.43291977,0.75293326,0.19172882,2.543992,0.005796727,-1.2908351,-2.1519465,-0.20136094,-0.5663609,-0.7893117,0.22645432,1.5221665,-2.7155113,-0.1063881,-1.8442521,1.4498409,-1.3762258,0.63288057,1.1134783,1.3852698,0.511764,1.8044777,2.8006535,-0.33590394,2.8640904,0.56937885,-2.318261,-0.27770954,-2.3858905,0.73292667,0.9242695,-1.5007734,0.7668547,0.7479648,0.3370253,-0.6952176,-0.35268646,0.43840092,-1.1789272,-1.2935934,-1.826533,0.6156417,1.5427952,-1.3235551,-3.0182147,0.5324564,-2.4748776,3.6449816,-0.49511573,-2.5607882,0.5033886,3.4203722,-0.18373202,0.18082388,0.38372892,-1.985014,-0.86023,1.8541026,-1.6478964,-1.0486377,0.010877902,-0.52406096,0.7389603,0.80754656,-0.1411254,-3.1900542,-0.21440493,1.3674448,1.520656,0.23706542,1.5024114,-0.062375482,1.4194506,-1.4574223,0.858733,2.2710648,-0.38754293,-0.97851425,-1.180918,-0.70008504,-1.7956843,-0.29267666,1.7575592,-1.2671671,-1.1485087,-3.0938144,0.96954507,-4.93E-05,0.83220863,1.2566547,0.16868713,2.014525,-0.056213997,0.72617406,-0.20547962,0.12420806,0.47506204,-2.1130435,-1.7287538,-1.1544774,-0.11480536,1.1983632,-0.6504283,-1.0435504,0.32067233,-0.55802953,0.2571965,-0.13465555,1.4657685,-0.2852072,-1.2949522,-0.4200976,-1.9254584,0.30791512,0.16079247,-2.1446311,-0.3394544,0.41653183,0.06795397,0.023791755,-0.92638624,-0.25545684,-1.6306771,2.1948657,0.7744851,-3.2801003,1.8018799,0.097554974,-0.11720017,1.28112,1.3554263,-1.3634709,0.9865385,0.7757094,2.9945192,-0.18102732,-2.1633358,-1.1938258,-0.26937276,-1.089196,1.6451157,-0.6287319,0.97121936,-1.7587407,-0.94938457,0.51929766,2.4576848,2.328712,0.515532,2.113374,-1.801554,-0.1699951,1.4953704,1.5259243,1.9834642,-1.7058188,0.7057127,-0.24201065,-0.51284736,-0.3929604,-0.31582335,0.91354585,0.12234448,-1.4563173,1.1502914,-3.081273,0.5945008,-0.16349979,1.9700724,0.49418318,-1.4284573,-4.165902,0.17789367,0.17928293,-2.144708,1.5216817,0.60076547,0.036551215,0.78227305,0.49652684,3.7917473,2.2387347,1.7698036,1.3946133,-0.8304042,-1.0050751,1.0917072,-2.6320117,0.12108361,1.7366761,-0.40138286,0.49313372,-1.3938817,0.6739371,-0.022989158,2.0028887,-0.9975108,-0.8796664,1.429754,1.3749609,0.29329768,0.90768,0.3161292,1.548804,-0.9994698,-1.3608794,0.741222,-0.92717516,0.3894924,-0.45402598,0.061571196,0.050006695,-0.6879139,-0.70981807,1.0472018,-0.07624021,-0.6345863,-2.298021,0.16677001
Sc5_B,-1.8676219,-0.52894825,-1.783937,0.55399925,3.7809339,0.09336275,0.48806754,3.4177995,-0.3681755,-0.45029587,4.5646014,0.89934903,-3.1034234,1.750027,1.4828074,0.5826581,0.74079376,0.24926895,-0.69809186,-2.7140648,1.2709482,-0.0498588,-0.5961879,-1.037485,0.07189248,-1.2754053,-2.3200212,-1.6145566,0.41969687,1.3479035,-0.046137024,-1.3052608,-0.3158491,-2.541565,-1.623501,-1.2122592,-0.5372394,1.3354892,0.61159915,0.3052359,0.7128844,-0.33348498,-0.17720912,0.4484434,-1.0420107,1.7050858,-0.024225567,-1.088462,-0.1622729,1.0206258,-0.70766705,1.8470181,-0.30878,-3.4419665,-0.5553533,0.30348882,-0.27105635,1.13081,1.0202295,-0.71775,-0.5399683,-1.0640199,0.9287311,-1.0827966,1.5458163,1.523848,-2.4194984,-1.837888,0.76308745,1.3308347,-0.42456767,-0.9162965,-1.6293547,-0.2530085,-0.40902796,1.0316217,-2.724018,1.4071124,-1.9579463,0.002048399,-3.4225278,-0.65984553,0.5739794,0.2738142,2.3835962,-0.024039708,-1.2628748,-1.9369597,-0.43765733,-0.77243817,-0.69513047,0.56856775,1.2024242,-2.5212386,-0.2152911,-1.5216125,1.4960988,-0.7816775,1.0619673,1.279282,1.2483776,0.281133,1.8196611,2.6543875,-0.15598977,2.637407,0.26538074,-2.2879848,0.15652035,-2.6329212,0.88426125,0.8946249,-1.6462721,0.53808886,0.7072575,0.7566945,-0.18731211,-0.12578408,0.32982507,-1.5949851,-1.1751759,-2.0036335,0.58262163,1.565904,-1.3785795,-3.1561317,0.3783537,-2.331803,3.3353698,-0.47260565,-3.0500343,0.6614051,3.95917,-0.19010258,0.34929842,0.1419895,-2.0373127,-1.2322587,1.4808415,-1.659436,-1.152234,-0.103997774,-0.73652107,0.8109016,1.5003304,-0.075306855,-3.1101377,-0.00024463,1.3811992,1.3346068,0.044062935,1.360633,-0.07115833,1.1256299,-1.3720453,0.61256593,2.3888345,-0.79456896,-0.84116983,-1.3420385,-0.5308968,-1.6411027,0.06273828,1.7025119,-1.2967951,-1.1725677,-2.789526,0.7089668,0.045902148,0.89000607,1.1139686,0.11538525,2.0030584,-0.31077462,0.20553422,-0.32776228,0.13936876,0.16591132,-2.2065086,-1.6795317,-0.8159219,-0.34905127,1.2604926,-0.6333839,-1.1948285,0.26923186,-0.39616945,0.108596854,-0.35197422,1.1648593,-0.15389405,-1.5012757,-0.16082843,-1.9140264,0.7847364,0.47060788,-2.1925538,-0.28888178,0.3497263,-0.016804826,-0.041327357,-1.2892637,0.18831189,-1.4565488,2.4026065,0.14182861,-3.1885993,1.3236439,0.32490507,-0.029878188,1.0738543,1.3827635,-1.4969232,0.8537414,0.5571028,2.707757,-0.08231248,-2.2899795,-1.1713034,-0.13054113,-0.7666,1.5531802,-0.6564783,0.8305467,-1.7934763,-1.3756702,0.6853381,2.221305,2.0394647,0.47748274,2.0140312,-2.0248432,0.33077806,1.4913542,1.7240028,1.7038532,-1.74781,0.75909764,-0.22836763,-0.6369372,-0.057031784,-0.46912086,0.8560148,-0.13828117,-1.2067109,1.0779549,-2.9769554,0.68320936,-0.1542267,1.8748727,0.21345642,-1.9092315,-3.8021755,0.448278,0.35033882,-2.4231482,1.5219305,0.6725291,-0.09712581,0.6396219,0.62859666,4.3061233,2.7606027,1.6361047,1.3684397,-0.98287827,-0.9632311,0.9689867,-2.3943143,0.09367126,1.7248116,-0.6618505,0.72777456,-1.1249421,0.21105635,0.30251208,2.132759,-1.3594289,-0.48622614,1.311816,1.9054885,0.8161943,0.81251705,0.47968403,1.2314545,-1.0163736,-1.6283847,0.47704247,-1.0332104,0.12400415,-0.4421378,0.18027444,0.46103078,-0.85024697,-1.214316,0.9122193,-0.086950056,-1.4890234,-2.0204701,0.16207856
Sc5_B,-1.2993023,0.032140475,-1.8623456,0.15121183,3.964633,-0.02389099,0.7133307,3.4445024,-0.07080118,-0.7435975,5.10832,0.9469905,-3.4041314,1.3052865,1.4427458,0.86443335,0.7875236,0.33673552,-0.6008572,-2.429999,1.3272309,0.1895079,-0.6510736,-0.62074244,-0.12753227,-1.3252953,-2.3264112,-1.8934112,0.49140817,1.513139,0.4012018,-1.1570195,-0.04128565,-2.5456798,-1.8416389,-0.93290895,-0.5647119,1.7769505,1.3040974,0.3447664,0.8459778,-0.16850157,-0.29939383,0.19304824,-1.2055498,1.9083825,-0.13311799,-1.2338638,-0.17199627,1.0564004,-0.55461687,1.5704495,-0.633798,-3.321285,-0.5266237,0.28172958,0.30339533,1.2054187,1.0761476,-0.6692938,-0.33243987,-0.9792222,0.65756136,-1.1787189,1.4036012,1.9714892,-2.5588245,-2.5840142,0.9162755,1.448172,-0.5548192,-0.5830203,-1.8403977,-0.07912579,-0.58546925,1.2031767,-2.7614796,1.578949,-2.0929615,-0.1866685,-3.7141156,-0.28865638,0.54189426,0.04508158,2.2316365,0.35417497,-1.1443207,-2.1007905,-0.1288963,-0.66171926,-0.6949123,0.457562,1.5707374,-2.7236114,-0.19192234,-1.6523049,1.4843538,-0.74985594,0.8471508,1.1437507,1.5062832,0.7666783,2.2319715,2.7260766,-0.20828418,2.7338989,0.8008335,-2.3237164,-0.26322863,-2.4839482,0.6876937,0.9826627,-1.6323606,0.9653765,0.820163,0.53511834,-0.21528491,-0.2088903,0.35106292,-1.1622902,-1.3119267,-1.956749,0.79441875,1.6444352,-1.5479654,-3.0220363,0.34907666,-2.3848455,3.6164408,-0.5588647,-3.0674858,0.50091004,3.6036203,-0.43897215,-0.31682825,0.44848338,-1.7679615,-1.1213325,1.5927714,-1.7013562,-1.2313983,0.3212742,-0.3540784,1.107771,1.0681735,0.06072426,-3.346516,0.061217032,1.295794,1.3056042,0.13534641,1.5995635,-0.2439162,0.99870884,-1.36672,1.219754,2.2023017,-0.8128321,-0.55691785,-1.0600615,-0.51045084,-1.8423455,-0.03520402,1.6914694,-1.2739737,-1.2267276,-3.0060568,0.7945067,0.002293211,0.6823154,0.934743,-0.15730093,2.1981697,-0.36389884,0.27569678,-0.14845459,0.052595973,0.12373156,-1.9561559,-1.7857845,-1.018288,-0.6373071,1.2714056,-0.61990577,-1.104567,0.4485315,-0.6897439,-0.17146544,0.04997799,1.2371845,0.020905355,-1.0669967,-0.4343779,-1.8681206,0.45474935,0.44766557,-2.4223547,-0.20415325,0.55439943,0.27183986,0.1320982,-0.96394414,-0.28055885,-1.8910216,1.8043618,0.675019,-3.1223874,1.5215867,0.21653046,-0.13730663,1.1846218,1.3739715,-1.5344564,0.9786883,0.68844086,2.7586186,0.04513292,-1.9402206,-1.2020055,-0.24170735,-0.9802075,1.7192166,-0.48682988,1.0465586,-1.852093,-0.95170367,0.56339383,2.4806576,1.816405,0.34097642,1.8078074,-2.2589424,-0.3650224,1.3147392,1.4776574,1.6326035,-1.4443891,0.998405,-0.30305192,-0.20378803,-0.16224134,-0.47339502,1.0426047,0.08692622,-1.0947884,1.4800822,-2.795523,0.35562506,0.012120862,1.8617805,0.19484814,-1.7706716,-4.034256,0.07569389,0.24455364,-2.1307309,1.3261137,0.5951641,0.033150733,0.7504734,0.41470933,3.6740396,2.6355407,2.103547,1.3438811,-0.8182676,-1.0778679,1.1130487,-2.8976858,-0.09034988,1.4977939,-0.595046,0.5939754,-1.2697128,0.26014,0.3841674,1.934623,-1.1910821,-1.0208932,1.3937856,1.1111728,0.49970332,0.7407008,0.4486264,1.7462326,-0.89212203,-1.2037262,0.6595379,-0.6789035,0.29039773,-0.34741056,0.24943605,0.2326248,-0.6723355,-0.6835741,1.1236118,0.008462817,-0.9344238,-2.2321262,0.21265501
Sc5_B,-1.2030238,0.15184219,-1.8354614,0.0443565,3.3204536,0.31196064,0.72814107,3.444045,-0.090557426,-0.38986692,4.812991,0.613438,-3.0777848,1.6093581,1.6488675,0.48877144,0.499437,-0.01787283,-0.4782361,-2.4963417,1.2522434,0.12942316,-0.4460549,-0.9253893,-0.4004919,-1.3938713,-2.5553398,-1.6984038,0.44860068,1.6863273,0.24578293,-1.0522112,-0.060905863,-2.4923792,-1.8133366,-1.051862,-0.7908559,1.8194141,1.109906,0.30977044,0.70624715,-0.15949512,-0.043323662,0.050908957,-1.2139461,2.2259052,-0.25211808,-1.2804923,0.03420795,0.9721097,-0.56576604,1.2720003,-0.5872067,-3.410904,-0.5198212,0.37126222,0.17643777,0.99373317,1.254065,-0.25479108,-0.56754243,-1.1882058,0.80795646,-1.1719975,1.4852312,1.7995319,-2.4481573,-2.2504632,0.43591782,1.0833014,-0.45368168,-0.92746705,-1.517154,-0.1533351,-0.2993595,1.103511,-2.6891217,1.4842712,-1.9265306,-0.13890684,-3.5523992,-0.57804924,0.83250165,-0.016104981,2.6580875,-0.07908069,-1.060568,-1.9643277,-0.43725002,-0.60096365,-0.8554151,0.9428818,1.3181627,-2.8291516,-0.26282132,-1.5621426,1.2990272,-1.0715616,0.9015249,0.8958199,1.2266374,0.49040598,2.0224278,2.5878112,-0.20875585,2.3473387,0.32527208,-2.1114964,-0.28566164,-2.4312267,0.5644511,0.594004,-1.6655694,0.6814893,0.85126114,0.7107899,-0.6709507,-0.38900432,0.3979616,-1.0740879,-1.2527802,-1.968914,0.45779297,1.3081408,-1.3450074,-2.7868,0.474161,-2.2287097,3.4670765,-0.46543273,-2.7827327,0.5125243,3.6013827,-0.5134899,-0.24624789,-0.006025063,-2.0004294,-0.75775224,1.7876287,-1.5430413,-0.9645677,-0.0930392,-0.57776815,0.7253473,1.0033046,0.051222786,-3.5517151,0.030281803,1.5743959,1.2772561,-0.08335915,1.2948103,-0.024130816,0.96825445,-1.3924658,0.9176777,2.4076355,-0.70014364,-0.8237049,-1.2166741,-0.4527865,-1.8221434,-0.41312337,1.8130645,-1.3101635,-1.2395293,-2.7849598,0.7392558,-0.27735505,1.0680908,1.1359323,0.1601734,2.0929904,-0.3367651,0.3360472,-0.19096492,0.26711065,0.45393848,-1.7841055,-1.7667989,-0.79334867,-0.2629679,1.1678485,-0.79096186,-1.3527693,0.6324649,-0.3550315,0.08833596,-0.33415672,1.0300932,-0.29984352,-1.182471,-0.58413166,-1.9155203,0.2672095,0.14746203,-2.301589,-0.04646776,0.43985373,0.2741754,0.17062089,-0.9985822,-0.09877168,-1.7291181,2.0321145,0.5233073,-2.7678351,1.0526459,-0.20795856,-0.18940403,1.6239707,1.2279148,-1.0175297,0.9421531,0.3396696,2.9146824,-0.36310807,-1.9695201,-1.1159415,-0.33584917,-0.83794713,1.4029822,-0.5928824,0.96966887,-1.9965273,-0.9904181,0.6175293,2.3765802,2.0325725,0.55168885,1.8690879,-1.617847,-0.025437577,1.1680758,1.2147051,2.0382323,-1.733282,0.9948015,-0.20775436,-0.56327695,-0.7355806,-0.48632,0.88347363,-0.33385175,-1.4946114,1.2900978,-2.5120614,0.48049077,-0.19253968,1.9693533,0.15595265,-1.2653203,-3.872427,0.472962,0.30926165,-1.9001002,1.3852618,0.5129793,-0.20178472,0.7945804,0.6962606,3.9295003,2.261841,1.8299775,1.5694234,-0.86279017,-0.9902251,1.1264237,-2.6881893,0.025883906,1.7946595,-0.8137468,0.3089968,-1.1607393,0.22399321,0.3123898,2.1274698,-1.3217996,-0.72667325,1.5837407,1.148233,0.50074744,0.84825,0.2510364,1.61502,-0.6444179,-1.789514,0.4552973,-0.9162944,0.034802664,-0.2678008,0.0600594,0.298715,-0.90751374,-1.0146124,1.0867255,-0.2761807,-0.7340002,-2.3096585,0.13605747
