Author,WE1,WE2,WE3,WE4,WE5,WE6,WE7,WE8,WE9,WE10,WE11,WE12,WE13,WE14,WE15,WE16,WE17,WE18,WE19,WE20,WE21,WE22,WE23,WE24,WE25,WE26,WE27,WE28,WE29,WE30,WE31,WE32,WE33,WE34,WE35,WE36,WE37,WE38,WE39,WE40,WE41,WE42,WE43,WE44,WE45,WE46,WE47,WE48,WE49,WE50,WE51,WE52,WE53,WE54,WE55,WE56,WE57,WE58,WE59,WE60,WE61,WE62,WE63,WE64,WE65,WE66,WE67,WE68,WE69,WE70,WE71,WE72,WE73,WE74,WE75,WE76,WE77,WE78,WE79,WE80,WE81,WE82,WE83,WE84,WE85,WE86,WE87,WE88,WE89,WE90,WE91,WE92,WE93,WE94,WE95,WE96,WE97,WE98,WE99,WE100,WE101,WE102,WE103,WE104,WE105,WE106,WE107,WE108,WE109,WE110,WE111,WE112,WE113,WE114,WE115,WE116,WE117,WE118,WE119,WE120,WE121,WE122,WE123,WE124,WE125,WE126,WE127,WE128,WE129,WE130,WE131,WE132,WE133,WE134,WE135,WE136,WE137,WE138,WE139,WE140,WE141,WE142,WE143,WE144,WE145,WE146,WE147,WE148,WE149,WE150,WE151,WE152,WE153,WE154,WE155,WE156,WE157,WE158,WE159,WE160,WE161,WE162,WE163,WE164,WE165,WE166,WE167,WE168,WE169,WE170,WE171,WE172,WE173,WE174,WE175,WE176,WE177,WE178,WE179,WE180,WE181,WE182,WE183,WE184,WE185,WE186,WE187,WE188,WE189,WE190,WE191,WE192,WE193,WE194,WE195,WE196,WE197,WE198,WE199,WE200,WE201,WE202,WE203,WE204,WE205,WE206,WE207,WE208,WE209,WE210,WE211,WE212,WE213,WE214,WE215,WE216,WE217,WE218,WE219,WE220,WE221,WE222,WE223,WE224,WE225,WE226,WE227,WE228,WE229,WE230,WE231,WE232,WE233,WE234,WE235,WE236,WE237,WE238,WE239,WE240,WE241,WE242,WE243,WE244,WE245,WE246,WE247,WE248,WE249,WE250,WE251,WE252,WE253,WE254,WE255,WE256,WE257,WE258,WE259,WE260,WE261,WE262,WE263,WE264,WE265,WE266,WE267,WE268,WE269,WE270,WE271,WE272,WE273,WE274,WE275,WE276,WE277,WE278,WE279,WE280,WE281,WE282,WE283,WE284,WE285,WE286,WE287,WE288,WE289,WE290,WE291,WE292,WE293,WE294,WE295,WE296,WE297,WE298,WE299,WE300,WE301,WE302,WE303,WE304,WE305,WE306,WE307,WE308,WE309,WE310,WE311,WE312,WE313,WE314,WE315,WE316,WE317,WE318,WE319,WE320,WE321,WE322,WE323,WE324,WE325,WE326,WE327,WE328,WE329,WE330,WE331,WE332,WE333,WE334,WE335,WE336,WE337,WE338,WE339,WE340,WE341,WE342,WE343,WE344,WE345,WE346,WE347,WE348,WE349,WE350,WE351,WE352,WE353,WE354,WE355,WE356,WE357,WE358,WE359,WE360,WE361,WE362,WE363,WE364,WE365,WE366,WE367,WE368,WE369,WE370,WE371,WE372,WE373,WE374,WE375,WE376,WE377,WE378,WE379,WE380,WE381,WE382,WE383,WE384,WE385,WE386,WE387,WE388,WE389,WE390,WE391,WE392,WE393,WE394,WE395,WE396,WE397,WE398,WE399,WE400,WE401,WE402,WE403,WE404,WE405,WE406,WE407,WE408,WE409,WE410,WE411,WE412,WE413,WE414,WE415,WE416,WE417,WE418,WE419,WE420,WE421,WE422,WE423,WE424,WE425,WE426,WE427,WE428,WE429,WE430,WE431,WE432,WE433,WE434,WE435,WE436,WE437,WE438,WE439,WE440,WE441,WE442,WE443,WE444,WE445,WE446,WE447,WE448,WE449,WE450,WE451,WE452,WE453,WE454,WE455,WE456,WE457,WE458,WE459,WE460,WE461,WE462,WE463,WE464,WE465,WE466,WE467,WE468,WE469,WE470,WE471,WE472,WE473,WE474,WE475,WE476,WE477,WE478,WE479,WE480,WE481,WE482,WE483,WE484,WE485,WE486,WE487,WE488,WE489,WE490,WE491,WE492,WE493,WE494,WE495,WE496,WE497,WE498,WE499,WE500,WE501,WE502,WE503,WE504,WE505,WE506,WE507,WE508,WE509,WE510,WE511,WE512,WE513,WE514,WE515,WE516,WE517,WE518,WE519,WE520,WE521,WE522,WE523,WE524,WE525,WE526,WE527,WE528,WE529,WE530,WE531,WE532,WE533,WE534,WE535,WE536,WE537,WE538,WE539,WE540,WE541,WE542,WE543,WE544,WE545,WE546,WE547,WE548,WE549,WE550,WE551,WE552,WE553,WE554,WE555,WE556,WE557,WE558,WE559,WE560,WE561,WE562,WE563,WE564,WE565,WE566,WE567,WE568,WE569,WE570,WE571,WE572,WE573,WE574,WE575,WE576,WE577,WE578,WE579,WE580,WE581,WE582,WE583,WE584,WE585,WE586,WE587,WE588,WE589,WE590,WE591,WE592,WE593,WE594,WE595,WE596,WE597,WE598,WE599,WE600,WE601,WE602,WE603,WE604,WE605,WE606,WE607,WE608,WE609,WE610,WE611,WE612,WE613,WE614,WE615,WE616,WE617,WE618,WE619,WE620,WE621,WE622,WE623,WE624,WE625,WE626,WE627,WE628,WE629,WE630,WE631,WE632,WE633,WE634,WE635,WE636,WE637,WE638,WE639,WE640,WE641,WE642,WE643,WE644,WE645,WE646,WE647,WE648,WE649,WE650,WE651,WE652,WE653,WE654,WE655,WE656,WE657,WE658,WE659,WE660,WE661,WE662,WE663,WE664,WE665,WE666,WE667,WE668,WE669,WE670,WE671,WE672,WE673,WE674,WE675,WE676,WE677,WE678,WE679,WE680,WE681,WE682,WE683,WE684,WE685,WE686,WE687,WE688,WE689,WE690,WE691,WE692,WE693,WE694,WE695,WE696,WE697,WE698,WE699,WE700,WE701,WE702,WE703,WE704,WE705,WE706,WE707,WE708,WE709,WE710,WE711,WE712,WE713,WE714,WE715,WE716,WE717,WE718,WE719,WE720,WE721,WE722,WE723,WE724,WE725,WE726,WE727,WE728,WE729,WE730,WE731,WE732,WE733,WE734,WE735,WE736,WE737,WE738,WE739,WE740,WE741,WE742,WE743,WE744,WE745,WE746,WE747,WE748,WE749,WE750,WE751,WE752,WE753,WE754,WE755,WE756,WE757,WE758,WE759,WE760,WE761,WE762,WE763,WE764,WE765,WE766,WE767,WE768,WE769,WE770,WE771,WE772,WE773,WE774,WE775,WE776,WE777,WE778,WE779,WE780,WE781,WE782,WE783,WE784,WE785,WE786,WE787,WE788,WE789,WE790,WE791,WE792,WE793,WE794,WE795,WE796,WE797,WE798,WE799,WE800,WE801,WE802,WE803,WE804,WE805,WE806,WE807,WE808,WE809,WE810,WE811,WE812,WE813,WE814,WE815,WE816,WE817,WE818,WE819,WE820,WE821,WE822,WE823,WE824,WE825,WE826,WE827,WE828,WE829,WE830,WE831,WE832,WE833,WE834,WE835,WE836,WE837,WE838,WE839,WE840,WE841,WE842,WE843,WE844,WE845,WE846,WE847,WE848,WE849,WE850,WE851,WE852,WE853,WE854,WE855,WE856,WE857,WE858,WE859,WE860,WE861,WE862,WE863,WE864,WE865,WE866,WE867,WE868,WE869,WE870,WE871,WE872,WE873,WE874,WE875,WE876,WE877,WE878,WE879,WE880,WE881,WE882,WE883,WE884,WE885,WE886,WE887,WE888,WE889,WE890,WE891,WE892,WE893,WE894,WE895,WE896,WE897,WE898,WE899,WE900,WE901,WE902,WE903,WE904,WE905,WE906,WE907,WE908,WE909,WE910,WE911,WE912,WE913,WE914,WE915,WE916,WE917,WE918,WE919,WE920,WE921,WE922,WE923,WE924,WE925,WE926,WE927,WE928,WE929,WE930,WE931,WE932,WE933,WE934,WE935,WE936,WE937,WE938,WE939,WE940,WE941,WE942,WE943,WE944,WE945,WE946,WE947,WE948,WE949,WE950,WE951,WE952,WE953,WE954,WE955,WE956,WE957,WE958,WE959,WE960,WE961,WE962,WE963,WE964,WE965,WE966,WE967,WE968,WE969,WE970,WE971,WE972,WE973,WE974,WE975,WE976,WE977,WE978,WE979,WE980,WE981,WE982,WE983,WE984,WE985,WE986,WE987,WE988,WE989,WE990,WE991,WE992,WE993,WE994,WE995,WE996,WE997,WE998,WE999,WE1000,WE1001,WE1002,WE1003,WE1004,WE1005,WE1006,WE1007,WE1008,WE1009,WE1010,WE1011,WE1012,WE1013,WE1014,WE1015,WE1016,WE1017,WE1018,WE1019,WE1020,WE1021,WE1022,WE1023,WE1024,WE1025,WE1026,WE1027,WE1028,WE1029,WE1030,WE1031,WE1032,WE1033,WE1034,WE1035,WE1036,WE1037,WE1038,WE1039,WE1040,WE1041,WE1042,WE1043,WE1044,WE1045,WE1046,WE1047,WE1048,WE1049,WE1050,WE1051,WE1052,WE1053,WE1054,WE1055,WE1056,WE1057,WE1058,WE1059,WE1060,WE1061,WE1062,WE1063,WE1064,WE1065,WE1066,WE1067,WE1068,WE1069,WE1070,WE1071,WE1072,WE1073,WE1074,WE1075,WE1076,WE1077,WE1078,WE1079,WE1080,WE1081,WE1082,WE1083,WE1084,WE1085,WE1086,WE1087,WE1088,WE1089,WE1090,WE1091,WE1092,WE1093,WE1094,WE1095,WE1096,WE1097,WE1098,WE1099,WE1100,WE1101,WE1102,WE1103,WE1104,WE1105,WE1106,WE1107,WE1108,WE1109,WE1110,WE1111,WE1112,WE1113,WE1114,WE1115,WE1116,WE1117,WE1118,WE1119,WE1120,WE1121,WE1122,WE1123,WE1124,WE1125,WE1126,WE1127,WE1128,WE1129,WE1130,WE1131,WE1132,WE1133,WE1134,WE1135,WE1136,WE1137,WE1138,WE1139,WE1140,WE1141,WE1142,WE1143,WE1144,WE1145,WE1146,WE1147,WE1148,WE1149,WE1150,WE1151,WE1152,WE1153,WE1154,WE1155,WE1156,WE1157,WE1158,WE1159,WE1160,WE1161,WE1162,WE1163,WE1164,WE1165,WE1166,WE1167,WE1168,WE1169,WE1170,WE1171,WE1172,WE1173,WE1174,WE1175,WE1176,WE1177,WE1178,WE1179,WE1180,WE1181,WE1182,WE1183,WE1184,WE1185,WE1186,WE1187,WE1188,WE1189,WE1190,WE1191,WE1192,WE1193,WE1194,WE1195,WE1196,WE1197,WE1198,WE1199,WE1200,WE1201,WE1202,WE1203,WE1204,WE1205,WE1206,WE1207,WE1208,WE1209,WE1210,WE1211,WE1212,WE1213,WE1214,WE1215,WE1216,WE1217,WE1218,WE1219,WE1220,WE1221,WE1222,WE1223,WE1224,WE1225,WE1226,WE1227,WE1228,WE1229,WE1230,WE1231,WE1232,WE1233,WE1234,WE1235,WE1236,WE1237,WE1238,WE1239,WE1240,WE1241,WE1242,WE1243,WE1244,WE1245,WE1246,WE1247,WE1248,WE1249,WE1250,WE1251,WE1252,WE1253,WE1254,WE1255,WE1256,WE1257,WE1258,WE1259,WE1260,WE1261,WE1262,WE1263,WE1264,WE1265,WE1266,WE1267,WE1268,WE1269,WE1270,WE1271,WE1272,WE1273,WE1274,WE1275,WE1276,WE1277,WE1278,WE1279,WE1280,WE1281,WE1282,WE1283,WE1284,WE1285,WE1286,WE1287,WE1288,WE1289,WE1290,WE1291,WE1292,WE1293,WE1294,WE1295,WE1296,WE1297,WE1298,WE1299,WE1300,WE1301,WE1302,WE1303,WE1304,WE1305,WE1306,WE1307,WE1308,WE1309,WE1310,WE1311,WE1312,WE1313,WE1314,WE1315,WE1316,WE1317,WE1318,WE1319,WE1320,WE1321,WE1322,WE1323,WE1324,WE1325,WE1326,WE1327,WE1328,WE1329,WE1330,WE1331,WE1332,WE1333,WE1334,WE1335,WE1336,WE1337,WE1338,WE1339,WE1340,WE1341,WE1342,WE1343,WE1344,WE1345,WE1346,WE1347,WE1348,WE1349,WE1350,WE1351,WE1352,WE1353,WE1354,WE1355,WE1356,WE1357,WE1358,WE1359,WE1360,WE1361,WE1362,WE1363,WE1364,WE1365,WE1366,WE1367,WE1368,WE1369,WE1370,WE1371,WE1372,WE1373,WE1374,WE1375,WE1376,WE1377,WE1378,WE1379,WE1380,WE1381,WE1382,WE1383,WE1384,WE1385,WE1386,WE1387,WE1388,WE1389,WE1390,WE1391,WE1392,WE1393,WE1394,WE1395,WE1396,WE1397,WE1398,WE1399,WE1400,WE1401,WE1402,WE1403,WE1404,WE1405,WE1406,WE1407,WE1408,WE1409,WE1410,WE1411,WE1412,WE1413,WE1414,WE1415,WE1416,WE1417,WE1418,WE1419,WE1420,WE1421,WE1422,WE1423,WE1424,WE1425,WE1426,WE1427,WE1428,WE1429,WE1430,WE1431,WE1432,WE1433,WE1434,WE1435,WE1436,WE1437,WE1438,WE1439,WE1440,WE1441,WE1442,WE1443,WE1444,WE1445,WE1446,WE1447,WE1448,WE1449,WE1450,WE1451,WE1452,WE1453,WE1454,WE1455,WE1456,WE1457,WE1458,WE1459,WE1460,WE1461,WE1462,WE1463,WE1464,WE1465,WE1466,WE1467,WE1468,WE1469,WE1470,WE1471,WE1472,WE1473,WE1474,WE1475,WE1476,WE1477,WE1478,WE1479,WE1480,WE1481,WE1482,WE1483,WE1484,WE1485,WE1486,WE1487,WE1488,WE1489,WE1490,WE1491,WE1492,WE1493,WE1494,WE1495,WE1496,WE1497,WE1498,WE1499,WE1500,WE1501,WE1502,WE1503,WE1504,WE1505,WE1506,WE1507,WE1508,WE1509,WE1510,WE1511,WE1512,WE1513,WE1514,WE1515,WE1516,WE1517,WE1518,WE1519,WE1520,WE1521,WE1522,WE1523,WE1524,WE1525,WE1526,WE1527,WE1528,WE1529,WE1530,WE1531,WE1532,WE1533,WE1534,WE1535,WE1536
Sc1_A,0.065062582,0.001723174,0.020386063,0.051141176,0.01363338,-0.055333599,0.002204223,0.007160725,-0.030403076,0.015545573,0.015465565,0.008080818,-0.036035646,-0.026882721,0.043076359,0.024114439,-0.017345754,0.020178042,0.009889001,0.016849704,0.055653632,-0.020882113,-0.028210854,0.034595501,-0.034755517,-0.001533155,-0.045988653,0.033155356,0.03913996,-0.009560968,-0.004020407,-0.017041724,0.011809195,-0.044100463,0.015225541,0.013393356,-0.008832893,-0.057861853,0.051429205,-0.007392748,-0.011009114,-0.037571803,0.009064917,0.023554383,0.027010733,0.008312841,0.020178042,0.058949966,0.048260882,0.034051444,-0.029378973,0.019137936,-8.65E-05,0.017057726,-0.044004451,-0.019105934,-0.016321652,-0.007720781,0.027442778,0.029042939,0.043844435,0.001856188,0.016289648,0.009728985,-0.028690903,0.016321652,-0.058757946,-0.007104719,0.024386467,0.030755112,0.055461612,0.027746808,-0.003498354,-0.034467489,-0.06147822,-0.012377253,-0.017617783,-0.026514683,-0.02827486,-0.071559243,-0.043940447,-0.00415242,-0.01907393,0.017633785,-0.034691509,-0.037923839,-0.020082032,0.017073728,-0.019762,0.025538584,0.053989463,0.004340439,0.019329956,-0.00740875,0.03053109,-0.004592465,-0.044228476,-0.016673688,0.033827424,-0.005648572,0.073479436,-0.045924649,0.018513873,0.000345285,0.047108766,-0.019537978,0.020370061,0.006600668,-0.007988809,-0.00968098,-0.169617161,0.02264229,0.032995339,0.008048815,0.01897792,0.026866719,-0.014017418,-0.02233826,0.041060153,0.034915533,-0.026290661,0.001229124,-0.007788788,-0.001159117,0.017041724,-0.069831066,0.0059326,0.005288535,-0.023282357,-0.013193335,0.020082032,-0.012089224,-0.038883936,-0.02776281,-0.031379174,-0.041636214,-0.015473566,-0.008192829,-0.008904901,0.024050433,0.022594286,-0.003762381,0.004912497,-0.010929106,0.035747617,0.023010328,0.027906824,0.044996552,-0.00998501,0.030227059,0.019745998,0.010601073,-0.051653225,0.001003101,0.016129632,-0.030755112,0.019954018,0.03606765,-0.032435283,0.020434069,-0.01699372,-0.009897001,-0.031907227,-0.013105326,-0.04218027,-0.024130441,-0.060902163,-0.031251162,-0.073031388,0.011081121,-0.000328283,-0.016433664,-0.012993314,0.082760371,0.036803722,-0.023922421,-0.005232529,-0.010489061,0.017073728,-0.012713286,0.029763011,-0.014497467,-0.013825399,-0.006656674,0.002330236,0.016881708,-0.034819525,0.032083247,0.01403342,0.033475388,-0.028530886,0.033251364,0.02283431,-0.034403481,0.047844842,-0.05613368,0.045476601,-0.003976402,-0.011713185,0.028290862,-0.029122947,-0.003514356,0.008528863,-0.012721287,0.01106512,0.036803722,-0.000710072,0.009200931,-0.040196069,-0.024162445,0.054437507,-0.017041724,-0.000923593,-0.002420245,-0.018385861,0.0128493,0.004696475,0.055109575,-0.024530482,0.080008097,-0.006680676,-3.42E-05,0.021522177,0.040068053,0.062086284,0.017009722,0.040612109,-0.074375525,0.024914522,-0.017265746,0.045380592,-0.018881911,-0.070279114,-0.027586792,-0.042628314,0.009664978,-0.001737176,0.023714399,0.01945797,0.021442169,-0.013473364,0.006756684,0.076871775,0.015537572,-0.023954423,0.016625682,-0.030723108,-0.051141176,0.023138341,0.030403076,0.019425966,0.053541418,0.001149116,0.075079598,0.00158416,-0.020146038,-0.003044308,-0.020754101,0.012969312,-0.00058856,0.020290053,-0.009128924,0.008760886,-0.023922421,0.047396798,0.005672574,0.031363174,-0.01028104,0.023202349,0.034467489,-0.030707108,-0.006800688,-0.009376949,0.008048815,-0.037155759,-0.051173177,-0.043044355,0.009728985,0.037795823,0.014625479,0.005600567,0.010473059,0.039972045,-0.019810004,-0.022322258,0.016033622,-0.021762202,0.018945917,-0.014025419,0.019553978,-0.014929511,-0.038371883,0.00089159,0.042116262,-0.001687171,-0.006004608,-0.019778002,-0.002518255,0.050085068,-0.014185435,0.082504347,-0.049765036,-0.017889811,0.033923432,0.003936398,0.026322663,-0.04240429,-0.027330766,-0.002218224,0.001108112,-0.021522177,-0.004724478,0.024226451,-0.027810814,-0.045316584,0.012297245,0.029426977,0.051525213,0.007480757,-0.024434473,-0.016625682,0.000139889,0.005400546,-0.017425762,-0.006304638,-0.019297952,0.026210653,-0.027618794,0.003422346,-0.020178042,0.018465869,-0.062278301,-0.030579094,0.04179623,-0.003612366,-0.032403279,0.000190519,-0.041284177,0.044164468,0.03318736,-0.053413406,-0.054597523,-0.001267128,-0.045508604,0.012961311,-0.029763011,-0.013609377,-0.001744176,0.004228428,0.020610085,-0.021586183,0.018801903,-0.029106945,-0.006284636,-0.05878995,-0.038595904,0.052293293,0.006740682,-7.16E-05,0.034435485,0.006500658,-0.031155152,0.006088616,0.02776281,-0.043908443,-0.013497366,-0.035459589,0.038627908,-0.000767578,-0.003110315,-0.009080919,0.013521369,-0.000231898,0.020274052,-0.021362161,0.06797488,0.006368645,-0.002834287,0.004660472,-0.010593072,0.021010125,0.057445813,-0.022066234,-0.016265646,0.024594489,0.006756684,0.010521065,-0.02776281,-0.041060153,-0.001162118,-0.001146116,-0.057797849,-0.035459589,0.032611299,0.017153736,-0.017137734,0.011425156,0.009881,0.085064605,0.032931332,0.011049118,0.005448551,0.036963739,0.037187763,0.012329248,0.013761393,0.005212527,-0.013137329,-0.02501053,0.010817095,-0.023778407,0.005748582,0.036771722,-0.022994326,-0.039556004,-0.030355072,0.011353149,-0.018161837,0.025058536,0.05654972,-0.022578284,-0.040516101,-0.009424954,-0.02193822,-0.011969212,0.060102083,0.026386671,-0.03913996,-0.005384545,-0.034403481,-0.033859424,0.031875227,0.057573825,0.004300435,0.015281546,-0.03891594,-0.004576463,0.011729186,0.035139557,-0.060262099,-0.033155356,-0.018113833,-0.036003642,0.038019847,-0.016785698,0.006784686,0.060134083,0.008052815,-0.006684676,-0.026738705,-0.005520558,-0.007324741,0.016721692,0.003924397,-0.018417863,0.078407936,0.001248126,0.0168017,0.024578488,-0.03318736,0.039940041,0.007668776,-0.031107148,0.01295331,0.013353352,-0.022482274,-0.000500051,-0.007832793,0.030099045,-0.015793597,0.06682276,-0.02737877,-0.000975599,0.00582859,-0.029939029,0.005588565,0.010849098,0.016073626,0.013545371,0.005764583,0.011089122,-0.004472453,-0.014009418,0.014713489,-0.018145837,-0.059942067,0.00088459,-0.00138414,-0.004816487,-0.015625581,-0.050053064,-0.0049405,-0.013137329,-0.020418067,0.014385455,-0.042244274,-0.043748427,-0.038499895,-0.007452754,-0.010169029,-0.003098313,0.011305144,0.001918194,0.031251162,-0.016233644,0.057669837,-0.039972045,-0.003692374,-0.00681669,-0.05654972,-0.03913996,0.03686773,-0.023730401,0.029763011,0.033475388,-0.000625563,-0.00820083,0.025314562,-0.00880089,-0.042276278,0.010649078,0.032531291,-0.012657281,-0.017249746,0.045796633,0.004328438,-0.037155759,-0.007956805,-0.007304739,-0.009432955,-0.01472149,-0.01699372,0.000235524,0.027266759,-0.038307875,0.048772935,-0.009840996,-0.036227666,0.030115047,-0.034147456,-0.010737087,-0.018785901,0.055397607,0.013609377,-0.024498479,0.010505063,0.001429145,-0.011313145,-0.001403142,0.015337552,0.064422518,-0.020850109,0.02560259,-0.00998501,0.000239649,0.018849907,-0.033027343,0.032723311,0.021970224,0.043812435,-0.035523593,-0.033091348,0.048804939,-0.023106338,-0.024530482,0.004404446,0.040068053,0.073607445,-0.007584767,-0.001517153,-0.000379538,-0.033635404,-0.043044355,-0.031667203,0.026002631,-0.010497062,0.003428347,-0.003334337,0.010137026,-0.004732479,-0.027618794,-0.026386671,-0.026098641,0.020658091,-0.023250353,0.043396391,-0.005056512,0.006704678,0.045412596,0.012721287,-0.015953613,0.013817398,-0.016625682,0.008216832,0.007048713,-0.003218326,-0.040484097,-0.017153736,-0.031091146,-0.016785698,-0.02262629,-0.001753177,-0.02589062,-0.011425156,0.025090538,0.005408547,0.009768989,-0.02006603,-0.00128913,0.002296232,0.003052309,-0.00147915,0.005744581,0.002520255,-0.035459589,0.020930117,-0.013681385,0.003242328,0.060710143,-0.010745088,-0.002602263,0.026626695,-0.010089021,0.018673889,-0.031891227,-0.022658292,0.002632266,0.00860087,0.021698195,0.003446349,0.014857504,-0.007952805,-0.024626492,-0.011753189,0.02539457,-0.029634999,-0.001261128,-0.003036307,-0.011193133,-0.023426371,0.007740783,-0.023378365,0.030211058,0.012921307,0.001687171,0.004600465,8.76E-06,0.041860234,0.026386671,-0.044068459,-0.005176524,0.012409256,0.032131251,0.008888899,0.005896597,-0.010593072,-0.016657686,-1.00E-05,-0.001553157,0.013193335,0.004424448,-0.013625379,-0.007364745,0.004092414,0.032675307,0.031619199,0.046148669,0.024914522,0.01720174,0.00948896,0.086408742,0.013089324,0.037603807,0.038499895,0.001533155,0.02549058,-0.004000405,0.007196728,-0.025938625,0.020418067,0.008288839,0.03053109,-0.030787116,-0.026498681,0.000526053,-0.007264735,0.071687251,0.027730806,0.015465565,-0.008816892,0.009472959,0.01392941,0.024626492,0.003092313,-0.015521571,-0.011113125,-0.002390242,-0.017409762,0.007272736,-0.096777789,0.012545269,0.007284737,-0.027042737,-0.029362971,-0.024914522,-0.013825399,0.007256734,0.002896293,0.005496556,-0.036771722,0.009152927,0.013065322,-0.029651001,0.011481162,-0.029170951,-0.010297042,0.007384747,0.040356085,-0.015913609,0.031731211,0.007084717,0.026034635,-0.028706905,-0.040964145,-0.032451283,-0.006456653,-0.012217237,0.009248936,-0.060998172,0.023938423,-0.016737694,0.038243871,0.008976908,0.004440449,-0.029971033,0.020610085,-0.020994125,0.039940041,-0.036419686,0.039427988,-0.004116416,0.011177131,-0.032835323,-0.021698195,0.000976599,0.00207621,-0.016545674,0.011545168,-0.0612542,0.012385253,0.002548258,0.017937815,-0.018257847,0.020050028,0.001825185,-0.017713793,0.013097325,0.000967098,0.01699372,0.021522177,0.00582859,0.032035243,-0.007364745,0.021378163,0.024242453,0.026722703,0.043140367,0.017777799,-0.006940702,-0.016913712,0.011641178,-0.032115251,0.015177536,-0.029522987,0.035971642,-0.005804587,0.014113428,0.010801093,0.009144926,-0.016313652,0.048100866,-0.00464447,-0.010473059,-0.020226046,0.009104921,-0.012489264,-0.009448956,0.006364644,0.002294232,-0.051365197,-0.004144419,-0.000313532,0.011233137,-0.005100516,-0.028530886,0.016913712,-0.023474375,-0.057765845,0.02589062,0.012577273,-0.029042939,-0.060998172,0.018001821,0.015089527,0.000275278,0.015225541,-0.037635807,0.010097021,0.00721673,-0.017009722,-0.001139115,0.016577678,-0.013777394,-0.023602389,0.016561676,-0.063558429,0.024178447,-0.02264229,-0.008752885,-0.006404648,-0.040196069,-0.011489162,-0.032339271,-0.010017013,-0.034755517,0.016065625,0.003510355,-0.010353047,-0.010761089,-0.024754506,-0.024082437,-0.009024913,5.27E-06,0.022594286,0.023538381,0.01739376,0.040324081,0.007092718,0.001033104,0.015953613,0.004904496,0.020386063,0.000532054,0.003240328,-0.012257241,-0.023938423,0.032483287,-0.002510254,-0.001528155,-0.004532459,-0.034307472,-0.038851932,0.021634189,-0.034947537,0.01501752,-0.014113428,-0.00948096,-0.03417946,-0.007616771,0.021282153,0.020130036,-0.03705975,-0.00188119,0.014937512,-0.044740528,-0.008152825,0.003804385,-0.011913205,0.013009316,0.044740528,-0.045828637,0.001958198,0.003102314,0.003540358,0.004022407,0.015233542,-0.01720174,-0.017713793,-0.003826387,0.02510654,0.037507795,0.003378342,0.048388895,-0.021778204,-0.026082639,-0.022770304,0.020690093,0.013377354,-0.005988606,-0.026514683,-0.023314359,-0.035651609,-0.022146242,-0.017185738,-0.00751676,0.011817195,-0.003444348,0.038627908,-0.00128913,0.005648572,-0.004380443,-0.016073626,-0.01403342,0.002802284,-0.012217237,-0.017345754,0.005528559,0.000201145,-0.032771315,-0.005576564,0.015817601,-0.044932548,-0.023794407,0.03113915,-0.007176726,0.062822357,-0.020594085,0.005280534,-0.015737593,0.011721186,-0.006704678,0.0019782,0.007928803,-0.021042129,-0.006644672,0.003392343,-0.035555597,-0.004412447,-0.016929712,0.011721186,0.004964503,-0.026098641,-0.052997362,0.038051851,0.004764482,-0.016433664,-0.003126316,-0.016417662,-0.010537066,0.000864087,-0.009600972,0.0138334,-0.025714602,0.037859831,0.009921004,-0.005016508,-0.006052612,-0.020402065,0.023858415,-0.017025722,0.009392951,0.010681081,0.02785882,-0.026658697,-0.018833905,-0.041636214,-0.001489151,0.019633986,0.010553068,0.001557158,-0.040676117,0.004180423,-0.02846688,0.015737593,-0.032515291,-0.011993214,-0.030131049,-0.014081425,0.013121327,0.012457261,-0.02025805,0.000599561,0.001701172,-0.022898316,-0.013881405,0.017825805,0.006956704,-0.03123516,0.053605422,-0.005132519,0.018929916,0.068358921,0.024834514,-0.001620164,0.016785698,-0.007700779,0.000862587,0.027826816,0.007544763,0.001108112,0.025730604,0.00434844,-0.037891835,0.001134115,0.003678372,0.03648369,-0.002450248,0.006604668,0.022114238,0.011113125,-0.018673889,-0.00603261,0.030979134,-0.015337552,-0.003608365,-0.007920802,0.00958497,-0.001504152,-0.012489264,-0.028114844,-0.005568563,0.010049017,0.040420089,-0.022050232,0.042628314,-0.009400952,-0.021858212,-0.008464856,-0.007068715,0.022274254,-0.01620164,0.014369454,-0.017969819,-0.041444194,0.028642898,-0.011969212,0.011489162,-0.018225845,0.010681081,-0.00178018,0.009792991,0.035779621,0.002058208,-0.00622463,-0.002732276,0.005740581,0.011505164,0.008504861,0.011697183,-0.002248228,-0.049701028,0.00622863,-0.005676575,0.012409256,-0.012769292,-0.016641684,-0.00771278,-0.038627908,0.042884339,0.065478623,-0.016929712,-0.015153534,-0.007008709,0.01166518,0.026786711,-0.005968604,0.016577678,0.029282963,-0.01096911,0.024258455,-0.046692725,0.019697994,0.0019742,-0.025682598,0.00208021,-0.019505974,0.000370788,0.012265241,0.004172422,0.004552461,0.023090336,-0.009472959,-0.002822286,-0.044132467,-0.003594364,-0.016881708,-0.028850919,-0.02233826,-0.004292435,0.013265342,0.01689771,-0.00652466,-0.019954018,-0.016385658,-0.019585982,-0.040708121,-0.005476554,-0.028306864,-0.007588768,-0.020690093,0.003916396,-0.004500455,-0.000969598,-0.005060512,0.04198825,0.001968199,0.009913003,0.026978729,0.013953412,0.020194042,-0.002332236,0.005760583,0.003140318,-0.003590363,-0.010545067,-0.023282357,-0.010497062,-0.023586387,0.018417863,-0.000306031,0.01987401,0.000451796,0.003412345,-0.012185233,-0.00750876,0.021826208,0.002542257,-0.022418268,-0.00286429,-0.017473768,0.015761595,0.008816892,0.028482882,0.01472149,-0.003568361,0.007232732,-0.003776382,-0.029634999,-0.001150116,0.038531899,0.000903091,-0.018785901,0.02797083,-0.038115855,0.019681992,0.003502354,-0.010825096,-0.025458576,-0.031667203,0.010737087,0.008272837,-0.005272534,0.0079008,-0.002974301,-0.009272939,0.01244926,0.027842818,0.111371271,0.002746278,-0.003746379,0.013217337,0.01699372,-0.045956649,-0.005892596,-0.004888494,-0.024498479,0.005476554,0.00583259,0.00167817,-0.017905813,-0.009024913,0.004236429,-0.034627505,-0.049028963,0.01492151,-0.000415292,-0.010225034,0.009080919,0.003046308,0.022178244,-0.015585577,-0.022898316,-0.02293032,0.004608466,0.026018633,0.020402065,0.038595904,0.032355275,0.024002429,-0.00177818,0.005748582,0.01511353,0.046020657,0.005816589,-0.050629124,0.00900091,-0.003322336,-0.012873302,0.012369252,-0.026162647,-0.035843626,0.008568867,0.012233238,-0.012865302,-0.001294131,0.002260229,-0.012777293,0.017681789,0.037539799,0.009432955,0.024530482,0.007040713,-0.01985801,0.021906218,0.020946119,-0.027330766,0.001064108,0.001599162,0.033539392,-0.023666395,-0.021586183,0.012313246,-0.053541418,-0.00543655,0.050693128,0.003304334,0.003500354,-0.021314157,-0.009008911,-0.002928296,0.007824792,0.004228428,0.000709572,-0.008272837,0.031907227,0.001229124,-0.012401255,-0.018273849,-0.010505063,-0.017553777,-0.031107148,-0.038243871,-0.015881607,0.018241845,0.008520862,0.016465666,0.006088616,-0.001811183,-0.003406345,-0.004892495,0.005260532,0.021826208,-0.031827219,-0.031571195,-0.018817903,-0.021090135,-0.002242227,0.020082032,-0.009224934,0.003226327,0.0079008,-0.010689082,-0.041540202,-0.02529856,-0.023074334,0.001912193,0.005376544,-0.043012351,0.001472149,0.018929916,-0.009104921,0.014665484,-0.032275267,0.032275267,-0.016337654,-0.021906218,-0.028402874,-0.003480352,0.003382342,-0.023426371,-0.011545168,0.05286935,-0.015449563,0.057637833,-0.004680474,-0.01017703,-0.026434675,-0.000980599,0.044164468,-0.015569575,0.012761291,-0.039908037,-0.023042332,0.026178649,0.003836388,-0.005460552,-0.006944703,0.000873088,-0.03014705,-0.022306258,-0.011321145,0.020978123,-0.004296435,0.012217237,-0.003384342,-0.046436697,0.014217438,-0.020418067,-0.01294531,0.003762381,-0.003526357,-0.012665282,-0.010929106,0.007660775,0.022322258,-0.045380592,-0.000317282,0.001294131,0.014833501,-0.002060208,-0.020290053,-0.006800688,0.005984606,-0.011449158,-0.029747009,-0.000675068,-0.001232125,0.047556814,-0.004988505,-0.003294333,0.001130114,-0.010129025,0.014809499,-0.004716477,0.016129632,-0.007576767,-0.001240126,-0.02489852,-0.014017418,0.006988707,0.015297548,0.013689385,0.023282357,0.024402469,-0.00108911,0.01541756,-0.006160623,-0.0069167,-0.004880494,-0.020034026,-0.009032914,-0.019041928,0.017169738,-0.003188323,-0.029747009,-0.042660318,0.008328843,0.005604567,0.018689891,0.014097426,0.00968098,-0.004700476,-0.029266961,0.002262229,0.01897792,0.002438247,0.002902294,-0.024370465,0.00306231,0.034691509,-0.002030205,0.050501112,0.003372341,-0.002444247,0.038307875,0.05078914,-0.007480757,0.006164624,0.029875023,-0.018593881,-0.028322866,-0.046372693,0.034051444,-0.005284535,0.005264533,-0.001941196,-0.012121227,0.021186143,0.018993922,-0.018049827,-0.01936196,-0.004652471,-0.008432853,0.003716376,-0.008036813,0.004832489,-0.012425257,-0.009032914,-0.042532302,0.010705084,-0.006856694,-0.024098439,-0.006088616,-0.00148515,-0.010417054,-0.009512963,0.050309092,-0.018049827,0.010441056,-0.000564557,-0.024626492,-0.01551357,-0.006740682,0.017185738,-0.007488758,0.024482477,-0.00415242,-0.02025805,0.010521065,0.039940041,-0.013161331,-0.00237424,0.005792586,0.022194246,-0.020786103,0.004256431,0.011545168,-0.027394772,-0.000834084,-0.01244926,0.023394367,-0.013441361,0.020578083,0.013025318,-0.000863587,-0.012225237,-0.002556259,0.001717174,0.024722502,-0.01997002,-0.006912699,0.03933198,-0.027010733,0.009008911,0.00672068,-0.029891025,-0.008776888,0.021682194,0.014641481,-0.043908443,-0.001944197,0.042852335,0.018225845,0.01255327,-0.009881,0.010465058,0.009881,-0.035011541,0.002352238,-0.002292232,-0.046116665,-0.01048106,0.041316181,-0.008824893,0.049829043,-0.008288839,-0.012041219,0.013785395,-0.004516457,0.008288839,0.00869688,-0.004164421,0.0069207,-0.008576868,0.01997002,-0.023602389,0.003014305,-0.011281141,0.020594085,0.009128924,-0.030771114,-0.041924242,0.034787521,-0.011449158,-0.059045974,0.0059326,0.009224934,-0.005820589,0.023202349,0.019826006,-0.001352137,0.006168624,-0.017777799,-0.016193639,0.016313652,-0.00721673,0.002456249,0.015529571,0.016577678,0.002312234,0.002528256,0.004556461,0.059430014,0.019313954,-0.006080615,0.013793396,0.034851525,-0.005672574,0.000143264,-0.000546055,-0.03341138,-0.028226856,0.009648976,0.026642695,-0.004592465,0.000223148,-0.000283779,-0.00948896,-0.03398744,0.033251364,-0.008448855,0.013345351,0.007192728,0.004860492,-0.021666192,0.010425054,0.021026127,0.016193639,-0.024578488,0.013649381,-0.023298357,-0.00177818,-0.015777597,-0.001641166,0.009728985,-0.019762,-0.002152218,0.00424843,-0.002792282,-0.040452093,-0.001395141,0.018721895,0.014801498,-0.042756326,0.009560968,0.001401142
Sc1_A,0.021191869,0.023504263,0.011911869,0.02574059,-0.014437246,-0.014596984,0.002837246,8.95E-05,0.012535607,0.054675937,-0.000692672,-0.00908223,-0.023565115,-0.010040656,0.05787069,0.040345181,-0.020613771,0.034412067,0.016567083,0.005655475,0.01460459,-0.010801312,-0.051420327,0.013022427,-0.016871344,0.02397587,-0.014984918,0.019442361,0.050659671,-0.002487344,0.012056394,-0.017586362,-0.014064524,-0.05656236,0.042414166,0.019685771,0.030791344,-0.022621902,0.019853115,-0.017023476,0.004533508,-0.054554231,0.012208525,-0.003464787,-0.001913049,0.00577718,0.017936263,0.003658754,0.071745053,0.000985049,-0.021039737,8.16E-05,-0.014558951,0.014924066,-0.040406033,-0.011417443,0.007519082,0.030836985,0.019031607,0.036663607,0.00648459,-0.007169181,0.020187803,-0.023108721,0.017875411,0.028904919,-0.052911215,0.010261246,-0.032951608,0.010930623,0.06973692,0.004206426,-0.024280131,0.003662557,-0.046065312,-0.033164591,-0.00930282,-0.028007345,-0.043418229,-0.087810099,-0.039797507,-0.027170623,-0.044878688,-0.027246689,0.001973902,-0.000686016,-0.027550951,0.012649705,-0.040527739,0.024630032,0.052698229,-0.003801377,0.043357376,-0.027490098,0.018438295,-0.017038688,-0.015479345,0.020872394,-0.033134166,-0.004073312,0.050811805,-0.049047083,-0.021496132,0.003736721,0.078134559,0.001360623,-0.008777968,-0.006180328,-0.008040131,0.004369967,-0.15992026,0.022424132,0.037667673,0.042505443,0.050294559,0.022819672,0.041044984,0.035081442,0.058174953,0.04259672,-0.033620983,0.001845541,-0.015699934,0.028433312,0.051298622,-0.068641573,-0.005218098,0.038124066,-0.026044853,0.036389772,0.042718425,0.021207083,0.012337836,-0.044026755,-0.021222295,-0.042627148,-0.043235675,0.009295213,0.018423082,0.021556985,-0.005168656,0.027566165,0.055953838,0.003234689,0.045030821,0.021496132,0.022987017,0.03775895,0.007096918,-0.001168557,0.009021377,-0.016323673,-0.017266886,0.027550951,0.021724328,-0.035203148,-0.021344,0.029117903,-0.01372223,0.009934164,0.001318787,-0.041531805,-0.003824197,-0.008458492,-0.015144655,-0.028326821,-0.051298622,-0.001331148,-0.091400392,-0.032008395,-0.00813141,0.001843639,-0.043083541,0.031034755,0.01511423,0.008473705,0.008945311,-0.05747515,0.010580721,0.007538098,0.01646059,0.014635016,-0.016886558,-0.017799344,-0.018894689,0.028783213,-0.01135659,0.067607082,0.01188905,0.001870262,-0.0321301,0.042353313,0.051572461,-0.027611803,0.062799737,-0.039949641,0.072353572,0.022819672,-0.021693902,0.016688786,-0.000467566,0.016749639,0.042475019,-0.039980065,0.036146361,0.037637245,0.005073574,0.018347017,-0.016232394,-0.030167608,0.053215478,-0.007309902,0.029498231,-0.014817574,-0.020857181,0.027763935,-0.017282099,0.035811674,-0.011447869,0.067363672,-0.006332459,0.007382164,0.000236635,0.052272264,0.061613116,0.008047738,0.036694035,-0.04703895,0.040345181,0.014247082,0.029117903,-0.021039737,-0.029406952,-0.041288394,-0.028387673,0.00163541,0.012330229,0.018012328,0.033620983,-0.017495083,0.005476722,-0.010595934,0.034533773,0.033255868,-0.052363541,0.010999082,0.004689442,-0.068519868,0.051846296,0.010945836,0.072596982,0.035537835,0.006256394,0.076004721,0.005495738,0.003265115,-0.025892721,-0.00791082,-0.001825574,-0.04180564,0.015068591,0.011607607,-0.024690885,0.024158426,0.024858231,0.003092066,0.029680787,-0.009173509,0.040649444,0.036146361,-0.010017836,-0.003637836,-0.024051934,0.002249639,-0.020720262,-0.03292118,0.016338885,-0.016125903,0.026699016,-0.002188787,0.050172854,-0.008534557,0.032069247,-0.010177574,-0.044331018,0.010862164,0.007020853,0.025223345,0.043935478,0.006861115,-0.02461482,-0.056988329,0.022013377,0.052272264,-0.01255082,-0.022195935,-0.017084328,0.013075672,0.063895084,-0.013075672,0.08075121,-0.019548852,0.012276984,0.001480426,0.017175607,0.045122098,0.001204689,-0.05132905,-0.042718425,-0.006279213,-0.015258755,0.018423082,0.010025443,-0.010398164,-0.012216131,-0.044665705,0.001654426,0.021480918,0.02202859,-0.029117903,-0.019883541,0.026881574,-0.017129967,0.006564459,-0.004822557,-0.030076329,0.041105837,-0.007169181,-0.010367738,0.001968197,0.001297869,-0.047982164,-0.017053902,0.032647345,0.002040459,-0.04819515,-0.051146492,-0.017586362,0.044452723,-0.026881574,-0.063286558,-0.049533904,0.000443795,-0.028904919,-0.033438426,0.041623082,-0.00810859,-0.028768001,0.01919895,0.064199343,-0.030334951,0.056988329,0.021252722,-0.010238427,-0.060000524,-0.040253904,0.042140327,0.000166037,0.023093509,0.026972853,-0.002133639,-0.039219409,0.010991476,0.026060065,-0.017555935,-0.031977966,-0.015806427,0.034929313,0.012132459,-0.036146361,0.001946328,0.014475279,-0.025071213,-0.004411804,0.009972197,0.050598819,-0.015144655,-0.001005967,-0.021602623,0.020020459,-0.000882836,0.040345181,-0.007598951,-0.018270951,0.021891672,-0.019275017,0.014011279,0.003845115,-0.026151344,-0.002491147,0.024523541,-0.042688001,-0.037485115,0.037059147,0.032951608,-0.003293639,-0.012566033,0.027003279,0.059848394,0.016825706,0.009386492,0.026075279,0.000282393,0.032860328,0.017023476,0.034685902,-0.001041148,-0.015494558,-0.018118819,0.008473705,-0.014467672,-0.027246689,0.023549901,-0.012786623,-0.00393259,-0.001703869,0.00675082,-0.011090361,0.035233576,0.018499147,-0.023412984,-0.036633182,-0.021024525,-0.01880341,0.015228328,0.054645509,0.040740721,-0.011949901,0.016947409,-0.058448788,-0.038184918,0.047951739,0.030334951,0.009203934,0.013243017,-0.039919212,-0.014307935,-0.000355607,0.046156589,-0.027520524,0.016673574,0.007058885,-0.068398163,0.035051018,0.01489364,0.021937313,0.055679999,-0.000286197,-0.005830426,-0.059392001,0.007325115,-0.018772984,0.024067149,0.011204459,0.004172197,0.035598688,0.001632557,0.028828854,-0.010101508,-0.019959606,0.030669639,-0.049442623,0.003040721,0.00786518,-0.007545705,-0.021024525,0.008435672,0.01875777,0.001594525,-0.046430428,0.080933772,-0.013760262,-0.041683935,-0.037485115,-0.038945574,-0.00103259,-0.015715148,0.004548721,0.013661377,0.013136525,0.044969968,0.015943345,-0.014977312,0.020324722,-0.010284065,-0.04624787,-0.035476983,0.004586754,-0.011394623,0.007427803,-0.043448657,-0.013243017,-0.003114885,-0.01802754,0.027383607,-0.033042885,-0.034138229,-0.001783738,0.004408,0.000985049,-0.011128394,0.007971672,0.000492049,0.047708329,0.023078294,0.01992918,-0.023625968,0.027064132,0.005853246,-0.003557967,-0.060943738,0.048468985,-0.028494164,0.054158688,0.011166426,0.005339803,0.012010754,0.047434494,-0.00120659,-0.004792131,0.001756164,-0.003993443,0.00292282,-0.016551869,0.0414101,0.007888,-0.042657573,0.001785639,-0.029741639,-0.004765508,-0.024919081,0.010055869,0.039584525,0.038884722,-0.042414166,0.016597508,-0.009797246,-0.049838163,0.002591935,-0.014520918,0.039219409,-0.011136,0.020157378,0.014650229,-0.023078294,0.03447292,0.025679737,-0.000519148,-0.00416459,-0.001838885,0.056227673,0.014977312,0.031947542,-0.012938755,0.018134033,0.01071764,-0.019275017,0.010641574,0.019351082,0.044878688,-0.030684853,-0.023108721,0.017266886,-0.02202859,-0.003455279,0.011409836,0.003982033,0.046126164,-0.001276951,-0.002401771,0.018149246,-0.025162492,-0.033894818,-0.059361573,0.062738888,-0.001710525,0.02090282,0.015760787,0.005427279,-0.005503344,-0.007500065,-0.016247606,-0.033681836,0.032708198,-0.030563148,0.039584525,-0.02037036,-0.005499541,0.032556064,0.038489182,-0.024538754,0.000680311,-0.027824787,-0.011736918,0.007325115,0.000889967,-0.017327737,-0.001557443,0.017632,-0.003324066,-0.005096394,-0.015547804,-0.000937033,0.009698361,-0.004685639,0.004552525,0.006210754,-0.033651412,0.015152263,-0.016962623,0.00148518,-0.022484984,0.039006427,-0.014581771,-0.039371543,0.005819017,-0.006792656,0.010169967,0.031460721,-0.013106098,-0.01166846,0.03422951,-0.010344918,0.026866361,-0.036268067,-0.03422951,-0.038428329,-0.001837934,0.03486846,0.007344131,0.007184394,-0.014049312,0.014528525,-0.019853115,-0.015608656,-0.039675802,0.000802016,0.006724197,-0.011942295,-0.025694951,0.045030821,-0.046278294,0.043631215,0.024630032,0.025603672,-0.002989377,0.007127344,0.029148329,-0.017479869,-0.045913182,0.011029508,0.039614953,0.024690885,0.013539672,0.005571804,0.017358163,-0.00053341,0.013790688,-0.008116197,-0.004480262,-0.029726427,-0.014764328,-0.039675802,0.010755672,0.035537835,0.000125033,0.010748066,0.024843017,-8.59E-05,-0.000998361,0.074544266,-0.02534505,0.001104852,0.046369575,0.022910951,0.021161443,0.010489442,-0.011812984,0.001945377,0.026972853,0.02768787,0.019229377,-0.009477771,-0.023032656,-0.031278163,0.006210754,0.063469112,-0.011120787,0.021785181,-0.012391082,0.014695869,0.005256131,0.010223214,-0.033620983,-0.011531541,-0.011272918,-0.014148197,-0.011721705,-0.006910557,-0.092069775,0.018210098,0.004115148,-0.044544,-0.02920918,-0.015973771,-0.028129049,-0.008572591,-0.002030951,0.001457607,-0.023473836,0.000275738,-0.002688918,-0.019959606,0.01250518,-0.038276196,-0.004776918,-0.011805377,0.020994099,-0.01115882,0.026531672,-0.015791213,0.029559081,-0.000104293,-0.023154361,-0.018316591,-0.006214558,0.009926558,-0.013980852,-0.009021377,0.038184918,-0.009462558,0.005214295,0.02397587,0.024888655,-0.05148118,-0.00699423,-0.008085771,0.010208,0.008443279,-0.003190951,-0.019503213,-0.022865312,-0.015852066,-0.030030688,0.011189246,0.013646164,-0.006648131,0.029772066,-0.034138229,0.005027934,-0.009820065,0.016247606,-3.44E-05,-0.011729311,0.003291738,-0.005529967,0.005693508,0.008542164,0.009941771,0.025892721,-0.012436721,0.032860328,0.012672525,0.011227279,-0.009667935,0.056410231,-0.000611377,0.008709508,0.010017836,-0.024158426,-0.018331803,-0.035689969,-0.002011935,-0.01137941,0.007009443,-0.031308591,0.002553902,0.015639082,0.02901141,-0.040284328,0.053458884,-0.019046821,-0.019122886,-0.040162623,0.006199345,-0.024599606,-0.029178755,-0.034898885,-0.004659017,-0.019138098,-0.021678688,-0.002985574,0.025436329,0.002989377,-0.02925482,-0.009432131,-0.040314756,-0.052363541,0.021039737,0.028539803,-0.003291738,-0.024599606,0.005039345,-0.005526164,-0.01557823,0.016080262,-0.026927214,0.03331672,0.004065705,-0.011493509,0.002968459,0.017403804,-0.014635016,-0.039675802,0.029848132,-0.076674096,0.005780984,0.002432197,-0.004795935,-0.038184918,-0.021465706,-0.035507411,-0.003441967,0.006800262,-0.032860328,-0.01188905,0.022941377,-0.016551869,0.006016787,-0.022211147,-0.011942295,0.000286672,0.000507262,0.014132984,0.023915017,0.001200885,0.036815736,0.001187574,0.027961705,0.004955672,0.001027836,-0.002358033,0.023565115,0.02246977,-0.004544918,-0.017464656,-0.002791607,-0.008215082,-0.013440787,0.010086295,-0.027535738,-0.048134297,0.001527016,-0.055588722,-0.00581141,-0.017510295,0.010116722,-0.030700065,0.005016525,-0.007370754,0.021693902,-0.007142557,0.011075147,0.047069378,-0.043418229,-0.01646059,-0.015821639,-0.020750688,0.020279082,0.011835803,-0.039919212,0.011653246,-0.019214164,-0.011113181,0.006465574,-0.006857311,-0.012140065,-0.019427149,-0.011828197,0.035537835,0.002976066,0.016704001,0.021998163,-0.031673707,-0.006347672,-0.022987017,0.015312,0.012322623,0.00928,-0.001014525,-0.042414166,-0.035233576,-0.051998425,-0.01086977,0.014840393,0.008443279,-0.005469115,0.001126721,0.003710098,0.000465902,-0.004179803,-0.013007213,0.012147672,0.003755738,0.010595934,0.013182164,0.035324853,0.001373934,-0.035963804,-0.004780721,0.014292722,-0.030091541,-0.035902951,0.042809706,0.011151213,0.032860328,0.009569049,0.01392,-0.024219278,0.00345718,-0.004955672,0.010238427,0.037241705,-0.015943345,0.010200393,-0.001121967,-0.036633182,-0.026227411,-0.003989639,-0.025208132,0.018347017,-0.020309508,-0.034046952,0.055162754,0.014802361,0.029467804,-0.00490623,-0.017981902,0.00349141,0.030578362,0.025071213,0.018073181,-0.007545705,0.019092459,-0.010573115,-0.000851934,0.020613771,-0.006632918,0.007621771,-0.027748723,-0.003866033,0.004803541,0.030487083,-0.045395937,0.005986361,-0.003759541,0.008564983,-0.017647214,0.001621148,-0.009713574,-0.006480787,0.028235542,-0.018879475,0.004027672,-0.013866754,-0.009683148,-0.017875411,-0.033103738,0.005035541,-0.000230455,-0.011752131,-0.013980852,0.048347279,-0.03115646,-0.018544788,-0.000391025,0.008481312,0.015342426,0.028250754,-0.026075279,0.001518459,0.067181118,0.006225967,0.008100984,0.004248262,0.009485377,0.018194886,0.017768918,0.012383476,-0.015547804,0.012870295,-0.003040721,-0.036785312,0.002475935,0.019290229,0.010413378,0.004206426,-0.00786518,0.019351082,0.01303764,0.003516131,-0.03946282,0.027566165,-0.017875411,-0.018681705,0.004963279,0.019381508,-0.020096526,-0.022439344,-0.019305443,-0.011934688,0.010991476,0.008648656,-0.040223476,0.022789245,-0.009972197,-0.017723279,-0.003708197,-0.019396722,0.014809967,-0.019062033,0.002382754,-0.01557823,-0.034107804,0.005499541,-0.00648459,0.00315482,-0.020994099,-0.009820065,-0.013319083,0.019427149,0.038245771,0.029102689,-0.025223345,0.013630951,0.000768262,-0.012200918,0.008298754,0.015327213,-0.01325823,-0.018012328,0.005149639,0.013661377,-0.004807344,0.01091541,-0.008237902,-0.012109639,-0.026136132,0.048925377,0.029133115,-0.028068198,-0.022211147,-0.00557941,0.024797378,0.039493248,-0.007252852,0.026592525,-0.003035016,-0.031065181,-0.001354918,-0.0506901,0.035872526,0.02246977,-0.008777968,-0.008139016,-0.026105706,-0.001821771,0.001673443,0.001159049,0.01162282,0.022697968,-0.012436721,-0.007500065,-0.044118032,-0.00647318,-0.009903738,-0.00287718,-0.015410885,0.011881443,0.035537835,-0.011425049,-0.002255344,0.021754755,-0.018742558,0.002439803,-0.019503213,0.002228721,-0.013653771,0.015958557,0.016491016,-0.004191213,-0.009135475,0.013326689,0.002266754,0.039128132,0.016247606,-0.003130098,0.030639213,-0.006070033,-0.000309492,-0.016916985,-0.005625049,0.009287607,0.01091541,-0.012893115,-0.010162361,0.007956459,-0.010930623,-0.010436197,0.014262295,0.001063016,-0.008960525,0.008755147,-0.011774951,-0.000500607,0.039036851,-0.004929049,-0.033347148,-0.011485902,0.010748066,0.005271344,0.01184341,0.024021508,0.00209941,-0.008146623,0.008663869,0.005720131,-0.012817049,-0.013159344,0.021815607,0.011942295,-0.02344341,0.008283542,-0.013935213,0.030882623,-0.002348525,-0.010048263,-0.010824131,-0.004757902,0.020994099,0.004769312,0.003278426,0.009394098,0.003403934,-0.034777179,0.018818622,-0.00699423,0.116471611,0.009531016,-0.022926165,0.002397967,0.029878559,-0.022059016,-0.011546754,-0.004286295,-0.032829903,0.011645639,-0.006393312,0.021998163,-0.006168918,-0.020431213,0.006766033,-0.049442623,-0.044513576,0.022910951,0.011478296,0.021724328,0.006100459,-0.035476983,0.012185705,-0.02574059,-0.049716461,-0.024919081,-0.013296262,-0.001362525,-0.003721508,0.019990033,0.013904787,0.006237377,-0.020142164,0.00211082,0.020978885,0.020431213,0.054128263,-0.028448526,-0.000692672,-0.014809967,0.009416918,-0.028113836,-0.014094951,-0.028311606,0.003455279,-0.003510426,-0.031034755,-0.020492066,-0.015273968,0.012763804,0.039341114,0.016232394,0.024158426,0.029848132,0.001688656,-0.033408001,0.02114623,0.015053377,-0.030593574,-0.005142033,0.003489508,0.016354099,-0.023123935,-0.019046821,0.018772984,-0.036146361,0.031308591,0.02715541,0.000143336,0.000535311,-0.01440682,0.008260721,-0.001780885,0.009531016,0.004974688,-0.000927525,-0.01550977,0.020811541,-0.016734427,-0.045487214,-0.018468721,-0.023473836,-0.032495212,-0.022621902,-0.004620984,-0.016110688,-0.003128197,0.00267941,0.006085246,0.016338885,-0.01115882,0.004875803,-0.008914885,0.008473705,0.010139541,0.004461246,-0.036055081,-0.016780065,-0.019868327,0.008808394,0.031019541,-0.00629823,0.016323673,0.017053902,0.019427149,-0.031643279,0.018925115,-0.025497181,0.003877443,0.018468721,-0.046917245,0.000290475,0.028524591,-0.026060065,0.034168657,-0.026212197,0.024797378,0.008428066,0.021967739,-0.033499278,-0.00557941,-0.010983869,-0.00886164,-0.034351215,0.020309508,-0.004514492,0.03082177,0.026394755,-0.014924066,-0.008511738,-0.005697311,0.042809706,0.004563935,-0.009896131,-0.044239737,-0.009591869,0.007773902,0.035842098,0.012094426,-0.016293246,0.000292852,0.022789245,-0.015494558,0.006184131,0.01184341,-0.018681705,0.002411279,0.020994099,-0.021769967,0.036207214,-0.023336919,0.00467423,-0.006720393,0.004784524,0.006788853,0.010276459,-0.015540197,0.022713181,-0.041988198,-0.003202361,0.006868721,-0.005374033,-0.018240524,-0.008146623,-0.0116,0.02574059,-0.010109114,-0.013227804,0.005674492,0.006602492,0.042535868,-0.03751554,-0.035507411,-0.004955672,-0.030547936,0.014277508,0.004400393,0.015623869,-0.041623082,-0.010169967,-0.009226754,-0.031217312,0.017860197,0.007819541,0.009112656,-0.008648656,0.016049836,-0.005240918,0.036602754,0.009371279,0.000472557,-0.02207423,-0.02861587,-0.010808919,-0.011752131,0.030411016,0.018453509,-0.055284459,-0.037302557,0.012140065,0.022348065,1.97E-05,-0.033955671,0.021937313,0.006769836,0.026896788,-0.018438295,0.002257246,-0.01997482,0.002415082,-0.060517773,-0.031430297,0.03985836,-0.017221246,0.034746755,0.031764984,-0.03228223,0.00651882,0.02578623,0.022424132,-0.008123803,-0.001744754,0.009074623,-0.022013377,-0.022272,0.02847895,0.004054295,-0.020963673,-0.003672066,-0.019122886,0.016095476,0.03252564,-0.009515803,0.023656394,-0.011645639,-0.021769967,0.027505312,-0.010618755,-0.01392,0.023991082,0.01323541,-0.035598688,0.017023476,0.002491147,-0.037028722,0.035051018,-0.016962623,0.004563935,-0.005533771,0.048651543,-0.009485377,0.006655738,0.021982951,-0.005309377,-0.004195016,-0.010063476,0.006804066,-0.005050754,-0.017206034,0.005898885,0.010352525,-0.002027147,0.023321705,-0.018651279,0.007979278,0.015821639,0.001668688,-0.003116787,0.008633443,-0.014992525,-0.026364328,-0.023139147,-0.001641115,0.00279541,-0.018894689,-0.012178099,0.015943345,0.010550295,0.00486059,-0.002784,-0.035264,0.032738622,0.007576131,0.01880341,0.012634492,-0.018103607,0.007047475,-0.020826755,0.019016394,-0.020978885,0.028859278,0.010808919,-0.018818622,-0.011835803,0.061826099,0.030928263,0.022865312,-0.029665574,0.001860754,0.021420065,-0.039888788,0.025603672,-0.027596591,-0.014429639,-0.004548721,0.046278294,0.001808459,0.048256002,-0.01719082,-0.042414166,0.003388721,0.008747541,0.034990165,0.003223279,0.031491149,-0.005058361,-0.014072131,0.031734556,-0.011782558,-0.017951475,-0.01045141,0.011204459,0.019655345,0.017342951,-0.017981902,0.023717247,-0.027809573,-0.04259672,-0.010930623,-0.000528656,-0.016688786,0.016186755,0.025314623,-0.009797246,-0.010725246,0.002943738,0.00039673,0.01802754,0.00934846,-0.00770164,0.028600655,-0.02364118,0.013456,0.009150689,0.007956459,0.033255868,-0.01487082,-0.000893295,-0.00766741,0.003065443,0.002757377,-0.008184656,-0.017221246,-0.022561049,0.01880341,0.023702033,0.034807608,-0.003333574,-0.018575214,-0.000485631,0.002158361,-0.012946361,0.019381508,0.019046821,0.017297313,0.016627934,0.04010177,-0.043235675,0.007089312,0.027596591,-0.007313705,-0.01738859,-0.010801312,-0.001879771,0.016932197,0.001157148,-0.00397823,0.014718689,-0.025968786,-0.002812525,0.040436458,0.007363148,-0.036207214,-0.007066492,0.023945443,0.013227804,-0.026060065,-0.006830689,0.014642623
Sc1_A,0.035178285,0.041998878,0.009746997,0.049495388,0.008233869,0.000415006,-0.00859487,0.002210164,0.006736104,0.009854528,0.017988546,-0.038281348,-0.052936405,0.008356763,0.04338143,0.065809511,-0.027420629,-0.017973185,0.025193183,0.025054928,0.035301179,-0.047590535,-0.062982954,0.007412019,-0.019463269,0.012750208,-0.018418673,0.067345679,0.02797365,0.007623242,-0.003546632,-0.023672374,0.024916671,-0.035024669,0.036222879,0.053735215,0.031737264,-0.04003258,-0.01321874,-0.031583648,-0.025208544,-0.030354712,0.037759051,0.008925145,-0.037451815,-0.002949446,0.014363186,0.015169675,0.041998878,0.043289259,-0.017681312,0.012235591,-0.035577688,0.044272408,0.005557094,-0.032935478,-0.013472208,0.058589511,0.030984541,0.018710546,0.016252674,-0.002229366,0.008026486,-0.018603014,-0.03539335,0.05315147,-0.0487273,0.008756167,-0.036560837,0.043197092,0.075948231,-0.01566893,0.013502931,-0.023334417,-0.023733821,-0.054564748,0.00389419,-0.028035097,-0.017143654,-0.089527965,-0.029202586,0.010945208,-0.01837259,0.007373614,-0.015354016,-0.000139455,-0.032505348,0.014977654,-0.068451717,0.020784376,0.011751697,-0.011513592,0.011037379,0.005365073,0.028081181,-0.038588583,-0.012273995,0.018434037,-0.017665951,-0.021951864,0.052291214,-0.057206959,-0.028526671,-0.003955637,0.069250531,0.047221854,-0.002384903,-0.010046549,-0.014862441,0.004178382,-0.120927274,0.026299225,0.005918093,0.039817516,-0.003325807,0.032628242,0.026729353,0.011106507,0.042797688,0.035301179,-0.032136668,0.003402616,0.009009635,0.040124752,0.031645093,-0.060064234,-0.005933455,0.00624837,-0.019493993,0.0277125,0.04580858,0.010737826,-0.008571827,-0.063413084,-0.003940275,-0.023042545,-0.055824406,-0.011221719,0.009485847,0.036192156,0.039756071,0.026022714,0.019309653,-0.015323292,0.066055298,0.001037875,0.004812052,0.028019734,0.015115909,-0.006663136,0.01755842,0.002674856,-0.026468202,0.052014705,0.070971034,-0.032075223,0.021460291,-0.027589606,-0.061999809,0.042060327,0.003206754,-0.058927469,-0.025239268,-0.006617051,-0.00353319,-0.049864069,-0.048573684,-0.025300715,-0.082953162,-0.008295316,-0.008495018,-0.041200072,0.008072572,0.03496322,0.021460291,-0.027190203,-0.012542825,-0.063658871,-0.019063866,0.004393445,0.027743224,-0.001479523,-0.030155011,-0.00081369,-0.010146401,0.015715016,-0.024148587,0.042613346,0.022535609,0.047160409,-0.032259561,-0.015976164,-0.000685036,-0.024824502,0.050140578,-0.013641187,0.060893767,0.060985934,-0.00126734,-0.008925145,0.001507366,0.000161658,0.046207983,-0.028219437,-0.012005166,0.028342331,0.018357227,0.030385436,-0.007957359,-0.003740573,0.069250531,0.027497437,0.028234798,-0.020600036,-0.051922534,0.000470932,0.007181593,0.037052412,-0.026882969,0.033857178,-0.026836883,0.019939482,0.025776926,0.009578018,0.062706448,0.026498927,0.092968985,-0.035178285,0.025469692,0.002327297,0.039295219,-0.001077239,-0.040216923,-0.034164414,-0.017819569,0.019325014,-0.000649512,0.01186691,0.017358717,-0.009024996,0.000685516,-0.006044827,0.04046271,0.018034631,-0.037789773,0.02055395,-0.029540543,-0.034533095,0.035086114,-0.005845126,0.077545844,0.032904755,0.013287867,0.041476581,0.009616422,0.00534203,-0.030539053,-0.040985007,-0.00941672,-0.000826651,0.029033607,-0.022259098,-0.027051948,0.016667441,0.040339816,-0.000749843,0.036192156,-0.00026787,0.003611919,0.004454892,-0.028495947,-0.011060421,-0.015991526,0.00950889,-0.018065356,-0.043043472,-0.005695349,-0.013387718,0.028188713,0.032105945,0.021383481,-0.032013774,-0.007554114,-0.020861184,-0.022074757,0.008932826,0.011598081,-0.009293826,0.025577225,0.009232379,0.023749182,-0.037881944,0.000409965,0.026652543,-0.025070289,-0.003235557,-0.014470718,-0.021106971,0.031860158,-0.020185269,0.070172228,-0.060801595,0.008456614,0.022673864,0.032843307,0.029909223,-0.014693462,-0.040677771,0.010837677,-0.003740573,-0.00616004,-0.001859725,-0.001397914,-0.018126803,0.007127827,-0.041261517,0.003235557,0.017865652,0.012719485,-0.043780833,-0.002093031,0.039049432,0.012235591,0.024394374,0.005199934,-0.008925145,0.038219903,-0.031983051,-0.009032678,8.08E-05,-0.012588911,-0.095672645,0.028588118,0.012320081,-0.025101012,-0.055885851,-0.021030163,-0.024870588,0.021675354,0.025761565,-0.04381156,-0.064826362,0.004243669,0.017665951,0.004785168,0.025515778,-0.024563354,-0.027374543,0.0154001,0.040401261,-0.020400332,0.029448371,0.011920677,-0.042275388,-0.050417088,-0.019509355,0.054933425,-0.007004933,-0.003627281,0.026606459,-0.039878964,-0.035731304,-0.0057952,0.024670884,0.004896541,-0.022643141,0.0005439,-0.012673399,-0.012335442,-0.045132663,0.024025694,0.018756632,-0.013648868,0.038097009,0.010238571,0.051676746,-0.005142328,-0.013894655,-0.004151498,0.060678702,0.012466017,0.033642117,-0.035546966,0.004428009,0.0277125,-0.007323689,0.019202121,-0.005476445,-0.008456614,-0.012320081,-0.013003676,-0.044948325,-0.023288332,0.031184245,0.035608411,0.013802485,0.015807185,0.037851222,0.0387422,0.016636718,0.047621258,0.016590632,0.015522994,0.026498927,0.024993481,0.035331901,-0.005868168,-0.04980262,-0.023918161,0.015377059,-0.039479561,-0.02036961,0.034195136,0.012512102,-0.013541335,0.000348038,0.009094125,-0.020062376,0.055547893,0.01412508,-0.022965737,-0.038097009,-0.018464759,0.020215992,0.019632248,0.062982954,0.066055298,-0.027098034,0.063044399,-0.041599475,-0.016191227,0.009063401,0.026099522,-0.002567324,-0.016068334,-0.034379479,-0.009816124,-0.009731635,0.010330741,-0.060094956,-0.004858137,-0.001745473,-0.074473508,0.023641651,-0.003043536,-0.002964807,0.07250721,-0.012957591,-0.035301179,-0.056746107,-0.001684026,-0.023073269,-0.003638802,0.027297735,-0.006643934,0.040370539,0.012811655,0.006916604,0.012926867,-0.024041055,0.033304159,-0.011475188,-0.010937528,-0.03024718,0.015522994,-0.003037775,0.027405266,0.017174376,0.025700118,-0.00452402,0.059050363,-0.051707469,-0.016083697,-0.026744714,-0.042060327,-0.019386461,-0.006186923,0.001261579,0.025346799,0.0411079,-0.009570337,0.005599339,-0.014078995,0.014785632,0.001352789,-0.063843213,-0.002603807,0.005261381,-0.025792288,0.014224931,-0.020815099,-0.001515047,-0.015284888,-0.018618377,0.02778931,-0.03846569,-0.011290847,-0.012419932,-0.001548651,0.012573549,0.042490453,-0.020277439,0.021214504,0.043688666,0.013341634,0.04952611,-0.010745507,0.001306704,-0.023103992,-0.0157611,-0.003633041,0.0164831,0.024640162,0.052414108,0.010561166,-0.013994506,-0.022028673,0.023426587,0.003794339,-0.017681312,0.015062143,0.011605762,-0.008110976,-0.030062839,0.023042545,0.004904222,-0.047436919,-0.019770503,-0.050048407,-0.011229401,0.003757855,0.005307466,0.023564842,0.048819471,-0.028603479,0.031767987,-0.021383481,-0.058282278,-0.004658435,-0.008633274,-0.011544315,0.003454461,0.018403312,0.024225395,-0.03511684,0.026545012,0.038004838,-0.00425519,-0.007995763,-0.006355902,0.048420068,0.012373847,0.039633177,0.002334978,0.008986592,0.010200166,-0.010730145,-0.00163026,0.030861648,0.024071779,0.008802252,-0.041568752,0.029095054,-0.028019734,0.006643934,0.027942926,-0.011452145,0.02715948,0.012074294,0.029402288,0.019678334,-0.008640954,-0.022474162,-0.04553207,0.04138441,-0.001111803,-0.01168257,-0.022689225,0.01023089,-0.014701144,-0.03831207,-0.021967227,-0.019033141,0.04888092,-0.015661249,0.058589511,0.005046317,0.006686179,0.003548552,0.031983051,0.009439763,0.001325906,-0.032812584,0.022781396,0.037513264,-0.003398775,0.01530793,-0.017850291,-0.019662971,4.56E-05,-0.009247742,-0.001117563,-0.015138952,-0.020000929,0.004132296,0.00362152,-0.018434037,-0.032689691,0.012350804,-0.014347824,-0.023011822,0.022428077,0.048481513,-0.03539335,-0.046054367,0.002386824,-0.004942626,0.011644166,0.014255654,0.020446418,-0.023518758,0.001012912,0.01729727,0.025316076,-0.023257609,-0.047928493,-0.021767523,-0.009939018,0.032228839,0.008948188,0.016621355,0.009885252,-0.015914718,-0.025915181,-0.020692205,-0.036775902,0.005349711,0.045317005,-0.019862674,-0.038189176,0.037881944,-0.021967227,0.034256585,0.002365701,0.005261381,-0.017927099,-0.002886079,0.010369145,0.000143776,-0.03324271,-0.004366562,0.038496412,0.04273624,-0.005011754,0.015292569,-0.005004073,-0.006471115,0.0164831,0.020154545,-0.021752162,-0.011306209,0.01566893,-0.016145144,-0.0255465,0.008180103,-0.009378316,0.022827482,-0.01041523,-0.010169443,0.009931337,0.07705427,0.017404802,0.033611391,0.051430959,0.009839167,0.039049432,0.042306114,-0.008856018,0.011920677,0.031061351,0.003738653,0.049986962,-0.012020527,-0.025177822,-0.037974115,-0.002482834,0.031414669,-0.012005166,0.011429102,0.000498295,-0.008402848,0.00688204,-0.0105074,0.003867307,-0.008195465,-0.020431057,-0.018341865,-0.033642117,0.029402288,-0.096655793,0.02090727,-0.013295548,-0.049956236,-0.002037345,-0.015062143,-0.040554877,0.022781396,-0.012051251,0.0052537,-0.017389441,0.005929615,-0.014009867,-0.025008842,0.027543522,-0.031368583,-0.009770039,-0.01357974,0.040339816,-0.037728328,0.035977092,0.00334885,0.027866118,-0.017389441,-0.005699189,0.004485616,-0.00779222,0.013065123,-0.039080154,-0.023134716,0.023948886,-0.046238706,0.000628389,0.013118889,0.020431057,-0.028035097,0.007454263,-0.032720413,0.00986989,0.02218229,-0.002000861,-0.008633274,-0.020722929,0.008295316,-0.011029698,0.035055391,-0.023288332,0.001059957,0.012535145,-0.016452378,0.018864164,0.004132296,0.01729727,0.001164609,0.004842775,0.00869472,-0.036929518,-0.011052741,-0.005948817,0.018987058,0.039694622,0.017850291,0.042121772,0.013656548,0.004397286,0.006820593,0.036253605,-0.013771761,0.013664229,-0.004719881,-0.020139184,-0.018096078,-0.039295219,0.001468962,-0.001526569,0.002734382,-0.007177753,0.002369542,0.058097936,-0.012604272,-0.030001393,0.040401261,-0.023795268,-0.024670884,-0.026944416,-0.024916671,-0.036130711,0.004143818,-0.009101805,-0.01186691,-0.032351732,0.006989572,0.017619865,-0.015438505,-0.006144679,0.000468532,-0.006786029,-0.031491477,-0.071585506,0.011098825,0.015461547,-0.013541335,-0.022566332,0.017758122,-0.043012749,-0.008310677,0.023457311,-0.028926075,0.058804575,0.014539846,-0.019878035,0.025485054,0.002765105,-0.017635228,-0.014993016,0.035577688,-0.05007913,0.021506375,0.00968555,-0.001114683,-0.019509355,0.03050833,0.004785168,0.006094753,0.01602225,0.003729052,0.002046946,0.014639697,-0.028557394,0.011805464,-0.017174376,0.017788844,-0.010845358,0.001524648,0.022750672,0.001425757,0.017619865,0.009017316,0.013026719,0.01212806,0.023119353,0.015338654,-0.005196094,-0.002365701,0.00407085,0.004047807,-0.031767987,-0.007949678,-0.018311143,0.012742527,0.012796293,-0.042766962,-0.051922534,0.007765338,-0.0291565,-0.002838074,0.001929813,0.009247742,-0.051461682,0.004984871,0.011813144,0.007819103,-0.019878035,0.007638603,0.012012847,-0.03831207,0.000697037,-0.031491477,-0.000767605,0.008825295,0.015323292,-0.023042545,0.018111439,-0.020876545,-0.011436783,0.011882273,-0.004239828,0.009201656,-0.016375568,-0.011037379,0.062737167,0.017404802,0.009232379,-0.002822712,-0.036990967,0.005019434,-0.00534587,0.043504324,0.007988082,-0.004101573,-0.010645656,-0.046054367,-0.026990501,-0.03024718,-0.001952856,0.019125313,-0.001666744,-0.004896541,-0.016943952,0.021813609,-0.009170933,-0.000117193,0.009915975,-0.01076855,-0.023764545,-0.00932455,-0.003266281,0.006352061,-0.020784376,0.001197252,-0.001856845,-0.017159015,-0.012350804,-0.016268037,0.049986962,0.00760404,0.042613346,0.013057442,0.012650358,-0.009493529,-0.011797783,-0.028572755,0.017911738,0.025316076,-0.028050458,0.003264361,-0.02371846,-0.016099058,-0.009693231,-0.015622846,-0.010100315,0.004228307,0.010914485,-0.022612417,0.052813511,0.002513558,0.032658968,0.008971231,-0.004381924,-0.012297038,0.015438505,0.008003443,0.006044827,-0.022120843,0.017082207,0.004051648,-0.000376122,0.026314586,0.009923656,0.014547527,-0.026944416,0.020722929,0.013479888,0.035516243,-0.043350708,0.002997451,-0.025269991,0.01076855,0.010906804,-0.010376826,0.010445953,-0.023979608,0.045839302,-0.009493529,-0.003222116,-0.029494457,-0.006809072,-0.033918627,-0.024947396,0.005991062,0.020108461,-0.021398844,-0.005576296,0.005192253,0.012665719,-0.012266315,-0.005695349,-0.007273763,0.019202121,0.015077505,-0.058466617,0.048205003,0.064826362,-0.03078484,-0.014977654,0.000775286,-0.021859694,0.014455357,0.009201656,0.031798713,-0.012965272,0.008210827,-0.011098825,-0.007216157,0.03459454,-0.00634054,0.021767523,-0.003273962,-0.004719881,0.018756632,0.006317498,-0.016175866,-0.029386925,0.008218507,-0.032597519,-0.016390931,0.014639697,0.008287636,-0.016052973,-0.00425903,-0.014962292,-0.041169345,0.00941672,0.009339912,-0.015791824,0.025131736,-0.030938458,-0.031767987,-0.015430824,-0.033672839,0.019217482,-0.019924121,-0.009032678,-0.013825526,-0.036284328,-0.022535609,-0.017619865,0.001742592,-0.012803974,0.016529186,-0.020661483,0.034440923,0.023257609,0.019432547,0.010399869,-0.005445722,0.032290287,-0.000236666,0.020292802,0.01983195,-0.004965669,-0.045839302,0.008817614,0.014900845,-0.02164463,0.02436365,0.007895912,-0.02155246,-0.041783813,0.051430959,0.052291214,-0.024824502,0.017773483,-0.010407549,-0.004331999,0.04073922,-0.001152127,0.026944416,0.0267908,-0.034778882,-0.011075784,-0.034348752,0.031675819,0.010000465,-0.02924867,-0.001791558,-0.007196955,0.008518061,-0.000283711,-0.021491013,0.028111905,0.038557857,0.005272903,-0.004247509,-0.037851222,-0.002398345,-0.049894791,-0.006267572,-0.020722929,0.029755605,0.012972953,-0.011667209,0.016175866,-0.004036286,-0.038434964,0.002035425,-0.015476909,-0.015791824,-0.003122265,-0.021045525,0.000290432,-0.01312657,-0.018956333,-0.003250919,0.002073829,0.04645377,0.009086443,0.015192718,0.002204404,0.021045525,0.011736336,0.028035097,0.004308956,-0.000926022,0.013725676,-0.006398147,-0.007838306,0.004485616,0.002939845,-0.004097733,0.00815706,0.023979608,-0.015077505,0.02762033,-0.021767523,-0.000139695,-0.004036286,0.017927099,-0.009393677,-0.003116504,0.005207615,0.019140674,-0.001968217,0.037912667,0.037543986,-0.021890417,0.012581229,0.009647146,-0.014593611,-0.001348949,0.030539053,-0.008118656,-0.012719485,-0.010161762,-0.022274461,0.018925611,0.029586628,-0.000684556,-0.025223905,-0.023303693,0.027067309,0.033119816,0.032382455,0.006094753,0.006620891,-0.021045525,0.004474094,0.007619401,0.09960524,-0.000694157,-0.018879525,-0.012827016,0.017435526,-0.028618841,-0.022950375,0.014662739,-0.023334417,-0.004182222,-0.023488034,0.000528058,0.000594786,-0.013372357,0.011068102,-0.018695185,-0.01594544,0.02789684,0.010960571,0.011482868,0.014916208,-0.037359647,0.033734284,-0.003310446,-0.035209008,-0.015515313,-0.01222023,0.000960106,-0.00824155,0.048297174,0.019524716,0.022381991,-0.013272506,0.034379479,0.023564842,0.033150543,0.035731304,-0.027374543,-0.016959313,0.007703891,-0.016068334,0.006194604,-0.028403778,-0.046945345,0.018695185,-0.001736832,-0.00216984,0.020185269,-0.013065123,0.008249231,0.008195465,0.023073269,0.018311143,0.007112465,-0.008218507,-0.034748159,0.016437015,0.007139348,-0.017865652,0.001365271,-0.014893165,0.01313425,-0.028065819,-0.008909784,0.022428077,-0.026529649,0.01376408,0.021322034,-0.011175634,0.007657806,-0.035454795,0.010691741,0.024793778,0.023042545,0.028818542,-0.007500348,-0.015154313,0.030201096,-0.032658968,-0.041077178,-0.013410761,-0.009531933,0.002359941,-0.024932034,-0.005303626,-0.0036196,-0.00660553,-0.022397354,0.000106992,0.011221719,-0.022981098,-0.023395864,-0.002288893,0.019570801,0.009286146,-0.002117994,-0.017220462,-0.019662971,-0.008587188,0.016421653,0.020507865,-0.019616887,0.009578018,0.01457825,0.022935012,-0.043350708,-0.03032399,-0.012427612,-0.006624732,0.015315612,-0.036468666,-0.001522728,0.003748254,-0.030185733,0.022243736,-0.012458336,0.008886741,-0.028035097,0.03803556,-0.008610231,-0.006774508,-0.003051217,0.000212784,-0.050970107,0.010561166,0.009977422,0.033058371,0.015138952,-0.001502566,0.001513127,0.02715948,0.026114885,0.00271902,-0.003677206,-0.018126803,0.005818243,0.007527231,0.002027744,0.012473698,-0.006563285,0.005349711,0.006129317,-0.012650358,0.003974839,0.008863699,-0.021475652,0.015146633,0.017066846,-0.015361696,0.038619306,-0.009578018,0.000472132,0.005441881,-0.001731071,-0.008110976,0.004485616,-0.013756399,0.002202483,-0.03831207,0.012320081,0.015369377,0.010169443,-0.035055391,-0.015745739,-0.010829996,-0.006628572,-0.006294455,0.003404536,-0.018341865,0.008948188,0.003565834,-0.018695185,-0.050570704,-0.024240756,-0.008917465,0.028449861,-0.009524252,0.010668699,-0.030370073,-0.01277325,-0.008978912,-0.010131039,0.004320477,0.018065356,0.013833208,-0.000892419,0.021921141,0.00425135,0.013326271,-0.005968019,0.001437279,-0.021613907,-0.026944416,0.005464924,-0.010914485,-0.000347558,0.021936502,-0.042244665,-0.038588583,0.019248206,0.019647609,-0.008387486,0.007941997,0.029555904,0.002849595,0.000620228,0.015069825,0.000761844,0.015822547,0.009915975,-0.009854528,0.000306034,0.010691741,-0.021798247,0.016145144,0.004097733,-0.000482933,0.021352759,0.040370539,0.035546966,-0.014378548,-0.000315395,-0.020308163,-0.007458104,-0.031045988,0.066116743,0.041568752,-0.03496322,-0.011421422,-0.035270456,0.021030163,0.026053438,0.002500116,0.011851549,0.021782886,-0.010069592,0.004378084,-0.024302203,-0.019954843,-0.007742295,0.024916671,-0.04980262,-0.013088166,-0.012189507,-0.050632153,0.030877011,0.003051217,0.017957823,-0.003058898,0.035792753,-0.014754909,0.031214967,0.000527578,-0.003513988,0.015645888,0.006394306,-0.002331137,0.002409866,0.0210148,0.002164079,-0.009854528,-0.005080881,0.023165438,-0.022059396,-0.00226201,0.001010032,-0.003729052,-0.022259098,0.005879689,-0.012780932,-0.016959313,-0.014478399,-0.007204636,0.007623242,-0.002521239,-0.013810165,0.005534051,0.018234333,0.003871148,-0.011029698,-0.031645093,0.002004701,0.018003909,-0.013863931,0.02471697,-0.019401822,0.020031651,-0.011114188,0.026422119,-0.005822083,0.023257609,0.003836584,-0.033519223,-0.007016455,0.059972063,0.023872076,0.015292569,-0.020615397,-0.006332859,-0.003944116,-0.021275951,0.012105017,-0.033857178,0.011636485,0.00226393,0.01883344,-0.005468764,0.028526671,-0.006705381,-0.030339351,0.0164831,-0.010737826,0.032198116,0.001025393,0.025285352,-0.026744714,-0.012005166,0.033334881,-0.007669327,-0.031138159,-0.009739316,0.00832604,0.056746107,-0.004919583,-0.031952329,0.014148123,-0.038588583,-0.05044781,-8.48E-05,0.005207615,-0.019340375,0.025070289,0.024194673,-0.0154001,0.016575271,-0.000781526,0.020815099,0.003746334,0.021736801,-0.012827016,0.038834371,-0.001545771,0.012627315,0.003022414,-0.011674889,0.015976164,0.019924121,0.023518758,-0.005257541,0.005775998,0.026882969,0.00099275,0.020891907,-0.017804205,-0.008702401,0.012757889,0.038957264,0.003049297,-0.006567125,0.020569311,-0.008379806,-0.008195465,-0.009708593,0.03050833,0.014063633,0.037482541,-0.00063511,-0.019355739,0.009578018,0.023411226,-0.023165438,-0.019401822,-0.020815099,0.003404536,-0.026514288,-0.007918955,0.006551764,0.01901778,-0.039725348,-0.004658435,0.014224931,0.027881479,-0.012742527,-0.00688204,0.034502372,0.020139184,-0.019232845,0.005403477,-0.015976164
Sc1_A,0.033858903,0.01808963,0.001497928,0.030149383,0.010243158,-0.063199215,-0.00371906,-0.003533966,-0.016700469,-0.010090502,0.008678443,-0.005060517,-0.035843417,0.006323738,0.036362447,0.024073711,-0.000434351,0.020104676,0.009708865,0.021646494,0.013219932,-0.008441827,-0.009983644,0.009502781,-0.004365936,-0.036820412,-0.028851815,0.028225929,0.029202921,-0.0493076,-0.023539416,-0.031630136,0.039873514,-0.035660233,0.010464507,0.011151455,0.048635915,-0.032393415,0.01332679,-0.025478138,-0.013532875,-0.009327227,0.023722604,0.022867735,0.000729882,-0.007583142,0.00283366,0.037186783,0.01183077,0.017219495,-0.046101842,-0.009998909,-0.012945153,0.019005561,-0.073824011,-0.002656199,-0.028775487,0.02182968,0.021677025,0.036789879,0.055139024,-0.014631992,0.020684768,0.021173263,-0.031660669,0.035080142,-0.042102277,0.022409769,0.015952459,0.030408897,0.063565582,0.021707555,-0.023875259,-0.022058662,-0.028515974,-0.03352306,0.004178933,-0.013288626,-0.028363319,-0.060390361,-0.015395267,0.006842765,0.005029986,-0.049277067,0.015906662,-0.019204013,-0.021356449,0.021936538,-0.042987678,0.029920401,0.044056263,0.009548577,0.047750518,-0.031263765,0.015876131,0.001281349,-0.031813323,-0.024485879,-0.00889216,-0.006331371,0.056360263,-0.065702759,-0.048452731,0.01642569,0.054864246,0.000249734,0.004690328,0.021875476,-0.011571257,-0.02182968,-0.162302911,0.015051793,0.023157779,-0.006674844,0.010235525,0.024913313,-0.005293316,-0.012876458,0.071931086,0.022241849,-0.050254062,0.011059863,-0.045002725,0.014296151,0.030668411,-0.038102712,0.019387199,0.002722985,-0.00290808,-0.020455783,0.043415111,-0.00906008,-0.012204776,-0.028500708,-0.015028895,-0.058772214,-0.050681494,0.014120597,0.006331371,0.018684985,0.044422634,0.008304438,0.013716062,-0.02798168,0.035324391,0.027615309,0.033370405,-0.001266083,-0.017875914,0.019402463,0.011014066,-0.021707555,-0.0694886,0.014693053,0.052238576,-0.058161594,0.000648307,0.01947879,-0.053062916,0.013784756,-0.02468433,-0.032362882,-0.006571802,-0.009838621,-0.036942534,-0.012021589,-0.057154071,0.000545265,-0.07687711,0.004438447,-0.049857158,-0.018913968,-0.010464507,0.059688147,-0.044453166,-0.011594155,0.009037182,-0.02302039,-0.016227238,0.005220804,0.039720859,0.014868607,-0.013639733,-0.040881038,-8.32E-06,-0.017021045,-0.009273797,0.026287209,-0.008434194,0.018410206,-0.035660233,0.00902955,0.03141642,-0.022852469,0.064237267,-0.047964234,0.053612474,0.011739178,0.011998692,0.030515755,-0.005323847,0.018471267,0.062405407,-0.017280558,-0.006880929,0.050650965,0.00867081,0.022257114,-0.015509759,-0.00664813,0.060817793,-0.019127684,0.013792389,0.020654235,-0.041461125,0.013288626,0.007335078,0.065031074,-0.021799149,0.051750079,-0.018257551,0.009838621,0.01737215,0.03172173,0.058466904,0.026790971,0.039965108,-0.036331914,0.034225274,-0.021982335,0.053032383,-0.014853342,-0.086402789,-0.033400938,0.004117872,0.058497436,0.033767309,0.020028349,0.023279903,0.020990077,-0.028302256,-0.004636899,0.052085921,0.01091484,-0.011998692,0.003049286,-0.034194745,-0.051444769,0.033767309,0.026974156,0.036545631,0.036301386,0.018715516,0.03767528,-0.002476829,-0.03224076,-0.007067931,-0.036362447,0.012731436,-0.010594265,0.023386762,0.002745884,-0.014471704,-0.004167485,0.050773088,-0.004400284,0.0215549,0.010044706,-0.004018646,0.030729473,-0.05474212,0.00972413,0.03046996,0.032790318,0.00457202,-0.080968268,-0.008167048,0.012838295,0.044880603,0.005976447,0.001151592,0.002030313,0.022531893,0.013235197,0.009953113,0.012372696,0.026302474,-0.002429124,0.02869916,0.002646658,-0.049185473,-0.027233671,0.028103804,0.011342274,0.018379675,-0.015921928,-0.016196707,-0.000951232,0.043659359,-0.014502235,0.075411625,0.02091375,-0.006087122,0.017051576,0.008960854,-0.00774343,-0.040056698,-0.033675715,0.006407698,0.015677679,-0.005785629,0.026104024,0.015608984,-0.03352306,-0.012906989,0.012678007,-0.005308581,0.0185018,0.004201832,-0.026714643,-0.003179043,0.017051576,-0.030622615,0.01302148,-0.016959982,-0.040606257,0.051353179,-0.038102712,-0.007690001,-0.006445862,0.004167485,-0.082555883,-0.024623269,0.011891833,-0.000653078,-0.037339438,-0.016731,-0.0694886,0.077731982,0.013868717,-0.03675935,-0.080479771,-0.007583142,-0.031538546,0.009968379,0.016822593,-0.00248637,-0.011059863,-0.021173263,0.049338128,-0.056818228,0.022562424,-0.0031924,-0.01016683,-0.036667757,-0.031965978,0.035110675,-0.01914295,-0.015616617,0.045582816,-0.006735906,-0.028454911,0.04130847,0.004194199,-0.022440301,-0.003715244,-0.019692509,0.018135427,0.004312507,-0.006373351,0.009273797,0.013067277,-0.000958865,-0.039385017,0.026104024,0.050131936,-0.002368062,-0.022394504,-0.003551139,0.01293752,-0.009350125,0.035660233,0.006003162,-0.006472576,0.025462871,-0.016837858,-0.016792061,0.014204557,-0.015005996,0.011288845,0.012624577,-0.028744956,-0.028195398,0.000624455,-0.012181877,-0.016273035,-0.011784974,0.014120597,0.065885946,0.018578127,0.041644312,0.035599172,-0.01113619,0.063382402,0.004923127,0.040026169,0.016471487,-0.03736997,-0.038499616,0.022959327,-0.017158434,-0.001165903,0.057642568,-0.017540071,0.02186021,-0.037095189,0.016440954,-0.029263984,0.007697633,0.007663286,-0.029096063,-0.054864246,0.013174135,-0.05648239,-0.006209246,0.057367787,0.036637224,-0.02665358,0.002015047,-0.064115144,-0.053948313,0.054772653,0.020181004,-0.022760876,0.005071966,-0.04161378,-0.010739286,-0.02186021,0.044727944,-0.04628503,0.031477481,-0.029828807,-0.019234544,0.014532766,-0.002070385,0.053490348,0.02634827,-0.011128557,-0.035935011,-0.033645187,-0.018410206,-0.001333824,-0.029859338,0.003249645,-0.015525024,0.0686948,-0.013571039,0.006262676,-0.018471267,-0.042315993,0.033736777,-0.002511177,-0.017646929,-0.018517064,0.010464507,0.017280558,-0.006167266,0.014120597,0.016395159,-0.005495584,0.080174461,-0.039720859,-0.036515102,-0.011281212,-0.031904917,-0.008312071,0.0185018,0.033919964,0.01518155,-0.023432558,-0.014013738,0.01246429,0.004556755,0.001245093,0.003163777,-0.070282407,0.025218623,0.004385018,-0.028851815,0.020226801,-0.060268234,0.004518591,-0.011639952,-0.018868171,0.040178824,-0.012304001,-0.02302039,-0.018654454,-0.033584122,0.003406117,0.016089847,0.0114415,0.016807327,0.017875914,-0.007293098,0.036057137,-0.003194308,0.042865552,0.01958565,-0.038804926,-0.026165085,0.010807982,-0.001924408,0.022791408,0.007014502,0.018883437,0.003715244,0.019081889,-0.011693381,-0.019799367,-0.01955512,0.001230782,-0.027554246,-0.02227238,0.033095628,0.020455783,-0.031660669,0.004659797,-0.039385017,-0.010968269,-0.003056919,-0.010319485,0.043109801,0.00206466,-0.023753135,0.059596553,-0.024195835,-0.020532111,0.011365172,-0.031019518,-0.005480318,-0.019768836,0.015120488,0.019906227,-0.027630573,0.008205212,0.038316432,-0.005705485,-0.003009214,0.028485443,0.027432123,0.029386107,0.027294733,-0.014998364,0.013891615,0.003207665,-0.038194306,0.017830117,0.013708428,0.038743865,-0.011357539,-0.024562206,0.013052012,-0.037553154,-0.000797146,0.004201832,0.028195398,0.071747899,0.0123269,0.002289827,0.025523933,-0.01008287,-0.03859121,-0.040667322,0.022989858,0.008273907,0.025676589,-0.009884418,0.028744956,-0.014410642,-0.036606696,-0.07626649,-0.044331044,0.026256679,-0.019005561,0.036576163,-0.006132919,0.009357758,0.026149819,0.025905572,-0.022287644,0.023966851,-0.003814469,0.006388616,0.014761749,0.009769927,-0.036576163,-0.001170674,-0.006518373,-0.017204231,-0.03224076,0.001705921,0.017555337,-0.010044706,0.007087013,0.022394504,-0.014525133,-0.034194745,0.008510523,-0.011113292,-0.018440736,0.006361901,0.043842547,-0.017234761,-0.024455348,0.003583579,0.013052012,0.009800457,0.019234544,-0.002868008,0.007487733,0.012891724,-0.038072184,0.034225274,-0.026241412,-0.021188529,-0.021493839,-0.010991167,0.020715298,-0.004633083,0.02393632,-0.002621851,-0.01914295,-0.032423943,-0.002261204,-0.052666012,0.026531458,0.002221132,0.003259186,-0.00630084,0.023402028,-0.001725003,0.016395159,0.012746701,0.013738959,-0.013738959,0.032729253,0.018623922,-0.005423073,-0.038743865,0.003430923,0.024562206,0.019158216,0.014792279,0.023066185,0.02393632,-0.025798712,0.019509323,-0.006094755,0.005545197,-0.002417675,-0.009472249,-0.004030095,0.005331479,0.01986043,0.009495148,0.028164867,0.029065533,0.015418165,0.001484571,0.096294843,-0.007525897,0.030836331,0.02839385,0.004293425,0.008174681,0.000648307,-0.012891724,0.034866426,0.000519027,0.017463744,0.002976774,-0.016853124,-0.026592519,-0.008159416,-0.00157521,0.046651401,-0.022287644,0.014883873,-0.020959547,-0.016578345,0.003184767,-0.000541926,-0.009701231,-0.013151237,0.003896522,0.002848926,-0.013586304,-0.018211754,-0.08353287,0.003852633,-0.006812234,-0.021692291,-0.038530149,-0.014410642,-0.019936757,-0.009754661,0.014074801,0.012418493,-0.027142078,-0.004518591,-0.011517827,-0.052604947,0.042346526,-0.052788135,-0.002078018,-0.002814579,-0.005449787,0.003907971,0.007094646,-0.037125722,0.046620868,-0.008876895,-0.029065533,-0.006713008,-0.005400174,-0.006396249,-0.025630793,-0.051902734,0.036148727,-0.039904043,0.013777123,0.024119506,0.010601897,-0.045582816,0.013731327,-0.017799586,0.022699814,0.004877331,0.011388071,-0.012532984,-0.000257367,-0.019432995,-0.02124959,0.006304656,-0.001936812,-0.007251117,0.032118633,-0.045857593,0.032088105,0.030027259,0.016318832,-0.029233452,0.022409769,0.008853996,-0.024577472,-0.004701777,0.035965543,0.01615091,0.028332787,0.006716825,0.017127903,0.00664813,0.014983099,0.006335187,0.038743865,0.018959764,-0.019341402,-0.001271808,0.003159961,-0.010563733,-0.01947879,-0.005743648,-0.002795496,0.033370405,-0.014769381,0.02424163,0.02080689,0.024882782,-0.021081669,0.045827061,-0.017082106,-0.054589465,-0.014616726,-0.024058444,-0.024913313,-0.011410969,-0.015754007,-0.027813761,-0.044514228,0.004430814,0.011907098,0.001052366,-0.006380983,-0.003358412,-0.043018207,-0.026226146,-0.05776469,-0.011769708,-0.004938392,-0.009846254,-0.05202486,-0.019967288,-0.013784756,-0.030866861,0.018593391,-0.031538546,0.034408461,-0.010296587,-0.025203358,-0.008609748,0.022684548,0.011021699,-0.024592737,0.050040342,-0.068755858,-0.003684713,-0.022623487,-0.001084805,-0.020303128,0.006190164,0.011762076,-0.004262894,-0.003072184,-0.043903608,-0.004289608,0.027874822,-0.017387416,-0.01390688,-0.010014175,-0.008777669,-0.002442482,-0.019356668,0.029508231,0.002556973,0.004106422,0.025035437,0.003686621,-0.022409769,-0.002087559,-0.010121034,0.014051902,0.027813761,0.009731763,-0.013571039,-0.031874385,-7.21E-06,0.021661758,0.006106204,0.04817795,-0.026882565,-0.044972192,0.045704938,-0.019112419,-0.016074583,-0.018776577,-0.004350671,-0.030668411,0.028638098,0.012746701,0.040087231,0.000650215,-0.007571693,0.021264857,-0.029019736,0.001320467,-0.00541544,-0.020119943,0.005869589,0.0343474,-0.035080142,0.009830989,0.003570221,-0.004675062,0.008579217,0.004663614,-0.042651836,0.015334206,-0.007197688,0.04069785,0.011494929,-0.018913968,0.026668847,-0.036667757,-0.005335296,0.016227238,0.011120925,0.026607785,-0.007907534,-0.00906008,-0.033889432,-0.03920183,-0.005041435,-0.004976557,0.019738305,0.006472576,0.006129102,0.010441609,0.006739723,-0.009136408,0.013197034,-0.006838948,0.013479446,0.036667757,0.017158434,0.003728601,0.013578672,-0.026180351,-0.018822374,-0.024974376,5.58E-05,-0.059962925,0.013525242,0.033400938,0.000287659,0.029569294,-0.001461673,0.0246538,-0.017906444,-0.02672991,0.010350016,0.037736341,0.002232581,-0.004526224,-0.012212409,-0.013662632,0.000878244,-0.011128557,-0.02665358,-0.039568204,0.018898701,-0.004965107,-0.005354378,0.053215571,0.0050567,0.000195828,-0.004186566,0.001264175,-0.002263112,-0.002993948,-0.003287809,-0.00010018,0.007571693,-0.004610184,0.042926617,-0.007945698,-0.005674954,-0.000678361,0.035751827,-0.018303348,0.011746811,-0.025523933,0.019997818,-0.037522625,0.009258532,0.003890797,0.008899793,0.000612529,-0.000146453,0.000454149,-0.016593609,0.000672159,-0.026806237,0.014448806,-0.008418929,-0.004747574,-0.030454693,0.008808199,0.035202269,0.008128884,0.00301303,-0.001017065,0.015525024,0.003062643,0.01570821,-0.001898648,0.033675715,-0.047231488,0.021188529,-0.033981025,0.038408026,0.051536363,-0.043750953,8.40E-06,0.024119506,0.0028661,0.037003599,0.011555991,0.038438555,0.006041326,0.00822811,-0.014960201,-0.018639188,-0.038865991,0.00232799,0.01986043,0.017219495,0.00844946,0.026775705,0.008594482,0.006785519,0.019036092,0.008128884,-0.024882782,-0.001824228,0.012655108,0.0303631,0.00994548,0.000503762,-0.012158979,7.20E-05,0.006277941,0.018456003,-0.039262895,0.001250818,-0.008334969,-0.021799149,-0.012311635,-0.015608984,0.004881147,-0.030302038,-0.006926725,-0.000249973,-0.016731,0.009243267,-0.029126594,0.015296041,-0.014525133,0.008434194,0.014196925,0.026058227,0.056665573,0.031813323,0.007579326,0.006972522,0.008953222,-0.013441282,-0.008502889,0.013754225,-0.00709083,-0.022547159,0.019967288,-0.010922473,0.009747028,0.036209792,-0.015860865,-0.02869916,-0.041644312,0.039140768,0.072908081,-0.028485443,-0.030332569,0.019097153,0.004976557,0.04869698,0.002826028,0.01501363,0.003306891,0.000817659,0.030653145,-0.061153635,0.036789879,0.008327336,-0.038133245,0.003545415,-0.023722604,0.025844509,0.004247628,0.0114415,0.016639406,0.029905135,-0.004484244,-0.02360048,-0.030118853,0.008319703,-0.032057572,-0.02019627,-0.032454476,0.016990513,-0.005369643,0.036270853,-0.018608658,0.001625777,0.002432941,-0.02393632,-0.056604512,0.011632319,-0.008174681,0.022715079,-0.019875694,-0.009594373,-0.015303674,0.000835787,0.006274125,0.031508014,0.011288845,0.024363754,0.036270853,0.018975029,0.00955621,0.013723694,0.002856559,-0.003133246,0.027737433,-0.017356886,-0.011143822,-0.011723912,-0.008579217,0.018898701,4.90E-05,0.004717043,-0.026287209,0.034408461,-0.008716607,-0.006819867,-0.000695535,0.012609311,-0.006190164,0.00774343,0.020409988,0.009075346,-0.010075237,0.011487297,0.005892487,-0.02196707,-0.024913313,0.002938611,-0.034103151,-0.008434194,0.017494274,-0.015059426,-0.015647149,0.029401373,-0.020638971,0.024943843,-0.001178307,-0.02363101,-0.006079489,-0.028531238,0.011265947,0.012433758,0.006228328,0.001143959,0.014494603,-0.024836985,-0.010204994,0.025371278,0.106980696,-0.004468978,-0.004243812,0.004434631,0.022470832,-0.040026169,0.005873405,0.005629157,-0.039049175,0.001181169,0.002711536,0.028882345,0.02570712,-0.012479555,0.001662032,-0.025004907,-0.043415111,0.008174681,-0.011296478,0.012861192,0.010983535,-0.033309344,0.040850505,0.014509868,-0.025737651,-0.046376619,-0.003930869,-0.005262785,0.026363537,0.025890306,0.020104676,0.013838185,0.005487951,0.021753352,0.017402682,0.012288736,0.048086356,-0.04869698,0.013097808,-0.005835241,0.005266601,0.008922691,-0.008541053,0.009914949,0.005155926,-0.004484244,2.46E-05,0.004999455,-0.010502671,-0.005961182,0.004056809,0.003675172,0.011128557,0.003457638,0.004339221,-0.031202704,0.019204013,0.01562425,-0.002364246,-0.025493402,0.019677242,0.028867081,-0.015860865,-0.013197034,-0.000711277,-0.026561989,-0.002890906,0.045888126,-0.005598626,0.012555882,-0.020089412,0.015982989,0.014624359,-0.004968924,0.017219495,-0.001907235,0.01074692,0.013364955,0.033095628,-0.017143168,-0.002161978,-0.027691636,-0.015921928,-0.022944063,-0.034316868,-0.011472031,0.008617381,0.013929779,-0.016914185,0.023569949,-0.017311089,-0.012357431,0.011220151,0.008831098,0.018242285,-0.016502017,-0.027691636,-0.00257033,0.006243594,0.003867899,0.015486861,-0.010243158,0.027920619,-0.02570712,-0.002104732,-0.039018646,-0.032942973,0.028683893,-0.020074146,0.01025079,-0.030454693,0.002215407,0.011693381,-0.005281867,0.019646712,-0.013899247,0.027829025,-0.021875476,0.003182859,-0.027340529,-0.0154029,-0.013601569,-0.004484244,-0.0418275,0.043384582,-0.019967288,0.0382859,-0.008052557,0.02692836,-0.005175008,0.023096718,0.039690327,0.001725957,-0.011853669,-0.031202704,-0.000933104,0.004350671,0.00958674,-0.01218951,-0.012884091,-0.009647802,0.035446513,-0.04069785,-0.012548249,-0.005732199,-0.026165085,0.009838621,-0.012723803,-0.043964669,0.012067386,0.00620543,0.00162196,0.017021045,0.001571393,-0.01554029,0.048880164,0.004136954,0.024012648,-0.023402028,-0.01839494,-0.006796969,0.019417729,-0.028286992,-0.012052121,-0.014860975,0.012487188,-0.000337034,0.002230673,0.023661541,0.003173318,0.036484569,-0.008663177,-0.031446952,-0.009350125,-0.030927924,0.004671246,0.00315042,0.025111765,-0.042621303,-0.004491876,-0.026210882,-0.027325263,0.010716388,-0.020547377,0.013670265,0.013311525,0.001726911,0.007529713,-0.004217097,0.021997601,0.011945262,0.000591061,-0.015448697,-0.003888889,-0.016364627,-0.004274343,-0.004671246,-0.042468648,-0.013723694,0.027126811,-0.021066405,-0.016731,0.000481818,-0.003938502,0.024775924,-0.024226366,-0.013052012,0.00756406,-0.001707829,-0.004614001,-0.049032819,0.005083415,0.016211972,0.015067059,0.017601134,0.006422963,-0.016379893,0.01557082,0.022730345,0.009922582,-0.025676589,0.001128694,0.016608875,-0.026958892,-0.024470612,0.055322211,0.003843092,-0.008403664,0.00775488,-0.029401373,0.023951586,0.027691636,-0.014586195,-0.014891505,0.008899793,0.001598108,-0.005785629,-0.035751827,0.009289064,-0.011159088,0.016578345,-0.020409988,0.006434413,0.003995747,-0.039812453,0.01346418,0.009044815,-0.009128775,-0.016898921,0.020623704,-0.015372369,0.006907643,-0.002009323,0.016089847,0.034377929,-0.006090939,-0.002490186,-0.011922364,0.01642569,-0.021295387,-0.015532657,0.006216879,0.017830117,-0.005839058,-0.009357758,0.027615309,0.025539199,-0.02692836,0.027432123,0.012914622,-0.023127249,0.015876131,-0.023234107,0.03233235,0.003415658,-0.017769054,-0.000440553,0.029263984,0.013303893,-0.037553154,-0.023356231,0.008708973,0.009540944,-0.014822811,0.054986369,0.003345055,0.007655654,-0.024012648,-0.007308363,-0.013662632,0.003575946,-0.006671028,-0.028317522,-0.000360409,0.042102277,0.046651401,0.025462871,0.008014393,-0.000723204,0.019570384,-0.009426453,0.022592956,0.00333933,-0.010433977,-0.001075264,0.050773088,-0.014280885,0.035293858,-0.023921056,-0.041094754,0.026042961,0.00444608,0.011815505,0.01030422,0.014151128,-0.022699814,-0.029325046,0.028668629,-0.009663068,-0.028867081,-0.006724457,0.024272162,0.017158434,-0.019616181,-0.045949187,-0.000935967,-0.017921709,-0.024058444,-0.008922691,-0.023463089,-0.026943626,0.009373023,0.015860865,0.007266383,-0.000713663,0.001698288,0.002270745,0.002453931,0.009960745,0.014288518,0.015662413,-0.010273688,-0.006907643,0.002520717,-0.003364137,0.03706466,0.013395485,0.012212409,0.000455819,0.009548577,-0.006571802,-0.002301276,-0.005674954,-0.000915454,0.014548032,-0.006285574,0.016837858,0.007209137,-0.014593828,-0.019616181,-0.006266492,-0.011487297,0.016334096,0.023676807,-0.00786937,0.03008832,-0.00858685,0.000410022,0.000679315,0.013891615,0.012426126,-0.037492093,-0.007220586,-0.027355794,-0.006968705,-0.0109988,0.00603751,0.028103804,-0.038102712,-0.008220477,0.01642569,0.02706575,-0.028760221,-0.014364845,0.015242612,0.017769054,-0.051169991,0.007632755,-0.000415747
